{"learner":{"attributes":{"scikit_learn":"{\"_estimator_type\": \"classifier\"}"},"feature_names":["Unnamed: 0","admission_type","admission_location","discharge_location","insurance","language","marital_status","race","length_of_stay","diagnoses_seq_num","diagnoses_long_title","diagnoses_icd","procedures_seq_num","procedures_long_title","procedures_icd","note_type","note_seq","gender","anchor_age"],"feature_types":["int","int","int","int","int","int","int","int","int","float","int","int","float","int","int","int","int","int","int"],"gradient_booster":{"model":{"gbtree_model_param":{"num_parallel_tree":"1","num_trees":"100"},"iteration_indptr":[0,1,2,3,4,5,6,7,8,9,10,11,12,13,14,15,16,17,18,19,20,21,22,23,24,25,26,27,28,29,30,31,32,33,34,35,36,37,38,39,40,41,42,43,44,45,46,47,48,49,50,51,52,53,54,55,56,57,58,59,60,61,62,63,64,65,66,67,68,69,70,71,72,73,74,75,76,77,78,79,80,81,82,83,84,85,86,87,88,89,90,91,92,93,94,95,96,97,98,99,100],"tree_info":[0,0,0,0,0,0,0,0,0,0,0,0,0,0,0,0,0,0,0,0,0,0,0,0,0,0,0,0,0,0,0,0,0,0,0,0,0,0,0,0,0,0,0,0,0,0,0,0,0,0,0,0,0,0,0,0,0,0,0,0,0,0,0,0,0,0,0,0,0,0,0,0,0,0,0,0,0,0,0,0,0,0,0,0,0,0,0,0,0,0,0,0,0,0,0,0,0,0,0,0],"trees":[{"base_weights":[1.8460198E-1,2.1681003E-1,-1.8426253E0,4.4156423E-1,-4.250979E-2,-9.253056E-1,-2.4997754E0,2.7872434E-1,7.4614024E-1,9.7240573E-1,-8.552214E-2,-1.8103497E0,-1.22925974E-1,-2.6040368E0,-1.4362104E-1,4.9733856E-1,1.6898276E-1,9.3534076E-1,5.475469E-1,1.0261072E0,7.6198643E-1,-5.7574934E-1,-2.690183E-2,-2.5697844E0,-1.3127614E0,3.1153825E-1,-7.015683E-1,-2.214813E0,-2.8700507E0,-1.3647121E0,1.3738887E-1,3.6655903E-1,6.6818154E-1,4.321066E-1,7.724125E-2,7.251503E-1,1.0406569E0,6.1319077E-1,2.5516972E-1,7.763675E-1,1.0551667E0,7.7750003E-1,-1.8768953E-1,-9.2931837E-1,-2.2175744E-1,1.2504819E-1,-1.5371722E-1,6.8746006E-1,-2.9199631E0,-9.019261E-1,-1.6188445E0,4.0985128E-1,-1.316584E0,-1.9983197E0,1.7538145E-1,-1.7745197E0,-2.6171288E0,-2.9281056E0,-1.0007474E0,5.4326866E-2,-6.7428505E-1,-3.4088618E-1,3.9072737E-1,2.8964862E-1,1.00698434E-1,1.2066406E-1,2.3850037E-1,9.619026E-2,2.363377E-1,-1.5235196E-1,4.9571797E-2,2.2098571E-1,3.4390748E-2,3.2535562E-1,1.4118266E-1,1.6738258E-1,2.1077082E-1,3.476553E-1,6.271361E-2,2.4655609E-1,-9.340777E-2,9.704126E-2,3.1871757E-1,2.5839385E-1,1.6457663E-1,-1.5580517E-1,-8.28926E-1,-1.5967213E-1,5.7506043E-2,3.1471055E-3,1.082428E-1,-8.363847E-2,1.3301472E-2,-9.139551E-2,2.996316E-1,-1.5129519E-1,-9.065657E-1,-1.7856078E-1,-5.0923026E-1,-2.1116582E-1,-5.221871E-1,2.0009376E-1,-1.5745776E-2,-5.7271975E-1,-1.20713204E-1,2.9292054E-2,-8.9626366E-1,1.6221276E-1,-1.2951176E-1,-5.5669653E-1,-1.0305022E-1,-8.22694E-1,-2.7390173E-1,-8.9254E-1,-9.432246E-2,-4.1023144E-1,1.03301965E-1,-1.5129519E-1,1.810904E-1],"categories":[],"categories_nodes":[],"categories_segments":[],"categories_sizes":[],"default_left":[0,0,0,0,0,0,0,0,0,0,0,0,0,0,0,0,0,0,0,0,0,0,0,0,0,0,0,0,0,0,0,0,0,0,0,0,0,0,0,0,0,0,0,0,0,0,0,0,0,0,0,0,0,0,0,0,0,0,0,0,0,0,0,0,0,0,0,0,0,0,0,0,0,0,0,0,0,0,0,0,0,0,0,0,0,0,0,0,0,0,0,0,0,0,0,0,0,0,0,0,0,0,0,0,0,0,0,0,0,0,0,0,0,0,0,0,0,0,0],"id":0,"left_children":[1,3,5,7,9,11,13,15,17,19,21,23,25,27,29,31,33,35,37,39,41,43,45,47,49,51,53,55,57,59,61,63,65,67,69,71,73,75,77,79,81,83,-1,85,87,89,91,93,95,97,99,101,103,105,107,109,111,113,115,-1,-1,-1,117,-1,-1,-1,-1,-1,-1,-1,-1,-1,-1,-1,-1,-1,-1,-1,-1,-1,-1,-1,-1,-1,-1,-1,-1,-1,-1,-1,-1,-1,-1,-1,-1,-1,-1,-1,-1,-1,-1,-1,-1,-1,-1,-1,-1,-1,-1,-1,-1,-1,-1,-1,-1,-1,-1,-1,-1],"loss_changes":[2.5603975E3,2.2494912E3,3.6738647E2,1.0252532E3,7.823921E2,1.8268181E2,8.725806E1,3.2317896E2,2.7011548E2,7.4521484E0,4.9406506E2,4.287921E1,3.4449577E1,2.9007324E1,5.7377076E0,1.0036023E2,2.1655728E2,8.086377E1,6.733386E1,3.3729248E0,3.75943E0,2.296228E2,2.95957E2,5.6080353E1,8.095886E0,1.3098709E1,6.710289E1,2.0694214E1,1.8720703E1,4.661659E0,4.9799013E0,4.6914734E1,6.549225E1,9.170947E1,3.4267728E2,8.556091E0,6.084839E1,1.3785156E1,2.6703289E1,3.4220505E0,2.3770752E0,2.420845E0,0E0,6.889838E2,1.18058945E2,1.8870496E2,2.0739836E2,1.9755876E0,9.06189E0,7.4570694E0,3.4868317E0,8.922073E0,1.7805634E0,4.95598E1,8.2038355E0,7.6530304E0,1.299231E1,2.278479E1,4.184255E0,0E0,0E0,0E0,2.6806014E0,0E0,0E0,0E0,0E0,0E0,0E0,0E0,0E0,0E0,0E0,0E0,0E0,0E0,0E0,0E0,0E0,0E0,0E0,0E0,0E0,0E0,0E0,0E0,0E0,0E0,0E0,0E0,0E0,0E0,0E0,0E0,0E0,0E0,0E0,0E0,0E0,0E0,0E0,0E0,0E0,0E0,0E0,0E0,0E0,0E0,0E0,0E0,0E0,0E0,0E0,0E0,0E0,0E0,0E0,0E0,0E0],"parents":[2147483647,0,0,1,1,2,2,3,3,4,4,5,5,6,6,7,7,8,8,9,9,10,10,11,11,12,12,13,13,14,14,15,15,16,16,17,17,18,18,19,19,20,20,21,21,22,22,23,23,24,24,25,25,26,26,27,27,28,28,29,29,30,30,31,31,32,32,33,33,34,34,35,35,36,36,37,37,38,38,39,39,40,40,41,41,43,43,44,44,45,45,46,46,47,47,48,48,49,49,50,50,51,51,52,52,53,53,54,54,55,55,56,56,57,57,58,58,62,62],"right_children":[2,4,6,8,10,12,14,16,18,20,22,24,26,28,30,32,34,36,38,40,42,44,46,48,50,52,54,56,58,60,62,64,66,68,70,72,74,76,78,80,82,84,-1,86,88,90,92,94,96,98,100,102,104,106,108,110,112,114,116,-1,-1,-1,118,-1,-1,-1,-1,-1,-1,-1,-1,-1,-1,-1,-1,-1,-1,-1,-1,-1,-1,-1,-1,-1,-1,-1,-1,-1,-1,-1,-1,-1,-1,-1,-1,-1,-1,-1,-1,-1,-1,-1,-1,-1,-1,-1,-1,-1,-1,-1,-1,-1,-1,-1,-1,-1,-1,-1,-1],"split_conditions":[2.63923E5,5E0,1.10923E5,7E0,1E0,7.2994E4,8E0,2E0,4E0,2.8E1,4E0,9.8034E4,8.9082E4,4E0,9.3764E4,4E0,4.0414E4,8E0,8E0,2.4E1,2.75597E5,6.1023E4,8E0,3.549E3,6E0,1.4E1,2.67104E5,5E0,1.8E1,2E1,3.4875E4,1E0,4E0,9.0391E4,5.2261E4,1.02592E5,8E0,8.7471E4,1E0,1.09914E5,3E0,2.07276E5,-1.8768953E-1,5.8853E4,2E0,7E0,9E0,6.6438E4,3E0,1.70025E5,2.8E1,6.3E1,1.9E1,9.2724E4,7E0,4E0,4E0,2.70148E5,3E0,5.4326866E-2,-6.7428505E-1,-3.4088618E-1,1.1E1,2.8964862E-1,1.00698434E-1,1.2066406E-1,2.3850037E-1,9.619026E-2,2.363377E-1,-1.5235196E-1,4.9571797E-2,2.2098571E-1,3.4390748E-2,3.2535562E-1,1.4118266E-1,1.6738258E-1,2.1077082E-1,3.476553E-1,6.271361E-2,2.4655609E-1,-9.340777E-2,9.704126E-2,3.1871757E-1,2.5839385E-1,1.6457663E-1,-1.5580517E-1,-8.28926E-1,-1.5967213E-1,5.7506043E-2,3.1471055E-3,1.082428E-1,-8.363847E-2,1.3301472E-2,-9.139551E-2,2.996316E-1,-1.5129519E-1,-9.065657E-1,-1.7856078E-1,-5.0923026E-1,-2.1116582E-1,-5.221871E-1,2.0009376E-1,-1.5745776E-2,-5.7271975E-1,-1.20713204E-1,2.9292054E-2,-8.9626366E-1,1.6221276E-1,-1.2951176E-1,-5.5669653E-1,-1.0305022E-1,-8.22694E-1,-2.7390173E-1,-8.9254E-1,-9.432246E-2,-4.1023144E-1,1.03301965E-1,-1.5129519E-1,1.810904E-1],"split_indices":[11,8,14,1,6,14,2,8,18,7,1,10,14,8,10,4,14,1,2,7,0,13,8,13,8,8,11,4,8,7,0,4,1,13,14,14,2,13,6,13,2,0,0,13,1,1,3,0,8,10,7,16,18,10,2,6,1,0,6,0,0,0,7,0,0,0,0,0,0,0,0,0,0,0,0,0,0,0,0,0,0,0,0,0,0,0,0,0,0,0,0,0,0,0,0,0,0,0,0,0,0,0,0,0,0,0,0,0,0,0,0,0,0,0,0,0,0,0,0],"split_type":[0,0,0,0,0,0,0,0,0,0,0,0,0,0,0,0,0,0,0,0,0,0,0,0,0,0,0,0,0,0,0,0,0,0,0,0,0,0,0,0,0,0,0,0,0,0,0,0,0,0,0,0,0,0,0,0,0,0,0,0,0,0,0,0,0,0,0,0,0,0,0,0,0,0,0,0,0,0,0,0,0,0,0,0,0,0,0,0,0,0,0,0,0,0,0,0,0,0,0,0,0,0,0,0,0,0,0,0,0,0,0,0,0,0,0,0,0,0,0],"sum_hessian":[3.9206824E4,3.859454E4,6.122868E2,2.0674826E4,1.7919713E4,2.5656052E2,3.557263E2,1.347331E4,7.2015166E3,7.276861E2,1.7192025E4,1.2139866E2,1.3516188E2,3.4055145E2,1.5174832E1,4.501808E3,8.971502E3,3.6860725E3,3.5154438E3,5.766436E2,1.5104251E2,1.8352725E3,1.5356754E4,4.6406754E1,7.4991905E1,7.746223E1,5.769965E1,1.4204349E2,1.9850798E2,2.1174183E0,1.3057413E1,2.5516655E3,1.9501423E3,2.3183967E3,6.653105E3,1.2330433E3,2.4530293E3,2.8699841E3,6.454597E2,6.29932E1,5.136504E2,1.4980736E2,1.2351607E0,9.173715E2,9.179009E2,6.9860693E3,8.370685E3,4.4112883E0,4.1995464E1,3.3702244E1,4.1289658E1,7.3756744E1,3.7054822E0,2.2762247E1,3.4937405E1,7.040416E1,7.163932E1,1.9197926E2,6.5287066E0,1.0587091E0,1.0587091E0,1.5880638E0,1.146935E1,1.2369253E2,2.4279731E3,6.3099066E2,1.3191516E3,1.7666328E3,5.51764E2,8.6920026E2,5.783905E3,1.2101046E3,2.29387E1,2.2769307E3,1.7609863E2,1.778102E3,1.0918821E3,3.0173212E1,6.152865E2,6.069933E1,2.29387E0,5.4699974E0,5.0818042E2,1.0763544E2,4.2171917E1,7.508013E2,1.6657025E2,5.2406104E2,3.938398E2,4.702257E3,2.2838123E3,5.130328E3,3.240356E3,1.0587091E0,3.352579E0,1.9409668E0,4.0054497E1,2.5585472E1,8.116771E0,5.646449E0,3.564321E1,4.711256E1,2.6644182E1,1.5880638E0,2.1174183E0,7.587416E0,1.5174832E1,2.187999E1,1.3057413E1,6.634578E1,4.0583854E0,6.616933E1,5.4699974E0,1.8845024E2,3.5290308E0,5.1170945E0,1.4116123E0,1.9409668E0,9.528383E0],"tree_param":{"num_deleted":"0","num_feature":"19","num_nodes":"119","size_leaf_vector":"1"}},{"base_weights":[1.4131714E-1,3.6417237E-1,-9.327684E-3,2.3602466E-1,6.373691E-1,-4.8934183E-1,5.91331E-2,2.7237478E-1,-5.430856E-1,8.040371E-1,4.5831007E-1,-7.689414E-1,-8.331026E-2,8.647026E-1,3.0963045E-2,3.3688432E-1,-1.1606666E-2,-1.3511151E-1,-1.0787617E0,6.073508E-1,9.221686E-1,4.8084602E-1,-1.944935E-1,-1.9186334E-1,-1.3299936E0,-3.9046116E-2,-9.3661815E-1,9.26666E-1,6.3450176E-1,2.0799948E-1,-6.1574552E-2,2.283685E-1,4.8642346E-1,-1.1003591E-1,3.5291138E-1,-3.1803352E-1,2.599225E-1,-1.1445057E0,3.3724323E-2,7.490199E-1,5.5177975E-1,9.7019225E-1,3.9584973E-1,5.2316093E-1,2.6778564E-1,-1.2960303E-1,-5.4941165E-1,2.4413327E-2,-6.597267E-1,-1.5019836E0,-5.610853E-1,-1.7270486E-1,1.742761E-1,-1.1700492E0,4.200226E-1,9.315103E-1,-1.5240046E-1,7.23956E-1,3.6337316E-1,6.007109E-2,4.5174164E-1,1.5248748E-2,-1.8648532E-1,9.111454E-2,7.306983E-3,6.150431E-2,1.7547573E-1,6.653481E-3,-1.06052466E-1,1.4145446E-2,1.6814959E-1,2.1841148E-2,-1.6754775E-1,-2.775902E-1,9.137837E-2,-4.2103004E-1,-2.465093E-1,-2.8038463E-1,1.21637575E-1,2.4927138E-1,8.335736E-2,1.4153935E-1,2.1139318E-1,-3.433127E-1,2.9257265E-1,1.4037567E-1,-1.21293314E-1,3.5369363E-2,1.625589E-1,1.89701E-1,4.0724482E-2,-2.150154E-1,1.2170729E-2,-4.5140207E-2,9.814782E-2,-1.00208454E-1,-2.8716686E-1,-5.831005E-1,-3.9497784E-1,-2.0022969E-1,9.399641E-2,-3.7781972E-2,-3.098369E-1,1.230734E-1,-1.7170431E-2,-2.2553197E-1,-4.784935E-1,-2.814467E-1,2.327822E-1,2.9907832E-1,2.477606E-1,2.229277E-1,-1.2789488E-1,5.4058596E-2,2.923784E-1,4.236562E-2,-3.0963121E-2,2.2557972E-1,8.0760755E-2,-7.358455E-2,1.8132975E-2,-9.2616245E-2,-1.8836412E-3],"categories":[],"categories_nodes":[],"categories_segments":[],"categories_sizes":[],"default_left":[0,0,0,0,0,0,0,0,0,0,0,0,0,0,0,0,0,0,0,0,0,0,0,0,0,0,0,0,0,0,0,0,0,0,0,0,0,0,0,0,0,0,0,0,0,0,0,0,0,0,0,0,0,0,0,0,0,0,0,0,0,0,0,0,0,0,0,0,0,0,0,0,0,0,0,0,0,0,0,0,0,0,0,0,0,0,0,0,0,0,0,0,0,0,0,0,0,0,0,0,0,0,0,0,0,0,0,0,0,0,0,0,0,0,0,0,0,0,0,0,0,0,0],"id":1,"left_children":[1,3,5,7,9,11,13,15,17,19,21,23,25,27,29,31,33,35,37,39,41,43,45,47,49,51,53,55,57,59,61,63,65,67,69,71,73,75,77,79,81,83,85,87,89,91,-1,93,95,97,99,101,103,105,107,109,-1,111,113,115,117,119,121,-1,-1,-1,-1,-1,-1,-1,-1,-1,-1,-1,-1,-1,-1,-1,-1,-1,-1,-1,-1,-1,-1,-1,-1,-1,-1,-1,-1,-1,-1,-1,-1,-1,-1,-1,-1,-1,-1,-1,-1,-1,-1,-1,-1,-1,-1,-1,-1,-1,-1,-1,-1,-1,-1,-1,-1,-1,-1,-1,-1],"loss_changes":[1.2747722E3,5.360226E2,7.445913E2,2.9543707E2,1.4554932E2,3.2100842E2,4.4997345E2,1.8251202E2,1.0150079E2,5.824768E1,3.4804382E1,5.419736E2,4.3568077E1,8.968414E0,3.139183E2,1.3162848E2,6.6240875E1,1.9244003E1,1.4735352E1,7.0867615E0,3.953528E1,2.0424438E1,8.201205E0,8.367244E1,1.11431274E2,3.1352676E1,1.8507061E1,4.126892E0,3.2600594E0,2.3714056E2,1.2076256E2,7.233688E1,9.44801E1,4.6799774E1,2.488881E1,1.7116358E1,4.754552E0,1.470752E1,4.7646656E0,1.0016556E1,8.079956E0,1.6563477E1,7.901968E0,1.4351685E1,1.820526E1,7.771404E0,0E0,3.0034266E1,2.5007713E1,5.4203247E1,1.4788692E1,2.7055536E1,2.3168194E1,7.4747543E0,5.1208067E0,2.7999268E0,0E0,2.6988602E0,4.083943E0,5.4266903E1,1.3592029E2,9.177321E1,1.05562485E2,0E0,0E0,0E0,0E0,0E0,0E0,0E0,0E0,0E0,0E0,0E0,0E0,0E0,0E0,0E0,0E0,0E0,0E0,0E0,0E0,0E0,0E0,0E0,0E0,0E0,0E0,0E0,0E0,0E0,0E0,0E0,0E0,0E0,0E0,0E0,0E0,0E0,0E0,0E0,0E0,0E0,0E0,0E0,0E0,0E0,0E0,0E0,0E0,0E0,0E0,0E0,0E0,0E0,0E0,0E0,0E0,0E0,0E0,0E0,0E0],"parents":[2147483647,0,0,1,1,2,2,3,3,4,4,5,5,6,6,7,7,8,8,9,9,10,10,11,11,12,12,13,13,14,14,15,15,16,16,17,17,18,18,19,19,20,20,21,21,22,22,23,23,24,24,25,25,26,26,27,27,28,28,29,29,30,30,31,31,32,32,33,33,34,34,35,35,36,36,37,37,38,38,39,39,40,40,41,41,42,42,43,43,44,44,45,45,47,47,48,48,49,49,50,50,51,51,52,52,53,53,54,54,55,55,57,57,58,58,59,59,60,60,61,61,62,62],"right_children":[2,4,6,8,10,12,14,16,18,20,22,24,26,28,30,32,34,36,38,40,42,44,46,48,50,52,54,56,58,60,62,64,66,68,70,72,74,76,78,80,82,84,86,88,90,92,-1,94,96,98,100,102,104,106,108,110,-1,112,114,116,118,120,122,-1,-1,-1,-1,-1,-1,-1,-1,-1,-1,-1,-1,-1,-1,-1,-1,-1,-1,-1,-1,-1,-1,-1,-1,-1,-1,-1,-1,-1,-1,-1,-1,-1,-1,-1,-1,-1,-1,-1,-1,-1,-1,-1,-1,-1,-1,-1,-1,-1,-1,-1,-1,-1,-1,-1,-1,-1,-1,-1,-1],"split_conditions":[4E0,7E0,4E0,1.10146E5,4E0,1.20301E5,1E0,8E0,2.60742E5,8E0,1.03912E5,9.1784E4,1.08339E5,2.8E1,6E0,4E0,8.685E4,1.11598E5,8E0,2.8E1,8E0,9E0,1.44E2,1E1,9.908E4,3E0,1.1E2,2.60742E5,1.3E1,7E0,5.1E1,6.3E1,4E0,6.3E1,4E0,2E0,1.34392E5,3E0,3.3E1,8E0,1.68066E5,1E0,4E0,2.7545E4,2.8E1,2E0,-5.4941165E-1,3E0,7.1879E4,1.16331E5,6E1,1.09636E5,7E0,3E0,1.40412E5,7E0,-1.5240046E-1,2.61798E5,2.27365E5,6.3E1,1E0,2.0478E4,1.1E2,9.111454E-2,7.306983E-3,6.150431E-2,1.7547573E-1,6.653481E-3,-1.06052466E-1,1.4145446E-2,1.6814959E-1,2.1841148E-2,-1.6754775E-1,-2.775902E-1,9.137837E-2,-4.2103004E-1,-2.465093E-1,-2.8038463E-1,1.21637575E-1,2.4927138E-1,8.335736E-2,1.4153935E-1,2.1139318E-1,-3.433127E-1,2.9257265E-1,1.4037567E-1,-1.21293314E-1,3.5369363E-2,1.625589E-1,1.89701E-1,4.0724482E-2,-2.150154E-1,1.2170729E-2,-4.5140207E-2,9.814782E-2,-1.00208454E-1,-2.8716686E-1,-5.831005E-1,-3.9497784E-1,-2.0022969E-1,9.399641E-2,-3.7781972E-2,-3.098369E-1,1.230734E-1,-1.7170431E-2,-2.2553197E-1,-4.784935E-1,-2.814467E-1,2.327822E-1,2.9907832E-1,2.477606E-1,2.229277E-1,-1.2789488E-1,5.4058596E-2,2.923784E-1,4.236562E-2,-3.0963121E-2,2.2557972E-1,8.0760755E-2,-7.358455E-2,1.8132975E-2,-9.2616245E-2,-1.8836412E-3],"split_indices":[8,1,1,14,18,10,6,3,11,1,14,10,14,7,8,4,13,14,2,7,2,2,16,8,10,1,16,11,8,1,16,16,1,16,2,8,11,1,18,3,10,8,6,10,7,8,0,1,14,11,18,13,8,4,10,1,0,11,10,16,15,11,16,0,0,0,0,0,0,0,0,0,0,0,0,0,0,0,0,0,0,0,0,0,0,0,0,0,0,0,0,0,0,0,0,0,0,0,0,0,0,0,0,0,0,0,0,0,0,0,0,0,0,0,0,0,0,0,0,0,0,0,0],"split_type":[0,0,0,0,0,0,0,0,0,0,0,0,0,0,0,0,0,0,0,0,0,0,0,0,0,0,0,0,0,0,0,0,0,0,0,0,0,0,0,0,0,0,0,0,0,0,0,0,0,0,0,0,0,0,0,0,0,0,0,0,0,0,0,0,0,0,0,0,0,0,0,0,0,0,0,0,0,0,0,0,0,0,0,0,0,0,0,0,0,0,0,0,0,0,0,0,0,0,0,0,0,0,0,0,0,0,0,0,0,0,0,0,0,0,0,0,0,0,0,0,0,0,0],"sum_hessian":[3.79702E4,1.5314057E4,2.2656145E4,1.0425607E4,4.888449E3,2.8271785E3,1.9828965E4,9.961495E3,4.6411227E2,2.5300193E3,2.3584302E3,1.6737291E3,1.1534493E3,6.689698E2,1.9159996E4,8.11736E3,1.8441351E3,2.6417062E2,1.9994168E2,9.516631E2,1.5783562E3,2.2799844E3,7.844576E1,8.257424E2,8.4798676E2,1.0975607E3,5.5888657E1,5.2470807E2,1.4426178E2,6.576689E3,1.2583307E4,4.7053574E3,3.4120022E3,1.4525952E3,3.9153995E2,1.8069434E2,8.347628E1,1.8875795E2,1.1183732E1,2.646089E2,6.870542E2,1.4456091E3,1.3274713E2,1.9009834E3,3.790009E2,7.649255E1,1.9532036E0,5.6534924E2,2.6039316E2,6.9220123E2,1.5578554E2,6.748921E2,4.2266864E2,4.780125E1,8.087406E0,5.232918E2,1.4162364E0,1.0721715E2,3.7044624E1,4.0935427E3,2.483146E3,7.7919424E3,4.7913647E3,3.4359045E3,1.2694531E3,8.854085E2,2.5265938E3,9.419769E2,5.1061832E2,1.5882709E2,2.3271284E2,6.909153E1,1.116028E2,2.315992E0,8.1160286E1,1.0288515E2,8.5872795E1,2.682311E0,8.501422E0,2.247802E2,3.9828693E1,4.5373593E2,2.3331825E2,2.9065742E0,1.4427025E3,1.2215964E2,1.0587501E1,8.417872E1,1.8168047E3,9.976467E1,2.792362E2,1.6467144E1,6.0025414E1,3.586682E2,2.0668102E2,1.2531798E2,1.3507518E2,2.0184105E2,4.903602E2,1.3910413E2,1.6681398E1,6.4117615E2,3.3715916E1,2.089368E2,2.1373184E2,2.5484716E1,2.2316534E1,1.3396076E0,6.747799E0,3.1796133E2,2.0533047E2,1.0581084E2,1.4063165E0,2.9498877E1,7.5457487E0,2.734624E3,1.3589187E3,9.3779553E2,1.5453505E3,1.151207E3,6.6407354E3,2.8544536E3,1.936911E3],"tree_param":{"num_deleted":"0","num_feature":"19","num_nodes":"123","size_leaf_vector":"1"}},{"base_weights":[1.0661516E-1,2.0756172E-2,3.3155963E-1,2.3257075E-1,-5.5531044E-2,5.8213454E-1,1.806488E-1,2.667276E-1,-2.533693E-1,7.9134554E-1,-7.509174E-2,2.5694504E-1,6.895566E-1,3.2570988E-1,4.9728878E-2,1.7207672E-1,4.1463882E-1,-1.2173189E-1,-1.1625874E0,8.776201E-1,5.023688E-1,-5.374006E-2,-7.233789E-1,4.3212846E-1,4.202582E-2,4.4686553E-1,7.853343E-1,3.4931695E-1,-3.0887455E-1,1.7078654E-1,-1.437495E-1,9.531266E-1,1.5634796E-1,3.0771407E-1,6.0259825E-1,1.0410454E0,-1.6839874E-1,-1.3272564E0,-5.51127E-1,8.972049E-1,-9.007982E-2,6.760908E-1,1.5011476E-1,-1.183514E-1,1.2443657E-1,-8.4142286E-1,4.3168277E-2,4.6107963E-1,-9.9001575E-1,7.861571E-1,-2.5591265E-2,7.748365E-2,4.7503015E-1,8.453066E-1,2.4747081E-1,3.9259425E-1,1.5656477E-1,-6.5996194E-1,1.1149245E-1,-1.1811078E-1,2.2888465E-1,-3.7425345E-1,1.272956E-1,-3.9077222E-2,2.9828125E-1,-1.6085353E-2,6.195542E-2,1.0221008E-1,-1.08260445E-1,1.0931092E-1,2.2623518E-1,3.4597415E-1,6.144318E-2,-6.943679E-2,1.380402E-1,9.825264E-2,-4.2038354E-1,-2.9135576E-1,3.5445254E-2,2.7934143E-1,1.7517628E-1,-3.078628E-1,1.7046213E-1,2.8140923E-1,1.5083775E-1,-4.2712915E-1,8.14875E-2,-2.064506E-2,-1.0656863E-1,2.7033782E-1,7.608657E-3,1.0198974E-1,-2.6457816E-1,9.063688E-2,-1.6918206E-1,2.8007814E-1,1.2317995E-1,-4.4788423E-1,1.1277577E-1,-3.2242633E-2,2.615195E-1,1.05237745E-1,-5.147981E-2,-3.7586644E-2,2.0139359E-1,1.8210402E-1,1.2030526E-1,-3.6122996E-1,2.5458702E-1,1.25888E-1,-6.949621E-2,1.670841E-1,1.07185036E-1,2.906972E-1,3.719734E-2,-1.0058842E-1,-3.7004074E-1,-3.118746E-2,1.7938128E-1,-7.114835E-3,-2.992756E-1,1.424769E-1,5.10923E-2,-9.385585E-2,-4.1768202E-1,6.5593146E-2,-2.8492403E-1],"categories":[],"categories_nodes":[],"categories_segments":[],"categories_sizes":[],"default_left":[0,0,0,0,0,0,0,0,0,0,0,0,0,0,0,0,0,0,0,0,0,0,0,0,0,0,0,0,0,0,0,0,0,0,0,0,0,0,0,0,0,0,0,0,0,0,0,0,0,0,0,0,0,0,0,0,0,0,0,0,0,0,0,0,0,0,0,0,0,0,0,0,0,0,0,0,0,0,0,0,0,0,0,0,0,0,0,0,0,0,0,0,0,0,0,0,0,0,0,0,0,0,0,0,0,0,0,0,0,0,0,0,0,0,0,0,0,0,0,0,0,0,0,0,0,0,0],"id":2,"left_children":[1,3,5,7,9,11,13,15,17,19,21,23,25,27,29,31,33,35,37,39,41,43,45,47,49,51,53,55,57,59,61,63,65,67,69,71,73,75,77,79,81,83,85,87,89,91,93,95,97,99,101,103,105,107,109,111,113,115,117,119,121,123,125,-1,-1,-1,-1,-1,-1,-1,-1,-1,-1,-1,-1,-1,-1,-1,-1,-1,-1,-1,-1,-1,-1,-1,-1,-1,-1,-1,-1,-1,-1,-1,-1,-1,-1,-1,-1,-1,-1,-1,-1,-1,-1,-1,-1,-1,-1,-1,-1,-1,-1,-1,-1,-1,-1,-1,-1,-1,-1,-1,-1,-1,-1,-1,-1],"loss_changes":[7.1120514E2,4.3069083E2,3.8456934E2,1.1721231E2,3.2468082E2,1.3337915E2,1.20586945E2,9.225357E1,5.5395622E1,1.0591003E1,2.651015E2,3.5785427E1,6.64375E1,4.523462E1,7.823268E1,4.9273964E1,5.151776E1,2.2230663E1,5.1656113E0,6.5135803E0,6.2671547E0,2.135099E2,5.5294098E1,2.2022774E1,2.1562988E1,8.446121E0,6.62052E1,2.4169403E1,1.6097328E1,3.4508945E1,8.037295E1,3.660759E0,4.1565964E1,3.6331863E1,3.33591E1,1.2483635E0,1.562815E1,6.023796E0,4.0889535E0,2.993927E0,5.2923064E0,2.6793098E0,7.206244E0,1.5967378E2,3.7978314E2,2.5624298E1,1.3131484E1,1.1877556E1,7.958686E0,2.8234196E0,2.168259E1,7.183864E0,7.155472E0,1.3610596E1,1.7250278E1,1.3563782E1,1.40185E1,1.0629129E1,5.330353E0,2.8586926E1,2.4575073E1,4.3010292E1,5.8415077E1,0E0,0E0,0E0,0E0,0E0,0E0,0E0,0E0,0E0,0E0,0E0,0E0,0E0,0E0,0E0,0E0,0E0,0E0,0E0,0E0,0E0,0E0,0E0,0E0,0E0,0E0,0E0,0E0,0E0,0E0,0E0,0E0,0E0,0E0,0E0,0E0,0E0,0E0,0E0,0E0,0E0,0E0,0E0,0E0,0E0,0E0,0E0,0E0,0E0,0E0,0E0,0E0,0E0,0E0,0E0,0E0,0E0,0E0,0E0,0E0,0E0,0E0,0E0,0E0],"parents":[2147483647,0,0,1,1,2,2,3,3,4,4,5,5,6,6,7,7,8,8,9,9,10,10,11,11,12,12,13,13,14,14,15,15,16,16,17,17,18,18,19,19,20,20,21,21,22,22,23,23,24,24,25,25,26,26,27,27,28,28,29,29,30,30,31,31,32,32,33,33,34,34,35,35,36,36,37,37,38,38,39,39,40,40,41,41,42,42,43,43,44,44,45,45,46,46,47,47,48,48,49,49,50,50,51,51,52,52,53,53,54,54,55,55,56,56,57,57,58,58,59,59,60,60,61,61,62,62],"right_children":[2,4,6,8,10,12,14,16,18,20,22,24,26,28,30,32,34,36,38,40,42,44,46,48,50,52,54,56,58,60,62,64,66,68,70,72,74,76,78,80,82,84,86,88,90,92,94,96,98,100,102,104,106,108,110,112,114,116,118,120,122,124,126,-1,-1,-1,-1,-1,-1,-1,-1,-1,-1,-1,-1,-1,-1,-1,-1,-1,-1,-1,-1,-1,-1,-1,-1,-1,-1,-1,-1,-1,-1,-1,-1,-1,-1,-1,-1,-1,-1,-1,-1,-1,-1,-1,-1,-1,-1,-1,-1,-1,-1,-1,-1,-1,-1,-1,-1,-1,-1,-1,-1,-1,-1,-1,-1],"split_conditions":[7E0,3E0,4E0,1.07733E5,1E0,7.3405E4,5E0,4E0,2.66006E5,2.8E1,1.10923E5,1.9996E4,8E0,1.04832E5,7.1183E4,1E0,9.0037E4,1E0,2E0,2.73408E5,2.07276E5,9E0,1.11598E5,6.2552E4,1E0,3.7116E4,8E0,9E0,9.908E4,2.2593E4,9.0037E4,9.82E3,8E0,1.07432E5,2.20931E5,1.10696E5,8E0,2E0,3E0,1.3E1,8E0,8.0967E4,2.09424E5,1.2E1,1.2E1,5.1104E4,1.68446E5,1E0,1.8689E5,5E0,4E0,7.4485E4,3.9931E4,2.8877E4,7.2347E4,2E0,1E0,4E0,2.13334E5,2.6E1,8.343E3,2.8E1,1.10923E5,-3.9077222E-2,2.9828125E-1,-1.6085353E-2,6.195542E-2,1.0221008E-1,-1.08260445E-1,1.0931092E-1,2.2623518E-1,3.4597415E-1,6.144318E-2,-6.943679E-2,1.380402E-1,9.825264E-2,-4.2038354E-1,-2.9135576E-1,3.5445254E-2,2.7934143E-1,1.7517628E-1,-3.078628E-1,1.7046213E-1,2.8140923E-1,1.5083775E-1,-4.2712915E-1,8.14875E-2,-2.064506E-2,-1.0656863E-1,2.7033782E-1,7.608657E-3,1.0198974E-1,-2.6457816E-1,9.063688E-2,-1.6918206E-1,2.8007814E-1,1.2317995E-1,-4.4788423E-1,1.1277577E-1,-3.2242633E-2,2.615195E-1,1.05237745E-1,-5.147981E-2,-3.7586644E-2,2.0139359E-1,1.8210402E-1,1.2030526E-1,-3.6122996E-1,2.5458702E-1,1.25888E-1,-6.949621E-2,1.670841E-1,1.07185036E-1,2.906972E-1,3.719734E-2,-1.0058842E-1,-3.7004074E-1,-3.118746E-2,1.7938128E-1,-7.114835E-3,-2.992756E-1,1.424769E-1,5.10923E-2,-9.385585E-2,-4.1768202E-1,6.5593146E-2,-2.8492403E-1],"split_indices":[1,8,18,14,6,11,8,4,11,7,14,14,1,14,14,6,14,6,8,0,0,3,14,11,6,10,2,2,10,11,14,13,7,13,11,14,2,6,6,5,3,11,0,8,3,13,11,6,10,3,8,14,14,14,14,8,6,8,11,8,13,8,14,0,0,0,0,0,0,0,0,0,0,0,0,0,0,0,0,0,0,0,0,0,0,0,0,0,0,0,0,0,0,0,0,0,0,0,0,0,0,0,0,0,0,0,0,0,0,0,0,0,0,0,0,0,0,0,0,0,0,0,0,0,0,0,0],"split_type":[0,0,0,0,0,0,0,0,0,0,0,0,0,0,0,0,0,0,0,0,0,0,0,0,0,0,0,0,0,0,0,0,0,0,0,0,0,0,0,0,0,0,0,0,0,0,0,0,0,0,0,0,0,0,0,0,0,0,0,0,0,0,0,0,0,0,0,0,0,0,0,0,0,0,0,0,0,0,0,0,0,0,0,0,0,0,0,0,0,0,0,0,0,0,0,0,0,0,0,0,0,0,0,0,0,0,0,0,0,0,0,0,0,0,0,0,0,0,0,0,0,0,0,0,0,0,0],"sum_hessian":[3.6823605E4,2.665193E4,1.0171677E4,7.0566904E3,1.9595238E4,3.8222646E3,6.3494116E3,6.593671E3,4.6301947E2,4.4149152E2,1.9153748E4,9.4995154E2,2.8723132E3,3.011329E3,3.3380825E3,4.0220542E3,2.5716167E3,4.054517E2,5.756777E1,3.384189E2,1.03072624E2,1.8544072E4,6.096759E2,5.228E2,4.2715158E2,8.1439154E2,2.0579216E3,2.9037566E3,1.07572586E2,2.0534036E3,1.2846788E3,7.8220604E1,3.9438337E3,1.6408318E3,9.307849E2,1.4822327E1,3.9062936E2,4.4431526E1,1.3136242E1,3.317771E2,6.6418176E0,6.84136E1,3.4659023E1,1.3609323E4,4.934748E3,5.282332E2,8.144266E1,5.1303174E2,9.76821E0,3.4695732E1,3.9245584E2,5.7962185E1,7.564294E2,1.8509657E3,2.0695598E2,2.3704902E3,5.332663E2,5.8305935E1,4.926665E1,3.4363232E2,1.7097712E3,6.940551E2,5.906237E2,2.782686E0,7.543791E1,7.605989E2,3.1832349E3,1.5641509E3,7.66809E1,3.6317737E2,5.6760754E2,1.2734571E1,2.087755E0,3.5558704E2,3.5042324E1,1.7558095E0,4.2675716E1,7.793631E0,5.342611E0,2.975734E2,3.4203686E1,2.5114515E0,4.130366E0,2.548312E1,4.2930477E1,1.715932E0,3.294309E1,1.1256678E4,2.3526462E3,5.5734784E2,4.3774004E3,1.7265196E1,5.1096802E2,5.7443287E1,2.399937E1,4.7829685E1,4.6520206E2,7.07152E0,2.69669E0,3.0097506E0,3.1685984E1,1.0929907E2,2.8315677E2,4.379625E1,1.4165936E1,2.6919144E2,4.8723795E2,2.4058783E0,1.8485598E3,1.5234175E2,5.461422E1,4.166123E2,1.953878E3,1.9448542E1,5.1381775E2,3.8241657E1,2.006428E1,3.4688923E1,1.4577726E1,3.1125232E2,3.2379986E1,3.274192E2,1.382352E3,6.5580817E2,3.8246964E1,5.451817E2,4.544201E1],"tree_param":{"num_deleted":"0","num_feature":"19","num_nodes":"127","size_leaf_vector":"1"}},{"base_weights":[8.001236E-2,2.2006188E-1,-4.93379E-3,3.836598E-1,1.1808249E-1,-2.7463222E-1,3.5982486E-2,2.9742375E-1,7.03999E-1,6.527596E-3,2.2932853E-1,-4.4999254E-1,-2.8899154E-2,6.5414923E-1,1.9967426E-2,9.62138E-2,3.4587017E-1,7.629898E-1,2.1995066E-1,4.7508236E-2,-1.33624E0,4.2921004E-1,1.6529106E-1,-1.313455E-1,-8.333599E-1,3.6231834E-2,-6.0163635E-1,7.233346E-1,4.2747462E-1,7.656744E-2,-9.867191E-2,1.8633428E-1,-5.4138726E-1,2.4729225E-1,4.8032442E-1,5.3344093E-2,7.8773654E-1,-1.1215129E0,2.6288855E-1,1.3487127E-1,-2.2973771E-1,-4.0826726E-1,-2.0842102E0,3.518177E-1,6.89081E-1,3.5824546E-1,4.1781683E-2,3.221093E-2,-3.1513983E-1,-9.563052E-1,-3.492149E-1,1.6547956E-1,-1.7293428E-1,-1.0244135E0,2.0484729E-2,4.1531062E-1,7.6180214E-1,1.8431598E-2,5.063841E-1,3.5669122E-2,2.66992E-1,-4.9605656E-1,-7.2491206E-2,1.6099446E-2,1.445277E-1,-3.7486014E-1,-1.2791556E-1,-3.7098106E-2,9.037827E-2,2.031912E-1,1.2023063E-1,2.3251341E-1,-1.3621785E-1,2.3913689E-1,6.210268E-2,5.27169E-2,-5.125814E-1,-2.6346558E-1,9.262237E-2,-4.00202E-2,6.5643646E-2,-2.8460097E-1,-5.423966E-3,-2.8749862E-1,3.943575E-2,-6.9938904E-1,-4.5955036E-2,1.5356812E-1,5.1775325E-2,2.393991E-1,-6.857074E-2,7.061322E-2,1.3909622E-1,-8.868008E-2,8.055271E-2,1.3546705E-1,-2.4130104E-2,-3.702546E-1,-7.911902E-2,-2.2226524E-1,-3.5347304E-1,-1.3802023E-1,8.887416E-2,6.1286926E-2,-1.1585137E-1,-2.5541046E-1,6.2355082E-2,-1.4178914E-1,-3.445189E-1,1.3672298E-1,-1.4670545E-1,6.747948E-2,2.848764E-1,2.16728E-1,3.0099282E-1,2.7671427E-1,-7.6442435E-2,2.6021132E-1,1.0882014E-1,4.596618E-2,-3.4328055E-2,1.3163862E-1,-5.7610873E-2,-4.5441177E-2,-3.318226E-1,-1.7682008E-2,-1.5859915E-1],"categories":[],"categories_nodes":[],"categories_segments":[],"categories_sizes":[],"default_left":[0,0,0,0,0,0,0,0,0,0,0,0,0,0,0,0,0,0,0,0,0,0,0,0,0,0,0,0,0,0,0,0,0,0,0,0,0,0,0,0,0,0,0,0,0,0,0,0,0,0,0,0,0,0,0,0,0,0,0,0,0,0,0,0,0,0,0,0,0,0,0,0,0,0,0,0,0,0,0,0,0,0,0,0,0,0,0,0,0,0,0,0,0,0,0,0,0,0,0,0,0,0,0,0,0,0,0,0,0,0,0,0,0,0,0,0,0,0,0,0,0,0,0,0,0,0,0],"id":3,"left_children":[1,3,5,7,9,11,13,15,17,19,21,23,25,27,29,31,33,35,37,39,41,43,45,47,49,51,53,55,57,59,61,63,65,67,69,71,73,75,77,79,81,83,85,87,89,91,93,95,97,99,101,103,105,107,109,111,113,115,117,119,121,123,125,-1,-1,-1,-1,-1,-1,-1,-1,-1,-1,-1,-1,-1,-1,-1,-1,-1,-1,-1,-1,-1,-1,-1,-1,-1,-1,-1,-1,-1,-1,-1,-1,-1,-1,-1,-1,-1,-1,-1,-1,-1,-1,-1,-1,-1,-1,-1,-1,-1,-1,-1,-1,-1,-1,-1,-1,-1,-1,-1,-1,-1,-1,-1,-1],"loss_changes":[4.2757892E2,2.2634106E2,2.4689267E2,1.4371802E2,1.0375018E2,1.2698662E2,1.9230797E2,3.999881E1,3.1366089E1,2.2982437E2,5.3508377E1,2.0997815E2,4.5844574E1,7.383789E0,1.2716836E2,4.597236E1,4.3745087E1,1.7237915E1,7.2857614E0,9.819148E1,8.5002625E1,2.017221E1,7.557598E1,2.8278006E1,4.6119934E1,2.9872013E1,3.3025852E1,4.1197205E0,3.7721672E0,9.9841515E1,6.3602016E1,2.7417267E1,7.5392094E0,3.8305626E1,2.1650543E1,1.2886519E1,5.017517E0,3.3118052E0,6.467041E0,6.943871E1,1.4780237E2,1.6883825E1,3.2204407E1,2.2410118E1,2.335817E1,1.59218445E1,1.481012E2,2.3583067E1,2.0599464E1,2.8855774E1,1.1557632E1,1.4697714E1,1.0922027E2,4.569771E0,1.1699887E1,4.2378106E0,2.428772E0,5.1709213E0,4.776205E0,1.8625758E2,1.7883691E2,7.927058E1,3.545096E1,0E0,0E0,0E0,0E0,0E0,0E0,0E0,0E0,0E0,0E0,0E0,0E0,0E0,0E0,0E0,0E0,0E0,0E0,0E0,0E0,0E0,0E0,0E0,0E0,0E0,0E0,0E0,0E0,0E0,0E0,0E0,0E0,0E0,0E0,0E0,0E0,0E0,0E0,0E0,0E0,0E0,0E0,0E0,0E0,0E0,0E0,0E0,0E0,0E0,0E0,0E0,0E0,0E0,0E0,0E0,0E0,0E0,0E0,0E0,0E0,0E0,0E0,0E0,0E0],"parents":[2147483647,0,0,1,1,2,2,3,3,4,4,5,5,6,6,7,7,8,8,9,9,10,10,11,11,12,12,13,13,14,14,15,15,16,16,17,17,18,18,19,19,20,20,21,21,22,22,23,23,24,24,25,25,26,26,27,27,28,28,29,29,30,30,31,31,32,32,33,33,34,34,35,35,36,36,37,37,38,38,39,39,40,40,41,41,42,42,43,43,44,44,45,45,46,46,47,47,48,48,49,49,50,50,51,51,52,52,53,53,54,54,55,55,56,56,57,57,58,58,59,59,60,60,61,61,62,62],"right_children":[2,4,6,8,10,12,14,16,18,20,22,24,26,28,30,32,34,36,38,40,42,44,46,48,50,52,54,56,58,60,62,64,66,68,70,72,74,76,78,80,82,84,86,88,90,92,94,96,98,100,102,104,106,108,110,112,114,116,118,120,122,124,126,-1,-1,-1,-1,-1,-1,-1,-1,-1,-1,-1,-1,-1,-1,-1,-1,-1,-1,-1,-1,-1,-1,-1,-1,-1,-1,-1,-1,-1,-1,-1,-1,-1,-1,-1,-1,-1,-1,-1,-1,-1,-1,-1,-1,-1,-1,-1,-1,-1,-1,-1,-1,-1,-1,-1,-1,-1,-1,-1,-1,-1,-1,-1,-1],"split_conditions":[4E0,7E0,4E0,8E0,6.0718E4,5.9681E4,1E0,4E0,8E0,5.8378E4,7.1542E4,5.0794E4,1.09636E5,2.8E1,1E1,1.03912E5,4E0,2E0,1.3993E4,4.8563E4,1.14236E5,2.35155E5,6.3644E4,7.2347E4,8E0,8.3074E4,7.2409E4,2.4E1,3.3446E4,2.11286E5,1.319E4,8.3482E4,3.0701E4,2.7545E4,5E0,4.1626E4,2.72351E5,5.439E3,1.0596E4,1.1547E4,4.961E4,5.9375E4,1.18477E5,6.2386E4,2.55321E5,9.327E4,8.8712E4,9.264E3,7.2827E4,5.8853E4,5.6E1,2.7E1,9.0279E4,6.2071E4,8E0,5E0,1.11E2,5.439E3,6.9088E4,1.07732E5,2.52068E5,9.912E3,1.09914E5,1.6099446E-2,1.445277E-1,-3.7486014E-1,-1.2791556E-1,-3.7098106E-2,9.037827E-2,2.031912E-1,1.2023063E-1,2.3251341E-1,-1.3621785E-1,2.3913689E-1,6.210268E-2,5.27169E-2,-5.125814E-1,-2.6346558E-1,9.262237E-2,-4.00202E-2,6.5643646E-2,-2.8460097E-1,-5.423966E-3,-2.8749862E-1,3.943575E-2,-6.9938904E-1,-4.5955036E-2,1.5356812E-1,5.1775325E-2,2.393991E-1,-6.857074E-2,7.061322E-2,1.3909622E-1,-8.868008E-2,8.055271E-2,1.3546705E-1,-2.4130104E-2,-3.702546E-1,-7.911902E-2,-2.2226524E-1,-3.5347304E-1,-1.3802023E-1,8.887416E-2,6.1286926E-2,-1.1585137E-1,-2.5541046E-1,6.2355082E-2,-1.4178914E-1,-3.445189E-1,1.3672298E-1,-1.4670545E-1,6.747948E-2,2.848764E-1,2.16728E-1,3.0099282E-1,2.7671427E-1,-7.6442435E-2,2.6021132E-1,1.0882014E-1,4.596618E-2,-3.4328055E-2,1.3163862E-1,-5.7610873E-2,-4.5441177E-2,-3.318226E-1,-1.7682008E-2,-1.5859915E-1],"split_indices":[8,18,1,1,13,13,6,1,2,13,13,13,13,7,8,14,4,8,11,13,11,11,14,14,8,14,14,7,11,11,10,13,10,10,1,13,0,11,13,13,13,13,11,13,11,13,14,13,14,13,18,8,14,0,3,4,16,11,11,11,11,10,13,0,0,0,0,0,0,0,0,0,0,0,0,0,0,0,0,0,0,0,0,0,0,0,0,0,0,0,0,0,0,0,0,0,0,0,0,0,0,0,0,0,0,0,0,0,0,0,0,0,0,0,0,0,0,0,0,0,0,0,0,0,0,0,0],"split_type":[0,0,0,0,0,0,0,0,0,0,0,0,0,0,0,0,0,0,0,0,0,0,0,0,0,0,0,0,0,0,0,0,0,0,0,0,0,0,0,0,0,0,0,0,0,0,0,0,0,0,0,0,0,0,0,0,0,0,0,0,0,0,0,0,0,0,0,0,0,0,0,0,0,0,0,0,0,0,0,0,0,0,0,0,0,0,0,0,0,0,0,0,0,0,0,0,0,0,0,0,0,0,0,0,0,0,0,0,0,0,0,0,0,0,0,0,0,0,0,0,0,0,0,0,0,0,0],"sum_hessian":[3.5939973E4,1.3568381E4,2.2371592E4,5.2090806E3,8.359301E3,2.9461855E3,1.9425406E4,4.105735E3,1.1033453E3,4.174385E3,4.184916E3,1.7187897E3,1.2273959E3,4.8954565E2,1.8935861E4,7.973075E2,3.3084275E3,9.8297424E2,1.203711E2,4.0516938E3,1.2269117E2,1.014047E3,3.170869E3,9.393576E2,7.79432E2,1.1029109E3,1.2448496E2,3.7338922E2,1.16156456E2,1.2820066E4,6.115795E3,6.9918964E2,9.811783E1,1.9105254E3,1.3979022E3,3.3229458E1,9.497448E2,2.9542778E0,1.17416824E2,3.081268E3,9.704256E2,5.544674E1,6.724443E1,7.831657E2,2.3088127E2,1.2367839E3,1.9340851E3,4.974804E2,4.4187723E2,6.2080707E2,1.5862494E2,6.818139E2,4.21097E2,7.3731995E1,5.0752968E1,4.2763397E1,3.3062582E2,1.8983782E1,9.717267E1,1.0554432E4,2.2656343E3,3.7690988E2,5.7388853E3,4.833212E2,2.1586845E2,1.2329759E1,8.578807E1,2.4248912E2,1.6680363E3,3.999972E2,9.9790497E2,1.3500161E1,1.9729298E1,9.342713E2,1.5473478E1,1.1387622E0,1.8155154E0,3.834593E0,1.1358223E2,7.342006E2,2.3470676E3,2.1992624E2,7.504994E2,2.7076162E1,2.8370577E1,5.943241E1,7.81202E0,4.127111E2,3.7045462E2,2.0650194E2,2.4379337E1,5.725878E2,6.641961E2,7.7722723E2,1.1568579E3,1.0470031E2,3.927801E2,2.2189709E1,4.1968753E2,3.1723032E2,3.0357675E2,1.3562051E2,2.3004417E1,6.375875E2,4.4226406E1,1.5093831E2,2.7015866E2,1.4410485E1,5.932151E1,2.7427605E1,2.3325363E1,3.2576435E1,1.0186961E1,2.877089E2,4.291693E1,3.8549304E0,1.5128851E1,2.6227083E1,7.094559E1,5.9188853E3,4.6355464E3,1.6486339E3,6.1700037E2,2.416535E2,1.3525636E2,5.5744194E3,1.6446594E2],"tree_param":{"num_deleted":"0","num_feature":"19","num_nodes":"127","size_leaf_vector":"1"}},{"base_weights":[6.00851E-2,7.7197324E-3,2.0992224E-1,6.790616E-1,-3.8906725E-3,3.9736217E-1,1.0735888E-1,7.683924E-1,4.2788386E-1,-7.0270255E-2,8.81769E-2,4.9743146E-1,1.3367668E-1,1.8460065E-1,1.0682335E-2,7.799414E-1,-2.1819915E-1,5.788161E-1,1.4688812E-1,-2.630735E-2,-8.554031E-1,1.23967804E-1,-2.4722035E-1,4.0300828E-1,6.9739056E-1,6.995229E-1,9.838066E-2,1.975845E-1,-5.817406E-1,1.936101E-1,-5.975277E-2,9.7046745E-1,6.684998E-1,7.280016E-1,3.588588E-1,2.709337E-1,-9.044609E-1,-7.7686054E-3,-4.5946535E-1,-9.6509045E-1,-1.2094866E-2,2.9291695E-1,6.750623E-2,-1.1964514E0,-1.7085524E-1,4.930651E-1,1.7247605E-1,7.1377534E-1,-4.6303722E-1,7.554542E-1,-1.7208447E-1,-2.1709335E-1,1.6495202E-1,1.2944998E-1,2.8886274E-1,-3.112841E-1,-1.5109099E0,-7.945035E-2,6.756163E-1,2.4249148E-1,-9.9840574E-2,-2.1745493E-1,2.9809305E-1,2.0684487E-1,-7.184324E-2,-1.15981605E-2,2.3613128E-1,2.4702896E-1,1.43360635E-2,1.1038465E-1,-1.6818629E-1,1.8839163E-1,-4.4467157E-1,1.4289616E-2,-3.821113E-2,-1.6143318E-1,7.365504E-2,-3.203049E-1,-1.2312279E-1,-2.5567973E-1,8.233559E-2,1.272326E-1,4.4003E-2,7.1338706E-2,-3.06175E-2,8.2159944E-2,-3.874031E-1,5.8184016E-2,-6.425225E-2,9.0861164E-2,2.0599265E-1,1.2227446E-1,2.0043839E-2,5.142009E-2,2.255941E-1,-3.7831637E-1,3.7140537E-2,-8.285859E-2,2.363498E-1,-3.122688E-1,2.0727839E-1,-4.704492E-2,-3.452568E-1,5.5306353E-2,-1.937017E-1,6.333769E-2,7.449009E-3,6.763159E-2,1.3655636E-1,-2.4274452E-2,-3.0343026E-1,-5.85881E-1,1.6726533E-1,3.780031E-3,-1.2608738E-1,1.1383757E-1,2.3484942E-1,8.886737E-2,-1.8021274E-1,-1.3374971E-2,-7.1735464E-2],"categories":[],"categories_nodes":[],"categories_segments":[],"categories_sizes":[],"default_left":[0,0,0,0,0,0,0,0,0,0,0,0,0,0,0,0,0,0,0,0,0,0,0,0,0,0,0,0,0,0,0,0,0,0,0,0,0,0,0,0,0,0,0,0,0,0,0,0,0,0,0,0,0,0,0,0,0,0,0,0,0,0,0,0,0,0,0,0,0,0,0,0,0,0,0,0,0,0,0,0,0,0,0,0,0,0,0,0,0,0,0,0,0,0,0,0,0,0,0,0,0,0,0,0,0,0,0,0,0,0,0,0,0,0,0,0,0,0,0,0,0],"id":4,"left_children":[1,3,5,7,9,11,13,15,17,19,21,23,25,27,29,31,-1,33,35,37,39,41,43,45,47,49,51,53,55,57,59,61,63,65,67,69,71,73,75,77,79,81,83,85,87,89,91,93,95,97,99,101,103,105,107,109,111,113,115,117,119,-1,-1,-1,-1,-1,-1,-1,-1,-1,-1,-1,-1,-1,-1,-1,-1,-1,-1,-1,-1,-1,-1,-1,-1,-1,-1,-1,-1,-1,-1,-1,-1,-1,-1,-1,-1,-1,-1,-1,-1,-1,-1,-1,-1,-1,-1,-1,-1,-1,-1,-1,-1,-1,-1,-1,-1,-1,-1,-1,-1],"loss_changes":[2.7609268E2,2.0325479E2,1.7514517E2,9.618134E0,1.5666524E2,8.49642E1,4.3990974E1,6.194351E0,4.943123E0,5.141185E2,1.2894888E2,4.3816895E1,1.7663874E1,3.2698807E1,3.373732E1,6.2250366E0,0E0,2.2585182E0,5.822689E0,1.1327548E2,7.304492E1,9.255365E1,7.488312E1,3.2900513E1,1.4548218E1,2.663435E0,1.7612093E1,1.9994225E1,1.3303913E1,9.585936E1,2.2931591E1,5.3275757E0,4.1179886E0,2.0596256E0,4.7304235E0,3.354499E0,5.1312313E0,8.964726E1,3.2231255E1,3.933258E1,2.2362665E1,4.656891E1,2.1009198E2,1.10915985E1,1.5210615E1,4.1836243E1,1.1098391E1,1.5158447E1,5.3158493E0,1.8550072E0,3.6794982E0,8.05181E0,1.0997267E1,1.5769398E1,1.4411209E1,6.968928E0,1.2150158E1,1.4612269E1,8.0648575E0,1.0222112E1,1.2841352E1,0E0,0E0,0E0,0E0,0E0,0E0,0E0,0E0,0E0,0E0,0E0,0E0,0E0,0E0,0E0,0E0,0E0,0E0,0E0,0E0,0E0,0E0,0E0,0E0,0E0,0E0,0E0,0E0,0E0,0E0,0E0,0E0,0E0,0E0,0E0,0E0,0E0,0E0,0E0,0E0,0E0,0E0,0E0,0E0,0E0,0E0,0E0,0E0,0E0,0E0,0E0,0E0,0E0,0E0,0E0,0E0,0E0,0E0,0E0,0E0],"parents":[2147483647,0,0,1,1,2,2,3,3,4,4,5,5,6,6,7,7,8,8,9,9,10,10,11,11,12,12,13,13,14,14,15,15,17,17,18,18,19,19,20,20,21,21,22,22,23,23,24,24,25,25,26,26,27,27,28,28,29,29,30,30,31,31,32,32,33,33,34,34,35,35,36,36,37,37,38,38,39,39,40,40,41,41,42,42,43,43,44,44,45,45,46,46,47,47,48,48,49,49,50,50,51,51,52,52,53,53,54,54,55,55,56,56,57,57,58,58,59,59,60,60],"right_children":[2,4,6,8,10,12,14,16,18,20,22,24,26,28,30,32,-1,34,36,38,40,42,44,46,48,50,52,54,56,58,60,62,64,66,68,70,72,74,76,78,80,82,84,86,88,90,92,94,96,98,100,102,104,106,108,110,112,114,116,118,120,-1,-1,-1,-1,-1,-1,-1,-1,-1,-1,-1,-1,-1,-1,-1,-1,-1,-1,-1,-1,-1,-1,-1,-1,-1,-1,-1,-1,-1,-1,-1,-1,-1,-1,-1,-1,-1,-1,-1,-1,-1,-1,-1,-1,-1,-1,-1,-1,-1,-1,-1,-1,-1,-1,-1,-1,-1,-1,-1,-1],"split_conditions":[7E0,1E0,9E0,2.8E1,6.0474E4,8E0,6E0,1.10696E5,2.0189E5,5.8853E4,1.09636E5,2.12293E5,1E0,1.10923E5,2.8E1,4E0,-2.1819915E-1,6E0,1.6E1,1.11241E5,5.9681E4,5.424E4,4.2469E4,5.1726E4,1.03912E5,1.2E1,2.0478E4,4E0,8E0,2.3E1,1.01E4,3.232E3,2.73408E5,3E0,7.5595E4,2.48808E5,1.8402E4,6.3E1,1.11598E5,5.1029E4,7.7332E4,7E0,7.862E4,3E0,7.1245E4,4.7833E4,2.8E1,9.2108E4,9.0368E4,6.266E3,2E0,2.60459E5,1.09914E5,7.1183E4,8.9629E4,5E0,1.3E1,1.6E1,7.3034E4,2.7E1,8.3074E4,-2.1745493E-1,2.9809305E-1,2.0684487E-1,-7.184324E-2,-1.15981605E-2,2.3613128E-1,2.4702896E-1,1.43360635E-2,1.1038465E-1,-1.6818629E-1,1.8839163E-1,-4.4467157E-1,1.4289616E-2,-3.821113E-2,-1.6143318E-1,7.365504E-2,-3.203049E-1,-1.2312279E-1,-2.5567973E-1,8.233559E-2,1.272326E-1,4.4003E-2,7.1338706E-2,-3.06175E-2,8.2159944E-2,-3.874031E-1,5.8184016E-2,-6.425225E-2,9.0861164E-2,2.0599265E-1,1.2227446E-1,2.0043839E-2,5.142009E-2,2.255941E-1,-3.7831637E-1,3.7140537E-2,-8.285859E-2,2.363498E-1,-3.122688E-1,2.0727839E-1,-4.704492E-2,-3.452568E-1,5.5306353E-2,-1.937017E-1,6.333769E-2,7.449009E-3,6.763159E-2,1.3655636E-1,-2.4274452E-2,-3.0343026E-1,-5.85881E-1,1.6726533E-1,3.780031E-3,-1.2608738E-1,1.1383757E-1,2.3484942E-1,8.886737E-2,-1.8021274E-1,-1.3374971E-2,-7.1735464E-2],"split_indices":[1,6,18,7,13,3,8,14,0,13,13,11,6,14,7,8,0,8,8,14,13,14,14,14,14,5,11,4,3,7,14,13,0,1,11,11,13,16,14,14,0,8,13,2,11,14,7,14,0,13,4,0,13,14,14,8,3,8,0,8,14,0,0,0,0,0,0,0,0,0,0,0,0,0,0,0,0,0,0,0,0,0,0,0,0,0,0,0,0,0,0,0,0,0,0,0,0,0,0,0,0,0,0,0,0,0,0,0,0,0,0,0,0,0,0,0,0,0,0,0,0],"split_type":[0,0,0,0,0,0,0,0,0,0,0,0,0,0,0,0,0,0,0,0,0,0,0,0,0,0,0,0,0,0,0,0,0,0,0,0,0,0,0,0,0,0,0,0,0,0,0,0,0,0,0,0,0,0,0,0,0,0,0,0,0,0,0,0,0,0,0,0,0,0,0,0,0,0,0,0,0,0,0,0,0,0,0,0,0,0,0,0,0,0,0,0,0,0,0,0,0,0,0,0,0,0,0,0,0,0,0,0,0,0,0,0,0,0,0,0,0,0,0,0,0],"sum_hessian":[3.5186938E4,2.6075184E4,9.111753E3,4.4230908E2,2.5632873E4,3.221471E3,5.8902817E3,3.2475244E2,1.1755664E2,1.4894419E4,1.0738455E4,2.3345986E3,8.8687244E2,3.2737449E3,2.616537E3,3.22739E2,2.0134335E0,7.578831E1,4.1768333E1,1.4105619E4,7.887997E2,9.703596E3,1.0348595E3,1.5878239E3,7.467747E2,5.096771E1,8.359047E2,3.2199329E3,5.381194E1,7.269135E2,1.8896237E3,1.1626251E2,2.064765E2,4.3782925E1,3.2005383E1,3.802426E1,3.7440715E0,1.3527666E4,5.7795306E2,6.978831E2,9.091659E1,2.4295376E3,7.274058E3,7.596271E1,9.588968E2,1.1409688E3,4.4685516E2,7.367569E2,1.00178175E1,4.8019543E1,2.9481642E0,1.4526231E2,6.906424E2,1.845088E3,1.3748448E3,4.2714027E1,1.1097908E1,4.6456747E2,2.6234607E2,2.2068765E2,1.6689359E3,1.1596376E0,1.15102875E2,2.0204788E2,4.428611E0,3.1584427E0,4.062448E1,1.2175213E1,1.983017E1,3.455083E1,3.473431E0,1.0013437E0,2.7427278E0,9.245615E3,4.2820513E3,5.201624E2,5.7790688E1,5.8817145E2,1.0971163E2,2.261981E1,6.8296776E1,1.2796592E3,1.1498783E3,3.629071E3,3.6449873E3,4.4909534E0,7.1471756E1,1.0141051E2,8.574863E2,5.768062E2,5.6416254E2,1.3767183E2,3.0918332E2,4.8843143E1,6.8791376E2,3.758246E0,6.2595716E0,1.2320958E0,4.678745E1,1.3664315E0,1.5817326E0,1.3755096E2,7.7113547E0,6.752526E2,1.5389748E1,1.0355935E3,8.094945E2,9.970131E2,3.7783176E2,3.2978676E1,9.735353E0,9.189894E0,1.908014E0,3.6653964E2,9.802783E1,7.093716E1,1.9140892E2,2.0807663E2,1.2611018E1,1.1958225E3,4.731134E2],"tree_param":{"num_deleted":"0","num_feature":"19","num_nodes":"121","size_leaf_vector":"1"}},{"base_weights":[4.4747062E-2,1.14437655E-1,-3.515073E-2,2.4606907E-1,4.840259E-2,-1.14050336E-1,7.3601276E-2,1.7946821E-1,4.9996465E-1,6.9479644E-2,-3.3242732E-1,-1.8358217E-1,7.456223E-2,1.0244797E0,1.4058885E-2,-1.578681E-1,2.0835654E-1,5.804297E-1,1.8663209E-2,2.3903169E-2,2.5269362E-1,1.1734024E-1,-3.8601246E-1,3.256826E-1,-2.040995E-1,4.0357906E-1,2.4630854E-2,7.4208814E-1,1.0729094E0,1.9474824E-1,-4.9156547E-2,5.009428E-2,-6.175334E-1,2.5330834E-2,2.5376686E-1,-5.5877075E-2,5.9946096E-1,-9.222147E-1,1.2403897E-1,1.2724364E-1,-3.0672641E-2,2.802741E-2,3.98954E-1,-7.8355753E-1,4.3094063E-1,-6.0527563E-1,-2.7709335E-1,7.2831523E-1,9.513609E-2,8.064379E-1,-2.1383184E-1,5.82225E-1,-4.2714942E-1,-1.0111845E-1,2.2414392E-1,1.045135E0,4.093468E-1,8.2744366E-1,1.1047562E0,1.2999177E-1,3.617849E-1,-2.7454346E-1,4.089031E-3,-5.8619156E-2,1.02098115E-1,-2.389847E-1,1.2999982E-1,-2.2416636E-2,1.0071459E-1,2.2548978E-1,7.135843E-2,8.338414E-2,-2.8315002E-1,1.5132473E-1,2.0001148E-1,-5.757517E-1,-1.0912207E-2,1.312746E-1,-1.51938265E-2,-6.4657554E-2,5.85933E-2,-1.8100545E-1,3.8948224E-3,9.5991604E-2,-3.7944257E-2,1.515652E-1,3.4974616E-2,1.0092647E-1,-4.1432926E-1,-5.424629E-3,1.5217982E-1,-9.8935574E-2,-2.144569E-1,-7.821167E-2,-5.432927E-1,2.4988268E-1,-1.4371669E-2,6.684298E-2,-1.19012825E-1,2.7237922E-1,9.2304066E-2,-7.766095E-2,-4.976383E-3,1.4760558E-2,1.9291593E-1,-4.6355177E-2,-3.0560812E-1,-2.9764269E-3,-8.0975555E-2,8.4304705E-2,-1.7994429E-1,3.2069683E-1,9.280278E-2,2.2677542E-1,6.567443E-4,2.7767548E-1,1.0838481E-1,3.3295065E-1,6.3592486E-2,5.949179E-2,-2.7536392E-2,1.23378545E-1,-5.5159632E-2,-9.338659E-2,4.882797E-2,-1.3495728E-2,6.40532E-2],"categories":[],"categories_nodes":[],"categories_segments":[],"categories_sizes":[],"default_left":[0,0,0,0,0,0,0,0,0,0,0,0,0,0,0,0,0,0,0,0,0,0,0,0,0,0,0,0,0,0,0,0,0,0,0,0,0,0,0,0,0,0,0,0,0,0,0,0,0,0,0,0,0,0,0,0,0,0,0,0,0,0,0,0,0,0,0,0,0,0,0,0,0,0,0,0,0,0,0,0,0,0,0,0,0,0,0,0,0,0,0,0,0,0,0,0,0,0,0,0,0,0,0,0,0,0,0,0,0,0,0,0,0,0,0,0,0,0,0,0,0,0,0,0,0,0,0],"id":5,"left_children":[1,3,5,7,9,11,13,15,17,19,21,23,25,27,29,31,33,35,37,39,41,43,45,47,49,51,53,55,57,59,61,63,65,67,69,71,73,75,77,79,81,83,85,87,89,91,93,95,97,99,101,103,105,107,109,111,113,115,117,119,121,123,125,-1,-1,-1,-1,-1,-1,-1,-1,-1,-1,-1,-1,-1,-1,-1,-1,-1,-1,-1,-1,-1,-1,-1,-1,-1,-1,-1,-1,-1,-1,-1,-1,-1,-1,-1,-1,-1,-1,-1,-1,-1,-1,-1,-1,-1,-1,-1,-1,-1,-1,-1,-1,-1,-1,-1,-1,-1,-1,-1,-1,-1,-1,-1,-1],"loss_changes":[1.9243051E2,1.6043547E2,1.3816289E2,1.0417984E2,9.8698715E1,1.2239366E2,3.8330923E2,4.765172E1,4.9592865E1,9.72697E1,1.5587135E1,7.131027E1,4.129401E1,4.6600037E0,7.279791E1,3.6931675E1,3.7406097E1,1.3321838E1,1.8406084E1,5.2623543E1,7.6241135E1,1.9949505E1,1.3599007E1,2.4478184E1,6.463962E1,4.940289E1,5.48159E1,5.7884254E0,1.7304688E0,1.7820187E1,5.6664715E1,1.9068863E1,2.2987988E1,2.784842E1,2.8380234E1,9.9795E0,6.473877E0,1.6445171E1,9.1576185E0,7.5276596E1,1.5266847E2,4.1363255E1,4.211264E1,1.2697717E1,1.7960291E0,5.5142746E0,9.255316E0,7.847584E0,1.0720337E1,2.8964233E0,5.767798E1,8.82032E0,9.389576E0,2.0630404E1,3.9749252E1,2.2429657E-1,4.3766403E0,1.6252975E0,1.1091309E0,1.807643E1,1.251886E1,1.4549522E1,3.9272366E1,0E0,0E0,0E0,0E0,0E0,0E0,0E0,0E0,0E0,0E0,0E0,0E0,0E0,0E0,0E0,0E0,0E0,0E0,0E0,0E0,0E0,0E0,0E0,0E0,0E0,0E0,0E0,0E0,0E0,0E0,0E0,0E0,0E0,0E0,0E0,0E0,0E0,0E0,0E0,0E0,0E0,0E0,0E0,0E0,0E0,0E0,0E0,0E0,0E0,0E0,0E0,0E0,0E0,0E0,0E0,0E0,0E0,0E0,0E0,0E0,0E0,0E0,0E0,0E0],"parents":[2147483647,0,0,1,1,2,2,3,3,4,4,5,5,6,6,7,7,8,8,9,9,10,10,11,11,12,12,13,13,14,14,15,15,16,16,17,17,18,18,19,19,20,20,21,21,22,22,23,23,24,24,25,25,26,26,27,27,28,28,29,29,30,30,31,31,32,32,33,33,34,34,35,35,36,36,37,37,38,38,39,39,40,40,41,41,42,42,43,43,44,44,45,45,46,46,47,47,48,48,49,49,50,50,51,51,52,52,53,53,54,54,55,55,56,56,57,57,58,58,59,59,60,60,61,61,62,62],"right_children":[2,4,6,8,10,12,14,16,18,20,22,24,26,28,30,32,34,36,38,40,42,44,46,48,50,52,54,56,58,60,62,64,66,68,70,72,74,76,78,80,82,84,86,88,90,92,94,96,98,100,102,104,106,108,110,112,114,116,118,120,122,124,126,-1,-1,-1,-1,-1,-1,-1,-1,-1,-1,-1,-1,-1,-1,-1,-1,-1,-1,-1,-1,-1,-1,-1,-1,-1,-1,-1,-1,-1,-1,-1,-1,-1,-1,-1,-1,-1,-1,-1,-1,-1,-1,-1,-1,-1,-1,-1,-1,-1,-1,-1,-1,-1,-1,-1,-1,-1,-1,-1,-1,-1,-1,-1,-1],"split_conditions":[8E0,5E0,9E0,8E0,2.61798E5,7E0,1E1,1.7228E4,9E0,2.08123E5,3.1221E4,5.344E3,8.343E3,9E0,1.3E1,1.2906E4,4E0,2E0,1.7228E4,1.07732E5,8.9629E4,7.2827E4,3.4E1,9.264E3,9.24E2,6.9011E4,8.7471E4,5.1749E4,2E0,8.8416E4,2.1E1,1.48872E5,9.7153E4,8.176E4,1E0,9.248E4,2E1,1.89987E5,2.8E1,1.7228E4,5.7017E4,7.1879E4,1.03912E5,7.2347E4,1.6E1,1.01133E5,2.08132E5,1.3E1,1.2E1,3E0,8.9723E4,2E0,9E0,8E0,1.09636E5,1.6E1,1.38068E5,8.0123E4,2.62886E5,6.3644E4,2.54224E5,2.54139E5,6.7E1,-5.8619156E-2,1.02098115E-1,-2.389847E-1,1.2999982E-1,-2.2416636E-2,1.0071459E-1,2.2548978E-1,7.135843E-2,8.338414E-2,-2.8315002E-1,1.5132473E-1,2.0001148E-1,-5.757517E-1,-1.0912207E-2,1.312746E-1,-1.51938265E-2,-6.4657554E-2,5.85933E-2,-1.8100545E-1,3.8948224E-3,9.5991604E-2,-3.7944257E-2,1.515652E-1,3.4974616E-2,1.0092647E-1,-4.1432926E-1,-5.424629E-3,1.5217982E-1,-9.8935574E-2,-2.144569E-1,-7.821167E-2,-5.432927E-1,2.4988268E-1,-1.4371669E-2,6.684298E-2,-1.19012825E-1,2.7237922E-1,9.2304066E-2,-7.766095E-2,-4.976383E-3,1.4760558E-2,1.9291593E-1,-4.6355177E-2,-3.0560812E-1,-2.9764269E-3,-8.0975555E-2,8.4304705E-2,-1.7994429E-1,3.2069683E-1,9.280278E-2,2.2677542E-1,6.567443E-4,2.7767548E-1,1.0838481E-1,3.3295065E-1,6.3592486E-2,5.949179E-2,-2.7536392E-2,1.23378545E-1,-5.5159632E-2,-9.338659E-2,4.882797E-2,-1.3495728E-2,6.40532E-2],"split_indices":[3,18,3,1,11,1,3,11,2,11,13,14,13,7,3,11,1,8,11,11,14,14,18,13,13,14,13,11,4,14,7,10,13,13,4,14,7,10,7,11,14,14,14,14,7,14,10,8,8,6,13,4,8,2,13,5,0,13,11,14,11,10,18,0,0,0,0,0,0,0,0,0,0,0,0,0,0,0,0,0,0,0,0,0,0,0,0,0,0,0,0,0,0,0,0,0,0,0,0,0,0,0,0,0,0,0,0,0,0,0,0,0,0,0,0,0,0,0,0,0,0,0,0,0,0,0,0],"split_type":[0,0,0,0,0,0,0,0,0,0,0,0,0,0,0,0,0,0,0,0,0,0,0,0,0,0,0,0,0,0,0,0,0,0,0,0,0,0,0,0,0,0,0,0,0,0,0,0,0,0,0,0,0,0,0,0,0,0,0,0,0,0,0,0,0,0,0,0,0,0,0,0,0,0,0,0,0,0,0,0,0,0,0,0,0,0,0,0,0,0,0,0,0,0,0,0,0,0,0,0,0,0,0,0,0,0,0,0,0,0,0,0,0,0,0,0,0,0,0,0,0,0,0,0,0,0,0],"sum_hessian":[3.4557582E4,1.8457582E4,1.61E4,6.165272E3,1.2292311E4,9.330599E3,6.7694004E3,4.885448E3,1.279824E3,1.1648443E4,6.438663E2,6.8173984E3,2.5132007E3,3.9795435E2,6.3714463E3,3.8501892E2,4.500429E3,1.0963309E3,1.8349301E2,9.328907E3,2.3195369E3,6.841706E1,5.754492E2,2.6344736E2,6.553951E3,3.3021378E2,2.1829868E3,6.0646988E1,3.3730734E2,1.6508171E3,4.7206294E3,2.657011E2,1.19317825E2,8.949408E2,3.6054885E3,3.1781597E1,1.0645493E3,1.7700178E1,1.6579283E2,3.223607E3,6.1053E3,9.1508856E2,1.4044484E3,1.7279285E1,5.113777E1,1.8947115E2,3.859781E2,9.513754E1,1.6830983E2,6.173711E1,6.492214E3,2.720165E2,5.819728E1,1.3393274E3,8.436595E2,3.0619265E1,3.0027723E1,4.183529E1,2.9547208E2,1.1909067E3,4.5991037E2,9.0129944E2,3.8193298E3,1.4412265E2,1.2157845E2,1.02151695E2,1.7166136E1,6.773539E2,2.1758693E2,1.10187546E2,3.4953008E3,2.3597265E1,8.184332E0,4.446149E2,6.1993445E2,7.778957E0,9.921222E0,5.8781204E1,1.0701163E2,5.3372845E2,2.6898784E3,4.3153458E2,5.6737656E3,3.1632294E2,5.987656E2,1.01986115E3,3.8458722E2,6.163647E0,1.1115638E1,7.5404387E0,4.3597336E1,5.5059307E1,1.3441185E2,3.8305554E2,2.9225502E0,8.377272E1,1.1364821E1,1.340579E2,3.425192E1,5.0616676E1,1.1120436E1,5.285116E3,1.2070978E3,2.8047865E1,2.4396863E2,4.0700405E1,1.7496878E1,8.7023E2,4.690974E2,7.898041E2,5.3855396E1,2.9219137E1,1.4001268E0,1.5757996E1,1.4269728E1,3.3745316E1,8.089974E0,2.935588E2,1.9132651E0,9.1054114E2,2.803656E2,4.2190076E2,3.8009605E1,8.317024E2,6.959706E1,3.0948772E3,7.244525E2],"tree_param":{"num_deleted":"0","num_feature":"19","num_nodes":"127","size_leaf_vector":"1"}},{"base_weights":[3.3913866E-2,1.0187043E-1,-2.7290978E-2,6.754459E-1,9.298095E-2,4.086772E-1,-3.5729557E-2,8.360149E-2,7.475059E-1,-8.91252E-2,1.1778896E-1,4.6635735E-1,5.7026062E-2,-1.9733708E-1,-1.6171169E-2,3.136023E-1,-6.739257E-1,-8.5036054E-2,7.785282E-1,3.363804E-3,-3.904181E-1,2.836619E-1,8.323536E-2,4.0317442E-2,5.090758E-1,-1.0001686E0,1.7792484E-1,-1.4659904E-1,-5.667827E-1,1.2615587E-1,-4.9364004E-2,-7.4878E-1,4.6914843E-1,2.0167522E-1,-1.1240177E0,6.294967E-1,-1.0865569E0,2.4901146E-1,8.036613E-1,-1.1139258E-1,2.7156523E-1,-8.89021E-1,-2.137425E-1,2.2917505E-1,4.667194E-1,-2.4052833E-3,1.7983973E-1,-2.087077E-1,5.165284E-1,4.038872E-1,6.6226006E-1,-1.6759822E0,2.2632139E-2,6.6799265E-1,-3.4470372E-2,-9.9773526E-2,-4.065434E-1,-5.9522295E-1,3.541173E-1,2.079487E-1,1.0277621E-2,-9.942794E-2,5.662049E-2,-3.9403933E-1,4.658838E-2,-2.0996138E-1,1.855848E-1,-4.3955636E-1,-3.222994E-2,2.7988458E-1,-1.1301867E-1,-5.47851E-1,-5.9315143E-3,1.6864313E-1,-1.8111652E-1,2.459179E-1,4.3221716E-2,1.1036482E-1,-4.747596E-2,1.2640165E-1,-1.1477699E-1,-1.4078064E-1,-3.7323126E-1,-5.748917E-1,-5.3380795E-2,8.6729795E-2,-2.852038E-2,6.359569E-2,1.7064008E-1,-2.8748555E-2,3.1580817E-2,1.3925712E-1,4.4533644E-2,1.6232908E-1,-1.4368685E-1,2.746596E-1,1.048523E-2,2.0744644E-1,5.419453E-2,-1.1014222E-1,2.071083E-1,-6.8902576E-1,-8.890792E-2,2.3641452E-1,-1.0771719E-1,1.6720183E-1,-1.1182673E-1,3.1565957E-2,-4.3699753E-2,-1.3647857E-1,1.3536055E-1,-2.1659951E-1,-5.695306E-2,3.9573845E-2,1.2347838E-1,-5.7751182E-2,7.4630946E-2,-4.1232716E-2,1.470897E-2,4.570068E-2,1.4361476E-3],"categories":[],"categories_nodes":[],"categories_segments":[],"categories_sizes":[],"default_left":[0,0,0,0,0,0,0,0,0,0,0,0,0,0,0,0,0,0,0,0,0,0,0,0,0,0,0,0,0,0,0,0,0,0,0,0,0,0,0,0,0,0,0,0,0,0,0,0,0,0,0,0,0,0,0,0,0,0,0,0,0,0,0,0,0,0,0,0,0,0,0,0,0,0,0,0,0,0,0,0,0,0,0,0,0,0,0,0,0,0,0,0,0,0,0,0,0,0,0,0,0,0,0,0,0,0,0,0,0,0,0,0,0,0,0,0,0,0,0,0,0],"id":6,"left_children":[1,3,5,7,9,11,13,15,17,19,21,23,25,27,29,31,33,35,37,39,41,43,45,47,49,51,53,55,57,59,61,63,65,-1,67,69,71,73,75,77,79,81,83,85,87,89,91,93,95,97,99,101,-1,103,105,107,109,111,-1,113,115,117,119,-1,-1,-1,-1,-1,-1,-1,-1,-1,-1,-1,-1,-1,-1,-1,-1,-1,-1,-1,-1,-1,-1,-1,-1,-1,-1,-1,-1,-1,-1,-1,-1,-1,-1,-1,-1,-1,-1,-1,-1,-1,-1,-1,-1,-1,-1,-1,-1,-1,-1,-1,-1,-1,-1,-1,-1,-1,-1],"loss_changes":[1.4179779E2,8.230733E1,6.600573E1,1.0445747E1,7.188443E1,6.8836136E0,5.5619614E1,5.067068E0,5.7359085E0,5.317114E1,8.023126E1,5.303604E0,6.4595156E0,3.5527466E1,7.41723E1,3.9968295E0,4.880904E0,6.972556E0,2.6177368E0,4.499292E1,3.9288437E1,2.3966888E1,9.58859E1,3.3980844E0,4.0153046E0,3.9024053E0,4.701967E0,2.0307327E1,1.2084045E1,2.8139534E1,6.75558E1,1.8389919E0,3.902779E0,0E0,1.742073E0,2.1107755E0,3.140297E0,3.288173E0,2.0190887E0,2.3052414E1,4.307971E1,1.6845146E1,1.9912075E1,3.620514E1,1.4250389E1,6.1819584E1,4.8550064E1,4.0951405E0,1.8539133E0,1.0157091E1,3.33844E0,2.088356E0,0E0,1.9648814E0,6.6764655E0,1.3353922E1,1.0781788E1,1.1479858E1,0E0,2.6896584E1,5.9515324E1,4.880587E1,2.0265926E1,0E0,0E0,0E0,0E0,0E0,0E0,0E0,0E0,0E0,0E0,0E0,0E0,0E0,0E0,0E0,0E0,0E0,0E0,0E0,0E0,0E0,0E0,0E0,0E0,0E0,0E0,0E0,0E0,0E0,0E0,0E0,0E0,0E0,0E0,0E0,0E0,0E0,0E0,0E0,0E0,0E0,0E0,0E0,0E0,0E0,0E0,0E0,0E0,0E0,0E0,0E0,0E0,0E0,0E0,0E0,0E0,0E0,0E0],"parents":[2147483647,0,0,1,1,2,2,3,3,4,4,5,5,6,6,7,7,8,8,9,9,10,10,11,11,12,12,13,13,14,14,15,15,16,16,17,17,18,18,19,19,20,20,21,21,22,22,23,23,24,24,25,25,26,26,27,27,28,28,29,29,30,30,31,31,32,32,34,34,35,35,36,36,37,37,38,38,39,39,40,40,41,41,42,42,43,43,44,44,45,45,46,46,47,47,48,48,49,49,50,50,51,51,53,53,54,54,55,55,56,56,57,57,59,59,60,60,61,61,62,62],"right_children":[2,4,6,8,10,12,14,16,18,20,22,24,26,28,30,32,34,36,38,40,42,44,46,48,50,52,54,56,58,60,62,64,66,-1,68,70,72,74,76,78,80,82,84,86,88,90,92,94,96,98,100,102,-1,104,106,108,110,112,-1,114,116,118,120,-1,-1,-1,-1,-1,-1,-1,-1,-1,-1,-1,-1,-1,-1,-1,-1,-1,-1,-1,-1,-1,-1,-1,-1,-1,-1,-1,-1,-1,-1,-1,-1,-1,-1,-1,-1,-1,-1,-1,-1,-1,-1,-1,-1,-1,-1,-1,-1,-1,-1,-1,-1,-1,-1,-1,-1,-1,-1],"split_conditions":[5E0,1E0,1E0,4E0,3.1814E4,1.93371E5,2.4379E4,4E0,9.82E3,1.02125E5,6.7733E4,5E0,2.02781E5,2.7E1,7.611E4,4.7778E4,6.8841E4,8E0,1.6139E4,7.9686E4,4.604E3,2.32154E5,1.711E5,5.424E4,1.66978E5,1E1,6.6653E4,2.0158E4,1.21E2,7.1183E4,2.08132E5,2E0,2.2E1,2.0167522E-1,9.908E4,5.021E3,3.232E3,4.1647E4,1.09636E5,2.721E3,8.2178E4,2.33E4,3.232E3,5.8143E4,5.7791E4,6.0718E4,1.78507E5,5.5893E4,1.52488E5,6.8841E4,6.59E2,1.38068E5,2.2632139E-2,1E1,4.785E4,5.216E3,5.8E1,1.6391E4,3.541173E-1,5E0,9.0037E4,8.9723E4,2.1E1,-3.9403933E-1,4.658838E-2,-2.0996138E-1,1.855848E-1,-4.3955636E-1,-3.222994E-2,2.7988458E-1,-1.1301867E-1,-5.47851E-1,-5.9315143E-3,1.6864313E-1,-1.8111652E-1,2.459179E-1,4.3221716E-2,1.1036482E-1,-4.747596E-2,1.2640165E-1,-1.1477699E-1,-1.4078064E-1,-3.7323126E-1,-5.748917E-1,-5.3380795E-2,8.6729795E-2,-2.852038E-2,6.359569E-2,1.7064008E-1,-2.8748555E-2,3.1580817E-2,1.3925712E-1,4.4533644E-2,1.6232908E-1,-1.4368685E-1,2.746596E-1,1.048523E-2,2.0744644E-1,5.419453E-2,-1.1014222E-1,2.071083E-1,-6.8902576E-1,-8.890792E-2,2.3641452E-1,-1.0771719E-1,1.6720183E-1,-1.1182673E-1,3.1565957E-2,-4.3699753E-2,-1.3647857E-1,1.3536055E-1,-2.1659951E-1,-5.695306E-2,3.9573845E-2,1.2347838E-1,-5.7751182E-2,7.4630946E-2,-4.1232716E-2,1.470897E-2,4.570068E-2,1.4361476E-3],"split_indices":[8,6,6,1,10,11,10,8,13,14,10,3,11,8,10,10,10,3,11,14,13,11,10,14,10,8,10,10,8,14,10,8,7,0,10,13,13,14,13,13,13,10,0,10,10,13,10,10,11,10,14,0,0,5,13,10,18,10,0,4,14,13,18,0,0,0,0,0,0,0,0,0,0,0,0,0,0,0,0,0,0,0,0,0,0,0,0,0,0,0,0,0,0,0,0,0,0,0,0,0,0,0,0,0,0,0,0,0,0,0,0,0,0,0,0,0,0,0,0,0,0],"split_type":[0,0,0,0,0,0,0,0,0,0,0,0,0,0,0,0,0,0,0,0,0,0,0,0,0,0,0,0,0,0,0,0,0,0,0,0,0,0,0,0,0,0,0,0,0,0,0,0,0,0,0,0,0,0,0,0,0,0,0,0,0,0,0,0,0,0,0,0,0,0,0,0,0,0,0,0,0,0,0,0,0,0,0,0,0,0,0,0,0,0,0,0,0,0,0,0,0,0,0,0,0,0,0,0,0,0,0,0,0,0,0,0,0,0,0,0,0,0,0,0,0],"sum_hessian":[3.4090316E4,1.6153832E4,1.7936482E4,2.4539279E2,1.5908439E4,3.3968472E2,1.7596799E4,2.6869318E1,2.1852347E2,1.9070344E3,1.4001405E4,2.9153845E2,4.8146286E1,1.8987416E3,1.5698057E4,2.1060835E1,5.8084836E0,7.7875924E0,2.1073587E2,1.4598788E3,4.471556E2,2.4126035E3,1.1588802E4,2.6745358E1,2.647931E2,4.194538E0,4.3951748E1,1.6706927E3,2.2804878E2,2.968154E3,1.2729902E4,2.202672E0,1.8858162E1,1.3317571E0,4.4767265E0,4.7617745E0,3.0258176E0,1.0043419E1,2.0069246E2,1.02282385E3,4.3705493E2,1.1593608E2,3.312195E2,1.8609469E3,5.516567E2,6.1435044E3,5.445297E3,1.7930624E1,8.814733E0,1.5914674E2,1.0564634E2,2.2332184E0,1.9613198E0,1.2640584E1,3.1311161E1,1.41685E3,2.5384279E2,2.2504485E2,3.0039253E0,1.7395181E3,1.228636E3,8.645898E3,4.0840044E3,1.0770931E0,1.125579E0,1.7203655E0,1.7137796E1,3.0214353E0,1.4552914E0,3.7144232E0,1.0473516E0,1.3665384E0,1.6592792E0,7.5951695E0,2.448249E0,1.9568358E2,5.0088763E0,9.0488266E1,9.323356E2,3.559203E2,8.1134636E1,5.419384E1,6.1742237E1,5.740621E0,3.254789E2,1.5707589E3,2.9018796E2,1.5870331E2,3.929534E2,3.2895005E3,2.854004E3,5.4005084E2,4.905246E3,4.4849377E0,1.3445686E1,4.3278513E0,4.4868817E0,6.863108E1,9.051567E1,2.486732E0,1.0315961E2,1.0817219E0,1.1514966E0,1.1525977E1,1.1146075E0,1.115268E1,2.0158482E1,2.5893546E2,1.1579146E3,2.4073274E2,1.3110039E1,1.7083737E2,5.4207474E1,1.2678026E3,4.7171555E2,6.641367E2,5.644993E2,6.883395E3,1.7625032E3,1.4340176E3,2.6499868E3],"tree_param":{"num_deleted":"0","num_feature":"19","num_nodes":"121","size_leaf_vector":"1"}},{"base_weights":[2.519865E-2,-3.6179288E-3,1.21768795E-1,4.7237378E-2,-1.4032671E-1,3.0191544E-1,-1.340837E-2,-1.2589256E-1,7.891072E-2,-3.456776E-1,-6.372606E-2,1.974155E-1,4.2518225E-1,6.321863E-2,-2.1780601E-1,-4.7178145E-2,-3.0644456E-1,1.2643068E-1,2.1617177E-3,-3.9941126E-1,1.0223016E-1,1.9262195E-2,-3.392858E-1,2.630413E-1,3.556718E-3,4.390501E-1,-2.8300098E-1,9.77993E-2,-3.185044E-1,-3.5697746E-1,-1.279297E-1,-2.8234005E-1,1.2507033E-2,-8.7656885E-1,-1.7239434E-1,7.2113946E-2,3.3899856E-1,-2.6086882E-1,8.810766E-2,-6.303915E-1,-2.8721744E-1,3.6604637E-1,1.5283763E-2,1.4485593E-1,-1.5147202E-1,-6.07253E-1,-1.308217E-1,2.8440723E-1,1.05547225E-2,8.034423E-2,-2.1085182E-1,-7.398687E-2,4.5592105E-1,4.284173E-1,-5.502791E-1,-1.24860294E-1,1.6357698E-1,-1.0636564E-1,-6.191429E-1,-4.276144E-1,2.1940662E-1,-1.7383148E-1,1.2060559E-1,-1.2585486E-1,1.6146004E-2,4.516644E-2,-2.7064996E-2,-4.2183343E-1,-1.4880851E-1,-2.179119E-2,-1.960757E-1,5.3812727E-2,-1.3853344E-3,-2.9182384E-2,1.17420994E-1,-1.0561491E-2,-1.92903E-1,3.423888E-2,-5.0779387E-2,-3.3501208E-1,-1.3024977E-1,-1.5105204E-1,-5.6369964E-2,1.8906726E-1,-1.4952076E-2,2.6611557E-2,-1.80168E-1,8.099983E-2,-2.5917232E-2,-2.8329445E-2,-1.2089426E-1,-2.1733105E-1,-6.82284E-2,1.4673975E-1,-5.2520365E-2,-1.5949285E-2,9.077965E-2,3.3399034E-2,-1.514431E-1,7.508196E-2,-1.1806638E-2,-4.8223838E-1,-4.1308735E-2,-3.7153164E-1,9.648292E-2,3.069449E-2,1.4522599E-1,-1.5256217E-1,2.0623983E-1,-2.4491872E-1,5.8600012E-2,-1.4367454E-1,9.322471E-4,2.9150177E-2,1.08935535E-1,-8.0698684E-2,1.1270394E-1,-3.6188573E-1,-1.0746946E-1,-5.2231354E-1,-1.22482374E-1,-2.3505424E-1,9.833732E-2,-2.1534545E-2,-1.2305471E-1,1.6603622E-1,-1.6487086E-2],"categories":[],"categories_nodes":[],"categories_segments":[],"categories_sizes":[],"default_left":[0,0,0,0,0,0,0,0,0,0,0,0,0,0,0,0,0,0,0,0,0,0,0,0,0,0,0,0,0,0,0,0,0,0,0,0,0,0,0,0,0,0,0,0,0,0,0,0,0,0,0,0,0,0,0,0,0,0,0,0,0,0,0,0,0,0,0,0,0,0,0,0,0,0,0,0,0,0,0,0,0,0,0,0,0,0,0,0,0,0,0,0,0,0,0,0,0,0,0,0,0,0,0,0,0,0,0,0,0,0,0,0,0,0,0,0,0,0,0,0,0,0,0,0,0,0,0],"id":7,"left_children":[1,3,5,7,9,11,13,15,17,19,21,23,25,27,29,31,33,35,37,39,41,43,45,47,49,51,53,55,57,59,61,63,65,67,69,71,73,75,77,79,81,83,85,87,89,91,93,95,97,99,101,103,105,107,109,111,113,115,117,119,121,123,125,-1,-1,-1,-1,-1,-1,-1,-1,-1,-1,-1,-1,-1,-1,-1,-1,-1,-1,-1,-1,-1,-1,-1,-1,-1,-1,-1,-1,-1,-1,-1,-1,-1,-1,-1,-1,-1,-1,-1,-1,-1,-1,-1,-1,-1,-1,-1,-1,-1,-1,-1,-1,-1,-1,-1,-1,-1,-1,-1,-1,-1,-1,-1,-1],"loss_changes":[9.39848E1,1.808533E2,1.8901733E2,1.0397988E2,1.1092331E2,4.2778503E1,6.94816E1,4.166407E1,5.845752E1,4.6153625E1,1.17506615E2,2.2933113E1,1.5108978E1,4.2624676E1,1.5084347E1,2.8684685E1,6.788071E1,1.14272385E2,1.3860623E2,4.4157074E1,4.720194E0,8.4718704E1,6.635719E1,7.262245E0,7.5397663E0,1.2989838E1,5.9235296E0,4.336473E1,1.7043354E1,1.939553E1,8.42341E0,1.909922E1,2.3138933E1,3.3401108E1,3.460826E1,6.490418E1,4.6093826E1,1.3019409E2,3.0969318E1,5.2813232E1,2.4682312E1,5.6375017E0,7.1069875E0,6.589633E1,2.39855E1,2.2985046E1,1.8469551E1,7.640991E0,5.5672703E0,6.867874E0,1.211743E1,2.2747887E1,1.4385345E1,2.4688401E0,4.560688E0,3.0605276E1,3.0244259E1,1.2525905E1,1.6537838E1,1.0025467E1,5.9546604E0,1.4975651E1,8.800835E0,0E0,0E0,0E0,0E0,0E0,0E0,0E0,0E0,0E0,0E0,0E0,0E0,0E0,0E0,0E0,0E0,0E0,0E0,0E0,0E0,0E0,0E0,0E0,0E0,0E0,0E0,0E0,0E0,0E0,0E0,0E0,0E0,0E0,0E0,0E0,0E0,0E0,0E0,0E0,0E0,0E0,0E0,0E0,0E0,0E0,0E0,0E0,0E0,0E0,0E0,0E0,0E0,0E0,0E0,0E0,0E0,0E0,0E0,0E0,0E0,0E0,0E0,0E0,0E0],"parents":[2147483647,0,0,1,1,2,2,3,3,4,4,5,5,6,6,7,7,8,8,9,9,10,10,11,11,12,12,13,13,14,14,15,15,16,16,17,17,18,18,19,19,20,20,21,21,22,22,23,23,24,24,25,25,26,26,27,27,28,28,29,29,30,30,31,31,32,32,33,33,34,34,35,35,36,36,37,37,38,38,39,39,40,40,41,41,42,42,43,43,44,44,45,45,46,46,47,47,48,48,49,49,50,50,51,51,52,52,53,53,54,54,55,55,56,56,57,57,58,58,59,59,60,60,61,61,62,62],"right_children":[2,4,6,8,10,12,14,16,18,20,22,24,26,28,30,32,34,36,38,40,42,44,46,48,50,52,54,56,58,60,62,64,66,68,70,72,74,76,78,80,82,84,86,88,90,92,94,96,98,100,102,104,106,108,110,112,114,116,118,120,122,124,126,-1,-1,-1,-1,-1,-1,-1,-1,-1,-1,-1,-1,-1,-1,-1,-1,-1,-1,-1,-1,-1,-1,-1,-1,-1,-1,-1,-1,-1,-1,-1,-1,-1,-1,-1,-1,-1,-1,-1,-1,-1,-1,-1,-1,-1,-1,-1,-1,-1,-1,-1,-1,-1,-1,-1,-1,-1,-1,-1,-1,-1,-1,-1,-1],"split_conditions":[9.0037E4,7.1879E4,1.02125E5,2.1523E4,1.54682E5,4E0,1.10146E5,1.5057E4,1.06639E5,6.4E1,8.085E4,7E0,2.61798E5,2.53123E5,3.7E1,2.5374E4,1.6139E4,8.5281E4,5.6665E4,1.2134E5,1.33122E5,2.00625E5,8.7471E4,2.53123E5,1.93248E5,3.861E3,2.2E1,4.133E4,1.03912E5,1.11598E5,9E0,9E0,6.513E3,8.3396E4,4.9601E4,4.8553E4,6.9905E4,1.14236E5,1.07432E5,2.6E1,3.1401E4,1.3E1,1.5E1,8E0,8.5391E4,5.2E1,9.224E4,1.29191E5,6E1,9.6773E4,9.2108E4,9.536E4,1.34392E5,9.4795E4,2E0,1.05179E5,2.35155E5,1.0306E5,4E0,3.195E3,1.41608E5,8E0,1.3E1,-1.2585486E-1,1.6146004E-2,4.516644E-2,-2.7064996E-2,-4.2183343E-1,-1.4880851E-1,-2.179119E-2,-1.960757E-1,5.3812727E-2,-1.3853344E-3,-2.9182384E-2,1.17420994E-1,-1.0561491E-2,-1.92903E-1,3.423888E-2,-5.0779387E-2,-3.3501208E-1,-1.3024977E-1,-1.5105204E-1,-5.6369964E-2,1.8906726E-1,-1.4952076E-2,2.6611557E-2,-1.80168E-1,8.099983E-2,-2.5917232E-2,-2.8329445E-2,-1.2089426E-1,-2.1733105E-1,-6.82284E-2,1.4673975E-1,-5.2520365E-2,-1.5949285E-2,9.077965E-2,3.3399034E-2,-1.514431E-1,7.508196E-2,-1.1806638E-2,-4.8223838E-1,-4.1308735E-2,-3.7153164E-1,9.648292E-2,3.069449E-2,1.4522599E-1,-1.5256217E-1,2.0623983E-1,-2.4491872E-1,5.8600012E-2,-1.4367454E-1,9.322471E-4,2.9150177E-2,1.08935535E-1,-8.0698684E-2,1.1270394E-1,-3.6188573E-1,-1.0746946E-1,-5.2231354E-1,-1.22482374E-1,-2.3505424E-1,9.833732E-2,-2.1534545E-2,-1.2305471E-1,1.6603622E-1,-1.6487086E-2],"split_indices":[14,14,14,11,11,4,14,11,11,18,13,8,11,11,18,13,11,11,14,10,10,11,13,11,10,13,18,10,14,14,3,3,11,10,14,11,10,11,13,18,13,3,5,3,14,18,13,11,18,14,14,14,11,14,17,14,11,14,1,10,11,3,3,0,0,0,0,0,0,0,0,0,0,0,0,0,0,0,0,0,0,0,0,0,0,0,0,0,0,0,0,0,0,0,0,0,0,0,0,0,0,0,0,0,0,0,0,0,0,0,0,0,0,0,0,0,0,0,0,0,0,0,0,0,0,0,0],"split_type":[0,0,0,0,0,0,0,0,0,0,0,0,0,0,0,0,0,0,0,0,0,0,0,0,0,0,0,0,0,0,0,0,0,0,0,0,0,0,0,0,0,0,0,0,0,0,0,0,0,0,0,0,0,0,0,0,0,0,0,0,0,0,0,0,0,0,0,0,0,0,0,0,0,0,0,0,0,0,0,0,0,0,0,0,0,0,0,0,0,0,0,0,0,0,0,0,0,0,0,0,0,0,0,0,0,0,0,0,0,0,0,0,0,0,0,0,0,0,0,0,0,0,0,0,0,0,0],"sum_hessian":[3.3772055E4,2.6011248E4,7.7608066E3,1.8959148E4,7.052099E3,3.3264758E3,4.4343306E3,2.9316204E3,1.6027529E4,1.9149612E3,5.1371377E3,1.8016886E3,1.5247874E3,3.2257239E3,1.2086067E3,2.0424458E3,8.8917444E2,9.898266E3,6.129263E3,1.7099355E3,2.0502565E2,3.9488289E3,1.1883091E3,1.34576E3,4.5592856E2,1.4958748E3,2.8912617E1,2.958458E3,2.6726587E2,4.730804E2,7.355263E2,4.126922E2,1.6297537E3,1.6821327E2,7.209611E2,7.884823E3,2.0134424E3,1.5090139E3,4.620249E3,5.5751886E2,1.1524166E3,5.0025692E1,1.5499995E2,2.2752698E3,1.673559E3,5.191115E2,6.691975E2,1.2406475E3,1.05112495E2,3.36162E2,1.1976658E2,4.7517174E1,1.4483575E3,7.7312746E0,2.1181343E1,6.7446686E2,2.283991E3,1.5749023E2,1.0977563E2,4.2166296E2,5.1417473E1,6.211139E2,1.1441243E2,2.92915E2,1.1977718E2,6.9512585E2,9.3462775E2,6.9209496E1,9.900378E1,5.9811523E2,1.228459E2,3.287689E3,4.5971343E3,2.1582536E2,1.797617E3,9.4943884E2,5.5957513E2,4.196512E3,4.2373676E2,1.5893404E2,3.9858484E2,3.6137054E2,7.9104614E2,3.027754E1,1.974815E1,1.3925394E2,1.5746013E1,1.4762189E3,7.9905096E2,1.3652947E3,3.082643E2,3.96023E2,1.2308852E2,4.390926E1,6.2528827E2,6.3340935E1,1.1773065E3,8.857614E1,1.6536358E1,1.3848045E2,1.9768152E2,4.917345E0,1.14849236E2,1.1509123E1,3.6008053E1,1.0719561E2,1.341162E3,1.4659498E0,6.2653246E0,1.554002E1,5.6413226E0,1.7832999E2,4.9613687E2,1.7147794E3,5.692116E2,1.1809121E2,3.9399025E1,3.2658684E1,7.711694E1,4.826927E0,4.1683603E2,4.4071827E0,4.701029E1,4.3471838E2,1.863955E2,3.239364E1,8.201879E1],"tree_param":{"num_deleted":"0","num_feature":"19","num_nodes":"127","size_leaf_vector":"1"}},{"base_weights":[1.9443953E-2,4.133177E-1,1.3410016E-2,6.2752295E-1,3.1385902E-1,5.892985E-2,-3.6544893E-2,-2.7475864E-1,6.713092E-1,5.6009346E-1,2.4738772E-1,1.3760522E-1,1.908123E-2,4.7980886E-2,-7.7849336E-2,2.7569035E-1,-1.141178E0,-2.924803E-1,6.9958943E-1,3.1966087E-1,7.9386604E-1,-1.24815024E-1,3.399887E-1,1.0090798E-1,3.097684E-1,-3.010403E-1,2.9154643E-2,-5.419455E-2,2.6127464E-1,-2.4276336E-1,-4.631438E-2,-1.4581957E-1,6.514515E-1,-4.118914E-1,-1.0253963E-1,2.3000517E-1,-4.3058315E-1,-3.701527E-2,7.2443575E-1,6.354595E-1,8.04412E-2,8.368869E-1,-4.8585E-2,1.3917131E-2,-1.2033603E0,4.037783E-1,-2.9413357E-1,5.051106E-1,9.314893E-2,4.0285316E-1,-1.1186533E-1,-4.1900092E-1,-1.7276948E-2,3.983649E-2,-1.8109086E-1,8.8832565E-2,-1.6059476E-1,3.358418E-1,3.5406407E-2,-2.1858545E-1,-1.0434105E0,3.641077E-1,-5.6646746E-2,2.9090924E-2,2.3942947E-1,1.6118221E-1,-1.841151E-1,1.1414822E-1,2.3029736E-1,2.3482315E-1,-8.348273E-2,-4.9354732E-1,1.0828789E-1,2.7599502E-1,9.709764E-2,2.5062406E-2,-3.5963854E-1,-4.4486472E-1,2.5048833E-2,1.4615178E-1,4.843091E-2,4.509818E-2,-3.515739E-1,1.9818375E-1,9.181796E-2,1.2908145E-2,4.9043324E-2,-5.5107914E-2,1.2736712E-1,-1.1295527E-1,1.2476436E-2,-7.154011E-2,-1.9902141E-1,1.1533282E-1,-7.04079E-2,3.9170394E-3,4.4492185E-2,-7.290409E-2,2.1288956E-2,-6.027054E-2,4.0160414E-2,-6.0013946E-2,4.489624E-2,1.17666304E-1,5.711824E-2,6.34995E-2,-4.928637E-2,-1.0476267E-1,-3.660685E-2,-3.6029533E-1,5.467396E-2,1.6966532E-1,-2.1071802E-3,-3.1040471E-2,9.964256E-3],"categories":[],"categories_nodes":[],"categories_segments":[],"categories_sizes":[],"default_left":[0,0,0,0,0,0,0,0,0,0,0,0,0,0,0,0,0,0,0,0,0,0,0,0,0,0,0,0,0,0,0,0,0,0,0,0,0,0,0,0,0,0,0,0,0,0,0,0,0,0,0,0,0,0,0,0,0,0,0,0,0,0,0,0,0,0,0,0,0,0,0,0,0,0,0,0,0,0,0,0,0,0,0,0,0,0,0,0,0,0,0,0,0,0,0,0,0,0,0,0,0,0,0,0,0,0,0,0,0,0,0,0,0,0,0],"id":8,"left_children":[1,3,5,7,9,11,13,15,17,19,21,23,25,27,29,31,33,35,37,39,41,43,45,47,49,51,53,55,57,59,61,-1,63,-1,-1,-1,-1,65,67,69,71,73,-1,75,77,79,81,83,85,87,89,91,93,95,97,99,101,103,105,107,109,111,113,-1,-1,-1,-1,-1,-1,-1,-1,-1,-1,-1,-1,-1,-1,-1,-1,-1,-1,-1,-1,-1,-1,-1,-1,-1,-1,-1,-1,-1,-1,-1,-1,-1,-1,-1,-1,-1,-1,-1,-1,-1,-1,-1,-1,-1,-1,-1,-1,-1,-1,-1,-1],"loss_changes":[7.935705E1,1.0536583E1,7.479288E1,6.4563484E0,5.525612E0,5.3950966E1,5.475373E1,4.157152E0,4.3392563E0,3.8364143E0,9.496246E0,3.6522896E1,3.685021E1,1.12212585E2,5.4774544E1,1.9574512E0,1.4675522E-1,7.188099E0,2.72937E0,2.7854848E0,1.6249943E0,8.302806E0,9.01437E0,1.4914959E1,3.9924416E1,1.1662323E1,2.488422E1,5.2998608E1,2.80747E1,3.250299E1,3.7528038E1,0E0,2.694918E-1,0E0,0E0,0E0,0E0,2.240639E0,1.8321915E0,2.3763123E0,1.1489838E1,1.1874046E0,0E0,4.326469E0,2.398138E0,3.9680862E0,8.243776E0,2.5720215E0,1.64973E1,1.06766815E1,7.5101275E0,1.070557E1,9.122304E0,3.0621538E1,8.379282E0,1.9414673E1,2.4470688E1,1.0205154E1,1.4642422E1,2.0675209E1,9.739857E0,1.6252266E1,3.6306915E1,0E0,0E0,0E0,0E0,0E0,0E0,0E0,0E0,0E0,0E0,0E0,0E0,0E0,0E0,0E0,0E0,0E0,0E0,0E0,0E0,0E0,0E0,0E0,0E0,0E0,0E0,0E0,0E0,0E0,0E0,0E0,0E0,0E0,0E0,0E0,0E0,0E0,0E0,0E0,0E0,0E0,0E0,0E0,0E0,0E0,0E0,0E0,0E0,0E0,0E0,0E0,0E0],"parents":[2147483647,0,0,1,1,2,2,3,3,4,4,5,5,6,6,7,7,8,8,9,9,10,10,11,11,12,12,13,13,14,14,15,15,16,16,17,17,18,18,19,19,20,20,21,21,22,22,23,23,24,24,25,25,26,26,27,27,28,28,29,29,30,30,32,32,37,37,38,38,39,39,40,40,41,41,43,43,44,44,45,45,46,46,47,47,48,48,49,49,50,50,51,51,52,52,53,53,54,54,55,55,56,56,57,57,58,58,59,59,60,60,61,61,62,62],"right_children":[2,4,6,8,10,12,14,16,18,20,22,24,26,28,30,32,34,36,38,40,42,44,46,48,50,52,54,56,58,60,62,-1,64,-1,-1,-1,-1,66,68,70,72,74,-1,76,78,80,82,84,86,88,90,92,94,96,98,100,102,104,106,108,110,112,114,-1,-1,-1,-1,-1,-1,-1,-1,-1,-1,-1,-1,-1,-1,-1,-1,-1,-1,-1,-1,-1,-1,-1,-1,-1,-1,-1,-1,-1,-1,-1,-1,-1,-1,-1,-1,-1,-1,-1,-1,-1,-1,-1,-1,-1,-1,-1,-1,-1,-1,-1,-1],"split_conditions":[1E0,4E0,8E0,9.82E3,5.5893E4,2E0,3.9931E4,8E0,6E0,1.43312E5,9.908E4,8E0,3E0,2.8877E4,5.2261E4,6.5562E4,3.232E3,8.5134E4,1.1873E4,3.074E4,1.04429E5,9.3764E4,1.3E1,1E0,9E0,1.80519E5,2.62886E5,1.01E4,1E1,1.09914E5,9.24E2,-1.4581957E-1,1.50345E5,-4.118914E-1,-1.0253963E-1,2.3000517E-1,-4.3058315E-1,3.3405E4,4E0,2.3E1,4.5762E4,2.60459E5,-4.8585E-2,1.0903E5,5.2E1,1.25982E5,7.862E4,1.48803E5,3E0,2E0,3.7423E4,5.6821E4,5.2487E4,2.07144E5,2.26765E5,2E0,6.2E1,2E0,2.4E1,1.25697E5,8E0,1.1E1,9.0037E4,2.9090924E-2,2.3942947E-1,1.6118221E-1,-1.841151E-1,1.1414822E-1,2.3029736E-1,2.3482315E-1,-8.348273E-2,-4.9354732E-1,1.0828789E-1,2.7599502E-1,9.709764E-2,2.5062406E-2,-3.5963854E-1,-4.4486472E-1,2.5048833E-2,1.4615178E-1,4.843091E-2,4.509818E-2,-3.515739E-1,1.9818375E-1,9.181796E-2,1.2908145E-2,4.9043324E-2,-5.5107914E-2,1.2736712E-1,-1.1295527E-1,1.2476436E-2,-7.154011E-2,-1.9902141E-1,1.1533282E-1,-7.04079E-2,3.9170394E-3,4.4492185E-2,-7.290409E-2,2.1288956E-2,-6.027054E-2,4.0160414E-2,-6.0013946E-2,4.489624E-2,1.17666304E-1,5.711824E-2,6.34995E-2,-4.928637E-2,-1.0476267E-1,-3.660685E-2,-3.6029533E-1,5.467396E-2,1.6966532E-1,-2.1071802E-3,-3.1040471E-2,9.964256E-3],"split_indices":[6,8,3,13,10,16,14,3,7,0,10,1,2,14,14,10,13,14,11,14,13,10,5,4,2,10,11,14,8,13,13,0,11,0,0,0,0,14,1,8,14,0,0,14,16,11,13,0,4,8,13,13,14,11,0,4,18,17,16,10,5,3,14,0,0,0,0,0,0,0,0,0,0,0,0,0,0,0,0,0,0,0,0,0,0,0,0,0,0,0,0,0,0,0,0,0,0,0,0,0,0,0,0,0,0,0,0,0,0,0,0,0,0,0,0],"split_type":[0,0,0,0,0,0,0,0,0,0,0,0,0,0,0,0,0,0,0,0,0,0,0,0,0,0,0,0,0,0,0,0,0,0,0,0,0,0,0,0,0,0,0,0,0,0,0,0,0,0,0,0,0,0,0,0,0,0,0,0,0,0,0,0,0,0,0,0,0,0,0,0,0,0,0,0,0,0,0,0,0,0,0,0,0,0,0,0,0,0,0,0,0,0,0,0,0,0,0,0,0,0,0,0,0,0,0,0,0,0,0,0,0,0,0],"sum_hessian":[3.3392195E4,5.0281387E2,3.288938E4,1.5775212E2,3.4506174E2,1.72085E4,1.5680881E4,7.056997E0,1.5069511E2,7.17706E1,2.7329114E2,5.7847964E3,1.1423703E4,5.14728E3,1.0533602E4,4.732301E0,2.3246953E0,4.0294514E0,1.4666566E2,3.6548386E1,3.5222218E1,5.4377388E1,2.1891376E2,4.769702E3,1.01509424E3,3.476271E2,1.1076076E4,3.4806624E3,1.6666176E3,1.6898301E3,8.843771E3,1.4662739E0,3.2660275E0,1.2458841E0,1.0788114E0,2.262055E0,1.7673962E0,4.7697515E0,1.4189592E2,1.5038879E1,2.1509504E1,3.382423E1,1.3979876E0,4.9054638E1,5.32275E0,1.9923494E2,1.9678818E1,8.8627174E1,4.6810747E3,8.31555E2,1.8353922E2,2.4521463E2,1.0241249E2,1.0541318E4,5.347573E2,1.4848445E3,1.9958179E3,1.252602E3,4.1401556E2,1.6415321E3,4.829792E1,2.1633354E2,8.6274375E3,1.0305796E0,2.235448E0,2.4241297E0,2.345622E0,1.6935343E1,1.2496057E2,1.3074732E1,1.9641483E0,2.3274677E0,1.9182037E1,2.8428797E1,5.3954315E0,4.7271782E1,1.7828552E0,4.2477536E0,1.0749968E0,1.4747563E2,5.1759315E1,1.3614102E1,6.0647163E0,4.8454712E1,4.0172462E1,2.7341313E3,1.9469435E3,2.9405663E1,8.0214935E2,6.682918E1,1.1671003E2,1.4217203E2,1.030426E2,3.5693455E1,6.671903E1,8.455028E3,2.08629E3,4.2932086E2,1.0543646E2,1.9928557E2,1.2855588E3,1.7709734E3,2.2484445E2,9.014719E2,3.5113007E2,2.1988014E2,1.941354E2,6.966008E2,9.449313E2,4.2813793E1,5.4841256E0,1.3988351E2,7.645003E1,5.671951E3,2.9554863E3],"tree_param":{"num_deleted":"0","num_feature":"19","num_nodes":"115","size_leaf_vector":"1"}},{"base_weights":[1.4559536E-2,4.2264134E-2,-4.590661E-2,2.1929128E-2,1.3010366E-1,-2.1200629E-1,6.7845196E-2,-2.1850929E-1,2.9786034E-2,1.998776E-1,-2.286643E-2,-1.2212169E-1,-6.3185436E-1,7.053653E-2,-1.6258316E0,-7.7270204E-1,-1.8028042E-1,3.6342737E-1,2.4896318E-2,6.176001E-2,2.4631678E-1,-4.976093E-1,2.7844563E-2,-2.2170176E-1,2.794974E-1,-6.769531E-1,5.145019E-1,2.2786461E-1,4.6567228E-2,-6.1159027E-1,-2.150268E0,1.9537005E-1,-1.2162911E0,3.7015486E-1,-1.9262864E-1,2.794715E-1,5.732945E-1,-1.083442E-1,3.6216024E-2,1.491673E-1,-3.497686E-2,2.6913032E-1,-6.531544E-2,-5.827392E-2,-6.6240066E-1,-3.679087E-2,1.4435107E-1,-1.2656589E-1,-3.6417317E-1,4.275361E-1,1.5611461E-1,-5.9499234E-1,-1.0394388E0,1.743045E-1,1.1175594E0,2.4202548E-1,-7.556881E-1,-8.32129E-1,8.9337856E-2,6.749365E-2,-3.9016768E-1,-2.4612143E0,-2.2431731E-1,1.8521658E-1,-3.3479786E-1,-4.024169E-1,2.156431E-1,1.4574267E-1,-6.418087E-2,9.253572E-2,-1.6145627E-1,1.8504362E-1,-2.3832177E-1,-1.1996284E-2,-1.4429075E-1,4.9769524E-2,5.07224E-3,6.32371E-2,-5.2840017E-2,-3.963316E-2,5.1923055E-2,9.385535E-2,5.219301E-2,-1.0997807E-1,4.2199768E-2,4.240565E-2,-3.6740878E-1,-3.9332536E-1,-1.6052946E-1,6.605509E-3,-7.097265E-2,-1.7362995E-2,8.5530445E-2,-6.6598095E-2,6.447049E-3,-2.8632373E-1,-1.0080332E-1,1.3707722E-4,1.4040633E-1,1.7757105E-2,1.1720401E-1,-3.427236E-1,-1.6587606E-1,-4.8082805E-1,-2.3846442E-1,-3.3200058E-1,1.023498E-1,1.08008005E-1,5.3483546E-1,7.962833E-2,-9.3787365E-2,-2.868239E-1,2.0294991E-1,-7.850277E-1,-2.2493298E-1,2.9483393E-2,-1.20383225E-1,-8.6371714E-1,-1.9720249E-1],"categories":[],"categories_nodes":[],"categories_segments":[],"categories_sizes":[],"default_left":[0,0,0,0,0,0,0,0,0,0,0,0,0,0,0,0,0,0,0,0,0,0,0,0,0,0,0,0,0,0,0,0,0,0,0,0,0,0,0,0,0,0,0,0,0,0,0,0,0,0,0,0,0,0,0,0,0,0,0,0,0,0,0,0,0,0,0,0,0,0,0,0,0,0,0,0,0,0,0,0,0,0,0,0,0,0,0,0,0,0,0,0,0,0,0,0,0,0,0,0,0,0,0,0,0,0,0,0,0,0,0,0,0,0,0,0,0,0,0],"id":9,"left_children":[1,3,5,7,9,11,13,15,17,19,21,23,25,27,29,31,33,35,37,39,41,43,45,47,49,51,53,55,57,59,61,63,65,-1,67,69,71,73,75,77,79,81,83,85,87,89,91,93,95,97,99,101,103,105,107,109,111,113,115,-1,-1,117,-1,-1,-1,-1,-1,-1,-1,-1,-1,-1,-1,-1,-1,-1,-1,-1,-1,-1,-1,-1,-1,-1,-1,-1,-1,-1,-1,-1,-1,-1,-1,-1,-1,-1,-1,-1,-1,-1,-1,-1,-1,-1,-1,-1,-1,-1,-1,-1,-1,-1,-1,-1,-1,-1,-1,-1,-1],"loss_changes":[5.5547943E1,4.061534E1,1.9687692E2,3.4891205E1,4.562767E1,1.5975676E2,2.8306858E1,1.2243078E1,2.9165203E1,1.8814102E1,3.227084E1,1.3962881E2,3.894754E1,2.3279406E1,3.9263325E0,1.630269E1,9.807644E0,4.389591E0,2.6587631E1,6.2624016E0,1.5634262E1,9.327084E0,9.128518E0,3.7864304E1,1.2605816E1,2.0736267E1,5.7196774E0,1.1551918E1,2.0154373E2,3.033864E0,8.1910706E-1,7.6715965E0,7.2082176E0,0E0,7.970333E0,4.582835E0,4.8249397E0,3.5141792E1,4.0677338E1,7.8338757E0,7.13786E0,8.4613495E0,9.400075E0,8.644945E0,7.059147E0,9.169722E0,1.2326917E1,2.3721333E1,1.8285507E1,5.4429893E0,8.615927E0,1.2923782E1,1.6802444E1,4.5703993E0,4.504629E0,1.0537712E1,4.0414643E0,3.4621445E1,2.2465069E1,0E0,0E0,1.5407276E0,0E0,0E0,0E0,0E0,0E0,0E0,0E0,0E0,0E0,0E0,0E0,0E0,0E0,0E0,0E0,0E0,0E0,0E0,0E0,0E0,0E0,0E0,0E0,0E0,0E0,0E0,0E0,0E0,0E0,0E0,0E0,0E0,0E0,0E0,0E0,0E0,0E0,0E0,0E0,0E0,0E0,0E0,0E0,0E0,0E0,0E0,0E0,0E0,0E0,0E0,0E0,0E0,0E0,0E0,0E0,0E0,0E0],"parents":[2147483647,0,0,1,1,2,2,3,3,4,4,5,5,6,6,7,7,8,8,9,9,10,10,11,11,12,12,13,13,14,14,15,15,16,16,17,17,18,18,19,19,20,20,21,21,22,22,23,23,24,24,25,25,26,26,27,27,28,28,29,29,30,30,31,31,32,32,34,34,35,35,36,36,37,37,38,38,39,39,40,40,41,41,42,42,43,43,44,44,45,45,46,46,47,47,48,48,49,49,50,50,51,51,52,52,53,53,54,54,55,55,56,56,57,57,58,58,61,61],"right_children":[2,4,6,8,10,12,14,16,18,20,22,24,26,28,30,32,34,36,38,40,42,44,46,48,50,52,54,56,58,60,62,64,66,-1,68,70,72,74,76,78,80,82,84,86,88,90,92,94,96,98,100,102,104,106,108,110,112,114,116,-1,-1,118,-1,-1,-1,-1,-1,-1,-1,-1,-1,-1,-1,-1,-1,-1,-1,-1,-1,-1,-1,-1,-1,-1,-1,-1,-1,-1,-1,-1,-1,-1,-1,-1,-1,-1,-1,-1,-1,-1,-1,-1,-1,-1,-1,-1,-1,-1,-1,-1,-1,-1,-1,-1,-1,-1,-1,-1,-1],"split_conditions":[6.3E1,8.9723E4,9.9E1,3E0,1.06652E5,8.9E1,1.55E2,4E0,1E0,2.5404E4,4.2469E4,8.8E1,1.11241E5,1E2,2.8E1,1.74757E5,2.163E3,1.97568E5,1.7228E4,7E0,1.03912E5,1.07432E5,2.07144E5,8.3E1,5E0,9.6E1,2.17016E5,2.6496E5,1.1E2,7E0,8E0,2E0,6.4E1,3.7015486E-1,6.513E3,7.2E1,2.72351E5,1.5057E4,4.8553E4,2.33266E5,3.1E1,1.02025E5,1.19559E5,2.50674E5,4.6796E4,1.8226E5,1.61604E5,4.9E1,1.0693E4,1.4251E4,1.74326E5,1.7E1,3.1E1,1.48246E5,3E0,2.6585E5,9.908E4,1E1,2.6496E5,6.749365E-2,-3.9016768E-1,7.6506E4,-2.2431731E-1,1.8521658E-1,-3.3479786E-1,-4.024169E-1,2.156431E-1,1.4574267E-1,-6.418087E-2,9.253572E-2,-1.6145627E-1,1.8504362E-1,-2.3832177E-1,-1.1996284E-2,-1.4429075E-1,4.9769524E-2,5.07224E-3,6.32371E-2,-5.2840017E-2,-3.963316E-2,5.1923055E-2,9.385535E-2,5.219301E-2,-1.0997807E-1,4.2199768E-2,4.240565E-2,-3.6740878E-1,-3.9332536E-1,-1.6052946E-1,6.605509E-3,-7.097265E-2,-1.7362995E-2,8.5530445E-2,-6.6598095E-2,6.447049E-3,-2.8632373E-1,-1.0080332E-1,1.3707722E-4,1.4040633E-1,1.7757105E-2,1.1720401E-1,-3.427236E-1,-1.6587606E-1,-4.8082805E-1,-2.3846442E-1,-3.3200058E-1,1.023498E-1,1.08008005E-1,5.3483546E-1,7.962833E-2,-9.3787365E-2,-2.868239E-1,2.0294991E-1,-7.850277E-1,-2.2493298E-1,2.9483393E-2,-1.20383225E-1,-8.6371714E-1,-1.9720249E-1],"split_indices":[16,13,16,2,13,16,16,3,6,14,14,16,14,16,18,11,0,10,11,8,14,13,11,16,2,16,0,11,16,8,2,3,18,0,11,18,0,11,11,0,16,13,0,0,0,11,10,18,14,10,10,18,18,11,6,0,10,18,11,0,0,14,0,0,0,0,0,0,0,0,0,0,0,0,0,0,0,0,0,0,0,0,0,0,0,0,0,0,0,0,0,0,0,0,0,0,0,0,0,0,0,0,0,0,0,0,0,0,0,0,0,0,0,0,0,0,0,0,0],"split_type":[0,0,0,0,0,0,0,0,0,0,0,0,0,0,0,0,0,0,0,0,0,0,0,0,0,0,0,0,0,0,0,0,0,0,0,0,0,0,0,0,0,0,0,0,0,0,0,0,0,0,0,0,0,0,0,0,0,0,0,0,0,0,0,0,0,0,0,0,0,0,0,0,0,0,0,0,0,0,0,0,0,0,0,0,0,0,0,0,0,0,0,0,0,0,0,0,0,0,0,0,0,0,0,0,0,0,0,0,0,0,0,0,0,0,0,0,0,0,0],"sum_hessian":[3.3157023E4,2.2738785E4,1.0418238E4,1.8465287E4,4.2734976E3,4.2343716E3,6.1838667E3,5.834559E2,1.7881832E4,2.934626E3,1.3388717E3,3.4887595E3,7.45612E2,6.1750127E3,8.854043E0,3.6410538E1,5.4704535E2,2.5722467E2,1.7624607E4,7.390128E2,2.195613E3,1.2836258E2,1.2105092E3,2.7959592E3,6.9280035E2,7.177832E2,2.782878E1,8.1527295E2,5.3597397E3,3.756088E0,5.097955E0,1.1617188E1,2.479335E1,3.8791633E0,5.431662E2,1.853917E2,7.183297E1,1.3794136E3,1.6245193E4,3.8794254E2,3.5107028E2,2.0459708E3,1.4964226E2,3.538349E1,9.2979095E1,7.790129E2,4.3149622E2,1.677614E3,1.1183451E3,3.1381268E2,3.789877E2,5.8757056E2,1.3021269E2,1.8616087E1,9.212691E0,8.0444476E2,1.0828209E1,2.4792E2,5.1118193E3,2.0004861E0,1.755602E0,3.5549867E0,1.5429685E0,9.189163E0,2.4280255E0,2.357604E1,1.2173103E0,1.5875876E1,5.272903E2,1.796471E2,5.744606E0,7.0149956E1,1.683019E0,1.1665262E3,2.1288737E2,2.1043203E3,1.4140873E4,3.264532E2,6.1489346E1,2.3958205E2,1.11488235E2,1.4002852E3,6.456857E2,6.044816E1,8.91941E1,3.0963152E1,4.4203405E0,1.3727932E1,7.925116E1,6.025378E2,1.7647513E2,1.7731786E2,2.5417838E2,1.01980896E3,6.5780505E2,4.9431877E1,1.0689132E3,2.7259645E1,2.8655304E2,2.6906165E2,1.0992605E2,4.006843E1,5.475021E2,3.7736217E1,9.247647E1,1.496373E0,1.7119715E1,5.0280976E0,4.1845937E0,7.723774E2,3.2067383E1,9.790726E0,1.0374835E0,9.5782385E0,2.3834177E2,5.021123E3,9.06965E1,2.4024494E0,1.1525371E0],"tree_param":{"num_deleted":"0","num_feature":"19","num_nodes":"119","size_leaf_vector":"1"}},{"base_weights":[1.1120394E-2,4.3567225E-2,-2.3813933E-2,4.0685305E-1,3.8036298E-2,-1.2271045E-1,1.5509378E-3,-1.7474599E-1,4.4537705E-1,-2.419516E-3,9.2294365E-2,5.6654036E-2,-1.5178184E-1,2.738097E-1,-2.6986482E-2,2.22953E-1,-1.8226767E0,3.5594133E-1,6.9216985E-1,-8.651427E-2,2.2550933E-2,-9.40359E-2,1.4019124E-1,7.1183555E-2,-1.2351786E0,-1.7045918E-1,4.1194636E-2,-9.363161E-3,6.634149E-1,-5.5672415E-2,5.4434564E-2,-9.0505034E-1,6.098265E-1,-6.9902885E-1,-1.0699234E-1,6.496664E-1,2.4133922E-1,-2.1783987E-1,7.599449E-1,4.973324E-2,-1.7247574E-1,1.9391997E-1,-9.5089385E-3,-3.4014207E-1,-1.546784E-2,2.1225369E-1,3.4568593E-2,-5.919039E-1,9.203891E-2,-4.611648E-1,-6.036888E-1,-1.3495618E-1,-2.7496734E-1,1.08755104E-1,-7.32335E-1,3.4319304E-2,-3.3219007E-1,3.7755862E-1,7.6689506E-1,-4.3109663E-2,-2.2722685E-1,3.282398E-2,2.1293716E-1,-3.264215E-1,-6.392321E-2,2.3184471E-1,-1.4778888E-1,2.0878161E-1,-1.9176064E-1,1.3133596E-2,1.1554178E-1,-3.150181E-1,2.2669882E-1,2.3957755E-1,-5.297091E-2,-6.424171E-2,3.5506032E-2,-2.2970302E-1,-3.2495987E-2,2.962909E-2,1.7441955E-1,-1.6084829E-1,-1.3631689E-3,-1.4429952E-1,1.6369132E-2,3.7046425E-2,-3.8757045E-2,6.7674905E-2,-7.7965185E-2,1.9776523E-2,-6.765728E-2,-4.1011417E-1,9.004491E-2,4.55302E-2,-6.19216E-2,-2.5626957E-1,-7.6803025E-3,5.9198964E-2,-4.3364502E-2,-8.933148E-2,1.3942489E-1,2.3932855E-1,1.4512692E-2,-3.386568E-3,-3.2676357E-1,-7.664623E-3,1.5223813E-1,-1.1201295E-1,2.64615E-1,1.7130971E-1,2.0625344E-2,2.586457E-1,1.5357125E-1,-2.0853413E-2,4.5962043E-2,-1.200392E-1,1.0796994E-2,1.7990071E-2,-2.55523E-2,-1.280875E-2,1.2229637E-1],"categories":[],"categories_nodes":[],"categories_segments":[],"categories_sizes":[],"default_left":[0,0,0,0,0,0,0,0,0,0,0,0,0,0,0,0,0,0,0,0,0,0,0,0,0,0,0,0,0,0,0,0,0,0,0,0,0,0,0,0,0,0,0,0,0,0,0,0,0,0,0,0,0,0,0,0,0,0,0,0,0,0,0,0,0,0,0,0,0,0,0,0,0,0,0,0,0,0,0,0,0,0,0,0,0,0,0,0,0,0,0,0,0,0,0,0,0,0,0,0,0,0,0,0,0,0,0,0,0,0,0,0,0,0,0,0,0,0,0,0,0],"id":10,"left_children":[1,3,5,7,9,11,13,15,17,19,21,23,25,27,29,31,33,35,37,39,41,43,45,47,49,51,53,55,57,59,61,63,65,-1,-1,67,69,71,73,75,77,79,81,83,85,87,89,91,93,-1,95,97,99,101,103,105,107,109,111,113,115,117,119,-1,-1,-1,-1,-1,-1,-1,-1,-1,-1,-1,-1,-1,-1,-1,-1,-1,-1,-1,-1,-1,-1,-1,-1,-1,-1,-1,-1,-1,-1,-1,-1,-1,-1,-1,-1,-1,-1,-1,-1,-1,-1,-1,-1,-1,-1,-1,-1,-1,-1,-1,-1,-1,-1,-1,-1,-1,-1],"loss_changes":[3.7364117E1,3.4323494E1,3.9818527E1,5.8177795E0,3.6953453E1,1.6904053E1,9.8169716E1,1.1307458E1,5.0631065E0,2.0255304E1,6.418828E1,8.583986E0,1.0057655E1,1.3225735E2,2.6714512E1,6.7882204E0,1.6556244E0,5.8559723E0,4.0466557E0,2.5873718E1,4.086433E1,2.843877E1,4.3535706E1,6.2575617E0,4.2622566E-2,9.396996E0,1.2981478E1,9.814632E0,1.463562E1,1.821767E1,1.0200595E1,2.8133893E-1,2.4001203E0,0E0,0E0,3.399479E0,3.6786728E0,4.95696E0,2.2687492E0,1.5508688E1,5.1458775E1,4.3162357E1,1.6383196E1,1.9814735E1,1.7653086E1,2.1458435E1,1.8944569E1,9.961166E0,7.798767E0,0E0,4.550978E-1,6.0840187E0,1.0998119E1,9.443219E0,5.1238365E0,1.738318E1,4.4775743E0,8.090721E0,8.5334015E0,4.086177E1,2.626698E1,8.4082E0,1.780599E1,0E0,0E0,0E0,0E0,0E0,0E0,0E0,0E0,0E0,0E0,0E0,0E0,0E0,0E0,0E0,0E0,0E0,0E0,0E0,0E0,0E0,0E0,0E0,0E0,0E0,0E0,0E0,0E0,0E0,0E0,0E0,0E0,0E0,0E0,0E0,0E0,0E0,0E0,0E0,0E0,0E0,0E0,0E0,0E0,0E0,0E0,0E0,0E0,0E0,0E0,0E0,0E0,0E0,0E0,0E0,0E0,0E0,0E0],"parents":[2147483647,0,0,1,1,2,2,3,3,4,4,5,5,6,6,7,7,8,8,9,9,10,10,11,11,12,12,13,13,14,14,15,15,16,16,17,17,18,18,19,19,20,20,21,21,22,22,23,23,24,24,25,25,26,26,27,27,28,28,29,29,30,30,31,31,32,32,35,35,36,36,37,37,38,38,39,39,40,40,41,41,42,42,43,43,44,44,45,45,46,46,47,47,48,48,50,50,51,51,52,52,53,53,54,54,55,55,56,56,57,57,58,58,59,59,60,60,61,61,62,62],"right_children":[2,4,6,8,10,12,14,16,18,20,22,24,26,28,30,32,34,36,38,40,42,44,46,48,50,52,54,56,58,60,62,64,66,-1,-1,68,70,72,74,76,78,80,82,84,86,88,90,92,94,-1,96,98,100,102,104,106,108,110,112,114,116,118,120,-1,-1,-1,-1,-1,-1,-1,-1,-1,-1,-1,-1,-1,-1,-1,-1,-1,-1,-1,-1,-1,-1,-1,-1,-1,-1,-1,-1,-1,-1,-1,-1,-1,-1,-1,-1,-1,-1,-1,-1,-1,-1,-1,-1,-1,-1,-1,-1,-1,-1,-1,-1,-1,-1,-1,-1,-1,-1],"split_conditions":[8E0,1E0,1.9E1,4E0,3E0,4E0,2.8E1,2.01822E5,2.35155E5,1.1E1,4E0,1.11498E5,1.32E2,2.6E1,5.7E1,5.7251E4,9.536E4,6.7501E4,4.2444E4,4.8563E4,2.8E1,1.28145E5,3E1,7.61E3,5.7E1,8.2E1,2.47734E5,2.4E1,1E0,1.03912E5,7.3E1,1.03313E5,1.11241E5,-6.9902885E-1,-1.0699234E-1,1.07432E5,1.54201E5,9.6486E4,2.66006E5,1.0941E4,4.961E4,2.6E1,1.324E3,6E0,1.96542E5,2.1E1,1.1E1,3.4E1,1.96542E5,-4.611648E-1,4E0,8.707E3,2.62658E5,2.1726E4,1.33E2,2.3E1,2.62574E5,7E0,7.2347E4,9.0037E4,9E0,1.2E1,4E0,-3.264215E-1,-6.392321E-2,2.3184471E-1,-1.4778888E-1,2.0878161E-1,-1.9176064E-1,1.3133596E-2,1.1554178E-1,-3.150181E-1,2.2669882E-1,2.3957755E-1,-5.297091E-2,-6.424171E-2,3.5506032E-2,-2.2970302E-1,-3.2495987E-2,2.962909E-2,1.7441955E-1,-1.6084829E-1,-1.3631689E-3,-1.4429952E-1,1.6369132E-2,3.7046425E-2,-3.8757045E-2,6.7674905E-2,-7.7965185E-2,1.9776523E-2,-6.765728E-2,-4.1011417E-1,9.004491E-2,4.55302E-2,-6.19216E-2,-2.5626957E-1,-7.6803025E-3,5.9198964E-2,-4.3364502E-2,-8.933148E-2,1.3942489E-1,2.3932855E-1,1.4512692E-2,-3.386568E-3,-3.2676357E-1,-7.664623E-3,1.5223813E-1,-1.1201295E-1,2.64615E-1,1.7130971E-1,2.0625344E-2,2.586457E-1,1.5357125E-1,-2.0853413E-2,4.5962043E-2,-1.200392E-1,1.0796994E-2,1.7990071E-2,-2.55523E-2,-1.280875E-2,1.2229637E-1],"split_indices":[3,4,7,1,4,7,7,10,11,7,1,14,16,7,18,14,14,0,10,13,7,11,18,0,18,16,11,7,6,14,18,0,14,0,0,13,0,14,11,13,13,7,13,8,11,8,8,16,11,0,1,0,10,0,16,7,0,1,14,14,3,8,6,0,0,0,0,0,0,0,0,0,0,0,0,0,0,0,0,0,0,0,0,0,0,0,0,0,0,0,0,0,0,0,0,0,0,0,0,0,0,0,0,0,0,0,0,0,0,0,0,0,0,0,0,0,0,0,0,0,0],"split_type":[0,0,0,0,0,0,0,0,0,0,0,0,0,0,0,0,0,0,0,0,0,0,0,0,0,0,0,0,0,0,0,0,0,0,0,0,0,0,0,0,0,0,0,0,0,0,0,0,0,0,0,0,0,0,0,0,0,0,0,0,0,0,0,0,0,0,0,0,0,0,0,0,0,0,0,0,0,0,0,0,0,0,0,0,0,0,0,0,0,0,0,0,0,0,0,0,0,0,0,0,0,0,0,0,0,0,0,0,0,0,0,0,0,0,0,0,0,0,0,0,0],"sum_hessian":[3.2961336E4,1.7088953E4,1.5872382E4,2.551848E2,1.6833768E4,3.2391687E3,1.2633214E4,1.563322E1,2.3955157E2,9.643987E3,7.18978E3,4.516476E2,2.787521E3,1.1977346E3,1.1435479E4,1.32905E1,2.3427205E0,1.7762425E2,6.192733E1,2.207424E3,7.4365635E3,1.4700339E3,5.719746E3,4.4755872E2,4.0888915E0,2.5416433E3,2.4587767E2,6.9417224E2,5.035624E2,8.456452E3,2.9790269E3,3.0521064E0,1.0238393E1,1.3025131E0,1.0402074E0,4.8542076E1,1.2908217E2,4.139015E0,5.7788315E1,8.5410425E2,1.3533198E3,1.1711876E3,6.265376E3,3.549285E2,1.1151053E3,3.39943E3,2.320316E3,1.2812395E1,4.3474634E2,1.795735E0,2.2931564E0,1.8988624E3,6.427808E2,2.2691795E2,1.8959726E1,6.122244E2,8.194783E1,1.3507541E2,3.68487E2,7.8806143E3,5.7583777E2,2.6226555E3,3.5637137E2,1.9610145E0,1.0910918E0,9.180183E0,1.0582095E0,4.7303837E1,1.2382389E0,5.492608E1,7.415609E1,2.1890314E0,1.9499837E0,5.563953E1,2.1487858E0,1.7583342E2,6.782709E2,1.3101222E2,1.2223076E3,9.412836E2,2.29904E2,5.7516327E1,6.2078594E3,2.6141888E2,9.3509605E1,5.0183426E2,6.132711E2,3.3066008E3,9.2829155E1,2.0713674E3,2.4894846E2,6.5705194E0,6.241876E0,3.6265808E2,7.2088234E1,1.2665491E0,1.0266074E0,5.2727654E1,1.8461349E3,6.241372E2,1.8643648E1,1.7299229E1,2.0961871E2,6.6187015E0,1.2341024E1,5.442986E2,6.792583E1,7.992917E1,2.0186558E0,8.252364E1,5.2551773E1,2.6653583E2,1.0195119E2,6.9469907E3,9.3362335E2,3.4722797E2,2.2860982E2,2.1325913E3,4.90064E2,1.5442139E2,2.0195E2],"tree_param":{"num_deleted":"0","num_feature":"19","num_nodes":"121","size_leaf_vector":"1"}},{"base_weights":[8.644133E-3,-7.198069E-2,2.0179767E-2,6.838493E-2,-1.3482928E-1,1.3800564E-1,-1.4450963E-3,1.263302E-1,-7.7882156E-2,-1.7518768E-1,2.429602E-2,1.739053E-1,7.208401E-3,-2.5563098E-2,5.7758197E-2,4.046977E-2,3.3868286E-1,-3.7330666E-1,-9.668822E-4,-4.5352328E-1,-1.3268937E-1,8.620895E-2,-4.1812024E-1,-7.3606715E-2,1.9212961E-1,-1.7172879E-1,1.07522145E-1,-4.545164E-2,4.767754E-2,7.995507E-2,-4.825301E-2,-1.5527436E0,6.0251955E-2,4.0266824E-1,-4.6320367E-1,-5.627361E-1,4.736252E-1,3.7003088E-1,-8.191344E-2,-5.383601E-1,1.3266659E-1,-1.14804775E-1,-4.5292604E-1,1.6482875E-1,-6.926759E-2,-2.6668888E-1,-1.4453095E0,1.6871357E-1,-3.258814E-1,1.4465505E-1,2.857692E-1,4.065729E-2,-4.6554458E-1,-4.6139993E-4,2.4181885E-1,-9.416238E-2,2.0795942E-3,8.7053016E-2,-1.3771036E-1,6.166074E-2,2.81035E-1,-1.4286868E-1,8.828855E-2,-1.0005652E0,1.0039751E-2,5.2652996E-2,-1.8377345E-2,1.3499115E-1,-7.762657E-2,-3.2498735E-1,9.0526536E-2,1.3935712E-1,-1.9714913E-1,-8.653127E-2,2.6599047E-1,2.1526259E-1,2.3532264E-2,1.1241224E-1,-4.2871755E-2,-1.4696607E-1,-3.3727103E-1,2.767867E-1,-8.665234E-2,-4.466031E-2,2.6094032E-2,-1.7149353E-1,6.983904E-2,1.574162E-2,1.1040082E-1,1.1737049E-2,-1.20132364E-1,-1.9585134E-3,-2.0955756E-1,-1.646931E-2,-5.0728923E-1,7.7195495E-2,-1.6204071E-1,5.1407512E-2,-1.5697184E-1,7.204527E-2,2.980794E-2,6.3397326E-2,1.2897812E-1,-1.0703506E-2,1.5093102E-1,-1.1626113E-1,-4.96109E-1,3.125455E-2,-5.3372186E-2,1.2290533E-1,4.3266084E-2,-5.6094322E-3,-7.958236E-2,1.5936008E-1,-9.7278197E-4,-1.1421053E-2,3.853479E-2,-6.7718856E-2,2.780688E-2,5.243347E-2,1.0734951E-2,2.2774711E-1,8.707754E-3,-2.2486698E-2,-1.3967402E-1,-4.5911413E-2,4.2952463E-2],"categories":[],"categories_nodes":[],"categories_segments":[],"categories_sizes":[],"default_left":[0,0,0,0,0,0,0,0,0,0,0,0,0,0,0,0,0,0,0,0,0,0,0,0,0,0,0,0,0,0,0,0,0,0,0,0,0,0,0,0,0,0,0,0,0,0,0,0,0,0,0,0,0,0,0,0,0,0,0,0,0,0,0,0,0,0,0,0,0,0,0,0,0,0,0,0,0,0,0,0,0,0,0,0,0,0,0,0,0,0,0,0,0,0,0,0,0,0,0,0,0,0,0,0,0,0,0,0,0,0,0,0,0,0,0,0,0,0,0,0,0,0,0,0,0,0,0],"id":11,"left_children":[1,3,5,7,9,11,13,15,17,19,21,23,25,27,29,31,33,35,37,39,41,43,45,47,49,51,53,55,57,59,61,63,65,67,69,71,73,75,77,79,81,83,85,87,89,91,93,95,97,99,101,103,105,107,109,111,113,115,117,119,121,123,125,-1,-1,-1,-1,-1,-1,-1,-1,-1,-1,-1,-1,-1,-1,-1,-1,-1,-1,-1,-1,-1,-1,-1,-1,-1,-1,-1,-1,-1,-1,-1,-1,-1,-1,-1,-1,-1,-1,-1,-1,-1,-1,-1,-1,-1,-1,-1,-1,-1,-1,-1,-1,-1,-1,-1,-1,-1,-1,-1,-1,-1,-1,-1,-1],"loss_changes":[3.0498629E1,3.621898E1,7.3093796E1,1.0774548E1,1.821386E1,2.0887276E1,3.4612152E1,1.6579687E1,8.202732E0,2.6695938E1,1.5773361E1,1.5758751E1,1.7233795E1,2.5091276E1,1.6514757E1,2.0554422E1,1.3624046E1,1.2230416E1,8.662337E0,1.4951214E1,1.1194942E1,6.1822786E0,1.0612281E1,1.473268E1,1.4412643E1,2.154211E1,8.921192E0,3.1363138E1,2.6866188E1,2.1326729E1,1.5714596E1,2.2728523E1,9.0047E0,7.7215004E0,9.727503E0,6.2610435E0,4.7167034E0,5.178805E0,6.647797E0,6.877884E0,1.3129471E1,1.28057575E1,8.561338E0,7.641405E0,6.1269927E0,7.055878E0,2.9326344E0,7.8721952E0,1.16671095E1,9.317287E0,1.1637123E1,7.117579E0,1.2779264E1,6.3687487E0,4.4329453E0,8.638258E1,1.9311668E1,1.5724712E1,1.3098452E1,1.5565325E1,5.824531E1,1.570791E1,6.619582E0,0E0,0E0,0E0,0E0,0E0,0E0,0E0,0E0,0E0,0E0,0E0,0E0,0E0,0E0,0E0,0E0,0E0,0E0,0E0,0E0,0E0,0E0,0E0,0E0,0E0,0E0,0E0,0E0,0E0,0E0,0E0,0E0,0E0,0E0,0E0,0E0,0E0,0E0,0E0,0E0,0E0,0E0,0E0,0E0,0E0,0E0,0E0,0E0,0E0,0E0,0E0,0E0,0E0,0E0,0E0,0E0,0E0,0E0,0E0,0E0,0E0,0E0,0E0,0E0],"parents":[2147483647,0,0,1,1,2,2,3,3,4,4,5,5,6,6,7,7,8,8,9,9,10,10,11,11,12,12,13,13,14,14,15,15,16,16,17,17,18,18,19,19,20,20,21,21,22,22,23,23,24,24,25,25,26,26,27,27,28,28,29,29,30,30,31,31,32,32,33,33,34,34,35,35,36,36,37,37,38,38,39,39,40,40,41,41,42,42,43,43,44,44,45,45,46,46,47,47,48,48,49,49,50,50,51,51,52,52,53,53,54,54,55,55,56,56,57,57,58,58,59,59,60,60,61,61,62,62],"right_children":[2,4,6,8,10,12,14,16,18,20,22,24,26,28,30,32,34,36,38,40,42,44,46,48,50,52,54,56,58,60,62,64,66,68,70,72,74,76,78,80,82,84,86,88,90,92,94,96,98,100,102,104,106,108,110,112,114,116,118,120,122,124,126,-1,-1,-1,-1,-1,-1,-1,-1,-1,-1,-1,-1,-1,-1,-1,-1,-1,-1,-1,-1,-1,-1,-1,-1,-1,-1,-1,-1,-1,-1,-1,-1,-1,-1,-1,-1,-1,-1,-1,-1,-1,-1,-1,-1,-1,-1,-1,-1,-1,-1,-1,-1,-1,-1,-1,-1,-1,-1,-1,-1,-1,-1,-1,-1],"split_conditions":[2.9672E4,9.912E3,6.7733E4,1.97595E5,5.7E1,7.8037E4,2.0707E5,1.78022E5,7.9321E4,1.211E4,2.7545E4,3.861E3,8.8933E4,8.685E4,1.3E1,1E0,8E0,7E0,2.7884E4,9E0,2.8567E4,1.3E1,1.01636E5,7.5133E4,3E0,2E0,1.50935E5,1.35354E5,1.09636E5,9E0,5.5E1,1.1E1,4.2469E4,1.2E1,8E0,1.9546E4,3.3E1,5E0,2.172E3,2.61503E5,1.3E1,2.5425E4,1.3E1,8E0,9.1E1,4.4135E4,3.1E1,8E0,7.8414E4,2.2E1,6.0082E4,6.3425E4,1.03912E5,1.86546E5,1.97577E5,1.08805E5,1.36469E5,2.8877E4,8.4029E4,2.19402E5,1.2E1,1.70605E5,2.3E1,-1.0005652E0,1.0039751E-2,5.2652996E-2,-1.8377345E-2,1.3499115E-1,-7.762657E-2,-3.2498735E-1,9.0526536E-2,1.3935712E-1,-1.9714913E-1,-8.653127E-2,2.6599047E-1,2.1526259E-1,2.3532264E-2,1.1241224E-1,-4.2871755E-2,-1.4696607E-1,-3.3727103E-1,2.767867E-1,-8.665234E-2,-4.466031E-2,2.6094032E-2,-1.7149353E-1,6.983904E-2,1.574162E-2,1.1040082E-1,1.1737049E-2,-1.20132364E-1,-1.9585134E-3,-2.0955756E-1,-1.646931E-2,-5.0728923E-1,7.7195495E-2,-1.6204071E-1,5.1407512E-2,-1.5697184E-1,7.204527E-2,2.980794E-2,6.3397326E-2,1.2897812E-1,-1.0703506E-2,1.5093102E-1,-1.1626113E-1,-4.96109E-1,3.125455E-2,-5.3372186E-2,1.2290533E-1,4.3266084E-2,-5.6094322E-3,-7.958236E-2,1.5936008E-1,-9.7278197E-4,-1.1421053E-2,3.853479E-2,-6.7718856E-2,2.780688E-2,5.243347E-2,1.0734951E-2,2.2774711E-1,8.707754E-3,-2.2486698E-2,-1.3967402E-1,-4.5911413E-2,4.2952463E-2],"split_indices":[10,10,10,11,18,13,10,11,14,10,10,13,13,13,3,8,1,2,13,3,10,3,14,14,4,17,0,11,13,3,18,7,14,3,3,0,16,1,10,0,3,10,8,8,16,13,16,8,0,18,13,10,14,11,0,11,11,14,14,10,3,11,7,0,0,0,0,0,0,0,0,0,0,0,0,0,0,0,0,0,0,0,0,0,0,0,0,0,0,0,0,0,0,0,0,0,0,0,0,0,0,0,0,0,0,0,0,0,0,0,0,0,0,0,0,0,0,0,0,0,0,0,0,0,0,0,0],"split_type":[0,0,0,0,0,0,0,0,0,0,0,0,0,0,0,0,0,0,0,0,0,0,0,0,0,0,0,0,0,0,0,0,0,0,0,0,0,0,0,0,0,0,0,0,0,0,0,0,0,0,0,0,0,0,0,0,0,0,0,0,0,0,0,0,0,0,0,0,0,0,0,0,0,0,0,0,0,0,0,0,0,0,0,0,0,0,0,0,0,0,0,0,0,0,0,0,0,0,0,0,0,0,0,0,0,0,0,0,0,0,0,0,0,0,0,0,0,0,0,0,0,0,0,0,0,0,0],"sum_hessian":[3.2789594E4,4.1035854E3,2.868601E4,1.2690995E3,2.834486E3,4.447554E3,2.4238455E4,9.0909E2,3.6000943E2,2.260949E3,5.735373E2,3.489475E3,9.58079E2,1.7222848E4,7.0156074E3,6.481959E2,2.6089407E2,7.3572136E1,2.864373E2,2.9820862E2,1.9627402E3,5.0383447E2,6.970281E1,2.3910132E2,3.2503738E3,3.4390958E2,6.141694E2,1.3545059E4,3.6777898E3,5.801187E3,1.2144204E3,6.9992576E0,6.4119666E2,2.4207584E2,1.8818245E1,6.039861E1,1.3173525E1,5.0663387E1,2.3577391E2,2.6057788E2,3.763076E1,1.8602096E3,1.0253066E2,3.3458484E2,1.6924963E2,6.184506E1,7.8577557E0,1.22125725E2,1.1697559E2,2.1585498E3,1.0918241E3,2.0011627E2,1.4379332E2,3.409884E2,2.7318097E2,6.689043E3,6.856015E3,3.0339287E3,6.438611E2,5.318605E3,4.825821E2,7.173149E2,4.9710547E2,2.7765396E0,4.2227182E0,3.2883554E2,3.1236115E2,2.262174E2,1.5858437E1,1.0163449E1,8.654795E0,4.7546263E0,5.5643982E1,4.7361884E0,8.437336E0,2.2448694E1,2.8214691E1,2.7176086E1,2.0859782E2,2.4236191E2,1.8215958E1,1.2679327E1,2.4951435E1,1.5917684E3,2.684412E2,8.754106E1,1.4989605E1,2.162534E2,1.1833144E2,1.2817921E2,4.1070408E1,3.92275E1,2.2617558E1,1.3635416E0,6.494214E0,1.0912261E2,1.30031185E1,3.327404E1,8.370155E1,6.930638E2,1.465486E3,7.216312E2,3.701928E2,1.725555E2,2.7560764E1,1.3617874E2,7.6145735E0,2.1475574E2,1.2623267E2,9.9260056E1,1.739209E2,4.642643E3,2.0464E3,6.729104E1,6.788724E3,7.542461E2,2.2796826E3,4.6589618E2,1.7796492E2,9.891264E2,4.3294785E3,1.6587152E2,3.1671057E2,5.9362225E2,1.23692635E2,9.177904E1,4.0532642E2],"tree_param":{"num_deleted":"0","num_feature":"19","num_nodes":"127","size_leaf_vector":"1"}},{"base_weights":[6.7596463E-3,2.810529E-2,-2.7888702E-2,3.7297014E-2,-1.2347821E-1,2.1729532E-1,-3.6958564E-2,2.6877742E-2,3.5189632E-1,-8.805069E-2,-3.5712132E-1,3.9423E-1,1.2580608E-1,-8.47732E-2,5.505678E-3,5.725066E-2,-6.4940485E-3,-3.089346E-1,3.841284E-1,-1.3132069E-1,2.018432E-1,-2.6044992E-1,-1.0285809E0,-4.766106E-2,4.989262E-1,-1.2570431E0,1.4058444E-1,-1.1319706E-1,3.744537E-2,1.2154838E-1,-3.7538152E-2,-7.880652E-2,7.0404865E-2,-5.1932093E-2,6.1682615E-2,-8.451676E-1,2.4266167E-1,1.2849382E-1,4.421428E-1,-1.4423534E-1,7.631253E-1,2.8252068E-1,-2.6420882E-1,-4.030415E-1,1.2857413E-1,-1.4252867E0,3.080931E-1,2.5059694E-1,-6.602632E-1,3.5007972E-1,8.0656606E-1,-5.0454813E-1,-7.171761E-2,7.4058014E-1,1.0317834E-1,-1.4082108E-1,1.2594541E-3,8.287986E-2,-2.7435437E-1,1.8481344E-2,3.298149E-1,3.3365348E-1,-5.290808E-2,4.9955146E-3,-1.06516264E-1,4.4556506E-2,1.0234304E-2,-2.3363598E-2,2.0310115E-2,2.9293162E-1,1.5254059E-3,-3.3783036E-1,2.5642106E-1,1.7456812E-1,-1.344999E-1,-6.34083E-1,5.173559E-2,2.6290476E-1,1.2666263E-1,-3.329472E-2,-1.2868994E-1,4.5277584E-2,3.4425545E-1,9.431703E-2,-3.91108E-1,-2.5768253E-1,-1.3864916E-2,-2.790288E-2,-1.996949E-1,-6.0974438E-2,1.217248E-1,-4.9939695E-1,1.2411111E-1,2.2704224E-1,-1.4991054E-1,1.9657205E-1,-2.4051263E-3,-2.7800003E-1,1.2301258E-1,1.2013645E-1,-1.8773745E-1,2.6218453E-1,-2.3926184E-1,-5.256197E-2,2.7414694E-1,3.9179318E-2,-2.6056278E-1,-2.1071399E-2,-7.109423E-2,2.8089536E-2,-3.1008106E-2,3.3329744E-2,-1.0137046E-1,-2.245031E-1,-1.1488318E-2,-8.7221876E-2,2.2316458E-2,6.670993E-2,1.470887E-1,1.18152566E-1,-1.2819587E-1,-3.5446953E-2,-3.7464274E-6],"categories":[],"categories_nodes":[],"categories_segments":[],"categories_sizes":[],"default_left":[0,0,0,0,0,0,0,0,0,0,0,0,0,0,0,0,0,0,0,0,0,0,0,0,0,0,0,0,0,0,0,0,0,0,0,0,0,0,0,0,0,0,0,0,0,0,0,0,0,0,0,0,0,0,0,0,0,0,0,0,0,0,0,0,0,0,0,0,0,0,0,0,0,0,0,0,0,0,0,0,0,0,0,0,0,0,0,0,0,0,0,0,0,0,0,0,0,0,0,0,0,0,0,0,0,0,0,0,0,0,0,0,0,0,0,0,0,0,0,0,0,0,0],"id":12,"left_children":[1,3,5,7,9,11,13,15,17,19,21,23,25,27,29,31,33,35,37,39,41,43,45,47,49,51,53,55,57,59,61,63,65,67,69,71,73,75,77,79,81,83,85,87,89,91,93,95,97,99,101,-1,-1,103,105,107,109,111,113,115,117,119,121,-1,-1,-1,-1,-1,-1,-1,-1,-1,-1,-1,-1,-1,-1,-1,-1,-1,-1,-1,-1,-1,-1,-1,-1,-1,-1,-1,-1,-1,-1,-1,-1,-1,-1,-1,-1,-1,-1,-1,-1,-1,-1,-1,-1,-1,-1,-1,-1,-1,-1,-1,-1,-1,-1,-1,-1,-1,-1,-1,-1],"loss_changes":[2.4141644E1,2.8147036E1,2.7679941E1,6.241549E1,9.528852E0,7.138344E0,2.4366568E1,1.8685848E1,1.312072E1,1.2623432E1,9.5820675E0,7.0040073E0,6.188291E0,1.961362E1,3.1756437E1,1.7278402E1,2.7216446E1,8.766018E0,8.581703E0,1.021093E1,4.9935093E0,7.4843006E0,1.038615E1,5.612624E0,5.30711E0,9.864683E-1,6.4759974E0,1.4480705E1,1.51217E1,3.69186E1,2.647624E1,2.2454735E1,2.4944405E1,1.6369663E1,1.8191165E2,8.077704E0,3.7873394E0,1.1122113E1,3.7355804E0,8.121672E0,2.7930398E0,6.0716534E0,2.5300705E0,7.940608E0,3.4575617E0,7.134577E0,2.232349E0,2.179329E0,3.2418962E0,4.3814745E0,4.9162045E0,0E0,0E0,2.8526773E0,7.4666367E0,2.5024712E1,8.624541E0,1.1092808E1,1.516463E1,1.9933163E1,9.709583E0,8.620186E0,1.5372683E1,0E0,0E0,0E0,0E0,0E0,0E0,0E0,0E0,0E0,0E0,0E0,0E0,0E0,0E0,0E0,0E0,0E0,0E0,0E0,0E0,0E0,0E0,0E0,0E0,0E0,0E0,0E0,0E0,0E0,0E0,0E0,0E0,0E0,0E0,0E0,0E0,0E0,0E0,0E0,0E0,0E0,0E0,0E0,0E0,0E0,0E0,0E0,0E0,0E0,0E0,0E0,0E0,0E0,0E0,0E0,0E0,0E0,0E0,0E0,0E0],"parents":[2147483647,0,0,1,1,2,2,3,3,4,4,5,5,6,6,7,7,8,8,9,9,10,10,11,11,12,12,13,13,14,14,15,15,16,16,17,17,18,18,19,19,20,20,21,21,22,22,23,23,24,24,25,25,26,26,27,27,28,28,29,29,30,30,31,31,32,32,33,33,34,34,35,35,36,36,37,37,38,38,39,39,40,40,41,41,42,42,43,43,44,44,45,45,46,46,47,47,48,48,49,49,50,50,53,53,54,54,55,55,56,56,57,57,58,58,59,59,60,60,61,61,62,62],"right_children":[2,4,6,8,10,12,14,16,18,20,22,24,26,28,30,32,34,36,38,40,42,44,46,48,50,52,54,56,58,60,62,64,66,68,70,72,74,76,78,80,82,84,86,88,90,92,94,96,98,100,102,-1,-1,104,106,108,110,112,114,116,118,120,122,-1,-1,-1,-1,-1,-1,-1,-1,-1,-1,-1,-1,-1,-1,-1,-1,-1,-1,-1,-1,-1,-1,-1,-1,-1,-1,-1,-1,-1,-1,-1,-1,-1,-1,-1,-1,-1,-1,-1,-1,-1,-1,-1,-1,-1,-1,-1,-1,-1,-1,-1,-1,-1,-1,-1,-1,-1,-1,-1,-1],"split_conditions":[2E0,2.53123E5,5.344E3,2.42396E5,9.159E4,7.9097E4,1.44894E5,8E0,3.861E3,8.176E4,2.39771E5,3.9E1,1.072E3,9.224E4,1.74757E5,2.1523E4,9E0,1.05179E5,7.6821E4,7.1E1,1.3E1,4.9E1,2.62886E5,8E0,3.7753E4,1.43312E5,1.1873E4,1.09E2,6.5821E4,3E0,1E1,4.3175E4,1.04488E5,5.3E1,1E1,1E1,8E0,2.163E3,8.2647E4,7.6712E4,9.8949E4,7.1E1,6.0967E4,3.4E1,1.04429E5,6.2E1,1.04153E5,2.8E1,2.44109E5,4.0311E4,2.69076E5,-5.0454813E-1,-7.171761E-2,1.14917E5,2.66976E5,5.1E1,4.9601E4,1.09914E5,1.09636E5,1.7456E4,6E0,1.10696E5,2.07144E5,4.9955146E-3,-1.06516264E-1,4.4556506E-2,1.0234304E-2,-2.3363598E-2,2.0310115E-2,2.9293162E-1,1.5254059E-3,-3.3783036E-1,2.5642106E-1,1.7456812E-1,-1.344999E-1,-6.34083E-1,5.173559E-2,2.6290476E-1,1.2666263E-1,-3.329472E-2,-1.2868994E-1,4.5277584E-2,3.4425545E-1,9.431703E-2,-3.91108E-1,-2.5768253E-1,-1.3864916E-2,-2.790288E-2,-1.996949E-1,-6.0974438E-2,1.217248E-1,-4.9939695E-1,1.2411111E-1,2.2704224E-1,-1.4991054E-1,1.9657205E-1,-2.4051263E-3,-2.7800003E-1,1.2301258E-1,1.2013645E-1,-1.8773745E-1,2.6218453E-1,-2.3926184E-1,-5.256197E-2,2.7414694E-1,3.9179318E-2,-2.6056278E-1,-2.1071399E-2,-7.109423E-2,2.8089536E-2,-3.1008106E-2,3.3329744E-2,-1.0137046E-1,-2.245031E-1,-1.1488318E-2,-8.7221876E-2,2.2316458E-2,6.670993E-2,1.470887E-1,1.18152566E-1,-1.2819587E-1,-3.5446953E-2,-3.7464274E-6],"split_indices":[17,11,14,11,13,10,11,3,13,13,0,18,11,13,11,11,3,14,14,18,3,18,11,8,11,0,11,16,14,4,18,14,11,18,3,8,3,0,14,13,0,18,0,16,13,18,10,7,0,13,0,0,0,10,10,16,14,13,13,10,8,14,11,0,0,0,0,0,0,0,0,0,0,0,0,0,0,0,0,0,0,0,0,0,0,0,0,0,0,0,0,0,0,0,0,0,0,0,0,0,0,0,0,0,0,0,0,0,0,0,0,0,0,0,0,0,0,0,0,0,0,0,0],"split_type":[0,0,0,0,0,0,0,0,0,0,0,0,0,0,0,0,0,0,0,0,0,0,0,0,0,0,0,0,0,0,0,0,0,0,0,0,0,0,0,0,0,0,0,0,0,0,0,0,0,0,0,0,0,0,0,0,0,0,0,0,0,0,0,0,0,0,0,0,0,0,0,0,0,0,0,0,0,0,0,0,0,0,0,0,0,0,0,0,0,0,0,0,0,0,0,0,0,0,0,0,0,0,0,0,0,0,0,0,0,0,0,0,0,0,0,0,0,0,0,0,0,0,0],"sum_hessian":[3.263981E4,2.0197203E4,1.2442606E4,1.9043215E4,1.1539889E3,4.4303946E2,1.1999567E4,1.8433787E4,6.094266E2,1.00324304E3,1.507458E2,1.4987712E2,2.9316232E2,5.643737E3,6.3558306E3,9.650129E3,8.783659E3,2.7943161E1,5.814834E2,8.734219E2,1.2982121E2,1.3298724E2,1.7758556E1,2.8812601E1,1.21064514E2,2.2110267E0,2.909513E2,4.578912E3,1.0648245E3,1.7191952E3,4.6366353E3,8.502978E2,8.799831E3,5.270945E3,3.5127148E3,1.3899031E1,1.4044129E1,1.0814933E2,4.7333405E2,8.61817E2,1.1604804E1,1.10999985E2,1.8821222E1,9.729063E1,3.5696617E1,1.3643166E1,4.11539E0,1.9775446E1,9.037154E0,8.302985E1,3.803467E1,1.0999327E0,1.1110939E0,1.5971371E1,2.7497995E2,3.6884712E3,8.904411E2,9.3003656E2,1.3478784E2,1.1507837E3,5.6841156E2,1.8353214E2,4.453103E3,6.3263025E2,2.1766759E2,2.790365E3,6.009466E3,4.3317905E3,9.3915405E2,2.0372855E2,3.308986E3,1.2217469E1,1.6815622E0,9.525592E0,4.5185375E0,1.1742432E0,1.0697509E2,1.889074E1,4.5444333E2,7.729376E2,8.887944E1,5.0132017E0,6.591602E0,1.0959976E2,1.400223E0,4.259661E0,1.4561561E1,4.5237717E1,5.205291E1,1.636812E1,1.9328497E1,1.2155729E1,1.4874359E0,2.686314E0,1.4290758E0,7.1127486E0,1.2662698E1,7.3435235E0,1.6936308E0,7.951488E1,3.5149648E0,3.693822E1,1.0964538E0,2.5389245E0,1.34324465E1,2.682755E2,6.7044215E0,2.1281199E3,1.5603512E3,4.7295676E2,4.1748434E2,8.7227435E2,5.7762245E1,4.4089523E1,9.069832E1,1.7556006E2,9.752236E2,3.418886E2,2.2652292E2,1.7052693E2,1.3005202E1,1.9931969E3,2.4599062E3],"tree_param":{"num_deleted":"0","num_feature":"19","num_nodes":"123","size_leaf_vector":"1"}},{"base_weights":[5.4338435E-3,6.5986043E-1,4.4278624E-3,9.56831E-1,3.4764007E-1,-9.405486E-3,5.2237235E-2,1.931178E-1,1.0190543E0,6.796562E-1,-1.4067283E-1,4.4764E-3,-2.2026907E-1,1.3320284E-1,-2.8436368E-2,1.9359882E-1,-1.14405625E-1,3.9064446E-1,1.0966827E0,-2.0349456E-2,9.673235E-1,-7.207387E-1,7.806001E-1,1.0841416E-2,-1.3873999E-1,-4.6536884E-1,-1.579431E-1,1.7098424E-1,-2.7974593E-2,2.0678096E-2,-1.920655E-1,-1.0971179E-1,2.3504613E-1,1.1402901E0,8.607396E-2,3.566192E-1,-2.484872E-1,3.3868554E-1,-1.4385732E-3,2.3654176E-1,-1.2277688E0,2.7513582E-1,4.4978447E-2,5.3460546E-2,-1.3051989E-2,-7.863963E-2,-3.5135967E-1,-5.059736E-1,6.498233E-1,1.2302779E-1,-3.0053297E-1,1.9773918E-1,2.6025115E-2,-7.337606E-2,2.8341612E-1,8.645728E-2,-1.1690687E-1,-2.2735582E-1,3.3664668E-1,3.5200572E-1,9.828417E-2,-1.2307475E-2,2.3326746E-1,-1.3192585E-1,-5.721951E-1,2.9366126E-3,7.968497E-2,-4.23001E-2,6.0070236E-4,-6.048103E-2,4.3175828E-2,4.1462824E-2,-1.3889997E-1,-1.7842728E-1,-1.0826832E-2,2.5772572E-1,-1.5569282E-1,-9.347901E-2,6.020946E-2,-1.12098984E-1,-2.0207749E-3,-1.3261474E-2,6.4776786E-2,-7.97091E-3,9.5445886E-2,-3.8427867E-3,-1.8274206E-1,1.1570524E-1,-2.1859647E-1,2.2207746E-2,2.3976363E-1,-1.1691059E-1,-8.78036E-3,-2.1648852E-2,-1.1625296E-1,-3.0527532E-2,1.646192E-1],"categories":[],"categories_nodes":[],"categories_segments":[],"categories_sizes":[],"default_left":[0,0,0,0,0,0,0,0,0,0,0,0,0,0,0,0,0,0,