{"learner":{"attributes":{"scikit_learn":"{\"_estimator_type\": \"classifier\"}"},"feature_names":["Unnamed: 0","admission_type","admission_location","discharge_location","insurance","language","marital_status","race","length_of_stay","diagnoses_seq_num","diagnoses_long_title","diagnoses_icd","procedures_seq_num","procedures_long_title","procedures_icd","note_type","note_seq","gender","anchor_age","embedding_pca_0","embedding_pca_1","embedding_pca_2","embedding_pca_3","embedding_pca_4","embedding_pca_5","embedding_pca_6","embedding_pca_7","embedding_pca_8","embedding_pca_9","embedding_pca_10","embedding_pca_11","embedding_pca_12","embedding_pca_13","embedding_pca_14","embedding_pca_15","embedding_pca_16","embedding_pca_17","embedding_pca_18","embedding_pca_19"],"feature_types":["int","int","int","int","int","int","int","int","int","float","int","int","float","int","int","int","int","int","int","float","float","float","float","float","float","float","float","float","float","float","float","float","float","float","float","float","float","float","float"],"gradient_booster":{"model":{"gbtree_model_param":{"num_parallel_tree":"1","num_trees":"100"},"iteration_indptr":[0,1,2,3,4,5,6,7,8,9,10,11,12,13,14,15,16,17,18,19,20,21,22,23,24,25,26,27,28,29,30,31,32,33,34,35,36,37,38,39,40,41,42,43,44,45,46,47,48,49,50,51,52,53,54,55,56,57,58,59,60,61,62,63,64,65,66,67,68,69,70,71,72,73,74,75,76,77,78,79,80,81,82,83,84,85,86,87,88,89,90,91,92,93,94,95,96,97,98,99,100],"tree_info":[0,0,0,0,0,0,0,0,0,0,0,0,0,0,0,0,0,0,0,0,0,0,0,0,0,0,0,0,0,0,0,0,0,0,0,0,0,0,0,0,0,0,0,0,0,0,0,0,0,0,0,0,0,0,0,0,0,0,0,0,0,0,0,0,0,0,0,0,0,0,0,0,0,0,0,0,0,0,0,0,0,0,0,0,0,0,0,0,0,0,0,0,0,0,0,0,0,0,0,0],"trees":[{"base_weights":[1.8460198E-1,2.1681003E-1,-1.8426253E0,4.4156423E-1,-4.250979E-2,-9.253056E-1,-2.4997754E0,2.7872434E-1,7.4614024E-1,9.7240573E-1,-8.552214E-2,-1.8103497E0,-1.22925974E-1,-2.6040368E0,-1.4362104E-1,4.9733856E-1,1.6898276E-1,9.3534076E-1,5.475469E-1,1.0261072E0,7.6198643E-1,-5.7574934E-1,-2.690183E-2,-2.5697844E0,-1.3127614E0,3.1153825E-1,-7.015683E-1,-2.214813E0,-2.8700507E0,3.363705E-1,-1.1605287E0,3.6655903E-1,6.6818154E-1,4.321066E-1,7.724125E-2,7.251503E-1,1.0406569E0,6.1319077E-1,2.5516972E-1,7.763675E-1,1.0551667E0,7.823255E-1,-1.8578109E-1,-9.2931837E-1,-2.2175744E-1,1.2504819E-1,-1.5371722E-1,6.8746006E-1,-2.9199631E0,3.4877187E-1,-1.4244E0,4.0985128E-1,-1.316584E0,-1.9983197E0,1.7538145E-1,-1.7745197E0,-2.6171288E0,-2.776149E-1,-2.908211E0,-2.2496942E-1,5.795985E-1,-1.7777364E0,1.03301965E-1,2.8964862E-1,1.00698434E-1,1.2066406E-1,2.3850037E-1,9.619026E-2,2.363377E-1,-1.5235196E-1,4.9571797E-2,2.2098571E-1,3.4390748E-2,3.2535562E-1,1.4118266E-1,1.6738258E-1,2.1077082E-1,3.476553E-1,6.271361E-2,2.4776785E-1,-1.8578109E-1,3.2995826E-1,2.711393E-1,2.9655853E-1,1.7981088E-1,-1.5580517E-1,-8.28926E-1,-1.5967213E-1,5.7506043E-2,3.1471055E-3,1.082428E-1,-8.363847E-2,1.3301472E-2,-9.139551E-2,2.996316E-1,-1.5129519E-1,-9.065657E-1,2.7691025E-1,-1.20713204E-1,1.3977328E-1,-4.43696E-1,2.0009376E-1,-1.5745776E-2,-7.726297E-2,-5.5932426E-1,2.9292054E-2,-8.9626366E-1,1.6221276E-1,-1.2951176E-1,-4.5824867E-1,-7.671761E-1,-5.0502014E-1,-8.7656194E-1,1.5472662E-1,-3.828403E-1,-8.850356E-1,-2.2166514E-1,-1.4549425E-1,2.419233E-1,-6.6133153E-1,-9.139551E-2],"categories":[],"categories_nodes":[],"categories_segments":[],"categories_sizes":[],"default_left":[0,0,0,0,0,0,0,0,0,0,0,0,0,0,1,0,0,0,0,0,1,0,0,0,0,0,0,0,0,0,0,0,0,0,0,0,0,0,0,1,1,0,0,0,0,0,0,0,0,0,0,0,1,0,0,1,0,0,0,0,0,0,0,0,0,0,0,0,0,0,0,0,0,0,0,0,0,0,0,0,0,0,0,0,0,0,0,0,0,0,0,0,0,0,0,0,0,0,0,0,0,0,0,0,0,0,0,0,0,0,0,0,0,0,0,0,0,0,0,0,0],"id":0,"left_children":[1,3,5,7,9,11,13,15,17,19,21,23,25,27,29,31,33,35,37,39,41,43,45,47,49,51,53,55,57,59,61,63,65,67,69,71,73,75,77,79,81,83,-1,85,87,89,91,93,95,97,99,101,103,105,107,109,111,113,115,-1,117,119,-1,-1,-1,-1,-1,-1,-1,-1,-1,-1,-1,-1,-1,-1,-1,-1,-1,-1,-1,-1,-1,-1,-1,-1,-1,-1,-1,-1,-1,-1,-1,-1,-1,-1,-1,-1,-1,-1,-1,-1,-1,-1,-1,-1,-1,-1,-1,-1,-1,-1,-1,-1,-1,-1,-1,-1,-1,-1,-1],"loss_changes":[2.5603975E3,2.2494912E3,3.6738647E2,1.0252532E3,7.823921E2,1.8268181E2,8.725806E1,3.2317896E2,2.7011548E2,7.4521484E0,4.9406506E2,4.287921E1,3.4449577E1,2.9007324E1,8.285418E0,1.0036023E2,2.1655728E2,8.086377E1,6.733386E1,3.3729248E0,4.7558823E0,2.296228E2,2.95957E2,5.6080353E1,1.4592621E1,1.3098709E1,6.710289E1,2.0694214E1,1.8929565E1,3.542697E0,5.6382403E0,4.6914734E1,6.549225E1,9.170947E1,3.4267728E2,8.556091E0,6.084839E1,1.3785156E1,2.6703289E1,4.9346237E0,2.487671E0,5.0768967E0,0E0,6.889838E2,1.18058945E2,1.8870496E2,2.0739836E2,1.9755876E0,9.06189E0,2.7817168E0,8.056946E0,8.922073E0,2.249833E0,4.95598E1,8.2038355E0,9.900101E0,1.5750671E1,3.8266988E0,1.5684937E1,0E0,2.8480632E0,1.8424826E0,0E0,0E0,0E0,0E0,0E0,0E0,0E0,0E0,0E0,0E0,0E0,0E0,0E0,0E0,0E0,0E0,0E0,0E0,0E0,0E0,0E0,0E0,0E0,0E0,0E0,0E0,0E0,0E0,0E0,0E0,0E0,0E0,0E0,0E0,0E0,0E0,0E0,0E0,0E0,0E0,0E0,0E0,0E0,0E0,0E0,0E0,0E0,0E0,0E0,0E0,0E0,0E0,0E0,0E0,0E0,0E0,0E0,0E0,0E0],"parents":[2147483647,0,0,1,1,2,2,3,3,4,4,5,5,6,6,7,7,8,8,9,9,10,10,11,11,12,12,13,13,14,14,15,15,16,16,17,17,18,18,19,19,20,20,21,21,22,22,23,23,24,24,25,25,26,26,27,27,28,28,29,29,30,30,31,31,32,32,33,33,34,34,35,35,36,36,37,37,38,38,39,39,40,40,41,41,43,43,44,44,45,45,46,46,47,47,48,48,49,49,50,50,51,51,52,52,53,53,54,54,55,55,56,56,57,57,58,58,60,60,61,61],"right_children":[2,4,6,8,10,12,14,16,18,20,22,24,26,28,30,32,34,36,38,40,42,44,46,48,50,52,54,56,58,60,62,64,66,68,70,72,74,76,78,80,82,84,-1,86,88,90,92,94,96,98,100,102,104,106,108,110,112,114,116,-1,118,120,-1,-1,-1,-1,-1,-1,-1,-1,-1,-1,-1,-1,-1,-1,-1,-1,-1,-1,-1,-1,-1,-1,-1,-1,-1,-1,-1,-1,-1,-1,-1,-1,-1,-1,-1,-1,-1,-1,-1,-1,-1,-1,-1,-1,-1,-1,-1,-1,-1,-1,-1,-1,-1,-1,-1,-1,-1,-1,-1],"split_conditions":[2.63923E5,5E0,1.10923E5,7E0,1E0,7.2994E4,8E0,2E0,4E0,2.8E1,4E0,9.8034E4,8.9082E4,4E0,1.3838717E-1,4E0,4.0414E4,8E0,8E0,2.4E1,7.14022E-1,6.1023E4,8E0,3.549E3,-1.1796825E0,1.4E1,2.67104E5,5E0,-7.99884E-1,9.3764E4,1.993176E-1,1E0,4E0,9.0391E4,5.2261E4,1.02592E5,8E0,8.7471E4,1E0,2.118187E0,1.3766667E-1,1.2485311E0,-1.8578109E-1,5.8853E4,2E0,7E0,9E0,6.6438E4,3E0,1.34813E5,-9.10337E-1,6.3E1,-4.4636893E-1,9.2724E4,7E0,4.0477538E-1,-7.497081E-2,8.3E1,2.70148E5,-2.2496942E-1,-1.4576674E-1,3.124442E-1,1.03301965E-1,2.8964862E-1,1.00698434E-1,1.2066406E-1,2.3850037E-1,9.619026E-2,2.363377E-1,-1.5235196E-1,4.9571797E-2,2.2098571E-1,3.4390748E-2,3.2535562E-1,1.4118266E-1,1.6738258E-1,2.1077082E-1,3.476553E-1,6.271361E-2,2.4776785E-1,-1.8578109E-1,3.2995826E-1,2.711393E-1,2.9655853E-1,1.7981088E-1,-1.5580517E-1,-8.28926E-1,-1.5967213E-1,5.7506043E-2,3.1471055E-3,1.082428E-1,-8.363847E-2,1.3301472E-2,-9.139551E-2,2.996316E-1,-1.5129519E-1,-9.065657E-1,2.7691025E-1,-1.20713204E-1,1.3977328E-1,-4.43696E-1,2.0009376E-1,-1.5745776E-2,-7.726297E-2,-5.5932426E-1,2.9292054E-2,-8.9626366E-1,1.6221276E-1,-1.2951176E-1,-4.5824867E-1,-7.671761E-1,-5.0502014E-1,-8.7656194E-1,1.5472662E-1,-3.828403E-1,-8.850356E-1,-2.2166514E-1,-1.4549425E-1,2.419233E-1,-6.6133153E-1,-9.139551E-2],"split_indices":[11,8,14,1,6,14,2,8,18,7,1,10,14,8,35,4,14,1,2,7,32,13,8,13,23,8,11,4,28,10,21,4,1,13,14,14,2,13,6,20,28,19,0,13,1,1,3,0,8,0,26,16,25,10,2,25,27,16,0,0,26,35,0,0,0,0,0,0,0,0,0,0,0,0,0,0,0,0,0,0,0,0,0,0,0,0,0,0,0,0,0,0,0,0,0,0,0,0,0,0,0,0,0,0,0,0,0,0,0,0,0,0,0,0,0,0,0,0,0,0,0],"split_type":[0,0,0,0,0,0,0,0,0,0,0,0,0,0,0,0,0,0,0,0,0,0,0,0,0,0,0,0,0,0,0,0,0,0,0,0,0,0,0,0,0,0,0,0,0,0,0,0,0,0,0,0,0,0,0,0,0,0,0,0,0,0,0,0,0,0,0,0,0,0,0,0,0,0,0,0,0,0,0,0,0,0,0,0,0,0,0,0,0,0,0,0,0,0,0,0,0,0,0,0,0,0,0,0,0,0,0,0,0,0,0,0,0,0,0,0,0,0,0,0,0],"sum_hessian":[3.9206824E4,3.859454E4,6.122868E2,2.0674826E4,1.7919713E4,2.5656052E2,3.557263E2,1.347331E4,7.2015166E3,7.276861E2,1.7192025E4,1.2139866E2,1.3516188E2,3.4055145E2,1.5174832E1,4.501808E3,8.971502E3,3.6860725E3,3.5154438E3,5.766436E2,1.5104251E2,1.8352725E3,1.5356754E4,4.6406754E1,7.4991905E1,7.746223E1,5.769965E1,1.4204349E2,1.9850798E2,1.0763543E1,4.4112883E0,2.5516655E3,1.9501423E3,2.3183967E3,6.653105E3,1.2330433E3,2.4530293E3,2.8699841E3,6.454597E2,6.29932E1,5.136504E2,1.49278E2,1.7645154E0,9.173715E2,9.179009E2,6.9860693E3,8.370685E3,4.4112883E0,4.1995464E1,4.58774E0,7.040416E1,7.3756744E1,3.7054822E0,2.2762247E1,3.4937405E1,7.040416E1,7.163932E1,2.999676E0,1.955083E2,1.5880638E0,9.17548E0,2.999676E0,1.4116123E0,1.2369253E2,2.4279731E3,6.3099066E2,1.3191516E3,1.7666328E3,5.51764E2,8.6920026E2,5.783905E3,1.2101046E3,2.29387E1,2.2769307E3,1.7609863E2,1.778102E3,1.0918821E3,3.0173212E1,6.152865E2,6.1228683E1,1.7645154E0,3.917224E2,1.2192801E2,6.811029E1,8.116771E1,7.508013E2,1.6657025E2,5.2406104E2,3.938398E2,4.702257E3,2.2838123E3,5.130328E3,3.240356E3,1.0587091E0,3.352579E0,1.9409668E0,4.0054497E1,2.4703214E0,2.1174183E0,1.7645154E0,6.863965E1,4.711256E1,2.6644182E1,1.7645154E0,1.9409668E0,7.587416E0,1.5174832E1,2.187999E1,1.3057413E1,5.5758686E1,1.4645477E1,1.9233217E1,5.2406105E1,1.9409668E0,1.0587091E0,1.9144992E2,4.0583854E0,1.4116123E0,7.7638674E0,1.9409668E0,1.0587091E0],"tree_param":{"num_deleted":"0","num_feature":"39","num_nodes":"121","size_leaf_vector":"1"}},{"base_weights":[1.4134002E-1,3.641769E-1,-9.285854E-3,2.3582917E-1,6.3774115E-1,-4.891035E-1,5.915581E-2,2.7245802E-1,-5.5143684E-1,8.041316E-1,4.5901597E-1,-7.68343E-1,-8.3444715E-2,8.652383E-1,3.0953685E-2,3.3695033E-1,-1.14368545E-2,-1.3511151E-1,-1.1015757E0,6.072783E-1,9.223514E-1,4.8085886E-1,-1.6947973E-1,-1.919624E-1,-1.3283328E0,-3.9176296E-2,-9.368452E-1,9.27146E-1,6.3513637E-1,2.0798318E-1,-6.1581176E-2,2.283434E-1,4.8659915E-1,-1.0995765E-1,3.5335073E-1,-3.1803352E-1,2.599225E-1,-1.1702414E0,4.726543E-2,7.4889773E-1,5.517283E-1,9.703906E-1,3.9579594E-1,5.231317E-1,2.6803935E-1,6.3546586E-1,-3.317284E-1,2.4300221E-2,-6.597715E-1,-1.5791274E0,-7.9590005E-1,-1.728635E-1,1.7418374E-1,-1.1703382E0,4.200226E-1,9.31976E-1,-1.5085459E-1,5.4247135E-1,9.628871E-1,6.0104672E-2,4.51653E-1,1.5262792E-2,-1.865269E-1,9.1082E-2,7.3759654E-3,6.1687864E-2,1.754903E-1,6.6706124E-3,-1.06015846E-1,1.4418876E-2,1.6820285E-1,2.1841148E-2,-1.6754775E-1,1.04327865E-1,-2.2688067E-1,-4.3003848E-1,-2.527187E-1,-2.7027485E-1,1.2391561E-1,2.4922983E-1,8.335736E-2,1.4151523E-1,2.1139318E-1,-3.433127E-1,2.9263213E-1,1.4035918E-1,-1.21293314E-1,3.5369363E-2,1.6254987E-1,1.89701E-1,4.083418E-2,2.6660633E-1,-2.9359126E-1,-7.284957E-2,-5.425943E-1,-4.523153E-2,9.8188244E-2,-1.00282416E-1,-2.8710553E-1,-5.014118E-1,-2.5440034E-1,-3.307675E-1,-1.679025E-1,-3.786748E-2,-3.0884418E-1,1.2309427E-1,-1.7260307E-2,-2.2566763E-1,-4.784935E-1,-2.814467E-1,2.327822E-1,2.990687E-1,2.4818088E-1,1.6994113E-1,-2.227246E-1,-6.290839E-2,3.057511E-1,4.2381357E-2,-3.0965412E-2,2.2557868E-1,8.071673E-2,-7.358455E-2,1.8137967E-2,-9.2635915E-2,-1.8871048E-3],"categories":[],"categories_nodes":[],"categories_segments":[],"categories_sizes":[],"default_left":[0,0,0,0,0,0,0,0,0,0,0,0,0,0,0,0,0,0,0,0,0,0,0,0,0,0,0,0,1,0,0,0,0,0,0,0,1,0,0,0,0,0,0,0,0,0,1,0,0,0,0,0,0,0,0,0,0,1,0,0,0,0,0,0,0,0,0,0,0,0,0,0,0,0,0,0,0,0,0,0,0,0,0,0,0,0,0,0,0,0,0,0,0,0,0,0,0,0,0,0,0,0,0,0,0,0,0,0,0,0,0,0,0,0,0,0,0,0,0,0,0,0,0,0,0],"id":1,"left_children":[1,3,5,7,9,11,13,15,17,19,21,23,25,27,29,31,33,35,37,39,41,43,45,47,49,51,53,55,57,59,61,63,65,67,69,71,73,75,77,79,81,83,85,87,89,91,93,95,97,99,101,103,105,107,109,111,-1,113,115,117,119,121,123,-1,-1,-1,-1,-1,-1,-1,-1,-1,-1,-1,-1,-1,-1,-1,-1,-1,-1,-1,-1,-1,-1,-1,-1,-1,-1,-1,-1,-1,-1,-1,-1,-1,-1,-1,-1,-1,-1,-1,-1,-1,-1,-1,-1,-1,-1,-1,-1,-1,-1,-1,-1,-1,-1,-1,-1,-1,-1,-1,-1,-1,-1],"loss_changes":[1.2745219E3,5.3757434E2,7.441005E2,3.0079352E2,1.4505334E2,3.2034644E2,4.5077856E2,1.824151E2,1.0608754E2,5.8343628E1,3.247986E1,5.404518E2,4.3573593E1,8.959595E0,3.1389557E2,1.3184021E2,6.635623E1,1.9244003E1,1.5806427E1,7.0811157E0,3.9569336E1,2.0380676E1,1.065947E1,8.365277E1,1.1218103E2,3.136257E1,1.851337E1,4.1018066E0,3.8900566E0,2.3699078E2,1.2082801E2,7.216562E1,9.4220276E1,4.678537E1,2.4823921E1,1.7116358E1,7.8032856E0,1.5054626E1,4.611191E0,1.0011337E1,8.085709E0,1.6566162E1,7.9009666E0,1.4349609E1,1.8179008E1,6.49535E0,8.388998E0,3.008969E1,2.4970161E1,3.7462402E1,1.9234451E1,2.6870487E1,2.3203728E1,7.4638443E0,5.1208067E0,2.741272E0,0E0,3.9836998E0,2.2419205E0,5.429419E1,1.359993E2,9.178315E1,1.05599396E2,0E0,0E0,0E0,0E0,0E0,0E0,0E0,0E0,0E0,0E0,0E0,0E0,0E0,0E0,0E0,0E0,0E0,0E0,0E0,0E0,0E0,0E0,0E0,0E0,0E0,0E0,0E0,0E0,0E0,0E0,0E0,0E0,0E0,0E0,0E0,0E0,0E0,0E0,0E0,0E0,0E0,0E0,0E0,0E0,0E0,0E0,0E0,0E0,0E0,0E0,0E0,0E0,0E0,0E0,0E0,0E0,0E0,0E0,0E0,0E0,0E0,0E0],"parents":[2147483647,0,0,1,1,2,2,3,3,4,4,5,5,6,6,7,7,8,8,9,9,10,10,11,11,12,12,13,13,14,14,15,15,16,16,17,17,18,18,19,19,20,20,21,21,22,22,23,23,24,24,25,25,26,26,27,27,28,28,29,29,30,30,31,31,32,32,33,33,34,34,35,35,36,36,37,37,38,38,39,39,40,40,41,41,42,42,43,43,44,44,45,45,46,46,47,47,48,48,49,49,50,50,51,51,52,52,53,53,54,54,55,55,57,57,58,58,59,59,60,60,61,61,62,62],"right_children":[2,4,6,8,10,12,14,16,18,20,22,24,26,28,30,32,34,36,38,40,42,44,46,48,50,52,54,56,58,60,62,64,66,68,70,72,74,76,78,80,82,84,86,88,90,92,94,96,98,100,102,104,106,108,110,112,-1,114,116,118,120,122,124,-1,-1,-1,-1,-1,-1,-1,-1,-1,-1,-1,-1,-1,-1,-1,-1,-1,-1,-1,-1,-1,-1,-1,-1,-1,-1,-1,-1,-1,-1,-1,-1,-1,-1,-1,-1,-1,-1,-1,-1,-1,-1,-1,-1,-1,-1,-1,-1,-1,-1,-1,-1,-1,-1,-1,-1,-1,-1,-1,-1,-1,-1],"split_conditions":[4E0,7E0,4E0,1.10146E5,4E0,1.20301E5,1E0,8E0,2.60742E5,8E0,1.03912E5,9.1784E4,1.08339E5,2.8E1,6E0,4E0,8.685E4,1.11598E5,8E0,2.8E1,8E0,9E0,-2.1204388E-1,1E1,9.8034E4,3E0,1.1E2,2.60742E5,7.7873826E-2,7E0,5.1E1,6.3E1,4E0,6.3E1,4E0,2E0,1.3814409E0,3E0,3.3E1,8E0,1.68066E5,1E0,4E0,2.7545E4,2.8E1,8.3482E4,1.4890451E0,3E0,7.1879E4,8E0,9.908E4,1.09636E5,7E0,3E0,1.40412E5,7E0,-1.5085459E-1,7.14022E-1,-7.989706E-1,6.3E1,1E0,2.0478E4,1.1E2,9.1082E-2,7.3759654E-3,6.1687864E-2,1.754903E-1,6.6706124E-3,-1.06015846E-1,1.4418876E-2,1.6820285E-1,2.1841148E-2,-1.6754775E-1,1.04327865E-1,-2.2688067E-1,-4.3003848E-1,-2.527187E-1,-2.7027485E-1,1.2391561E-1,2.4922983E-1,8.335736E-2,1.4151523E-1,2.1139318E-1,-3.433127E-1,2.9263213E-1,1.4035918E-1,-1.21293314E-1,3.5369363E-2,1.6254987E-1,1.89701E-1,4.083418E-2,2.6660633E-1,-2.9359126E-1,-7.284957E-2,-5.425943E-1,-4.523153E-2,9.8188244E-2,-1.00282416E-1,-2.8710553E-1,-5.014118E-1,-2.5440034E-1,-3.307675E-1,-1.679025E-1,-3.786748E-2,-3.0884418E-1,1.2309427E-1,-1.7260307E-2,-2.2566763E-1,-4.784935E-1,-2.814467E-1,2.327822E-1,2.990687E-1,2.4818088E-1,1.6994113E-1,-2.227246E-1,-6.290839E-2,3.057511E-1,4.2381357E-2,-3.0965412E-2,2.2557868E-1,8.071673E-2,-7.358455E-2,1.8137967E-2,-9.2635915E-2,-1.8871048E-3],"split_indices":[8,1,1,14,18,10,6,3,11,1,14,10,14,7,8,4,13,14,2,7,2,2,35,8,10,1,16,11,38,1,16,16,1,16,2,8,20,1,18,3,10,8,6,10,7,13,22,1,14,8,10,13,8,4,10,1,0,32,27,16,15,11,16,0,0,0,0,0,0,0,0,0,0,0,0,0,0,0,0,0,0,0,0,0,0,0,0,0,0,0,0,0,0,0,0,0,0,0,0,0,0,0,0,0,0,0,0,0,0,0,0,0,0,0,0,0,0,0,0,0,0,0,0,0,0],"split_type":[0,0,0,0,0,0,0,0,0,0,0,0,0,0,0,0,0,0,0,0,0,0,0,0,0,0,0,0,0,0,0,0,0,0,0,0,0,0,0,0,0,0,0,0,0,0,0,0,0,0,0,0,0,0,0,0,0,0,0,0,0,0,0,0,0,0,0,0,0,0,0,0,0,0,0,0,0,0,0,0,0,0,0,0,0,0,0,0,0,0,0,0,0,0,0,0,0,0,0,0,0,0,0,0,0,0,0,0,0,0,0,0,0,0,0,0,0,0,0,0,0,0,0,0,0],"sum_hessian":[3.7970652E4,1.531384E4,2.265681E4,1.0424741E4,4.889098E3,2.827584E3,1.9829227E4,9.961901E3,4.6283984E2,2.5301072E3,2.3589912E3,1.6742217E3,1.1533622E3,6.693031E2,1.9159924E4,8.117634E3,1.8442677E3,2.6417062E2,1.9866922E2,9.516335E2,1.5784736E3,2.2799868E3,7.9004295E1,8.256982E2,8.4852344E2,1.0974786E3,5.5883575E1,5.2502E2,1.442831E2,6.5767056E3,1.2583219E4,4.705305E3,3.4123284E3,1.4526411E3,3.9162662E2,1.8069434E2,8.347628E1,1.8744698E2,1.1222242E1,2.6459412E2,6.8703937E2,1.4457323E3,1.3274132E2,1.9009401E3,3.7904675E2,1.2763851E1,6.624044E1,5.6531006E2,2.6038812E2,5.754842E2,2.7303928E2,6.7483203E2,4.2264664E2,4.779617E1,8.087406E0,5.2359973E2,1.4202645E0,1.1455116E2,2.9731936E1,4.093616E3,2.4830898E3,7.791919E3,4.7912993E3,3.4357322E3,1.2695732E3,8.856659E2,2.5266626E3,9.419999E2,5.1064124E2,1.5889084E2,2.327358E2,6.909153E1,1.116028E2,7.7440315E1,6.035964E0,1.0210043E2,8.534654E1,2.716821E0,8.505421E0,2.2476543E2,3.9828693E1,4.5372113E2,2.3331825E2,2.9065742E0,1.4428258E3,1.2215382E2,1.0587501E1,8.417872E1,1.8167614E3,9.976467E1,2.7928207E2,1.1421466E1,1.3423858E0,6.3578064E1,2.6623766E0,3.5860693E2,2.0670316E2,1.2530211E2,1.3508601E2,5.098687E2,6.561548E1,1.1721189E2,1.5582738E2,6.410759E2,3.3756073E1,2.0894856E2,2.1369809E2,2.5479635E1,2.2316534E1,1.3396076E0,6.747799E0,3.1794708E2,2.0565266E2,1.1299969E2,1.5514752E0,1.2369119E0,2.8495024E1,2.734691E3,1.358925E3,9.377949E2,1.5452948E3,1.151207E3,6.640712E3,2.8543801E3,1.9369191E3],"tree_param":{"num_deleted":"0","num_feature":"39","num_nodes":"125","size_leaf_vector":"1"}},{"base_weights":[1.06589384E-1,2.0676428E-2,3.31641E-1,2.3250388E-1,-5.5627435E-2,5.821426E-1,1.8077973E-1,2.6678455E-1,-2.5572503E-1,7.9081106E-1,-7.517676E-2,2.5670737E-1,6.896222E-1,3.2613903E-1,4.9569555E-2,1.7207824E-1,4.1477272E-1,-1.2186314E-1,-1.1823077E0,8.760563E-1,5.0657153E-1,-1.4404063E-1,1.1999799E-1,4.3204704E-1,4.154711E-2,4.4680032E-1,7.8544307E-1,3.4922415E-1,-2.9179543E-1,1.7071529E-1,-1.4406233E-1,9.5312846E-1,1.5634944E-1,3.0796117E-1,6.025624E-1,1.0419128E0,-1.6867708E-1,-1.2856064E0,5.8225983E-1,8.9611554E-1,-1.3148767E-1,3.1199464E-1,8.7019664E-1,-1.158559E-1,-7.1230215E-1,9.0013504E-1,2.0265259E-2,4.6102706E-1,-9.93071E-1,7.832856E-1,-2.5586098E-2,7.750181E-2,4.7496012E-1,8.4545135E-1,2.4699599E-1,3.9245984E-1,1.5668294E-1,-6.2925434E-1,1.1506509E-1,-1.18052095E-1,2.2879367E-1,-3.7438127E-1,1.2682904E-1,-3.9077453E-2,2.9828176E-1,-1.6006274E-2,6.193924E-2,1.0223725E-1,-1.0689105E-1,1.0929249E-1,2.2622836E-1,3.4598628E-1,6.4463265E-2,-6.946997E-2,1.3775979E-1,-4.1440833E-1,2.267817E-2,-9.573992E-2,3.3437195E-1,2.790125E-1,1.7487724E-1,-3.3321303E-1,1.6682811E-1,1.7717849E-1,1.5208044E-2,-2.5695932E-1,2.837622E-1,-1.9705683E-2,-1.0649556E-1,-2.4001856E-1,9.9875E-3,3.2748526E-1,1.5900545E-1,-6.920122E-2,2.4005093E-2,2.800065E-1,1.2318154E-1,-4.543639E-1,1.7823663E-1,-2.9141227E-2,2.6053923E-1,1.0524279E-1,-5.148029E-2,-3.758096E-2,2.0139737E-1,1.468853E-1,-7.064547E-2,-3.6551607E-1,2.5463235E-1,1.257049E-1,-6.9419354E-2,1.21793844E-1,-8.177426E-3,2.9071504E-1,3.7233833E-2,-2.0006452E-2,-3.3068424E-1,7.5904414E-2,-3.741659E-1,-6.922797E-3,-3.0189174E-1,1.4266093E-1,5.1002465E-2,-9.393746E-2,-4.1673872E-1,6.548669E-2,-2.8558075E-1],"categories":[],"categories_nodes":[],"categories_segments":[],"categories_sizes":[],"default_left":[0,0,0,0,0,0,0,0,0,0,0,0,0,0,0,0,0,0,1,0,1,0,0,0,0,0,0,0,0,0,0,0,0,0,0,0,0,0,0,0,0,0,0,0,0,0,0,0,1,0,0,0,1,0,0,0,0,0,1,0,0,0,0,0,0,0,0,0,0,0,0,0,0,0,0,0,0,0,0,0,0,0,0,0,0,0,0,0,0,0,0,0,0,0,0,0,0,0,0,0,0,0,0,0,0,0,0,0,0,0,0,0,0,0,0,0,0,0,0,0,0,0,0,0,0,0,0],"id":2,"left_children":[1,3,5,7,9,11,13,15,17,19,21,23,25,27,29,31,33,35,37,39,41,43,45,47,49,51,53,55,57,59,61,63,65,67,69,71,73,75,77,79,81,83,85,87,89,91,93,95,97,99,101,103,105,107,109,111,113,115,117,119,121,123,125,-1,-1,-1,-1,-1,-1,-1,-1,-1,-1,-1,-1,-1,-1,-1,-1,-1,-1,-1,-1,-1,-1,-1,-1,-1,-1,-1,-1,-1,-1,-1,-1,-1,-1,-1,-1,-1,-1,-1,-1,-1,-1,-1,-1,-1,-1,-1,-1,-1,-1,-1,-1,-1,-1,-1,-1,-1,-1,-1,-1,-1,-1,-1,-1],"loss_changes":[7.119072E2,4.307419E2,3.8432715E2,1.1818625E2,3.2425885E2,1.335476E2,1.21103455E2,9.2358154E1,5.734934E1,1.0274994E1,2.5741486E2,3.58507E1,6.650513E1,4.3076935E1,7.834613E1,4.9274216E1,5.141971E1,2.230219E1,1.1393051E1,6.967987E0,7.1174583E0,2.2665405E2,3.8864136E2,2.2088753E1,2.1333033E1,8.442413E0,6.6321045E1,2.4118011E1,1.5043189E1,3.4480137E1,8.025381E1,3.6607742E0,4.146827E1,3.5930252E1,3.336447E1,1.2116432E0,1.5557029E1,7.335678E0,2.2355568E0,2.990326E0,5.6595035E0,5.036035E0,5.494066E0,1.6180487E2,4.3786224E1,3.954782E1,6.644274E1,1.1857948E1,9.801855E0,2.7507381E0,2.1684341E1,7.183849E0,8.002335E0,1.3736694E1,1.720372E1,1.3466675E1,1.4016469E1,1.582836E1,9.764701E0,2.9052301E1,2.4732101E1,4.2769333E1,5.8565716E1,0E0,0E0,0E0,0E0,0E0,0E0,0E0,0E0,0E0,0E0,0E0,0E0,0E0,0E0,0E0,0E0,0E0,0E0,0E0,0E0,0E0,0E0,0E0,0E0,0E0,0E0,0E0,0E0,0E0,0E0,0E0,0E0,0E0,0E0,0E0,0E0,0E0,0E0,0E0,0E0,0E0,0E0,0E0,0E0,0E0,0E0,0E0,0E0,0E0,0E0,0E0,0E0,0E0,0E0,0E0,0E0,0E0,0E0,0E0,0E0,0E0,0E0,0E0,0E0],"parents":[2147483647,0,0,1,1,2,2,3,3,4,4,5,5,6,6,7,7,8,8,9,9,10,10,11,11,12,12,13,13,14,14,15,15,16,16,17,17,18,18,19,19,20,20,21,21,22,22,23,23,24,24,25,25,26,26,27,27,28,28,29,29,30,30,31,31,32,32,33,33,34,34,35,35,36,36,37,37,38,38,39,39,40,40,41,41,42,42,43,43,44,44,45,45,46,46,47,47,48,48,49,49,50,50,51,51,52,52,53,53,54,54,55,55,56,56,57,57,58,58,59,59,60,60,61,61,62,62],"right_children":[2,4,6,8,10,12,14,16,18,20,22,24,26,28,30,32,34,36,38,40,42,44,46,48,50,52,54,56,58,60,62,64,66,68,70,72,74,76,78,80,82,84,86,88,90,92,94,96,98,100,102,104,106,108,110,112,114,116,118,120,122,124,126,-1,-1,-1,-1,-1,-1,-1,-1,-1,-1,-1,-1,-1,-1,-1,-1,-1,-1,-1,-1,-1,-1,-1,-1,-1,-1,-1,-1,-1,-1,-1,-1,-1,-1,-1,-1,-1,-1,-1,-1,-1,-1,-1,-1,-1,-1,-1,-1,-1,-1,-1,-1,-1,-1,-1,-1,-1,-1,-1,-1,-1,-1,-1,-1],"split_conditions":[7E0,3E0,4E0,1.07733E5,1E0,7.3405E4,5E0,4E0,2.66006E5,2.8E1,9E0,1.9996E4,8E0,1.04832E5,7.1183E4,1E0,9.0037E4,1E0,4.099896E-1,2.73408E5,-5.2288413E-2,1.10146E5,1.2E1,6.2552E4,1E0,3.7116E4,8E0,9E0,9.908E4,2.2593E4,9.0037E4,9.82E3,8E0,1.07432E5,2.20931E5,1.10696E5,8E0,4E0,-6.0973406E-2,1.3E1,8E0,1.06639E5,-1.2337884E0,1.2E1,1.11598E5,1E1,2.1E1,1E0,6.7640126E-2,5E0,4E0,7.4485E4,2.292659E0,2.8877E4,7.2347E4,6.6E1,1E0,1.2837923E-1,2.0719736E0,2.6E1,8.343E3,2.8E1,1.10923E5,-3.9077453E-2,2.9828176E-1,-1.6006274E-2,6.193924E-2,1.0223725E-1,-1.0689105E-1,1.0929249E-1,2.2622836E-1,3.4598628E-1,6.4463265E-2,-6.946997E-2,1.3775979E-1,-4.1440833E-1,2.267817E-2,-9.573992E-2,3.3437195E-1,2.790125E-1,1.7487724E-1,-3.3321303E-1,1.6682811E-1,1.7717849E-1,1.5208044E-2,-2.5695932E-1,2.837622E-1,-1.9705683E-2,-1.0649556E-1,-2.4001856E-1,9.9875E-3,3.2748526E-1,1.5900545E-1,-6.920122E-2,2.4005093E-2,2.800065E-1,1.2318154E-1,-4.543639E-1,1.7823663E-1,-2.9141227E-2,2.6053923E-1,1.0524279E-1,-5.148029E-2,-3.758096E-2,2.0139737E-1,1.468853E-1,-7.064547E-2,-3.6551607E-1,2.5463235E-1,1.257049E-1,-6.9419354E-2,1.21793844E-1,-8.177426E-3,2.9071504E-1,3.7233833E-2,-2.0006452E-2,-3.3068424E-1,7.5904414E-2,-3.741659E-1,-6.922797E-3,-3.0189174E-1,1.4266093E-1,5.1002465E-2,-9.393746E-2,-4.1673872E-1,6.548669E-2,-2.8558075E-1],"split_indices":[1,8,18,14,6,11,8,4,11,7,3,14,1,14,14,6,14,6,34,0,29,14,3,11,6,10,2,2,10,11,14,13,7,13,11,14,2,1,35,5,3,11,24,8,14,3,7,6,26,3,8,14,19,14,14,18,6,37,19,8,13,8,14,0,0,0,0,0,0,0,0,0,0,0,0,0,0,0,0,0,0,0,0,0,0,0,0,0,0,0,0,0,0,0,0,0,0,0,0,0,0,0,0,0,0,0,0,0,0,0,0,0,0,0,0,0,0,0,0,0,0,0,0,0,0,0,0],"split_type":[0,0,0,0,0,0,0,0,0,0,0,0,0,0,0,0,0,0,0,0,0,0,0,0,0,0,0,0,0,0,0,0,0,0,0,0,0,0,0,0,0,0,0,0,0,0,0,0,0,0,0,0,0,0,0,0,0,0,0,0,0,0,0,0,0,0,0,0,0,0,0,0,0,0,0,0,0,0,0,0,0,0,0,0,0,0,0,0,0,0,0,0,0,0,0,0,0,0,0,0,0,0,0,0,0,0,0,0,0,0,0,0,0,0,0,0,0,0,0,0,0,0,0,0,0,0,0],"sum_hessian":[3.6819254E4,2.6647658E4,1.0171593E4,7.056377E3,1.9591281E4,3.8221475E3,6.349446E3,6.5938477E3,4.625291E2,4.413747E2,1.9149908E4,9.497642E2,2.8723833E3,3.0116008E3,3.3378447E3,4.022059E3,2.5717886E3,4.051319E2,5.7397217E1,3.3794168E2,1.03433014E2,1.4155617E4,4.9942905E3,5.22752E2,4.2701224E2,8.143595E2,2.058024E3,2.903563E3,1.0803804E2,2.05331E3,1.2845345E3,7.822094E1,3.9438381E3,1.6410356E3,9.30753E2,1.4844599E1,3.902873E2,5.44794E1,2.9178157E0,3.3145337E2,6.488314E0,6.85889E1,3.484412E1,1.3487848E4,6.677687E2,5.651903E2,4.4291006E3,5.1299664E2,9.755376E0,3.455498E1,3.9245724E2,5.7962936E1,7.5639655E2,1.8511488E3,2.0687505E2,2.370273E3,5.3328986E2,5.8757057E1,4.928098E1,3.436483E2,1.7096619E3,6.9405164E2,5.904829E2,2.7826855E0,7.5438255E1,7.6068915E2,3.183149E3,1.5642152E3,7.682054E1,3.6316003E2,5.6759296E2,1.2735109E1,2.1094894E0,3.5532803E2,3.495926E1,5.088504E1,3.5943594E0,1.2320322E0,1.6857835E0,2.972812E2,3.417218E1,2.4226701E0,4.0656443E0,3.2585693E1,3.6003204E1,1.0297656E0,3.3814358E1,1.1149841E4,2.3380076E3,5.973812E2,7.038743E1,3.711988E2,1.9399153E2,8.5125806E2,3.5778423E3,4.7792183E1,4.6520444E2,7.3773155E0,2.37806E0,3.0358086E0,3.1519173E1,1.0930068E2,2.8315656E2,4.379677E1,1.4166166E1,7.4141095E2,1.4985577E1,2.388052E0,1.8487607E3,1.522524E2,5.4622643E1,2.296338E3,7.3935135E1,1.9448614E1,5.1384125E2,2.735956E1,3.13975E1,4.548889E1,3.7920897E0,3.113801E2,3.2268192E1,3.2758508E2,1.3820768E3,6.557736E2,3.8277977E1,5.4506854E2,4.5414394E1],"tree_param":{"num_deleted":"0","num_feature":"39","num_nodes":"127","size_leaf_vector":"1"}},{"base_weights":[8.007611E-2,2.2082512E-1,-5.347358E-3,1.3890055E-1,4.2427227E-1,-2.796285E-1,3.6175214E-2,2.1017127E-1,-1.1136246E-2,5.800946E-1,2.8039107E-1,-4.5972046E-1,-2.7979016E-2,6.542176E-1,2.0166967E-2,2.249779E-1,-5.5268466E-1,-1.7475969E-1,1.8962635E-1,4.0032458E-1,7.069691E-1,3.0309364E-1,-6.6225235E-3,-1.3463598E-1,-8.5255253E-1,3.4702856E-2,-5.771093E-1,7.238247E-1,4.254214E-1,7.6657794E-2,-9.824396E-2,9.0450263E-1,2.1106926E-1,-6.8322444E-1,2.8700632E-1,-1.3414201E-1,-1.1057408E0,3.9781734E-2,3.5663494E-1,-5.9017006E-2,4.223201E-1,7.6410276E-1,2.209994E-1,2.4802972E-1,4.5900312E-1,1.2898578E-1,-3.7633798E-1,2.4044454E-2,-3.1235304E-1,-6.3699013E-1,-1.1188693E0,2.0405225E-1,-1.2547714E-1,-1.0138837E0,5.4657437E-2,4.1780463E-1,7.620663E-1,7.739672E-1,3.236334E-1,3.5975363E-2,2.661041E-1,-4.9679312E-1,-7.199919E-2,4.2610213E-2,2.7972245E-1,7.575223E-2,5.239979E-3,-2.5542477E-1,-1.3900893E-2,-1.6882919E-1,1.7523462E-1,-6.2195092E-2,9.754289E-2,-3.7952662E-1,2.1786772E-2,5.7313945E-2,-1.1671752E-1,1.16833165E-1,-1.5058857E-1,1.2223938E-1,-1.702601E-1,1.2852398E-1,-3.6548603E-1,1.9948611E-2,2.364225E-1,-3.6399752E-1,8.010869E-2,1.1902621E-1,3.6126245E-2,1.6204257E-1,5.015065E-2,5.7351135E-2,-1.7474547E-1,-1.67438E-1,1.4292245E-1,1.3372703E-1,-2.675968E-2,-3.6305466E-1,-7.86919E-2,-3.5068672E-2,-2.1067409E-1,-4.5954186E-1,-2.6765922E-1,8.680455E-2,-2.0128094E-2,-1.2630954E-1,6.553214E-2,-3.369708E-1,5.2769277E-2,-3.6260223E-1,7.277031E-2,1.5659206E-1,-1.6322464E-1,2.4536976E-1,1.7459258E-1,2.5133616E-1,-1.16682194E-1,1.08869046E-1,-3.5529906E-1,4.5927934E-2,-3.404906E-2,1.3153195E-1,-5.8149394E-2,-4.5176797E-2,-3.3325183E-1,-1.7565714E-2,-1.5714288E-1],"categories":[],"categories_nodes":[],"categories_segments":[],"categories_sizes":[],"default_left":[0,0,0,0,0,0,0,0,0,0,0,0,0,0,0,0,0,0,0,0,0,0,1,0,0,0,0,0,0,0,0,0,0,1,0,0,0,0,0,0,0,0,0,0,0,0,0,0,0,0,0,0,0,1,0,1,1,0,1,0,0,0,0,0,0,0,0,0,0,0,0,0,0,0,0,0,0,0,0,0,0,0,0,0,0,0,0,0,0,0,0,0,0,0,0,0,0,0,0,0,0,0,0,0,0,0,0,0,0,0,0,0,0,0,0,0,0,0,0,0,0,0,0,0,0,0,0],"id":3,"left_children":[1,3,5,7,9,11,13,15,17,19,21,23,25,27,29,31,33,35,37,39,41,43,45,47,49,51,53,55,57,59,61,63,65,67,69,71,73,75,77,79,81,83,85,87,89,91,93,95,97,99,101,103,105,107,109,111,113,115,117,119,121,123,125,-1,-1,-1,-1,-1,-1,-1,-1,-1,-1,-1,-1,-1,-1,-1,-1,-1,-1,-1,-1,-1,-1,-1,-1,-1,-1,-1,-1,-1,-1,-1,-1,-1,-1,-1,-1,-1,-1,-1,-1,-1,-1,-1,-1,-1,-1,-1,-1,-1,-1,-1,-1,-1,-1,-1,-1,-1,-1,-1,-1,-1,-1,-1,-1],"loss_changes":[4.321337E2,2.2619617E2,2.5475125E2,1.03504364E2,8.7197815E1,1.332758E2,1.9219833E2,7.424579E1,1.024604E2,4.2362E1,1.3215317E1,2.1879327E2,4.2283726E1,7.5031586E0,1.2668668E2,6.0655396E1,1.3923138E1,6.4834076E1,3.503676E1,7.8642426E0,3.0228943E1,1.6019241E1,7.5500603E0,2.6492132E1,4.383728E1,2.9946249E1,3.478373E1,4.065796E0,3.8945389E0,9.881048E1,6.3948746E1,2.608574E0,5.061841E1,1.160207E1,4.7605324E0,5.544558E1,1.3555382E1,4.8036106E1,1.8850769E1,8.85009E0,7.924988E0,1.6323486E1,8.020755E0,2.6349854E1,1.1495865E1,4.987515E0,6.529878E0,2.3778557E1,1.959164E1,1.4552811E1,3.1002808E1,1.2428343E1,5.7773254E1,9.885452E0,1.2730909E1,4.6755877E0,2.8602753E0,2.2324152E0,5.8855E0,1.8481573E2,1.7973622E2,8.01396E1,3.484465E1,0E0,0E0,0E0,0E0,0E0,0E0,0E0,0E0,0E0,0E0,0E0,0E0,0E0,0E0,0E0,0E0,0E0,0E0,0E0,0E0,0E0,0E0,0E0,0E0,0E0,0E0,0E0,0E0,0E0,0E0,0E0,0E0,0E0,0E0,0E0,0E0,0E0,0E0,0E0,0E0,0E0,0E0,0E0,0E0,0E0,0E0,0E0,0E0,0E0,0E0,0E0,0E0,0E0,0E0,0E0,0E0,0E0,0E0,0E0,0E0,0E0,0E0,0E0,0E0],"parents":[2147483647,0,0,1,1,2,2,3,3,4,4,5,5,6,6,7,7,8,8,9,9,10,10,11,11,12,12,13,13,14,14,15,15,16,16,17,17,18,18,19,19,20,20,21,21,22,22,23,23,24,24,25,25,26,26,27,27,28,28,29,29,30,30,31,31,32,32,33,33,34,34,35,35,36,36,37,37,38,38,39,39,40,40,41,41,42,42,43,43,44,44,45,45,46,46,47,47,48,48,49,49,50,50,51,51,52,52,53,53,54,54,55,55,56,56,57,57,58,58,59,59,60,60,61,61,62,62],"right_children":[2,4,6,8,10,12,14,16,18,20,22,24,26,28,30,32,34,36,38,40,42,44,46,48,50,52,54,56,58,60,62,64,66,68,70,72,74,76,78,80,82,84,86,88,90,92,94,96,98,100,102,104,106,108,110,112,114,116,118,120,122,124,126,-1,-1,-1,-1,-1,-1,-1,-1,-1,-1,-1,-1,-1,-1,-1,-1,-1,-1,-1,-1,-1,-1,-1,-1,-1,-1,-1,-1,-1,-1,-1,-1,-1,-1,-1,-1,-1,-1,-1,-1,-1,-1,-1,-1,-1,-1,-1,-1,-1,-1,-1,-1,-1,-1,-1,-1,-1,-1,-1,-1,-1,-1,-1,-1],"split_conditions":[4E0,7E0,4E0,5.2E1,4E0,5.9681E4,1E0,2.6496E5,1.1E2,8E0,1.00459E5,5.0794E4,1.09636E5,2.8E1,1E1,1E0,4E0,1E2,6.0718E4,1.1547E4,8E0,8.9629E4,4.6571994E-1,7.2347E4,5.8853E4,6.9011E4,7.2409E4,2.4E1,-1.12179816E-1,2.11286E5,1.319E4,9.82E3,8E0,1.6987023E-1,-2.9746497E-1,9.9E1,2.52068E5,4.8563E4,1.11169E5,5.56E3,1.11516E5,2E0,1.3993E4,1.12077E5,9E0,4E0,4.0838915E-1,9.264E3,7.2827E4,7.2312E4,5E0,1.2E1,9.148E4,6.273712E-1,-2.128647E-1,7.8807527E-1,1.3766667E-1,4.4908482E-1,5.3918654E-1,1.07732E5,2.52068E5,9.912E3,1.09914E5,4.2610213E-2,2.7972245E-1,7.575223E-2,5.239979E-3,-2.5542477E-1,-1.3900893E-2,-1.6882919E-1,1.7523462E-1,-6.2195092E-2,9.754289E-2,-3.7952662E-1,2.1786772E-2,5.7313945E-2,-1.1671752E-1,1.16833165E-1,-1.5058857E-1,1.2223938E-1,-1.702601E-1,1.2852398E-1,-3.6548603E-1,1.9948611E-2,2.364225E-1,-3.6399752E-1,8.010869E-2,1.1902621E-1,3.6126245E-2,1.6204257E-1,5.015065E-2,5.7351135E-2,-1.7474547E-1,-1.67438E-1,1.4292245E-1,1.3372703E-1,-2.675968E-2,-3.6305466E-1,-7.86919E-2,-3.5068672E-2,-2.1067409E-1,-4.5954186E-1,-2.6765922E-1,8.680455E-2,-2.0128094E-2,-1.2630954E-1,6.553214E-2,-3.369708E-1,5.2769277E-2,-3.6260223E-1,7.277031E-2,1.5659206E-1,-1.6322464E-1,2.4536976E-1,1.7459258E-1,2.5133616E-1,-1.16682194E-1,1.08869046E-1,-3.5529906E-1,4.5927934E-2,-3.404906E-2,1.3153195E-1,-5.8149394E-2,-4.5176797E-2,-3.3325183E-1,-1.7565714E-2,-1.5714288E-1],"split_indices":[8,1,1,16,18,13,6,11,16,1,14,13,13,7,8,6,1,16,13,13,2,14,20,14,13,14,14,7,28,11,10,13,3,26,23,16,11,13,13,13,13,8,11,11,3,6,27,13,14,11,8,8,14,25,37,22,28,37,32,11,11,10,13,0,0,0,0,0,0,0,0,0,0,0,0,0,0,0,0,0,0,0,0,0,0,0,0,0,0,0,0,0,0,0,0,0,0,0,0,0,0,0,0,0,0,0,0,0,0,0,0,0,0,0,0,0,0,0,0,0,0,0,0,0,0,0,0],"split_type":[0,0,0,0,0,0,0,0,0,0,0,0,0,0,0,0,0,0,0,0,0,0,0,0,0,0,0,0,0,0,0,0,0,0,0,0,0,0,0,0,0,0,0,0,0,0,0,0,0,0,0,0,0,0,0,0,0,0,0,0,0,0,0,0,0,0,0,0,0,0,0,0,0,0,0,0,0,0,0,0,0,0,0,0,0,0,0,0,0,0,0,0,0,0,0,0,0,0,0,0,0,0,0,0,0,0,0,0,0,0,0,0,0,0,0,0,0,0,0,0,0,0,0,0,0,0,0],"sum_hessian":[3.5940348E4,1.3573774E4,2.2366574E4,9.678212E3,3.8955615E3,2.9400527E3,1.9426521E4,6.5611323E3,3.11708E3,1.86872E3,2.0268417E3,1.713189E3,1.2268638E3,4.8946616E2,1.8937055E4,6.4369004E3,1.2423182E2,1.7174618E3,1.3996183E3,7.7490436E2,1.0938157E3,1.8782197E3,1.4862193E2,9.3816345E2,7.750256E2,1.1020089E3,1.2485481E2,3.7363187E2,1.1583428E2,1.282089E4,6.1161665E3,1.278247E2,6.3090757E3,1.0767831E2,1.6553513E1,1.6467595E3,7.070221E1,7.3837054E2,6.612477E2,3.5333656E1,7.395707E2,9.782357E2,1.1557994E2,1.3899202E3,4.8829956E2,1.0921425E2,3.9407684E1,4.9608374E2,4.420797E2,4.3020248E2,3.4482306E2,5.3553925E2,5.664697E2,7.346184E1,5.1392975E1,4.282884E1,3.3080304E2,2.4689156E1,9.114513E1,1.0555377E4,2.2655125E3,3.7676337E2,5.739403E3,4.7280784E0,1.2309663E2,5.196523E3,1.1125527E3,8.4916466E1,2.2761839E1,4.0566993E0,1.2496814E1,1.4209216E3,2.2583784E2,6.221534E1,8.486865E0,5.4624725E2,1.9212326E2,6.374362E2,2.3811459E1,1.853214E1,1.6801514E1,7.3757025E2,2.000429E0,3.2624165E1,9.456116E2,2.8052738E0,1.12774666E2,6.408824E2,7.490378E2,3.8140622E2,1.06893326E2,1.0110838E2,8.10587E0,3.2767742E1,6.6399403E0,1.0439311E2,3.9169064E2,2.2117357E1,4.1996237E2,4.8271534E1,3.8193097E2,1.2016188E2,2.2466118E2,4.0733417E2,1.2820505E2,3.0453516E2,2.6193454E2,6.7329544E1,6.132294E0,5.9511127E0,4.5441864E1,3.9056503E1,3.7723348E0,2.4981296E2,8.0990074E1,2.3669744E1,1.0194112E0,8.957224E1,1.57288E0,5.9181973E3,4.6371797E3,1.6480444E3,6.1746796E2,2.4172327E2,1.3504012E2,5.57462E3,1.6478276E2],"tree_param":{"num_deleted":"0","num_feature":"39","num_nodes":"127","size_leaf_vector":"1"}},{"base_weights":[5.9656817E-2,1.9907846E-1,1.1305852E-3,1.3375339E-1,5.0296175E-1,-7.2813876E-2,8.516871E-2,2.8596538E-1,8.246672E-2,6.6164184E-1,5.293214E-2,-3.385154E-2,-1.1675955E0,1.1378976E-1,-2.5779283E-1,9.415582E-2,3.431138E-1,1.9140941E-1,-3.594783E-2,6.704472E-1,-4.7944725E-1,3.6442438E-1,-1.10878974E-1,-1.30597325E-2,-4.7075167E-1,-1.918059E0,-9.958641E-1,1.9738169E-1,2.4923126E-4,-1.2478769E0,-1.9425279E-1,3.104657E-1,-3.136576E-1,2.296228E-1,5.0933594E-1,9.318034E-2,4.548079E-1,-2.2562957E-1,9.29055E-2,-1.0484866E0,6.7511576E-1,4.6244273E-1,-1.8728994E0,2.7337462E-2,7.2538525E-1,-7.346862E-1,-2.480253E-2,6.4204496E-1,-2.4276556E-2,-5.26822E-1,1.6258238E-1,-8.6762166E-1,-2.298509E0,-1.1326519E0,-3.7459287E-1,3.86287E-1,1.3609947E-1,-7.4614614E-2,1.4064293E-1,-8.004793E-1,-1.6887755E0,-1.7497581E-1,-1.3614241E0,1.7043772E-1,4.2097047E-2,3.909639E-2,-1.543209E-1,-8.074766E-2,9.3966976E-2,2.0564462E-1,1.07026905E-1,8.589362E-2,-3.5168023E-3,1.391521E-1,-4.4540274E-1,-3.1040141E-2,-2.9407024E-1,1.6037602E-2,1.7353477E-1,4.7348753E-2,-4.613393E-1,2.0329516E-1,-3.9418185E-1,-7.166815E-2,2.2393565E-1,-7.3945034E-1,3.5729356E-2,-1.1660919E-1,1.4590624E-1,2.386227E-1,-3.1548403E-2,5.51767E-2,-3.185242E-1,7.876029E-2,-3.7596583E-2,-5.7277758E-2,2.0319451E-1,8.7592065E-2,-1.3435018E-2,-3.1379136E-1,-1.3782136E-1,2.4800585E-1,-2.7710445E-2,-7.0241135E-1,-1.5007213E-1,-4.157521E-1,-8.2246304E-1,-2.4400452E-1,-5.458867E-1,-4.4855237E-2,-3.9040667E-1,5.9797104E-2,1.5608129E-1,-5.8486764E-3,8.986409E-2,3.1298704E-2,-8.106524E-2,6.1674725E-2,-2.3905639E-2,2.9757875E-1,-2.9984653E-1,9.8947756E-2,-5.653027E-1,-3.8015872E-2,-1.4302757E-1,-6.4291763E-3,-5.136721E-1],"categories":[],"categories_nodes":[],"categories_segments":[],"categories_sizes":[],"default_left":[0,0,0,0,0,0,0,0,0,0,0,0,0,0,0,0,0,0,0,0,1,0,0,0,0,0,0,0,0,1,0,0,0,0,0,0,0,0,0,0,0,0,0,0,1,0,0,0,0,0,0,0,0,0,0,0,0,0,0,0,0,0,0,0,0,0,0,0,0,0,0,0,0,0,0,0,0,0,0,0,0,0,0,0,0,0,0,0,0,0,0,0,0,0,0,0,0,0,0,0,0,0,0,0,0,0,0,0,0,0,0,0,0,0,0,0,0,0,0,0,0,0,0,0,0,0,0],"id":4,"left_children":[1,3,5,7,9,11,13,15,17,19,21,23,25,27,29,31,33,35,37,39,41,43,45,47,49,51,53,55,57,59,61,63,65,67,69,71,73,75,77,79,81,83,85,87,89,91,93,95,97,99,101,103,105,107,109,111,113,115,117,119,121,123,125,-1,-1,-1,-1,-1,-1,-1,-1,-1,-1,-1,-1,-1,-1,-1,-1,-1,-1,-1,-1,-1,-1,-1,-1,-1,-1,-1,-1,-1,-1,-1,-1,-1,-1,-1,-1,-1,-1,-1,-1,-1,-1,-1,-1,-1,-1,-1,-1,-1,-1,-1,-1,-1,-1,-1,-1,-1,-1,-1,-1,-1,-1,-1,-1],"loss_changes":[2.870777E2,2.0642569E2,1.5399817E2,6.682257E1,1.3136792E2,5.6226733E2,1.13886604E2,2.3619202E1,8.265038E1,1.3989563E1,2.4572084E1,1.1563785E2,5.647223E1,1.01616196E2,5.5982468E1,4.3910812E1,3.123613E1,8.629041E1,7.506826E1,1.15442505E1,1.5303078E1,2.016951E1,1.6940895E1,8.9320404E1,2.0621445E1,3.128711E1,3.1080841E1,7.133447E1,4.77381E1,9.243507E0,1.8684376E1,1.4169514E1,1.5453417E1,4.134388E1,1.7857132E1,4.9268593E1,1.656192E1,1.1442651E2,3.5003166E1,2.6328244E0,7.6830444E0,1.6453941E0,5.7581825E0,1.6772743E1,4.7413673E0,1.16908E1,8.079075E0,6.1409607E0,7.751017E1,1.8121597E1,8.169111E0,1.1687023E1,2.0675537E1,6.505737E1,1.4070923E1,3.7719833E1,1.18456436E2,1.0371567E2,2.2617935E1,1.1179411E1,1.0945587E1,1.200502E1,6.3175945E0,0E0,0E0,0E0,0E0,0E0,0E0,0E0,0E0,0E0,0E0,0E0,0E0,0E0,0E0,0E0,0E0,0E0,0E0,0E0,0E0,0E0,0E0,0E0,0E0,0E0,0E0,0E0,0E0,0E0,0E0,0E0,0E0,0E0,0E0,0E0,0E0,0E0,0E0,0E0,0E0,0E0,0E0,0E0,0E0,0E0,0E0,0E0,0E0,0E0,0E0,0E0,0E0,0E0,0E0,0E0,0E0,0E0,0E0,0E0,0E0,0E0,0E0,0E0,0E0],"parents":[2147483647,0,0,1,1,2,2,3,3,4,4,5,5,6,6,7,7,8,8,9,9,10,10,11,11,12,12,13,13,14,14,15,15,16,16,17,17,18,18,19,19,20,20,21,21,22,22,23,23,24,24,25,25,26,26,27,27,28,28,29,29,30,30,31,31,32,32,33,33,34,34,35,35,36,36,37,37,38,38,39,39,40,40,41,41,42,42,43,43,44,44,45,45,46,46,47,47,48,48,49,49,50,50,51,51,52,52,53,53,54,54,55,55,56,56,57,57,58,58,59,59,60,60,61,61,62,62],"right_children":[2,4,6,8,10,12,14,16,18,20,22,24,26,28,30,32,34,36,38,40,42,44,46,48,50,52,54,56,58,60,62,64,66,68,70,72,74,76,78,80,82,84,86,88,90,92,94,96,98,100,102,104,106,108,110,112,114,116,118,120,122,124,126,-1,-1,-1,-1,-1,-1,-1,-1,-1,-1,-1,-1,-1,-1,-1,-1,-1,-1,-1,-1,-1,-1,-1,-1,-1,-1,-1,-1,-1,-1,-1,-1,-1,-1,-1,-1,-1,-1,-1,-1,-1,-1,-1,-1,-1,-1,-1,-1,-1,-1,-1,-1,-1,-1,-1,-1,-1,-1,-1,-1,-1,-1,-1,-1],"split_conditions":[5E0,8E0,5.9681E4,2E0,8E0,5.8853E4,1.09914E5,3E0,3.9931E4,9.4143E4,2.8E1,1.11241E5,4E0,6E0,4.2469E4,7.6249E4,5E0,2.8877E4,5.2261E4,1E0,-3.2831192E-2,2.6E1,2.0478E4,1E0,1.11598E5,1.12077E5,5.0536E4,7.0469E4,9.1003E4,-1.2914973E-1,3E1,5.9648E4,7E0,2.33E4,1E0,1.0693E4,1.15274E5,1.14236E5,1E0,3E0,1.33E2,5.1863E4,4.65548E-1,4.6449E4,7.247639E-1,-4.245478E-2,-9.1076374E-2,3.232E3,5.344E3,2.2E1,-2.8065872E-1,4E0,1.4719594E-1,4E0,5.1276E4,1.85464E5,8.685E4,7.5614E4,1.73709E5,-3.183546E-1,-3.6951798E-1,2.53123E5,-2.7113461E-1,1.7043772E-1,4.2097047E-2,3.909639E-2,-1.543209E-1,-8.074766E-2,9.3966976E-2,2.0564462E-1,1.07026905E-1,8.589362E-2,-3.5168023E-3,1.391521E-1,-4.4540274E-1,-3.1040141E-2,-2.9407024E-1,1.6037602E-2,1.7353477E-1,4.7348753E-2,-4.613393E-1,2.0329516E-1,-3.9418185E-1,-7.166815E-2,2.2393565E-1,-7.3945034E-1,3.5729356E-2,-1.1660919E-1,1.4590624E-1,2.386227E-1,-3.1548403E-2,5.51767E-2,-3.185242E-1,7.876029E-2,-3.7596583E-2,-5.7277758E-2,2.0319451E-1,8.7592065E-2,-1.3435018E-2,-3.1379136E-1,-1.3782136E-1,2.4800585E-1,-2.7710445E-2,-7.0241135E-1,-1.5007213E-1,-4.157521E-1,-8.2246304E-1,-2.4400452E-1,-5.458867E-1,-4.4855237E-2,-3.9040667E-1,5.9797104E-2,1.5608129E-1,-5.8486764E-3,8.986409E-2,3.1298704E-2,-8.106524E-2,6.1674725E-2,-2.3905639E-2,2.9757875E-1,-2.9984653E-1,9.8947756E-2,-5.653027E-1,-3.8015872E-2,-1.4302757E-1,-6.4291763E-3,-5.136721E-1],"split_indices":[18,1,13,8,2,13,13,1,14,14,7,14,8,8,14,14,4,14,14,8,20,7,11,6,14,11,14,13,13,27,8,14,2,10,3,14,11,11,15,4,16,13,21,14,26,36,20,13,14,18,21,1,19,1,14,11,13,13,11,23,35,11,33,0,0,0,0,0,0,0,0,0,0,0,0,0,0,0,0,0,0,0,0,0,0,0,0,0,0,0,0,0,0,0,0,0,0,0,0,0,0,0,0,0,0,0,0,0,0,0,0,0,0,0,0,0,0,0,0,0,0,0,0,0,0,0,0],"split_type":[0,0,0,0,0,0,0,0,0,0,0,0,0,0,0,0,0,0,0,0,0,0,0,0,0,0,0,0,0,0,0,0,0,0,0,0,0,0,0,0,0,0,0,0,0,0,0,0,0,0,0,0,0,0,0,0,0,0,0,0,0,0,0,0,0,0,0,0,0,0,0,0,0,0,0,0,0,0,0,0,0,0,0,0,0,0,0,0,0,0,0,0,0,0,0,0,0,0,0,0,0,0,0,0,0,0,0,0,0,0,0,0,0,0,0,0,0,0,0,0,0,0,0,0,0,0,0],"sum_hessian":[3.5180883E4,1.0401042E4,2.4779842E4,8.561942E3,1.8390997E3,1.3181596E4,1.1598245E4,2.156667E3,6.405275E3,1.3593306E3,4.797692E2,1.2729592E4,4.5200424E2,1.070551E4,8.9273505E2,4.956717E2,1.6609952E3,3.3357407E3,3.0695342E3,1.3493308E3,9.999773E0,1.6492816E2,3.1484103E2,1.2152301E4,5.772907E2,8.227869E1,3.6972556E2,6.165527E3,4.5399834E3,5.271339E1,8.400216E2,3.240368E2,1.7163489E2,9.884771E2,6.725182E2,2.430638E3,9.051027E2,1.2413796E3,1.8281547E3,3.0492342E0,1.3462815E3,6.3653264E0,3.6344469E0,8.58407E1,7.908746E1,3.7262142E1,2.775789E2,2.036245E2,1.1948677E4,5.304933E2,4.679741E1,2.2748816E1,5.9529873E1,3.0233594E2,6.738965E1,1.5089167E3,4.65661E3,2.9613403E3,1.5786432E3,2.7561346E1,2.5152044E1,8.275045E2,1.251713E1,1.2794312E2,1.9609367E2,5.355054E1,1.1808435E2,1.415764E2,8.469007E2,3.1053146E2,3.619867E2,8.5493335E2,1.5757046E3,9.016644E2,3.4383144E0,1.0693933E3,1.7198625E2,1.6918171E3,1.3633751E2,1.0754169E0,1.9738171E0,1.3452266E3,1.0549678E0,1.8804848E0,4.4848413E0,2.6188655E0,1.0155813E0,4.5108925E1,4.0731773E1,7.297705E1,6.1104183E0,9.898399E0,2.7363743E1,7.1521484E1,2.0605742E2,8.09244E0,1.9553206E2,7.2680927E2,1.1221867E4,5.930436E1,4.7118893E2,1.2359757E1,3.4437653E1,3.4671628E0,1.9281652E1,2.0802973E1,3.87269E1,2.0789183E2,9.444409E1,5.5155743E1,1.2233901E1,6.3095703E2,8.779597E2,2.3860615E3,2.2705483E3,1.5467715E3,1.4145687E3,1.2193264E3,3.5931677E2,2.3561292E0,2.5205215E1,2.160923E0,2.2991121E1,7.146492E2,1.12855316E2,2.8172655E0,9.699864E0],"tree_param":{"num_deleted":"0","num_feature":"39","num_nodes":"127","size_leaf_vector":"1"}},{"base_weights":[4.4744935E-2,1.12187125E-1,-3.2321252E-2,-9.040919E-2,1.5950678E-1,-1.109024E-1,7.597649E-2,-2.1212041E-1,9.841145E-2,1.080208E-1,3.352822E-1,7.407927E-1,-1.2693256E-1,8.0620104E-1,1.6998651E-4,-1.1884096E-1,-7.0569E-1,-4.5896828E-1,1.5702964E-1,1.9779073E-1,2.2598082E-2,4.2774576E-1,-6.4822055E-2,7.817749E-1,-3.6833495E-1,3.8287118E-1,-1.5038903E-1,1.0061405E0,4.92064E-1,1.5384167E-1,-4.5798663E-2,-1.1682413E-2,-3.85893E-1,-1.7307718E0,-5.9154314E-1,-1.0595264E0,-2.7896E-1,1.9937378E-1,-2.3921333E-1,-1.8807648E-1,2.6772672E-1,-1.5702851E-1,1.0880948E-1,1.7004E-1,4.919376E-1,1.8265748E-1,-1.3455354E-1,8.0179316E-1,-3.106284E-1,2.5722954E-1,-1.0559608E0,-1.0314864E-1,6.0135096E-1,-2.1793757E-1,5.763151E-2,7.160514E-1,1.0557692E0,9.1933064E-2,8.550201E-1,2.1572147E-1,-3.771487E-2,-9.295483E-2,1.8394269E-1,3.3179894E-2,-6.84541E-2,-2.998672E-1,-8.6879276E-2,-5.6367624E-1,1.2350435E-2,-1.9305336E-1,1.3123076E-1,-4.0862995E-1,4.7939494E-3,8.132572E-3,-1.8714154E-1,8.9575484E-2,2.0804133E-2,3.582395E-2,-1.8818904E-1,-1.2531671E-2,-2.925734E-1,6.012069E-2,1.4280379E-1,-1.17566936E-1,1.3891861E-2,4.7011152E-2,-5.455872E-2,1.2142983E-1,-5.2840102E-2,1.7647678E-1,9.785289E-2,-4.4352254E-1,7.329344E-2,-1.0139365E-1,-1.6809499E-2,2.519813E-1,-4.6344303E-2,-4.867055E-1,8.29805E-2,-1.22495964E-1,6.2123146E-2,2.2487305E-2,1.9989519E-1,-7.792606E-2,-7.0911916E-3,4.8986655E-2,-1.2955321E-1,2.4815875E-1,-1.1270309E-1,-6.768429E-2,3.1834313E-1,1.00199185E-1,-8.200404E-2,2.6221544E-1,-1.5527886E-1,1.1199912E-1,3.710855E-2,-2.215855E-1,2.6441675E-3,-4.5088097E-2,2.0087069E-2,3.803359E-2,1.3199061E-1],"categories":[],"categories_nodes":[],"categories_segments":[],"categories_sizes":[],"default_left":[0,0,0,0,0,0,0,0,0,0,0,1,0,0,0,0,0,0,0,0,0,0,0,0,0,0,0,0,0,0,0,0,0,0,0,1,0,0,0,0,0,0,0,0,0,0,0,0,0,0,0,0,0,0,0,1,0,1,1,0,0,0,0,0,0,0,0,0,0,0,0,0,0,0,0,0,0,0,0,0,0,0,0,0,0,0,0,0,0,0,0,0,0,0,0,0,0,0,0,0,0,0,0,0,0,0,0,0,0,0,0,0,0,0,0,0,0,0,0,0,0,0,0],"id":5,"left_children":[1,3,5,7,9,11,13,15,17,19,21,23,25,27,29,31,33,35,37,39,41,43,45,47,49,51,53,55,57,59,61,63,65,67,69,71,73,75,77,79,81,83,85,87,89,91,93,95,-1,-1,97,99,101,103,105,107,109,111,113,115,117,119,121,-1,-1,-1,-1,-1,-1,-1,-1,-1,-1,-1,-1,-1,-1,-1,-1,-1,-1,-1,-1,-1,-1,-1,-1,-1,-1,-1,-1,-1,-1,-1,-1,-1,-1,-1,-1,-1,-1,-1,-1,-1,-1,-1,-1,-1,-1,-1,-1,-1,-1,-1,-1,-1,-1,-1,-1,-1,-1,-1,-1],"loss_changes":[1.7967206E2,1.7675056E2,1.3730937E2,8.025505E1,1.3521701E2,1.277485E2,3.7557318E2,9.766726E1,4.480261E1,8.8648346E1,1.2526871E2,8.145988E0,1.09811905E2,3.9582764E1,4.3434338E1,5.113122E1,3.8440887E1,1.3815838E1,2.0845062E1,1.521662E2,9.1770325E1,4.5408203E1,1.1006248E1,6.9065704E0,6.6705666E0,4.2961105E1,1.2331671E2,4.843872E0,3.624802E1,1.6789867E1,5.1291565E1,3.3812195E1,2.9946404E1,8.812332E0,1.6591194E1,9.701466E0,1.0760292E1,1.44324875E1,1.6793705E1,9.963248E1,6.68262E1,9.1798386E1,5.5771576E1,4.4755768E1,3.4950012E1,1.4730762E1,7.9205103E0,6.1768494E0,0E0,0E0,4.0941496E0,1.2026731E1,9.486412E0,5.3815918E1,1.1135415E2,7.5827427E0,2.5122986E0,1.0710113E1,3.8754807E0,1.54767E1,1.1307561E1,3.602197E1,1.1745544E1,0E0,0E0,0E0,0E0,0E0,0E0,0E0,0E0,0E0,0E0,0E0,0E0,0E0,0E0,0E0,0E0,0E0,0E0,0E0,0E0,0E0,0E0,0E0,0E0,0E0,0E0,0E0,0E0,0E0,0E0,0E0,0E0,0E0,0E0,0E0,0E0,0E0,0E0,0E0,0E0,0E0,0E0,0E0,0E0,0E0,0E0,0E0,0E0,0E0,0E0,0E0,0E0,0E0,0E0,0E0,0E0,0E0,0E0,0E0,0E0],"parents":[2147483647,0,0,1,1,2,2,3,3,4,4,5,5,6,6,7,7,8,8,9,9,10,10,11,11,12,12,13,13,14,14,15,15,16,16,17,17,18,18,19,19,20,20,21,21,22,22,23,23,24,24,25,25,26,26,27,27,28,28,29,29,30,30,31,31,32,32,33,33,34,34,35,35,36,36,37,37,38,38,39,39,40,40,41,41,42,42,43,43,44,44,45,45,46,46,47,47,50,50,51,51,52,52,53,53,54,54,55,55,56,56,57,57,58,58,59,59,60,60,61,61,62,62],"right_children":[2,4,6,8,10,12,14,16,18,20,22,24,26,28,30,32,34,36,38,40,42,44,46,48,50,52,54,56,58,60,62,64,66,68,70,72,74,76,78,80,82,84,86,88,90,92,94,96,-1,-1,98,100,102,104,106,108,110,112,114,116,118,120,122,-1,-1,-1,-1,-1,-1,-1,-1,-1,-1,-1,-1,-1,-1,-1,-1,-1,-1,-1,-1,-1,-1,-1,-1,-1,-1,-1,-1,-1,-1,-1,-1,-1,-1,-1,-1,-1,-1,-1,-1,-1,-1,-1,-1,-1,-1,-1,-1,-1,-1,-1,-1,-1,-1,-1,-1,-1,-1,-1,-1],"split_conditions":[8E0,4E0,9E0,6.0718E4,2.09212E5,9.24E2,1.2E1,5.8853E4,3E0,1.07732E5,2.52068E5,4.9118483E-1,4.399E3,1E1,1.3E1,1.04832E5,3E0,1E0,2.53123E5,1.7228E4,1.44894E5,8.9629E4,2.8994E4,6.9011E4,3.3E1,1.866E3,8.685E4,9E0,1.1E1,7E0,6.7E1,4E0,1.05179E5,5.9681E4,1.3E1,3.5132766E-1,4E1,1.37342E5,3.9413646E-1,1.5057E4,8.5281E4,5.9681E4,2.00625E5,7.3892E4,1.0306E5,-7.989706E-1,5E0,2.2E1,-3.106284E-1,2.5722954E-1,8.9E1,1.6129255E-1,2E0,5.7E1,1.09636E5,1.3115995E0,-6.8236655E-1,-4.5586467E-2,1.1061016E0,8.7536E4,-9.480094E-1,8.8102E4,2.42396E5,3.3179894E-2,-6.84541E-2,-2.998672E-1,-8.6879276E-2,-5.6367624E-1,1.2350435E-2,-1.9305336E-1,1.3123076E-1,-4.0862995E-1,4.7939494E-3,8.132572E-3,-1.8714154E-1,8.9575484E-2,2.0804133E-2,3.582395E-2,-1.8818904E-1,-1.2531671E-2,-2.925734E-1,6.012069E-2,1.4280379E-1,-1.17566936E-1,1.3891861E-2,4.7011152E-2,-5.455872E-2,1.2142983E-1,-5.2840102E-2,1.7647678E-1,9.785289E-2,-4.4352254E-1,7.329344E-2,-1.0139365E-1,-1.6809499E-2,2.519813E-1,-4.6344303E-2,-4.867055E-1,8.29805E-2,-1.22495964E-1,6.2123146E-2,2.2487305E-2,1.9989519E-1,-7.792606E-2,-7.0911916E-3,4.8986655E-2,-1.2955321E-1,2.4815875E-1,-1.1270309E-1,-6.768429E-2,3.1834313E-1,1.00199185E-1,-8.200404E-2,2.6221544E-1,-1.5527886E-1,1.1199912E-1,3.710855E-2,-2.215855E-1,2.6441675E-3,-4.5088097E-2,2.0087069E-2,3.803359E-2,1.3199061E-1],"split_indices":[3,1,3,13,11,13,3,13,2,11,11,35,14,3,3,14,8,3,11,11,11,14,13,14,16,14,13,7,3,1,18,8,14,13,8,23,16,10,24,11,11,13,11,14,14,27,3,5,0,0,16,38,4,18,13,21,38,29,26,10,22,13,11,0,0,0,0,0,0,0,0,0,0,0,0,0,0,0,0,0,0,0,0,0,0,0,0,0,0,0,0,0,0,0,0,0,0,0,0,0,0,0,0,0,0,0,0,0,0,0,0,0,0,0,0,0,0,0,0,0,0,0,0],"split_type":[0,0,0,0,0,0,0,0,0,0,0,0,0,0,0,0,0,0,0,0,0,0,0,0,0,0,0,0,0,0,0,0,0,0,0,0,0,0,0,0,0,0,0,0,0,0,0,0,0,0,0,0,0,0,0,0,0,0,0,0,0,0,0,0,0,0,0,0,0,0,0,0,0,0,0,0,0,0,0,0,0,0,0,0,0,0,0,0,0,0,0,0,0,0,0,0,0,0,0,0,0,0,0,0,0,0,0,0,0,0,0,0,0,0,0,0,0,0,0,0,0,0,0],"sum_hessian":[3.4567156E4,1.843439E4,1.6132767E4,3.4902368E3,1.4944153E4,9.349048E3,6.7837188E3,2.1221829E3,1.3680537E3,1.1559811E4,3.384343E3,1.7187703E2,9.17717E3,6.370966E2,6.146622E3,1.7859064E3,3.3627667E2,1.295337E2,1.23852E3,5.635842E3,5.9239688E3,2.7489868E3,6.353562E2,1.6603711E2,5.839916E0,4.0300125E2,8.774169E3,3.8796487E2,2.4913171E2,1.4147644E3,4.731858E3,1.2752408E3,5.1066544E2,3.2274742E1,3.0400192E2,2.8745308E1,1.0078839E2,1.1193939E3,1.1912614E2,8.6447406E2,4.7713677E3,1.9208798E3,4.003089E3,5.489222E2,2.2000647E3,1.393123E2,4.9604388E2,1.6478067E2,1.2564477E0,2.0099752E0,3.829941E0,1.2514266E2,2.7785858E2,6.6233755E3,2.1507937E3,5.893085E1,3.2903403E2,1.19093575E2,1.3003813E2,1.0692358E3,3.4552863E2,3.9265076E3,8.053503E2,8.1525745E2,4.5998343E2,6.799183E1,4.426736E2,2.9728796E1,2.545948E0,2.897432E2,1.4258721E1,2.2225977E1,6.5193324E0,5.3884445E1,4.690395E1,6.341994E2,4.8519446E2,6.227258E1,5.6853558E1,7.29872E2,1.3460205E2,3.6073298E3,1.1640382E3,8.9090955E2,1.0299702E3,3.4371987E3,5.658904E2,3.270165E2,2.2190567E2,1.3898951E3,8.1016956E2,4.163419E0,1.351489E2,1.3722726E2,3.5881662E2,1.5857692E2,6.203747E0,2.5349998E0,1.2949412E0,6.2925865E1,6.22168E1,3.0761936E1,2.4709665E2,5.450105E3,1.1732705E3,1.7694991E3,3.8129462E2,5.3705605E1,5.225243E0,1.2031559E0,3.2783087E2,7.167892E1,4.7414658E1,1.2861807E2,1.4200716E0,3.930396E2,6.7619617E2,2.0583712E1,3.2494492E2,2.8902307E3,1.0362767E3,6.595785E2,1.4577182E2],"tree_param":{"num_deleted":"0","num_feature":"39","num_nodes":"123","size_leaf_vector":"1"}},{"base_weights":[3.416346E-2,5.477554E-1,2.4861861E-2,7.408947E-1,4.5545888E-1,-1.1796251E-2,1.4254965E-1,-2.5738478E-1,7.816408E-1,5.553699E-1,2.74937E-1,4.695755E-3,-5.5925E-1,3.038998E-1,-3.825241E-2,3.7568963E-1,-4.5541576E-1,1.7582692E-1,8.318968E-1,-3.3611767E-2,6.013753E-1,1.7029397E-1,6.807559E-1,4.208763E-2,-1.099404E-1,-7.351557E-1,-2.8553268E-1,3.653145E-1,8.2940646E-2,2.1250041E-2,-3.1952658E-1,2.7048817E-1,-4.08235E-1,6.0961694E-1,-8.060061E-1,-1.7437321E-1,8.5983163E-1,-4.993957E-1,1.5715341E-1,6.487249E-1,2.0363444E-1,2.1436338E-1,-1.2067599E0,8.5265756E-1,-7.0347774E-1,-1.3605474E-1,7.275795E-2,-3.2882416E-1,-2.195813E-2,-8.414689E-1,-1.9687425E-1,1.4355585E-1,-4.358492E-1,2.8048414E-1,4.6255833E-1,2.2985843E-1,-3.6327586E-2,-2.590299E-1,9.819904E-2,-4.5880917E-1,-1.7618646E-1,-2.6531565E-1,5.9480563E-2,-1.21048205E-1,2.478764E-1,4.021534E-2,-6.847274E-1,2.3731044E-1,-3.6153626E-1,-4.5724258E-2,2.6640916E-1,2.1043538E-1,-1.2420917E-1,2.3002148E-1,1.4214438E-1,-2.7544844E-1,1.13062404E-1,2.0572604E-1,3.1029591E-2,-6.251105E-1,1.7246991E-1,2.755521E-1,-1.1153029E-1,5.4151293E-2,-3.5098466E-1,1.2588498E-2,-6.6667825E-2,2.575035E-2,-7.491952E-2,-1.1530869E-1,2.8341455E-2,3.530614E-2,-5.8140825E-2,-2.867928E-1,-9.3486816E-2,-1.3616653E-1,1.0054738E-1,-4.450427E-2,1.1271214E-1,-3.1868023E-1,-7.277406E-2,9.15226E-2,1.8222392E-2,1.4574906E-1,-3.1368855E-2,-2.3019934E-2,1.0493188E-1,7.656478E-3,-1.2832081E-1,-2.473963E-1,-4.1534975E-2,5.164288E-2,-5.828602E-2,1.4537607E-1,-1.5371104E-1,1.169112E-1,-7.22894E-2],"categories":[],"categories_nodes":[],"categories_segments":[],"categories_sizes":[],"default_left":[0,0,0,0,0,0,0,0,0,0,0,0,0,0,0,0,0,0,0,0,0,0,0,0,0,0,0,0,0,0,0,0,0,0,0,0,0,0,0,0,0,0,0,1,0,0,0,0,0,0,1,0,0,0,0,0,0,0,0,0,0,0,0,0,0,0,0,0,0,0,0,0,0,0,0,0,0,0,0,0,0,0,0,0,0,0,0,0,0,0,0,0,0,0,0,0,0,0,0,0,0,0,0,0,0,0,0,0,0,0,0,0,0,0,0,0,0],"id":6,"left_children":[1,3,5,7,9,11,13,15,17,19,21,23,25,27,29,31,-1,33,35,37,39,41,43,45,47,49,51,53,55,57,59,-1,61,63,65,67,69,-1,71,73,75,77,79,81,83,85,87,89,91,93,95,97,99,101,103,105,107,109,111,113,115,-1,-1,-1,-1,-1,-1,-1,-1,-1,-1,-1,-1,-1,-1,-1,-1,-1,-1,-1,-1,-1,-1,-1,-1,-1,-1,-1,-1,-1,-1,-1,-1,-1,-1,-1,-1,-1,-1,-1,-1,-1,-1,-1,-1,-1,-1,-1,-1,-1,-1,-1,-1,-1,-1,-1,-1],"loss_changes":[1.6285287E2,1.0472443E1,1.4447108E2,8.112221E0,7.294815E0,2.3054314E2,2.3203204E2,7.2578073E0,5.5504074E0,7.1960526E0,6.215495E0,1.06260445E2,3.5744278E1,5.700363E1,6.2793976E1,2.99841E0,0E0,7.1359115E0,4.9991455E0,6.526227E0,4.495018E0,7.5327134E0,7.7931337E0,1.0214006E2,1.1741109E2,2.5812637E1,1.9011126E1,2.6997864E1,1.604857E1,6.682796E1,1.2998253E1,0E0,1.1138847E0,2.8331676E0,7.5387015E0,6.4173536E0,4.9312973E0,0E0,6.178603E0,4.159279E0,5.7088246E0,6.047004E0,7.241074E0,2.546053E0,1.8141415E0,4.2131226E1,6.727349E1,4.1131454E1,1.04413284E2,2.2683105E1,1.0568489E1,5.271555E0,2.6112179E1,9.486038E0,2.0251709E1,1.511121E1,1.2262891E1,4.540942E1,5.2608513E1,1.7005424E1,1.1988294E1,0E0,0E0,0E0,0E0,0E0,0E0,0E0,0E0,0E0,0E0,0E0,0E0,0E0,0E0,0E0,0E0,0E0,0E0,0E0,0E0,0E0,0E0,0E0,0E0,0E0,0E0,0E0,0E0,0E0,0E0,0E0,0E0,0E0,0E0,0E0,0E0,0E0,0E0,0E0,0E0,0E0,0E0,0E0,0E0,0E0,0E0,0E0,0E0,0E0,0E0,0E0,0E0,0E0,0E0,0E0,0E0],"parents":[2147483647,0,0,1,1,2,2,3,3,4,4,5,5,6,6,7,7,8,8,9,9,10,10,11,11,12,12,13,13,14,14,15,15,17,17,18,18,19,19,20,20,21,21,22,22,23,23,24,24,25,25,26,26,27,27,28,28,29,29,30,30,32,32,33,33,34,34,35,35,36,36,38,38,39,39,40,40,41,41,42,42,43,43,44,44,45,45,46,46,47,47,48,48,49,49,50,50,51,51,52,52,53,53,54,54,55,55,56,56,57,57,58,58,59,59,60,60],"right_children":[2,4,6,8,10,12,14,16,18,20,22,24,26,28,30,32,-1,34,36,38,40,42,44,46,48,50,52,54,56,58,60,-1,62,64,66,68,70,-1,72,74,76,78,80,82,84,86,88,90,92,94,96,98,100,102,104,106,108,110,112,114,116,-1,-1,-1,-1,-1,-1,-1,-1,-1,-1,-1,-1,-1,-1,-1,-1,-1,-1,-1,-1,-1,-1,-1,-1,-1,-1,-1,-1,-1,-1,-1,-1,-1,-1,-1,-1,-1,-1,-1,-1,-1,-1,-1,-1,-1,-1,-1,-1,-1,-1,-1,-1,-1,-1,-1,-1],"split_conditions":[1E0,4E0,8.9629E4,9.82E3,1.06639E5,8.7916E4,1.03912E5,8E0,-3.3215225E-1,5E0,1.02592E5,7.1879E4,8.8712E4,7E0,2.53123E5,2.3961666E-1,-4.5541576E-1,2.783996E-1,6E0,-7.1012795E-1,1.3E1,9.9939E4,1.10696E5,2.0478E4,1.69523E5,2.53123E5,1.37488E5,4E0,1.22406E5,3.1814E4,4.2228514E-1,2.7048817E-1,7.0945E4,-5.091709E-1,1.0114497E-1,8.3514E4,1.1873E4,-4.993957E-1,1.8732728E-1,7E0,1.1873E4,4.6692E4,9E0,3.800298E-1,1.923E5,6.513E3,1.07432E5,6.4E1,2.00625E5,5.2E1,1.0816097E-2,3.3732235E-1,1.54682E5,2.53123E5,2.60742E5,5.1777E4,2.56384E5,1.05179E5,7.9221E4,-6.1423355E-1,6.015038E-1,-2.6531565E-1,5.9480563E-2,-1.21048205E-1,2.478764E-1,4.021534E-2,-6.847274E-1,2.3731044E-1,-3.6153626E-1,-4.5724258E-2,2.6640916E-1,2.1043538E-1,-1.2420917E-1,2.3002148E-1,1.4214438E-1,-2.7544844E-1,1.13062404E-1,2.0572604E-1,3.1029591E-2,-6.251105E-1,1.7246991E-1,2.755521E-1,-1.1153029E-1,5.4151293E-2,-3.5098466E-1,1.2588498E-2,-6.6667825E-2,2.575035E-2,-7.491952E-2,-1.1530869E-1,2.8341455E-2,3.530614E-2,-5.8140825E-2,-2.867928E-1,-9.3486816E-2,-1.3616653E-1,1.0054738E-1,-4.450427E-2,1.1271214E-1,-3.1868023E-1,-7.277406E-2,9.15226E-2,1.8222392E-2,1.4574906E-1,-3.1368855E-2,-2.3019934E-2,1.0493188E-1,7.656478E-3,-1.2832081E-1,-2.473963E-1,-4.1534975E-2,5.164288E-2,-5.828602E-2,1.4537607E-1,-1.5371104E-1,1.169112E-1,-7.22894E-2],"split_indices":[6,8,14,13,11,14,14,3,36,3,14,14,14,8,11,30,0,28,7,27,5,14,14,11,11,11,11,4,10,10,23,0,10,29,24,14,11,0,35,1,11,10,8,38,11,11,13,18,11,18,34,23,11,11,11,10,11,14,13,28,23,0,0,0,0,0,0,0,0,0,0,0,0,0,0,0,0,0,0,0,0,0,0,0,0,0,0,0,0,0,0,0,0,0,0,0,0,0,0,0,0,0,0,0,0,0,0,0,0,0,0,0,0,0,0,0,0],"split_type":[0,0,0,0,0,0,0,0,0,0,0,0,0,0,0,0,0,0,0,0,0,0,0,0,0,0,0,0,0,0,0,0,0,0,0,0,0,0,0,0,0,0,0,0,0,0,0,0,0,0,0,0,0,0,0,0,0,0,0,0,0,0,0,0,0,0,0,0,0,0,0,0,0,0,0,0,0,0,0,0,0,0,0,0,0,0,0,0,0,0,0,0,0,0,0,0,0,0,0,0,0,0,0,0,0,0,0,0,0,0,0,0,0,0,0,0,0],"sum_hessian":[3.409126E4,6.054097E2,3.348585E4,1.9348874E2,4.1192102E2,2.553344E4,7.9524116E3,7.379301E0,1.8610944E2,2.6382745E2,1.4809355E2,2.4787703E4,7.457364E2,4.2019E3,3.750512E3,5.3797317E0,1.9995694E0,1.4600871E1,1.7150858E2,1.9134043E1,2.4469342E2,1.1886347E2,2.923008E1,1.8691549E4,6.096153E3,4.5295624E2,2.9278015E2,3.2874993E3,9.1440063E2,3.0964043E3,6.541077E2,3.1297963E0,2.2499354E0,1.0389654E1,4.2112174E0,4.4910116E0,1.6701756E2,1.1945412E0,1.79395E1,2.1809854E2,2.6594875E1,1.15995636E2,2.8678384E0,2.634272E1,2.8873599E0,2.7449023E3,1.5946647E4,1.7470573E3,4.3490957E3,3.777797E2,7.5176544E1,7.596837E1,2.1681178E2,1.7578912E3,1.5296079E3,4.092941E2,5.0510654E2,6.664721E2,2.4299321E3,3.3063306E2,3.2347467E2,1.0037482E0,1.2461873E0,1.6783389E0,8.711315E0,3.128476E0,1.0827413E0,2.4390945E0,2.0519168E0,4.407251E0,1.626103E2,9.069165E0,8.870337E0,1.2821042E2,8.988812E1,2.98245E0,2.3612425E1,2.110988E1,9.488575E1,1.8082703E0,1.0595679E0,2.5235409E1,1.107311E0,1.2091027E0,1.6782572E0,8.9548486E2,1.8494174E3,1.5325935E4,6.207134E2,1.544504E3,2.0255319E2,2.3995093E3,1.9495864E3,3.0998364E2,6.779604E1,5.0788506E1,2.4388039E1,3.3813187E1,4.2155186E1,5.006056E1,1.6675122E2,1.5806177E3,1.7727364E2,1.4694521E3,6.015573E1,1.1517653E2,2.9411755E2,4.3698956E2,6.8116974E1,1.1608656E2,5.5038556E2,1.9399109E3,4.9002115E2,1.7330723E1,3.1330234E2,3.2710026E1,2.9076465E2],"tree_param":{"num_deleted":"0","num_feature":"39","num_nodes":"117","size_leaf_vector":"1"}},{"base_weights":[2.564411E-2,6.291039E-2,-5.7342306E-2,1.1895036E-1,1.0830056E-2,-2.2501765E-1,5.7852793E-2,-3.0095983E-2,1.5245518E-1,2.6790755E-2,-2.0429732E-1,-1.3230655E-1,-6.616604E-1,6.0640164E-2,-1.7674859E0,-9.755287E-2,2.3117973E-1,8.0365E-2,2.5760376E-1,3.3602983E-2,-3.82333E-1,-5.928166E-1,-1.3026176E-1,-2.4260509E-1,3.0234572E-1,-7.067807E-1,4.697529E-1,8.2719095E-2,-1.6714974E-1,-2.0797956E0,7.088976E-2,-4.802859E-1,6.480999E-3,-1.609673E0,2.464678E-1,-1.6821267E-1,1.1717868E-1,3.3745095E-1,1.23246685E-1,1.3985321E-2,1.5324904E-1,5.625302E-1,-4.402367E-1,-4.348766E-2,-7.584921E-1,-7.104949E-2,-4.958429E-1,-1.05106816E-1,-3.6002338E-1,-2.2376877E-1,3.404115E-1,-6.2293047E-1,-1.079132E0,-1.314433E-1,9.380146E-1,9.302173E-2,-4.5520824E-1,-3.307803E-2,-3.3605292E-1,-2.429026E0,-1.0904733E-1,-1.5863571E-2,-2.3926434E-1,2.8849637E-2,-6.958888E-2,-6.473123E-1,-7.989267E-2,1.1491408E-1,1.6461698E-2,2.0905863E-2,-8.2321994E-2,1.7969728E-1,3.152188E-2,8.527249E-2,1.43625E-1,7.4490264E-2,1.6806737E-2,1.0914326E-2,-7.728143E-2,5.8812894E-2,-4.104884E-2,-2.3272051E-1,2.3488769E-1,-1.5638779E-1,1.4704174E-2,-1.984776E-1,9.356117E-2,-2.683817E-1,1.415577E-1,-7.141037E-2,1.2367397E-2,-2.697887E-1,-6.7637764E-2,-6.1987665E-2,1.5231897E-2,-8.507641E-2,-1.4786941E-1,-1.7748012E-1,1.2843294E-1,1.4668171E-1,6.634933E-2,-2.1487235E-1,-1.09984085E-1,-4.8719564E-1,-2.524562E-1,-1.102395E-1,3.5114062E-1,3.5881352E-1,7.460955E-2,9.200255E-4,4.13639E-2,-3.4052864E-2,-1.9299784E-1,-3.0493516E-2,1.3393554E-1,-1.5474926E-2,-1.7992817E-1,-8.372882E-1,-8.291122E-2],"categories":[],"categories_nodes":[],"categories_segments":[],"categories_sizes":[],"default_left":[0,0,0,0,0,0,0,0,0,0,0,0,0,0,1,0,0,0,0,0,0,0,0,0,0,0,0,0,1,1,0,0,0,0,0,0,0,0,0,0,0,0,0,0,0,0,1,0,0,0,0,1,0,0,0,0,0,0,0,1,0,0,0,0,0,0,0,0,0,0,0,0,0,0,0,0,0,0,0,0,0,0,0,0,0,0,0,0,0,0,0,0,0,0,0,0,0,0,0,0,0,0,0,0,0,0,0,0,0,0,0,0,0,0,0,0,0,0,0],"id":7,"left_children":[1,3,5,7,9,11,13,15,17,19,21,23,25,27,29,31,33,35,37,39,41,43,45,47,49,51,53,55,57,59,-1,61,63,65,67,69,71,73,75,77,79,81,83,85,87,89,91,93,95,97,99,101,103,105,107,109,111,113,115,117,-1,-1,-1,-1,-1,-1,-1,-1,-1,-1,-1,-1,-1,-1,-1,-1,-1,-1,-1,-1,-1,-1,-1,-1,-1,-1,-1,-1,-1,-1,-1,-1,-1,-1,-1,-1,-1,-1,-1,-1,-1,-1,-1,-1,-1,-1,-1,-1,-1,-1,-1,-1,-1,-1,-1,-1,-1,-1,-1],"loss_changes":[1.0441687E2,6.800129E1,2.021188E2,5.6050613E1,4.1475227E1,1.7241711E2,3.1668182E1,3.63421E1,6.9440216E1,3.135148E1,2.3920582E1,1.6864677E2,3.8419006E1,3.1169024E1,6.431072E0,6.524529E1,1.2305731E1,4.978116E1,3.9938675E1,2.5960327E1,1.0327732E1,1.2094467E1,1.5161739E1,4.5249924E1,1.4338043E1,2.1740692E1,8.347235E0,3.134373E1,1.2391732E1,4.100006E0,0E0,4.744625E1,2.7594322E1,2.0890827E0,1.0983665E1,1.775026E1,2.756617E1,1.7434174E1,1.1677668E1,5.781777E1,1.9367855E1,3.8752584E0,6.932335E0,7.22132E0,1.755677E1,1.1358957E1,1.0454021E1,2.0479458E1,1.5222839E1,1.191905E1,1.1660812E1,1.380748E1,1.5538498E1,4.6299896E0,2.6453075E0,2.2365257E1,6.760496E0,1.0121267E1,1.8142632E1,4.473572E0,0E0,0E0,0E0,0E0,0E0,0E0,0E0,0E0,0E0,0E0,0E0,0E0,0E0,0E0,0E0,0E0,0E0,0E0,0E0,0E0,0E0,0E0,0E0,0E0,0E0,0E0,0E0,0E0,0E0,0E0,0E0,0E0,0E0,0E0,0E0,0E0,0E0,0E0,0E0,0E0,0E0,0E0,0E0,0E0,0E0,0E0,0E0,0E0,0E0,0E0,0E0,0E0,0E0,0E0,0E0,0E0,0E0,0E0,0E0],"parents":[2147483647,0,0,1,1,2,2,3,3,4,4,5,5,6,6,7,7,8,8,9,9,10,10,11,11,12,12,13,13,14,14,15,15,16,16,17,17,18,18,19,19,20,20,21,21,22,22,23,23,24,24,25,25,26,26,27,27,28,28,29,29,31,31,32,32,33,33,34,34,35,35,36,36,37,37,38,38,39,39,40,40,41,41,42,42,43,43,44,44,45,45,46,46,47,47,48,48,49,49,50,50,51,51,52,52,53,53,54,54,55,55,56,56,57,57,58,58,59,59],"right_children":[2,4,6,8,10,12,14,16,18,20,22,24,26,28,30,32,34,36,38,40,42,44,46,48,50,52,54,56,58,60,-1,62,64,66,68,70,72,74,76,78,80,82,84,86,88,90,92,94,96,98,100,102,104,106,108,110,112,114,116,118,-1,-1,-1,-1,-1,-1,-1,-1,-1,-1,-1,-1,-1,-1,-1,-1,-1,-1,-1,-1,-1,-1,-1,-1,-1,-1,-1,-1,-1,-1,-1,-1,-1,-1,-1,-1,-1,-1,-1,-1,-1,-1,-1,-1,-1,-1,-1,-1,-1,-1,-1,-1,-1,-1,-1,-1,-1,-1,-1],"split_conditions":[6.3E1,5E0,9.9E1,4E0,2.7E1,8.9E1,1.55E2,8.3482E4,4E0,2.63923E5,1.7456E4,8.8E1,1.11241E5,1.6E1,2.8279018E-1,1.27072E5,3.195E3,3.1814E4,2.6E1,9.0911E4,3.819E4,1.1038E4,1.73709E5,8.2E1,1.4251E4,9.6E1,2.783996E-1,2.6496E5,-9.5247686E-1,3.343028E-2,7.088976E-2,1.14236E5,1.02274E5,1.4910309E-1,1.03091E5,9.912E3,1E0,2.15145E5,8.5565E4,8.3074E4,1.10146E5,-1.0241429E0,5.1E1,5.3436995E-2,5.5E1,2.8877E4,-7.756971E-1,4.9E1,8.5E1,8.0389E4,5E0,3.757003E-1,3.1E1,3.953892E-1,5E0,1.21E2,1.16E2,6.2E1,7E0,5.3367054E-1,-1.0904733E-1,-1.5863571E-2,-2.3926434E-1,2.8849637E-2,-6.958888E-2,-6.473123E-1,-7.989267E-2,1.1491408E-1,1.6461698E-2,2.0905863E-2,-8.2321994E-2,1.7969728E-1,3.152188E-2,8.527249E-2,1.43625E-1,7.4490264E-2,1.6806737E-2,1.0914326E-2,-7.728143E-2,5.8812894E-2,-4.104884E-2,-2.3272051E-1,2.3488769E-1,-1.5638779E-1,1.4704174E-2,-1.984776E-1,9.356117E-2,-2.683817E-1,1.415577E-1,-7.141037E-2,1.2367397E-2,-2.697887E-1,-6.7637764E-2,-6.1987665E-2,1.5231897E-2,-8.507641E-2,-1.4786941E-1,-1.7748012E-1,1.2843294E-1,1.4668171E-1,6.634933E-2,-2.1487235E-1,-1.09984085E-1,-4.8719564E-1,-2.524562E-1,-1.102395E-1,3.5114062E-1,3.5881352E-1,7.460955E-2,9.200255E-4,4.13639E-2,-3.4052864E-2,-1.9299784E-1,-3.0493516E-2,1.3393554E-1,-1.5474926E-2,-1.7992817E-1,-8.372882E-1,-8.291122E-2],"split_indices":[16,8,16,1,8,16,16,13,4,11,10,16,14,8,34,11,10,10,18,14,10,10,11,16,10,16,28,11,19,30,0,11,14,33,13,10,4,11,10,14,14,21,16,25,18,14,25,18,16,14,2,21,18,35,1,16,16,18,2,23,0,0,0,0,0,0,0,0,0,0,0,0,0,0,0,0,0,0,0,0,0,0,0,0,0,0,0,0,0,0,0,0,0,0,0,0,0,0,0,0,0,0,0,0,0,0,0,0,0,0,0,0,0,0,0,0,0,0,0],"split_type":[0,0,0,0,0,0,0,0,0,0,0,0,0,0,0,0,0,0,0,0,0,0,0,0,0,0,0,0,0,0,0,0,0,0,0,0,0,0,0,0,0,0,0,0,0,0,0,0,0,0,0,0,0,0,0,0,0,0,0,0,0,0,0,0,0,0,0,0,0,0,0,0,0,0,0,0,0,0,0,0,0,0,0,0,0,0,0,0,0,0,0,0,0,0,0,0,0,0,0,0,0,0,0,0,0,0,0,0,0,0,0,0,0,0,0,0,0,0,0],"sum_hessian":[3.3761348E4,2.329888E4,1.0462466E4,1.122219E4,1.207669E4,4.260307E3,6.2021587E3,2.0597014E3,9.162489E3,1.1243397E4,8.3329297E2,3.515231E3,7.4507605E2,6.1936675E3,8.491212E0,1.6375427E3,4.2215872E2,5.436781E3,3.7257083E3,1.1060155E4,1.8324228E2,1.3225357E2,7.010394E2,2.8040974E3,7.111335E2,7.168631E2,2.8212921E1,5.6469624E3,5.467047E2,7.3134103E0,1.1778014E0,3.4920956E2,1.2883331E3,2.6181257E0,4.195406E2,7.0085E2,4.7359307E3,2.3359583E3,1.3897501E3,9.503104E3,1.5570513E3,1.0077889E1,1.731644E2,3.093735E1,1.01316216E2,6.043489E2,9.669055E1,1.2924811E3,1.5116163E3,4.7651714E1,6.634818E2,5.872847E2,1.2957838E2,1.2667959E1,1.5544962E1,5.5416533E3,1.05309235E2,3.0544495E2,2.4125978E2,5.731842E0,1.5815682E0,1.4927568E2,1.9993387E2,9.366379E2,3.5169522E2,1.4289705E0,1.1891551E0,2.4435353E2,1.7518706E2,2.1640251E2,4.8444745E2,1.14887794E2,4.621043E3,1.6991259E3,6.368323E2,4.8494165E2,9.0480853E2,8.77996E3,7.231439E2,1.3571599E3,1.9989134E2,1.0689398E0,9.00895E0,1.4849687E2,2.4667519E1,1.0978963E1,1.9958387E1,9.146981E1,9.846407E0,2.4252376E2,3.618251E2,3.786473E1,5.882582E1,7.825257E2,5.099554E2,9.6159735E2,5.500189E2,3.052182E1,1.7129894E1,2.940854E2,3.6939642E2,4.2923123E2,1.5805351E2,3.7577305E1,9.200108E1,1.1331448E1,1.3365116E0,1.0776061E1,4.768901E0,1.8442968E3,3.6973564E3,3.7960644E1,6.734859E1,2.6792316E2,3.7521774E1,1.1663621E2,1.2462358E2,4.652995E0,1.078847E0],"tree_param":{"num_deleted":"0","num_feature":"39","num_nodes":"119","size_leaf_vector":"1"}},{"base_weights":[1.9229386E-2,4.4143057E-1,1.2520693E-2,5.1839477E-1,2.1565047E-1,5.6834087E-2,-3.5981547E-2,4.1416448E-1,7.040253E-1,-2.0011561E-2,4.665789E-1,9.946386E-2,-1.6815782E-2,-2.1507694E-1,-1.6682146E-2,6.7936236E-1,2.638536E-1,2.890335E-1,7.633634E-1,-1.2535465E0,4.9033105E-2,-4.5491907E-1,5.7811195E-1,6.7723975E-2,2.1113136E-1,-9.78227E-2,4.8516028E-2,-2.6336375E-1,5.511226E-2,9.7700946E-2,-5.41389E-2,2.5735608E-1,8.486497E-1,-3.9295055E-2,3.999765E-1,-1.7066805E-1,2.8367016E-1,-3.115695E-1,7.8972316E-1,-6.383618E-1,1.7197356E-1,8.5679615E-1,-5.833819E-2,2.2956748E-1,-1.0890847E0,8.9489734E-1,1.9839655E-1,1.4997E-1,2.4097608E-2,-8.819142E-2,2.4283864E-1,1.7109627E-2,-1.946939E-1,3.4120947E-1,1.7528532E-2,-3.036089E-2,-3.3582523E-1,8.8305496E-2,-1.0383306E0,-8.216252E-1,1.11085005E-1,-2.3577991E-1,-1.0640743E-2,2.0610608E-1,-7.339702E-2,-9.249879E-3,2.7426955E-1,-1.2078888E-1,1.1755463E-1,-5.3536016E-2,1.5246576E-1,-4.228213E-1,7.7565745E-2,2.0042042E-1,-4.2234388E-1,2.4453908E-1,-6.719554E-2,2.8873888E-1,2.1731889E-2,-4.930373E-1,3.1081273E-3,-6.362271E-1,6.2826045E-2,-2.3400381E-2,2.8480667E-1,-8.038138E-2,1.6691546E-1,8.35192E-3,8.348204E-2,-1.0991598E-2,5.3593516E-2,-3.4760332E-1,-7.2024288E-3,-6.225518E-4,8.3338596E-2,8.305854E-3,-3.2304192E-1,-1.12304606E-1,-2.017469E-2,1.2465354E-1,-4.22038E-2,-4.4831533E-2,1.437149E-2,4.4193182E-2,-6.351519E-2,-1.7249785E-1,-7.0970915E-2,-1.5997119E-1,4.1904792E-2,1.8832946E-1,-6.0890436E-1,6.008477E-2,-3.2785082E-1,6.554326E-2,-2.560332E-3,-9.6741885E-2,-3.5930585E-2,-1.4145407E-2,3.194158E-2],"categories":[],"categories_nodes":[],"categories_segments":[],"categories_sizes":[],"default_left":[0,0,0,0,1,0,0,0,0,0,0,0,0,0,0,0,0,1,0,0,0,0,0,0,0,0,0,0,1,0,0,0,0,1,0,0,0,0,0,0,0,0,0,0,0,0,0,0,0,0,0,0,0,0,0,1,0,0,0,0,0,0,0,0,0,0,0,0,0,0,0,0,0,0,0,0,0,0,0,0,0,0,0,0,0,0,0,0,0,0,0,0,0,0,0,0,0,0,0,0,0,0,0,0,0,0,0,0,0,0,0,0,0,0,0,0,0,0,0],"id":8,"left_children":[1,3,5,7,9,11,13,15,17,19,21,23,25,27,29,31,33,35,37,39,41,43,45,47,49,51,53,55,57,59,61,63,65,67,69,71,-1,73,75,-1,-1,77,79,-1,81,83,85,87,89,91,93,95,97,99,101,103,105,107,109,111,113,115,117,-1,-1,-1,-1,-1,-1,-1,-1,-1,-1,-1,-1,-1,-1,-1,-1,-1,-1,-1,-1,-1,-1,-1,-1,-1,-1,-1,-1,-1,-1,-1,-1,-1,-1,-1,-1,-1,-1,-1,-1,-1,-1,-1,-1,-1,-1,-1,-1,-1,-1,-1,-1,-1,-1,-1,-1],"loss_changes":[9.469004E1,8.974655E0,7.073733E1,7.239868E0,7.971491E0,5.3999294E1,5.4308723E1,9.85458E0,3.190956E0,6.0568275E0,6.969384E0,3.8595375E1,3.337848E1,1.9955948E1,6.0783695E1,6.2414207E0,6.712723E0,5.8779182E0,3.6633072E0,7.239586E0,5.915118E0,6.7176538E0,6.876995E0,3.0437351E1,2.289904E1,3.135144E1,3.1660767E1,2.1886436E1,8.532891E0,4.3154186E1,8.443674E1,6.0616236E0,3.7253418E0,8.178493E0,7.1086807E0,6.7380633E0,0E0,4.8106337E0,3.2216415E0,0E0,0E0,5.931606E-1,6.619004E0,0E0,7.7003145E0,1.7529564E0,4.816599E0,4.606523E1,5.2051914E1,1.5886387E1,1.8663574E1,1.4939682E1,3.495869E1,1.202454E1,1.6025303E1,9.979637E0,2.3345322E1,7.311866E0,1.2721148E1,1.41708145E1,4.4327553E1,2.072744E1,3.6877155E1,0E0,0E0,0E0,0E0,0E0,0E0,0E0,0E0,0E0,0E0,0E0,0E0,0E0,0E0,0E0,0E0,0E0,0E0,0E0,0E0,0E0,0E0,0E0,0E0,0E0,0E0,0E0,0E0,0E0,0E0,0E0,0E0,0E0,0E0,0E0,0E0,0E0,0E0,0E0,0E0,0E0,0E0,0E0,0E0,0E0,0E0,0E0,0E0,0E0,0E0,0E0,0E0,0E0,0E0,0E0,0E0],"parents":[2147483647,0,0,1,1,2,2,3,3,4,4,5,5,6,6,7,7,8,8,9,9,10,10,11,11,12,12,13,13,14,14,15,15,16,16,17,17,18,18,19,19,20,20,21,21,22,22,23,23,24,24,25,25,26,26,27,27,28,28,29,29,30,30,31,31,32,32,33,33,34,34,35,35,37,37,38,38,41,41,42,42,44,44,45,45,46,46,47,47,48,48,49,49,50,50,51,51,52,52,53,53,54,54,55,55,56,56,57,57,58,58,59,59,60,60,61,61,62,62],"right_children":[2,4,6,8,10,12,14,16,18,20,22,24,26,28,30,32,34,36,38,40,42,44,46,48,50,52,54,56,58,60,62,64,66,68,70,72,-1,74,76,-1,-1,78,80,-1,82,84,86,88,90,92,94,96,98,100,102,104,106,108,110,112,114,116,118,-1,-1,-1,-1,-1,-1,-1,-1,-1,-1,-1,-1,-1,-1,-1,-1,-1,-1,-1,-1,-1,-1,-1,-1,-1,-1,-1,-1,-1,-1,-1,-1,-1,-1,-1,-1,-1,-1,-1,-1,-1,-1,-1,-1,-1,-1,-1,-1,-1,-1,-1,-1,-1,-1,-1,-1],"split_conditions":[1E0,2.8E1,8E0,1.74326E5,-2.891115E-1,2E0,2.5425E4,6.0186E4,9.039E3,-3.4247112E-1,-6.348692E-1,2.01822E5,1.44894E5,6.3E1,8.6626E4,-4.677182E-1,9.908E4,-3.1475753E-2,-8.95977E-1,1.9864619E-1,-6.5621674E-2,-8.6120415E-1,7E0,6.7733E4,3E0,4.4561E4,1.7E1,7.799E3,6.937535E-1,1.7228E4,1.2456E5,-1.164031E-2,-4.7909E-1,-1.1031926E-1,2.3E1,7.519E4,2.8367016E-1,1.21530056E-1,2.56384E5,-6.383618E-1,1.7197356E-1,2.30627E5,4.8884153E-2,2.2956748E-1,-4.2896008E-1,-7.8385246E-1,-6.812094E-2,3.6104E4,7E0,1E0,2.1523E4,1.14236E5,1.17095E5,2.53123E5,2.9672E4,-2.2324061E-1,6E0,-1.006985E0,-2.4891692E-1,6.513E3,6.9011E4,8E0,8.9723E4,2.0610608E-1,-7.339702E-2,-9.249879E-3,2.7426955E-1,-1.2078888E-1,1.1755463E-1,-5.3536016E-2,1.5246576E-1,-4.228213E-1,7.7565745E-2,2.0042042E-1,-4.2234388E-1,2.4453908E-1,-6.719554E-2,2.8873888E-1,2.1731889E-2,-4.930373E-1,3.1081273E-3,-6.362271E-1,6.2826045E-2,-2.3400381E-2,2.8480667E-1,-8.038138E-2,1.6691546E-1,8.35192E-3,8.348204E-2,-1.0991598E-2,5.3593516E-2,-3.4760332E-1,-7.2024288E-3,-6.225518E-4,8.3338596E-2,8.305854E-3,-3.2304192E-1,-1.12304606E-1,-2.017469E-2,1.2465354E-1,-4.22038E-2,-4.4831533E-2,1.437149E-2,4.4193182E-2,-6.351519E-2,-1.7249785E-1,-7.0970915E-2,-1.5997119E-1,4.1904792E-2,1.8832946E-1,-6.0890436E-1,6.008477E-2,-3.2785082E-1,6.554326E-2,-2.560332E-3,-9.6741885E-2,-3.5930585E-2,-1.4145407E-2,3.194158E-2],"split_indices":[6,7,3,10,29,17,10,10,14,36,26,10,11,18,10,21,10,32,27,33,25,26,8,10,1,14,18,10,31,11,10,25,26,36,7,0,0,28,11,0,0,10,25,0,24,24,31,10,1,8,11,11,10,11,10,28,8,23,28,11,14,8,13,0,0,0,0,0,0,0,0,0,0,0,0,0,0,0,0,0,0,0,0,0,0,0,0,0,0,0,0,0,0,0,0,0,0,0,0,0,0,0,0,0,0,0,0,0,0,0,0,0,0,0,0,0,0,0,0],"split_type":[0,0,0,0,0,0,0,0,0,0,0,0,0,0,0,0,0,0,0,0,0,0,0,0,0,0,0,0,0,0,0,0,0,0,0,0,0,0,0,0,0,0,0,0,0,0,0,0,0,0,0,0,0,0,0,0,0,0,0,0,0,0,0,0,0,0,0,0,0,0,0,0,0,0,0,0,0,0,0,0,0,0,0,0,0,0,0,0,0,0,0,0,0,0,0,0,0,0,0,0,0,0,0,0,0,0,0,0,0,0,0,0,0,0,0,0,0,0,0],"sum_hessian":[3.3431766E4,5.219015E2,3.2909863E4,3.8825623E2,1.3364526E2,1.7197467E4,1.5712396E4,2.5071349E2,1.3754276E2,6.93937E1,6.4251564E1,1.0892408E4,6.305058E3,1.52748E3,1.4184917E4,8.942268E1,1.612908E2,1.7940886E1,1.1960187E2,2.7689385E0,6.662476E1,6.6046286E0,5.764694E1,8.482878E3,2.4095298E3,2.814623E3,3.490435E3,1.2959073E3,2.315726E2,3.4988225E3,1.0686095E4,2.6323246E1,6.3099434E1,5.0201736E1,1.1108907E2,1.0987524E1,6.953361E0,2.6037273E0,1.1699814E2,1.7611942E0,1.0077444E0,6.998057E0,5.9626705E1,2.1880753E0,4.416553E0,3.0688044E1,2.6958895E1,2.9392532E3,5.543625E3,2.3062302E2,2.178907E3,1.2876823E3,1.5269408E3,3.3319733E2,3.1572378E3,3.0774844E2,9.881589E2,2.256421E2,5.930492E0,4.93403E1,3.4494822E3,2.0637595E3,8.622335E3,1.3985104E1,1.2338142E1,4.415512E0,5.868392E1,2.7279135E1,2.2922602E1,1.7409122E1,9.367995E1,2.2397983E0,8.7477255E0,1.5812535E0,1.0224738E0,1.1432857E2,2.6695755E0,5.9671087E0,1.0309482E0,1.5246617E0,5.8102043E1,2.108279E0,2.308274E0,1.6037979E0,2.9084246E1,1.1816997E1,1.5141898E1,1.5064764E3,1.4327769E3,3.980194E3,1.5634309E3,1.2080748E1,2.1854227E2,2.722696E2,1.9066373E3,1.2763168E3,1.1365409E1,6.328692E2,8.940716E2,2.8880438E2,4.439293E1,4.853801E2,2.6718577E3,1.5554834E2,1.522001E2,2.8840964E2,6.9974927E2,1.65116E1,2.0913051E2,2.3491662E0,3.581326E0,1.0403187E1,3.8937115E1,1.8172008E3,1.6322814E3,1.1801079E3,8.836514E2,6.573578E3,2.0487568E3],"tree_param":{"num_deleted":"0","num_feature":"39","num_nodes":"119","size_leaf_vector":"1"}},{"base_weights":[1.4463203E-2,3.6077407E-1,9.48647E-3,5.572294E-1,2.757387E-1,-1.2508519E-2,8.557056E-2,-2.0332487E-1,6.1044735E-1,5.233495E-1,2.1000974E-1,4.2020585E-2,-6.649026E-2,2.2146982E-1,-1.0210091E-2,1.9209194E-1,-3.5426825E-1,-4.625823E-1,6.433741E-1,2.0857621E-2,7.360414E-1,8.81425E-2,4.221514E-1,-1.4547591E-2,1.9930099E-1,-3.1642616E-1,-4.0278856E-2,1.4282697E-1,3.2129216E-1,5.1223576E-1,-2.104509E-2,-3.022063E-1,2.607366E-1,-4.5959285E-1,4.5043278E-1,-6.797507E-2,7.0271957E-1,-1.1213095E0,3.4929287E-1,7.890292E-1,-1.709476E-1,1.258895E-1,-8.4801674E-1,8.07104E-1,3.0493814E-1,2.8238492E-2,-2.1060674E-1,-1.9083975E-1,2.4498755E-1,-8.615341E-2,-5.834489E-1,-1.13315815E-2,-2.1192496E-1,1.8978278E-1,-3.4728885E-2,3.47894E-1,-3.5752382E-2,-3.6142173E-1,5.4876715E-1,-5.3625412E-2,1.4461885E-1,2.0835054E-1,-2.6364395E-1,1.8301748E-1,1.5258865E-2,7.49109E-2,-3.4564346E-1,2.169811E-1,-1.6544142E-1,-5.422557E-1,1.758294E-1,1.7244649E-1,-3.124306E-1,-3.411576E-2,2.520771E-1,-7.874643E-3,1.0415861E-1,1.5108258E-1,-5.3060967E-1,2.660705E-1,-1.1880273E-1,2.5559498E-2,1.882792E-1,-2.545035E-2,2.9687189E-2,-1.2932245E-1,-2.9654777E-2,1.0859744E-1,-7.971801E-2,8.853738E-2,6.9521302E-3,-1.1412479E-1,-1.6387476E-3,-1.3738874E-1,-2.8845346E-1,-4.2779475E-2,7.4536568E-3,-1.4575395E-1,-4.4646703E-2,8.1817955E-2,2.0120831E-2,-2.5819601E-2,1.20448194E-1,7.857959E-3,1.1275508E-1,-1.3111448E-1,1.7039545E-1,1.9848882E-1,-3.606941E-2,-1.1811513E-1,-9.408904E-3,1.9379E-2,1.094725E-1],"categories":[],"categories_nodes":[],"categories_segments":[],"categories_sizes":[],"default_left":[0,0,0,0,0,0,0,1,0,0,0,0,0,0,0,1,0,0,0,0,0,1,0,0,0,0,0,0,0,0,0,0,0,0,0,0,1,0,0,0,0,1,0,1,1,0,0,0,0,0,0,0,0,0,1,0,0,0,1,0,0,0,0,0,0,0,0,0,0,0,0,0,0,0,0,0,0,0,0,0,0,0,0,0,0,0,0,0,0,0,0,0,0,0,0,0,0,0,0,0,0,0,0,0,0,0,0,0,0,0,0,0,0],"id":9,"left_children":[1,3,5,7,9,11,13,15,17,19,21,23,25,27,29,31,-1,33,35,37,39,41,43,45,47,49,51,53,55,57,59,61,-1,-1,63,65,67,69,71,73,-1,75,77,79,81,83,85,87,89,91,93,95,97,99,101,103,105,-1,107,109,111,-1,-1,-1,-1,-1,-1,-1,-1,-1,-1,-1,-1,-1,-1,-1,-1,-1,-1,-1,-1,-1,-1,-1,-1,-1,-1,-1,-1,-1,-1,-1,-1,-1,-1,-1,-1,-1,-1,-1,-1,-1,-1,-1,-1,-1,-1,-1,-1,-1,-1,-1,-1],"loss_changes":[5.7231804E1,7.705456E0,5.478933E1,5.836666E0,5.26593E0,7.476421E1,9.5571846E1,4.0845976E0,4.9669075E0,7.318287E0,6.754156E0,1.1242297E2,8.36033E1,2.3783188E1,2.439563E1,2.928481E0,0E0,5.099688E0,5.478386E0,8.432859E0,3.7835865E0,6.0472383E0,4.0666866E0,7.797074E1,5.9624146E1,7.443298E1,5.7401733E1,1.4176907E1,1.2709427E1,6.153347E0,2.2791094E1,3.6829042E0,0E0,0E0,1.7365134E-1,4.0134144E0,3.4614754E0,6.946717E0,6.059583E0,2.2562885E0,0E0,5.4791145E0,9.159721E0,2.4348326E0,5.2555203E0,6.1021538E1,4.0982346E1,1.462535E1,3.3273636E1,1.5469835E1,2.616214E1,4.695549E1,2.8744873E1,1.3664551E1,8.013975E0,1.1179932E1,2.2925352E1,0E0,6.605074E0,2.6700436E1,1.2210249E1,0E0,0E0,0E0,0E0,0E0,0E0,0E0,0E0,0E0,0E0,0E0,0E0,0E0,0E0,0E0,0E0,0E0,0E0,0E0,0E0,0E0,0E0,0E0,0E0,0E0,0E0,0E0,0E0,0E0,0E0,0E0,0E0,0E0,0E0,0E0,0E0,0E0,0E0,0E0,0E0,0E0,0E0,0E0,0E0,0E0,0E0,0E0,0E0,0E0,0E0,0E0,0E0],"parents":[2147483647,0,0,1,1,2,2,3,3,4,4,5,5,6,6,7,7,8,8,9,9,10,10,11,11,12,12,13,13,14,14,15,15,17,17,18,18,19,19,20,20,21,21,22,22,23,23,24,24,25,25,26,26,27,27,28,28,29,29,30,30,31,31,34,34,35,35,36,36,37,37,38,38,39,39,41,41,42,42,43,43,44,44,45,45,46,46,47,47,48,48,49,49,50,50,51,51,52,52,53,53,54,54,55,55,56,56,58,58,59,59,60,60],"right_children":[2,4,6,8,10,12,14,16,18,20,22,24,26,28,30,32,-1,34,36,38,40,42,44,46,48,50,52,54,56,58,60,62,-1,-1,64,66,68,70,72,74,-1,76,78,80,82,84,86,88,90,92,94,96,98,100,102,104,106,-1,108,110,112,-1,-1,-1,-1,-1,-1,-1,-1,-1,-1,-1,-1,-1,-1,-1,-1,-1,-1,-1,-1,-1,-1,-1,-1,-1,-1,-1,-1,-1,-1,-1,-1,-1,-1,-1,-1,-1,-1,-1,-1,-1,-1,-1,-1,-1,-1,-1,-1,-1,-1,-1,-1],"split_conditions":[1E0,4E0,9.0037E4,1.2252E4,5.5893E4,1.08805E5,1.02125E5,2.3955098E-1,-5.2722764E-1,-4.5586467E-2,1.97568E5,7.4514E4,5.6665E4,4E0,1E0,-2.1859962E-1,-3.5426825E-1,-2.6281786E-1,3E0,-4.031018E-1,7.3E1,4.6248394E-1,2.13444E5,6.1449E4,5.0766E4,1.14236E5,8.5391E4,8E0,2.46725E5,-6.740826E-1,2.08132E5,2E0,2.607366E-1,-4.5959285E-1,-3.0901551E-2,8E0,2.3072755E0,4.256605E-1,5.6556994E-1,-3.6694705E-1,-1.709476E-1,-1.9165573E-1,-2.488755E-1,4.1610467E-1,-3.357863E-1,2.1523E4,2.5865E4,5.216E3,1E1,-2.3202807E-1,6E0,2.1E1,8.6362E4,7E0,1.2246132E0,1.34392E5,9.5811E4,-3.6142173E-1,4.4797534E-1,1.35354E5,2.22933E5,2.0835054E-1,-2.6364395E-1,1.8301748E-1,1.5258865E-2,7.49109E-2,-3.4564346E-1,2.169811E-1,-1.6544142E-1,-5.422557E-1,1.758294E-1,1.7244649E-1,-3.124306E-1,-3.411576E-2,2.520771E-1,-7.874643E-3,1.0415861E-1,1.5108258E-1,-5.3060967E-1,2.660705E-1,-1.1880273E-1,2.5559498E-2,1.882792E-1,-2.545035E-2,2.9687189E-2,-1.2932245E-1,-2.9654777E-2,1.0859744E-1,-7.971801E-2,8.853738E-2,6.9521302E-3,-1.1412479E-1,-1.6387476E-3,-1.3738874E-1,-2.8845346E-1,-4.2779475E-2,7.4536568E-3,-1.4575395E-1,-4.4646703E-2,8.1817955E-2,2.0120831E-2,-2.5819601E-2,1.20448194E-1,7.857959E-3,1.1275508E-1,-1.3111448E-1,1.7039545E-1,1.9848882E-1,-3.606941E-2,-1.1811513E-1,-9.408904E-3,1.9379E-2,1.094725E-1],"split_indices":[6,8,14,13,10,11,14,24,36,29,10,11,14,4,4,33,0,23,1,23,18,37,10,11,10,11,14,8,10,37,10,8,0,0,38,2,20,25,27,38,0,26,35,32,22,11,13,10,8,27,1,7,14,1,21,11,14,0,26,11,11,0,0,0,0,0,0,0,0,0,0,0,0,0,0,0,0,0,0,0,0,0,0,0,0,0,0,0,0,0,0,0,0,0,0,0,0,0,0,0,0,0,0,0,0,0,0,0,0,0,0,0,0],"split_type":[0,0,0,0,0,0,0,0,0,0,0,0,0,0,0,0,0,0,0,0,0,0,0,0,0,0,0,0,0,0,0,0,0,0,0,0,0,0,0,0,0,0,0,0,0,0,0,0,0,0,0,0,0,0,0,0,0,0,0,0,0,0,0,0,0,0,0,0,0,0,0,0,0,0,0,0,0,0,0,0,0,0,0,0,0,0,0,0,0,0,0,0,0,0,0,0,0,0,0,0,0,0,0,0,0,0,0,0,0,0,0,0,0],"sum_hessian":[3.3207785E4,4.6944574E2,3.2738338E4,1.4013716E2,3.2930856E2,2.5397162E4,7.3411763E3,8.980038E0,1.3115712E2,6.761823E1,2.6169034E2,1.2634636E4,1.2762526E4,3.0344321E3,4.306744E3,6.9659023E0,2.0141358E0,3.5163453E0,1.2764078E2,2.0435867E1,4.718237E1,1.6710843E2,9.45819E1,9.293134E3,3.3415027E3,1.2103452E3,1.1552181E4,1.6986327E3,1.3357996E3,8.656259E1,4.2201816E3,4.346304E0,2.6195984E0,1.3072556E0,2.2090895E0,9.817472E0,1.178233E2,4.024871E0,1.6410995E1,4.5722866E1,1.4595013E0,1.6146356E2,5.644869E0,2.0703043E1,7.387886E1,7.6290894E3,1.664044E3,3.4994733E2,2.9915552E3,6.506049E2,5.5974036E2,9.886019E3,1.6661625E3,1.3433153E3,3.553174E2,1.2431997E3,9.259985E1,1.1371738E0,8.5425415E1,3.5271838E3,6.929977E2,1.51795E0,2.8283536E0,1.2020797E0,1.0070099E0,8.18796E0,1.6295127E0,1.1634031E2,1.482993E0,2.8291845E0,1.1956865E0,1.4625856E1,1.7851397E0,2.3897772E0,4.333309E1,9.6206856E1,6.525671E1,2.4707057E0,3.174163E0,1.9661785E1,1.0412583E0,4.4700577E1,2.9178282E1,2.9354192E3,4.6936704E3,5.588072E2,1.1052367E3,4.129142E1,3.086559E2,2.4397605E3,5.517947E2,1.3921243E2,5.113925E2,4.219111E2,1.3782925E2,2.1352905E3,7.7507275E3,3.1070908E2,1.3554535E3,8.0081226E2,5.4250305E2,3.1862326E2,3.6694157E1,9.955277E1,1.1436469E3,5.5791862E1,3.680799E1,7.310361E1,1.2321805E1,2.1567886E2,3.311505E3,5.092875E2,1.837102E2],"tree_param":{"num_deleted":"0","num_feature":"39","num_nodes":"113","size_leaf_vector":"1"}},{"base_weights":[1.1141726E-2,-1.9100648E-1,1.7821513E-2,-6.3900286E-1,-1.6751966E-1,-8.102804E-3,6.7960255E-2,1.9619994E-2,-9.046674E-1,-1.8833497E-1,1.9864468E-1,-9.1260664E-2,1.8790951E-2,1.1812214E-2,1.2995942E-1,4.4438812E-1,-8.746325E-1,-1.1134199E0,1.4959311E-1,-1.4025676E-1,-3.8478494E-1,3.5683393E-1,-5.633832E-1,-3.4922685E-2,-1.9786882E-1,3.1579897E-1,-1.4226625E-2,4.2716198E-2,-4.9411204E-1,2.5489655E-1,8.1916735E-2,-4.2237982E-1,9.228168E-1,2.1266809E-1,-1.5294936E0,-2.710428E-1,-1.3611275E0,5.6044865E-1,-2.6368645E-1,1.1404306E0,-1.4917098E-1,-5.5137295E-1,-1.8836448E-2,4.6540788E-1,-9.6265894E-1,6.3031894E-1,-1.040666E0,-3.522541E-1,-2.1701807E-2,-4.6328387E-1,-1.1860479E-1,9.4255924E-2,6.7656976E-1,-4.0777054E-2,5.3450022E-2,-1.8733399E-1,6.5879904E-2,-5.5838376E-1,2.507636E-1,2.012887E-1,6.426769E-1,1.795824E-1,8.187471E-3,-4.2503864E-1,1.10253505E-1,3.4128195E-1,-4.321515E-2,-5.0718553E-2,-5.853397E-1,1.1419757E-1,-5.3418237E-1,-2.6307353E-1,-6.0144615E-1,-5.352347E-2,2.913735E-1,3.958343E-1,5.608489E-2,-4.015248E-2,-2.5710538E-1,-1.2983178E-1,-4.2315194E-1,1.17533624E-1,-1.534403E-1,1.3438691E-2,2.1973737E-1,-4.7313187E-1,8.293721E-2,2.3069663E-1,4.5161646E-2,-4.3692833E-1,2.073591E-1,-6.378572E-1,-8.261404E-2,1.48703195E-2,-2.9859805E-2,-4.698408E-2,-1.7360854E-1,2.03935E-2,-5.9006777E-2,1.4570118E-1,1.523872E-2,2.0705713E-1,-2.674571E-1,6.332671E-3,-2.3428675E-2,-5.266943E-2,2.189648E-2,-1.9399825E-2,-2.5307912E-1,7.178643E-2,1.0852619E-2,-1.5460557E-1,-3.8850966E-1,2.0907237E-1,-1.7506875E-1,7.341175E-2,-3.332946E-2,-2.607867E-1,2.0072795E-1,9.980121E-2,2.6840253E-2,3.2061137E-2,-1.46628115E-2],"categories":[],"categories_nodes":[],"categories_segments":[],"categories_sizes":[],"default_left":[0,0,0,0,0,0,0,0,0,1,0,0,0,0,0,0,0,0,1,0,0,1,0,0,0,0,0,0,0,0,0,0,1,0,0,0,1,1,0,0,1,0,0,0,0,0,1,0,0,0,0,0,0,0,0,0,0,1,1,0,0,0,0,0,0,0,0,0,0,0,0,0,0,0,0,0,0,0,0,0,0,0,0,0,0,0,0,0,0,0,0,0,0,0,0,0,0,0,0,0,0,0,0,0,0,0,0,0,0,0,0,0,0,0,0,0,0,0,0,0,0,0,0],"id":10,"left_children":[1,3,5,7,9,11,13,15,17,19,21,23,25,27,29,31,33,35,37,39,41,43,45,47,49,51,53,55,57,59,61,63,65,-1,67,69,71,73,-1,75,77,79,81,83,85,87,89,91,93,95,97,99,101,103,105,107,109,111,113,115,117,119,121,-1,-1,-1,-1,-1,-1,-1,-1,-1,-1,-1,-1,-1,-1,-1,-1,-1,-1,-1,-1,-1,-1,-1,-1,-1,-1,-1,-1,-1,-1,-1,-1,-1,-1,-1,-1,-1,-1,-1,-1,-1,-1,-1,-1,-1,-1,-1,-1,-1,-1,-1,-1,-1,-1,-1,-1,-1,-1,-1,-1],"loss_changes":[4.454212E1,1.0995251E1,4.1503548E1,9.152504E0,7.689293E0,4.7074684E1,3.788256E1,6.460336E0,8.358446E0,8.923042E0,6.7692623E0,3.088736E1,1.5598117E2,8.9327484E1,3.102172E1,5.158661E0,6.771514E0,6.138996E0,3.4649527E0,8.905361E0,1.1347038E1,6.9999213E0,6.2134047E0,1.4116518E1,3.735549E1,1.2712393E2,2.5724272E1,2.8702808E1,1.5886024E1,2.9720474E1,2.6906967E1,4.2721844E0,1.9338236E0,0E0,2.077344E0,8.878502E0,5.6765404E0,1.8841364E0,0E0,6.758566E-1,8.140076E0,1.2430641E1,1.2198557E1,4.789337E0,3.3314621E0,1.1103845E-1,6.2957683E0,1.7767818E1,1.7938274E1,1.4370651E1,1.9982761E1,1.6766085E1,1.3542755E1,2.3748142E1,1.8063232E1,3.961577E1,2.5191288E1,8.940262E0,1.0388123E1,1.7156815E1,7.528862E0,2.2145786E1,1.2002013E1,0E0,0E0,0E0,0E0,0E0,0E0,0E0,0E0,0E0,0E0,0E0,0E0,0E0,0E0,0E0,0E0,0E0,0E0,0E0,0E0,0E0,0E0,0E0,0E0,0E0,0E0,0E0,0E0,0E0,0E0,0E0,0E0,0E0,0E0,0E0,0E0,0E0,0E0,0E0,0E0,0E0,0E0,0E0,0E0,0E0,0E0,0E0,0E0,0E0,0E0,0E0,0E0,0E0,0E0,0E0,0E0,0E0,0E0,0E0,0E0],"parents":[2147483647,0,0,1,1,2,2,3,3,4,4,5,5,6,6,7,7,8,8,9,9,10,10,11,11,12,12,13,13,14,14,15,15,16,16,17,17,18,18,19,19,20,20,21,21,22,22,23,23,24,24,25,25,26,26,27,27,28,28,29,29,30,30,31,31,32,32,34,34,35,35,36,36,37,37,39,39,40,40,41,41,42,42,43,43,44,44,45,45,46,46,47,47,48,48,49,49,50,50,51,51,52,52,53,53,54,54,55,55,56,56,57,57,58,58,59,59,60,60,61,61,62,62],"right_children":[2,4,6,8,10,12,14,16,18,20,22,24,26,28,30,32,34,36,38,40,42,44,46,48,50,52,54,56,58,60,62,64,66,-1,68,70,72,74,-1,76,78,80,82,84,86,88,90,92,94,96,98,100,102,104,106,108,110,112,114,116,118,120,122,-1,-1,-1,-1,-1,-1,-1,-1,-1,-1,-1,-1,-1,-1,-1,-1,-1,-1,-1,-1,-1,-1,-1,-1,-1,-1,-1,-1,-1,-1,-1,-1,-1,-1,-1,-1,-1,-1,-1,-1,-1,-1,-1,-1,-1,-1,-1,-1,-1,-1,-1,-1,-1,-1,-1,-1,-1,-1,-1,-1],"split_conditions":[3E0,1E0,3E0,1.85464E5,6.4E1,1.9E1,5.9681E4,7.9501E4,8.3482E4,1.1724365E-1,7.2E1,6.3E1,2.8E1,5.8378E4,2.8E1,1.5607E4,6.452143E-2,-3.3717155E-3,1.4719594E-1,2.163E3,1.84728E5,3.3411908E-1,-1.004035E-1,1E0,2.9E1,2.6E1,5.7E1,1.7228E4,2.1E1,2.6E1,2.7E1,8.2796E4,2.8572565E-1,2.1266809E-1,1.32229E5,1.9803184E-1,-2.0517677E-1,-2.7098691E0,-2.6368645E-1,8.0123E4,2.3051772E0,5.348568E-1,-9.643253E-2,6.333953E-2,-5.198115E-2,1.3817918E-1,1.8863344E-1,4.318E3,8E0,9.4713E4,2E0,4E0,1.11241E5,1.1E1,9.264E3,1.5057E4,5.1749E4,1.1226509E0,3.9715216E-2,1.07432E5,-7.2545636E-1,7E0,7.7468E4,-4.2503864E-1,1.10253505E-1,3.4128195E-1,-4.321515E-2,-5.0718553E-2,-5.853397E-1,1.1419757E-1,-5.3418237E-1,-2.6307353E-1,-6.0144615E-1,-5.352347E-2,2.913735E-1,3.958343E-1,5.608489E-2,-4.015248E-2,-2.5710538E-1,-1.2983178E-1,-4.2315194E-1,1.17533624E-1,-1.534403E-1,1.3438691E-2,2.1973737E-1,-4.7313187E-1,8.293721E-2,2.3069663E-1,4.5161646E-2,-4.3692833E-1,2.073591E-1,-6.378572E-1,-8.261404E-2,1.48703195E-2,-2.9859805E-2,-4.698408E-2,-1.7360854E-1,2.03935E-2,-5.9006777E-2,1.4570118E-1,1.523872E-2,2.0705713E-1,-2.674571E-1,6.332671E-3,-2.3428675E-2,-5.266943E-2,2.189648E-2,-1.9399825E-2,-2.5307912E-1,7.178643E-2,1.0852619E-2,-1.5460557E-1,-3.8850966E-1,2.0907237E-1,-1.7506875E-1,7.341175E-2,-3.332946E-2,-2.607867E-1,2.0072795E-1,9.980121E-2,2.6840253E-2,3.2061137E-2,-1.46628115E-2],"split_indices":[2,3,4,11,18,7,13,13,13,37,18,16,7,13,7,13,38,32,19,0,10,38,32,8,18,7,18,11,8,7,18,0,26,0,11,24,35,19,0,13,21,28,26,37,26,24,29,0,3,11,4,3,14,16,13,11,11,22,33,13,31,2,13,0,0,0,0,0,0,0,0,0,0,0,0,0,0,0,0,0,0,0,0,0,0,0,0,0,0,0,0,0,0,0,0,0,0,0,0,0,0,0,0,0,0,0,0,0,0,0,0,0,0,0,0,0,0,0,0,0,0,0,0],"split_type":[0,0,0,0,0,0,0,0,0,0,0,0,0,0,0,0,0,0,0,0,0,0,0,0,0,0,0,0,0,0,0,0,0,0,0,0,0,0,0,0,0,0,0,0,0,0,0,0,0,0,0,0,0,0,0,0,0,0,0,0,0,0,0,0,0,0,0,0,0,0,0,0,0,0,0,0,0,0,0,0,0,0,0,0,0,0,0,0,0,0,0,0,0,0,0,0,0,0,0,0,0,0,0,0,0,0,0,0,0,0,0,0,0,0,0,0,0,0,0,0,0,0,0],"sum_hessian":[3.2983137E4,1.0541499E3,3.1928986E4,5.120674E1,1.00294324E3,2.104729E4,1.0881696E4,1.49843645E1,3.6222378E1,9.4945526E2,5.3487946E1,5.1428257E3,1.5904463E4,5.7109253E3,5.170771E3,1.0499964E1,4.4844003E0,3.0188652E1,6.0337243E0,7.6415393E2,1.8530135E2,4.4733463E1,8.75448E0,3.3655825E3,1.777243E3,1.5903132E3,1.431415E4,5.383023E3,3.2790213E2,1.4349121E3,3.7358591E3,3.7760525E0,6.723912E0,1.2878141E0,3.196586E0,7.33586E0,2.2852793E1,4.6366944E0,1.39703E0,4.404705E0,7.597492E2,1.26987206E2,5.8314144E1,4.193051E1,2.8029525E0,2.4089541E0,6.345526E0,1.335853E2,3.2319973E3,4.075891E2,1.3696539E3,9.8605524E2,6.04258E2,1.0281128E4,4.0330227E3,4.917843E2,4.891239E3,3.0208688E2,2.581524E1,1.2619725E3,1.7293959E2,1.6064436E3,2.1294155E3,1.3202703E0,2.4557822E0,5.541875E0,1.1820369E0,1.0877825E0,2.1088035E0,5.646164E0,1.689696E0,1.4390159E1,8.462634E0,1.8589216E0,2.7777727E0,3.385291E0,1.019414E0,7.448085E2,1.4940754E1,1.12904816E2,1.4082392E1,3.191623E1,2.6397915E1,1.673698E1,2.5193533E1,1.6914417E0,1.111511E0,1.4011801E0,1.0077741E0,5.245338E0,1.1001883E0,4.441251E0,1.2914406E2,1.6873021E3,1.5446952E3,1.1209303E2,2.9549606E2,4.0412503E2,9.655289E2,9.7526764E1,8.8852844E2,5.9960956E2,4.6484475E0,3.8676953E3,6.413432E3,3.163999E2,3.7166228E3,4.1526245E2,7.652183E1,7.1429443E2,4.1769443E3,2.8702E2,1.5066892E1,1.6927956E1,8.887284E0,1.10817E3,1.5380247E2,2.4217267E0,1.7051787E2,5.9424365E2,1.01219995E3,7.7987054E2,1.3495449E3],"tree_param":{"num_deleted":"0","num_feature":"39","num_nodes":"123","size_leaf_vector":"1"}},{"base_weights":[8.564581E-3,3.524636E-1,5.335371E-3,5.0461346E-1,1.6875541E-1,-7.712852E-2,1.7076125E-2,8.27093E-1,4.0527728E-1,-2.5775707E-1,4.370687E-1,5.166786E-2,-1.3454272E-1,1.6762E-1,-2.8972172E-3,8.8970536E-1,-1.3090405E-1,-3.5205904E-1,4.3478635E-1,-7.4222165E-1,9.975944E-2,5.8607286E-1,-3.937125E-1,6.3517146E-2,-7.0021856E-1,-1.1447666E-1,-4.9175894E-1,1.9318728E-1,-3.9575584E-2,-2.2633815E-2,6.5042906E-2,9.344609E-1,-9.257986E-2,5.0495905E-1,-1.4803699E-1,-9.9687797E-1,2.7878076E-1,9.7056377E-1,-1.502241E-1,9.643871E-1,3.8039723E-1,-1.4308296E0,2.2574739E-1,6.6810894E-1,5.084583E-2,1.455848E-1,-1.2150135E0,-2.2012202E-1,-4.9504284E-2,-3.9632487E-1,-1.671301E0,1.0665565E-1,2.411428E-1,-1.4710015E-2,-1.289414E0,-3.4551488E-3,-2.2122517E-1,1.4692022E-1,-3.54086E-2,2.9456908E-1,-8.16805E-2,-9.624066E-2,1.6335863E-1,-4.1915664E-1,1.0408327E-1,2.5353712E-1,-3.6391485E-1,3.279043E-1,3.1978168E-2,1.5925826E-1,-1.4026116E-1,-4.9192715E-2,3.100672E-1,2.3619124E-1,2.3968523E-2,-5.521617E-1,3.974564E-2,1.8852003E-1,-3.7642345E-1,2.9381704E-1,-1.9073509E-2,3.6894996E-2,-1.6755356E-2,-1.8356705E-1,1.9645762E-1,-5.989353E-1,-7.2194904E-2,-1.985124E-2,-1.001783E-1,1.6766553E-3,-5.022806E-2,-8.870534E-2,-4.3482214E-1,-5.7667816E-1,7.0001036E-2,8.685746E-5,6.80155E-2,9.0148665E-2,4.6346687E-2,3.7179794E-2,-7.547656E-2,-6.6638786E-1,1.657848E-1,2.2008752E-3,-5.175701E-2,-1.1740924E-1,-4.430197E-2,9.707234E-2,3.1075848E-2,3.4448624E-2,-2.9518982E-2],"categories":[],"categories_nodes":[],"categories_segments":[],"categories_sizes":[],"default_left":[0,0,0,0,0,0,0,0,0,0,1,1,0,0,0,0,0,0,0,0,0,0,0,0,0,0,1,0,1,0,0,0,0,0,0,0,0,0,0,0,0,0,0,0,0,0,0,0,0,0,0,0,0,0,0,0,0,0,0,0,0,0,0,0,0,0,0,0,0,0,0,0,0,0,0,0,0,0,0,0,0,0,0,0,0,0,0,0,0,0,0,0,0,0,0,0,0,0,0,0,0,0,0,0,0,0,0,0,0,0,0],"id":11,"left_children":[1,3,5,7,9,11,13,15,17,19,21,23,25,27,29,31,-1,-1,33,35,37,39,41,43,45,47,49,51,53,55,57,59,-1,61,63,65,-1,67,69,71,73,75,77,79,81,83,85,87,89,91,93,95,97,99,101,103,105,107,109,-1,-1,-1,-1,-1,-1,-1,-1,-1,-1,-1,-1,-1,-1,-1,-1,-1,-1,-1,-1,-1,-1,-1,-1,-1,-1,-1,-1,-1,-1,-1,-1,-1,-1,-1,-1,-1,-1,-1,-1,-1,-1,-1,-1,-1,-1,-1,-1,-1,-1,-1,-1],"loss_changes":[3.6446682E1,8.448559E0,3.1483704E1,4.998287E0,1.6112648E1,2.9976065E1,8.5591E1,3.4139252E0,6.53174E0,9.534256E0,1.0900631E1,1.1183861E1,2.003864E1,1.7670525E1,3.3700882E1,2.2604485E0,0E0,0E0,5.293585E0,1.0848571E1,7.1789303E0,5.3511906E0,9.128679E0,9.403015E0,8.659457E0,1.8217575E1,1.6087864E1,1.2291191E1,1.1388855E1,7.417482E1,4.6537178E1,2.310648E0,0E0,3.9035435E0,9.441593E0,9.272036E0,0E0,6.600385E-1,5.8603873E0,2.1386662E0,5.96008E0,3.6139374E0,6.4187093E0,5.8029337E0,9.301754E0,3.588652E0,8.822042E0,1.7691143E1,1.0692282E1,1.4300196E1,5.623747E0,1.3539118E1,9.771744E0,1.1884398E1,1.3498949E1,3.2406044E1,2.1405495E1,2.3828827E1,2.4061193E1,0E0,0E0,0E0,0E0,0E0,0E0,0E0,0E0,0E0,0E0,0E0,0E0,0E0,0E0,0E0,0E0,0E0,0E0,0E0,0E0,0E0,0E0,0E0,0E0,0E0,0E0,0E0,0E0,0E0,0E0,0E0,0E0,0E0,0E0,0E0,0E0,0E0,0E0,0E0,0E0,0E0,0E0,0E0,0E0,0E0,0E0,0E0,0E0,0E0,0E0,0E0,0E0],"parents":[2147483647,0,0,1,1,2,2,3,3,4,4,5,5,6,6,7,7,8,8,9,9,10,10,11,11,12,12,13,13,14,14,15,15,18,18,19,19,20,20,21,21,22,22,23,23,24,24,25,25,26,26,27,27,28,28,29,29,30,30,31,31,33,33,34,34,35,35,37,37,38,38,39,39,40,40,41,41,42,42,43,43,44,44,45,45,46,46,47,47,48,48,49,49,50,50,51,51,52,52,53,53,54,54,55,55,56,56,57,57,58,58],"right_children":[2,4,6,8,10,12,14,16,18,20,22,24,26,28,30,32,-1,-1,34,36,38,40,42,44,46,48,50,52,54,56,58,60,-1,62,64,66,-1,68,70,72,74,76,78,80,82,84,86,88,90,92,94,96,98,100,102,104,106,108,110,-1,-1,-1,-1,-1,-1,-1,-1,-1,-1,-1,-1,-1,-1,-1,-1,-1,-1,-1,-1,-1,-1,-1,-1,-1,-1,-1,-1,-1,-1,-1,-1,-1,-1,-1,-1,-1,-1,-1,-1,-1,-1,-1,-1,-1,-1,-1,-1,-1,-1,-1,-1],"split_conditions":[1E0,2E1,2.9672E4,-6.561843E-1,-8.530846E-2,9.912E3,5.8143E4,3.2E1,-8.8783485E-1,-1.7611563E-1,2.2375143E-1,6.012771E-1,2.8567E4,1.3E1,8.9629E4,6.937535E-1,-1.3090405E-1,-3.5205904E-1,7E0,1.7851994E0,-1.1358641E-1,1.0817611E0,2.7E1,-5.1363766E-1,-1.6085029E0,1.42662E5,1.0750625E0,2.2061035E-2,6.012771E-1,8.3074E4,1.03912E5,5.122775E-1,-9.257986E-2,-5.3739893E-1,-6.064983E-1,-8.0298567E-1,2.7878076E-1,1.2497699E-1,-3.0342817E-2,-5.2057576E-1,3E0,8.3482E4,4.7788924E-1,1.89172E5,8E0,1.0432553E-1,-1.6602258E-1,5.605E4,7.7818E4,1.04832E5,2.6475164E-1,2.16043E-2,1.73709E5,1.74757E5,5.6794643E-2,1.07432E5,1.20301E5,8.2337E4,2.8298E4,2.9456908E-1,-8.16805E-2,-9.624066E-2,1.6335863E-1,-4.1915664E-1,1.0408327E-1,2.5353712E-1,-3.6391485E-1,3.279043E-1,3.1978168E-2,1.5925826E-1,-1.4026116E-1,-4.9192715E-2,3.100672E-1,2.3619124E-1,2.3968523E-2,-5.521617E-1,3.974564E-2,1.8852003E-1,-3.7642345E-1,2.9381704E-1,-1.9073509E-2,3.6894996E-2,-1.6755356E-2,-1.8356705E-1,1.9645762E-1,-5.989353E-1,-7.2194904E-2,-1.985124E-2,-1.001783E-1,1.6766553E-3,-5.022806E-2,-8.870534E-2,-4.3482214E-1,-5.7667816E-1,7.0001036E-2,8.685746E-5,6.80155E-2,9.0148665E-2,4.6346687E-2,3.7179794E-2,-7.547656E-2,-6.6638786E-1,1.657848E-1,2.2008752E-3,-5.175701E-2,-1.1740924E-1,-4.430197E-2,9.707234E-2,3.1075848E-2,3.4448624E-2,-2.9518982E-2],"split_indices":[4,18,10,21,22,10,10,8,26,19,25,33,10,3,14,31,0,0,1,21,35,20,7,36,19,11,22,31,33,14,14,38,0,33,20,24,0,36,32,34,6,13,26,11,3,38,31,11,13,14,35,32,11,11,38,13,10,10,13,0,0,0,0,0,0,0,0,0,0,0,0,0,0,0,0,0,0,0,0,0,0,0,0,0,0,0,0,0,0,0,0,0,0,0,0,0,0,0,0,0,0,0,0,0,0,0,0,0,0,0,0],"split_type":[0,0,0,0,0,0,0,0,0,0,0,0,0,0,0,0,0,0,0,0,0,0,0,0,0,0,0,0,0,0,0,0,0,0,0,0,0,0,0,0,0,0,0,0,0,0,0,0,0,0,0,0,0,0,0,0,0,0,0,0,0,0,0,0,0,0,0,0,0,0,0,0,0,0,0,0,0,0,0,0,0,0,0,0,0,0,0,0,0,0,0,0,0,0,0,0,0,0,0,0,0,0,0,0,0,0,0,0,0,0,0],"sum_hessian":[3.282011E4,3.0430768E2,3.25158E4,1.6549522E2,1.3881244E2,4.0517603E3,2.8464041E4,3.7248276E1,1.2824695E2,5.3618874E1,8.519356E1,1.2493077E3,2.8024524E3,3.3332373E3,2.5130803E4,3.577136E1,1.4769164E0,1.641734E0,1.2660522E2,2.231039E1,3.1308485E1,7.248722E1,1.2706342E1,1.2308262E3,1.8481565E1,2.654652E3,1.4780046E2,2.967166E3,3.660713E2,1.9474213E4,5.65659E3,3.469569E1,1.0756686E0,1.13119125E2,1.3486093E1,1.9710968E1,2.5994222E0,6.3402057E0,2.4968279E1,2.4230114E1,4.8257103E1,4.261618E0,8.444723E0,2.4204826E1,1.2066213E3,7.2640295E0,1.1217536E1,1.00999994E3,1.6446521E3,1.3797334E2,9.827108E0,1.0591836E3,1.9079825E3,3.599224E2,6.148896E0,1.7760078E4,1.7141357E3,3.116164E3,2.5404258E3,3.356267E1,1.1330191E0,4.8476934E0,1.0827143E2,3.3100429E0,1.0176049E1,1.7646698E0,1.7946299E1,5.320958E0,1.0192472E0,7.7215834E0,1.7246695E1,1.3203781E0,2.2909737E1,1.9811115E1,2.844599E1,3.2361627E0,1.0254555E0,7.0915623E0,1.3531611E0,1.674323E1,7.4615965E0,7.198086E2,4.8681274E2,2.8393667E0,4.4246626E0,5.6429353E0,5.5746007E0,4.29956E2,5.8004395E2,1.1215972E3,5.230549E2,1.2710685E2,1.0866504E1,8.67484E0,1.1522691E0,5.62158E2,4.9702554E2,1.1309092E3,7.770733E2,2.2733958E2,1.325828E2,3.946485E0,2.2024114E0,1.669539E4,1.0646879E3,5.160645E2,1.1980713E3,6.1255884E2,2.5036052E3,7.502134E2,1.7902124E3],"tree_param":{"num_deleted":"0","num_feature":"39","num_nodes":"111","size_leaf_vector":"1"}},{"base_weights":[6.55594E-3,-9.340024E-3,7.059746E-2,1.6858599E-3,-1.6341051E-1,1.5068908E-1,-1.767543E-2,-2.6009127E-2,4.600352E-2,-5.179542E-2,-3.0107406E-1,5.0816713E-3,2.1988715E-1,-3.019163E-1,1.7222634E-2,-3.9160936E-3,-3.2792354E-1,-1.3805258E-1,7.093613E-2,7.768731E-2,-3.1146282E-1,-1.1621497E-1,-3.6987126E-1,-7.057903E-2,1.6314834E-1,3.0320168E-1,4.141261E-2,-1.27923E-1,-6.7446125E-1,1.3288896E-1,-4.005368E-2,2.8336804E-2,-7.1263716E-2,-5.5618715E-1,-1.05746076E-1,6.8220876E-2,-2.1105213E-1,1.2163356E-1,-2.2543114E-2,1.8234672E-1,-1.08353324E-1,-5.405838E-1,-6.465885E-2,-1.6591877E-1,7.251382E-1,-4.1490948E-1,-1.2382061E-2,-2.1596017E-1,1.6993035E-2,-6.54725E-2,2.586791E-1,3.5175964E-1,1.7621085E-1,1.8014719E-1,-1.9018033E-1,5.8945256E-1,-1.8903032E-1,7.7244586E-1,-7.597959E-1,1.5712343E-1,-3.5675535E-1,-4.776956E-1,1.3523625E-2,-1.1586387E-2,2.9466024E-2,-4.513352E-2,7.7795256E-3,-3.6401182E-1,-1.2188506E-1,-1.3134955E-1,-3.5195893E-3,2.4740355E-1,4.978444E-3,-7.231875E-2,9.981293E-2,4.084454E-2,-4.3406695E-2,1.28472E-1,-1.101833E-2,4.11414E-2,1.9551732E-1,1.5679594E-2,-1.338675E-1,2.9834894E-2,-2.049791E-1,-6.6860676E-2,8.140869E-2,-1.5660745E-1,-1.2697781E-2,-1.908838E-1,2.8115737E-1,-1.5930888E-1,-6.810644E-2,-9.097232E-2,1.2945321E-1,-9.610515E-2,3.8390584E-2,2.2276725E-1,-3.0404783E-3,-6.8356946E-2,1.3092403E-1,-1.2207692E-1,8.9748494E-2,1.07738316E-1,-1.8868212E-1,1.876685E-1,4.0506743E-2,8.780849E-2,1.2784326E-3,-3.4022097E-2,-2.493637E-1,-1.9188346E-1,2.1648474E-1,2.01166E-1,-7.3162585E-2,4.169296E-1,-1.2878324E-1,-4.8716938E-1,-1.9030197E-1,-2.6727896E-2,6.287058E-2,-3.496422E-1,3.381272E-2,-3.4084672E-1,-6.835661E-2,1.538352E-1,-2.2889264E-3],"categories":[],"categories_nodes":[],"categories_segments":[],"categories_sizes":[],"default_left":[0,0,0,0,0,0,0,0,0,0,0,1,0,0,0,0,0,0,0,1,0,0,1,0,0,0,0,0,0,0,0,0,0,0,0,0,0,0,0,1,0,0,1,0,0,0,0,0,0,0,0,0,0,1,0,0,0,0,0,0,0,0,0,0,0,0,0,0,0,0,0,0,0,0,0,0,0,0,0,0,0,0,0,0,0,0,0,0,0,0,0,0,0,0,0,0,0,0,0,0,0,0,0,0,0,0,0,0,0,0,0,0,0,0,0,0,0,0,0,0,0,0,0,0,0,0,0],"id":12,"left_children":[1,3,5,7,9,11,13,15,17,19,21,23,25,27,29,31,33,35,37,39,41,43,45,47,49,51,53,55,57,59,61,63,65,67,69,71,73,75,77,79,81,83,85,87,89,91,93,95,97,99,101,103,105,107,109,111,113,115,117,119,121,123,125,-1,-1,-1,-1,-1,-1,-1,-1,-1,-1,-1,-1,-1,-1,-1,-1,-1,-1,-1,-1,-1,-1,-1,-1,-1,-1,-1,-1,-1,-1,-1,-1,-1,-1,-1,-1,-1,-1,-1,-1,-1,-1,-1,-1,-1,-1,-1,-1,-1,-1,-1,-1,-1,-1,-1,-1,-1,-1,-1,-1,-1,-1,-1,-1],"loss_changes":[3.3288094E1,4.4503395E1,4.5974346E1,3.0009062E1,2.686742E1,3.4350212E1,3.0697258E1,1.00363846E2,4.3160126E1,3.255102E1,9.917259E0,1.3158616E1,3.43509E1,2.1848846E1,1.8268482E1,3.045956E1,5.197377E1,1.6911257E1,3.9251812E1,1.2604283E1,1.817854E1,9.064134E0,9.177109E0,9.477625E0,7.7956448E0,9.652374E0,2.3702309E1,1.0277286E1,1.3859711E1,1.0892611E1,4.3255806E1,4.4372166E1,3.4950676E1,4.9338013E1,1.6265743E1,1.1470623E1,1.3609177E1,2.0777588E1,1.8642233E1,8.695777E0,1.2685278E1,1.5308552E1,8.364206E0,8.901649E0,4.0941653E0,1.09292145E1,8.502493E0,1.0087074E1,9.166699E0,8.718919E0,6.8957787E0,8.453278E0,8.017612E0,9.12817E0,1.3510971E1,3.4578776E0,1.0273796E1,5.405746E0,1.0028942E1,1.1263838E1,1.6598663E1,3.2841774E1,1.7369404E1,0E0,0E0,0E0,0E0,0E0,0E0,0E0,0E0,0E0,0E0,0E0,0E0,0E0,0E0,0E0,0E0,0E0,0E0,0E0,0E0,0E0,0E0,0E0,0E0,0E0,0E0,0E0,0E0,0E0,0E0,0E0,0E0,0E0,0E0,0E0,0E0,0E0,0E0,0E0,0E0,0E0,0E0,0E0,0E0,0E0,0E0,0E0,0E0,0E0,0E0,0E0,0E0,0E0,0E0,0E0,0E0,0E0,0E0,0E0,0E0,0E0,0E0,0E0,0E0],"parents":[2147483647,0,0,1,1,2,2,3,3,4,4,5,5,6,6,7,7,8,8,9,9,10,10,11,11,12,12,13,13,14,14,15,15,16,16,17,17,18,18,19,19,20,20,21,21,22,22,23,23,24,24,25,25,26,26,27,27,28,28,29,29,30,30,31,31,32,32,33,33,34,34,35,35,36,36,37,37,38,38,39,39,40,40,41,41,42,42,43,43,44,44,45,45,46,46,47,47,48,48,49,49,50,50,51,51,52,52,53,53,54,54,55,55,56,56,57,57,58,58,59,59,60,60,61,61,62,62],"right_children":[2,4,6,8,10,12,14,16,18,20,22,24,26,28,30,32,34,36,38,40,42,44,46,48,50,52,54,56,58,60,62,64,66,68,70,72,74,76,78,80,82,84,86,88,90,92,94,96,98,100,102,104,106,108,110,112,114,116,118,120,122,124,126,-1,-1,-1,-1,-1,-1,-1,-1,-1,-1,-1,-1,-1,-1,-1,-1,-1,-1,-1,-1,-1,-1,-1,-1,-1,-1,-1,-1,-1,-1,-1,-1,-1,-1,-1,-1,-1,-1,-1,-1,-1,-1,-1,-1,-1,-1,-1,-1,-1,-1,-1,-1,-1,-1,-1,-1,-1,-1,-1,-1,-1,-1,-1,-1],"split_conditions":[8.685E4,8.2178E4,1.03091E5,7.8972E4,6.4247E4,2.8403E4,4.2469E4,7.6249E4,1.35354E5,8.6088E4,2.8E1,8.888805E-2,5.4578E4,1.09636E5,6.5247E4,5.2546E4,7.6821E4,1.21699E5,7E0,-1.0220811E-2,3.6E1,2.6E1,2.807374E-1,3.7027127E-1,-5.627898E-1,2E0,9.224E4,2E0,3E0,1.11169E5,6.6165E4,2.6952E4,1.26636E5,2.2E1,2.7545E4,-5.8682287E-1,6.8E1,1.10923E5,1.37488E5,3.108372E-1,8E0,-2.3996973E-1,2.4313748E-2,-7.16221E-2,-3.593949E-1,7E0,9.105113E-2,2.1948545E-1,-2.7468562E-1,9.9001E4,-6.444236E-1,5.2E1,-3.1074822E-1,-7.513952E-2,2.49586E5,2.4379E4,-3.7421155E-1,4.2E1,-4.153751E-1,1.05712E5,1.47198E5,4E0,6.9011E4,-1.1586387E-2,2.9466024E-2,-4.513352E-2,7.7795256E-3,-3.6401182E-1,-1.2188506E-1,-1.3134955E-1,-3.5195893E-3,2.4740355E-1,4.978444E-3,-7.231875E-2,9.981293E-2,4.084454E-2,-4.3406695E-2,1.28472E-1,-1.101833E-2,4.11414E-2,1.9551732E-1,1.5679594E-2,-1.338675E-1,2.9834894E-2,-2.049791E-1,-6.6860676E-2,8.140869E-2,-1.5660745E-1,-1.2697781E-2,-1.908838E-1,2.8115737E-1,-1.5930888E-1,-6.810644E-2,-9.097232E-2,1.2945321E-1,-9.610515E-2,3.8390584E-2,2.2276725E-1,-3.0404783E-3,-6.8356946E-2,1.3092403E-1,-1.2207692E-1,8.9748494E-2,1.07738316E-1,-1.8868212E-1,1.876685E-1,4.0506743E-2,8.780849E-2,1.2784326E-3,-3.4022097E-2,-2.493637E-1,-1.9188346E-1,2.1648474E-1,2.01166E-1,-7.3162585E-2,4.169296E-1,-1.2878324E-1,-4.8716938E-1,-1.9030197E-1,-2.6727896E-2,6.287058E-2,-3.496422E-1,3.381272E-2,-3.4084672E-1,-6.835661E-2,1.538352E-1,-2.2889264E-3],"split_indices":[13,13,13,14,14,14,14,14,11,13,7,23,14,13,14,13,14,11,2,35,18,7,38,22,22,17,13,8,2,13,14,13,10,18,10,28,18,14,11,33,3,28,35,35,29,8,35,31,34,13,30,8,38,25,0,10,36,18,28,13,11,8,14,0,0,0,0,0,0,0,0,0,0,0,0,0,0,0,0,0,0,0,0,0,0,0,0,0,0,0,0,0,0,0,0,0,0,0,0,0,0,0,0,0,0,0,0,0,0,0,0,0,0,0,0,0,0,0,0,0,0,0,0,0,0,0,0],"split_type":[0,0,0,0,0,0,0,0,0,0,0,0,0,0,0,0,0,0,0,0,0,0,0,0,0,0,0,0,0,0,0,0,0,0,0,0,0,0,0,0,0,0,0,0,0,0,0,0,0,0,0,0,0,0,0,0,0,0,0,0,0,0,0,0,0,0,0,0,0,0,0,0,0,0,0,0,0,0,0,0,0,0,0,0,0,0,0,0,0,0,0,0,0,0,0,0,0,0,0,0,0,0,0,0,0,0,0,0,0,0,0,0,0,0,0,0,0,0,0,0,0,0,0,0,0,0,0],"sum_hessian":[3.2697799E4,2.6196365E4,6.501434E3,2.4447775E4,1.7485889E3,3.4083074E3,3.093127E3,1.5045781E4,9.401995E3,9.66414E2,7.821748E2,1.0983079E3,2.3099995E3,3.373989E2,2.755728E3,1.4020802E4,1.0249799E3,1.1211282E3,8.280866E3,6.4532477E2,3.210893E2,2.1287256E2,5.6930225E2,7.4314514E2,3.5516275E2,1.5743644E3,7.356351E2,2.309019E2,1.06497E2,9.122235E2,1.8435046E3,9.48094E3,4.539861E3,5.048239E2,5.20156E2,2.9307034E2,8.2805786E2,5.3688364E3,2.91203E3,4.1300415E2,2.323206E2,1.6589241E2,1.5519688E2,2.0175638E2,1.1116171E1,5.054612E2,6.3841053E1,2.7881293E2,4.643322E2,1.0476278E2,2.5039996E2,1.1376044E3,4.3676004E2,4.6018546E2,2.7544962E2,1.744605E1,2.1345584E2,5.4826717E0,1.0101433E2,8.698502E2,4.237329E1,2.0020773E2,1.6432969E3,4.842033E3,4.6389077E3,2.501466E3,2.0383945E3,9.2445114E1,4.1237878E2,1.1395965E2,4.0619635E2,1.7766743E1,2.7530362E2,7.85275E2,4.2782867E1,5.091815E3,2.770214E2,8.794606E1,2.824084E3,3.7789853E2,3.510562E1,1.5803749E2,7.428311E1,3.0295557E1,1.3559685E2,1.0574522E2,4.9451668E1,5.115128E1,1.506051E2,1.2284894E0,9.887682E0,3.1126456E2,1.9419664E2,3.8760345E1,2.5080704E1,2.1394441E2,6.486851E1,1.5784612E1,4.485476E2,7.956554E1,2.5197239E1,1.38374195E1,2.3656255E2,1.1297502E3,7.854105E0,3.5481495E1,4.0127853E2,2.802145E2,1.7997095E2,2.4703976E2,2.840986E1,1.3210714E0,1.6124979E1,1.2129175E1,2.0132668E2,3.5186708E0,1.9640008E0,1.1292331E1,8.9722E1,1.5262354E2,7.172267E2,1.5018775E1,2.7354515E1,5.4094036E1,1.461137E2,6.585078E1,1.577446E3],"tree_param":{"num_deleted":"0","num_feature":"39","num_nodes":"127","size_leaf_vector":"1"}},{"base_weights":[5.4925773E-3,3.3098128E-2,-2.3840884E-2,-9.511554E-2,4.626425E-2,3.6634618E-1,-2.938458E-2,-2.9164144E-1,-3.441411E-2,2.3848863E-1,3.431389E-2,5.587835E-1,2.16258E-2,-6.860506E-2,2.7031368E-2,-2.3016372E-1,-1.5124458E0,2.9711563E-2,-2.905224E-1,3.9622062E-1,8.7554395E-2,3.5418797E-1,2.9958421E-2,6.2775266E-1,-1.1121367E-1,8.647837E-2,-5.9807605E-1,-5.3234555E-2,-2.783467E-1,9.310594E-1,-2.2361893E-2,1.7788082E-2,-3.9189178E-1,-2.8245026E-2,-1.8121407E0,1.789843E-1,-9.296974E-2,-8.0984086E-2,-5.4409313E-1,5.5659562E-2,4.85139E-1,-5.765462E-1,2.5532982E-1,4.876667E-1,1.1136153E-1,8.3287724E-4,6.942575E-2,6.492894E-1,-2.2083576E-1,8.087285E-1,-6.3007784E-1,1.9318032E-1,-6.2645817E-1,-5.7101414E-2,7.3108906E-1,-4.2150187E-1,-1.04666434E-1,6.635281E-1,9.815368E-1,3.7252465E-1,-3.7119497E-2,