{"learner":{"attributes":{"scikit_learn":"{\"_estimator_type\": \"classifier\"}"},"feature_names":["Unnamed: 0","admission_type","admission_location","discharge_location","insurance","language","marital_status","race","length_of_stay","diagnoses_seq_num","diagnoses_long_title","diagnoses_icd","procedures_seq_num","procedures_long_title","procedures_icd","note_type","note_seq","gender","anchor_age","embedding_pca_0","embedding_pca_1","embedding_pca_2","embedding_pca_3","embedding_pca_4","embedding_pca_5","embedding_pca_6","embedding_pca_7","embedding_pca_8","embedding_pca_9","embedding_pca_10","embedding_pca_11","embedding_pca_12","embedding_pca_13","embedding_pca_14","embedding_pca_15","embedding_pca_16","embedding_pca_17","embedding_pca_18","embedding_pca_19"],"feature_types":["int","int","int","int","int","int","int","int","int","float","int","int","float","int","int","int","int","int","int","float","float","float","float","float","float","float","float","float","float","float","float","float","float","float","float","float","float","float","float"],"gradient_booster":{"model":{"gbtree_model_param":{"num_parallel_tree":"1","num_trees":"500"},"iteration_indptr":[0,5,10,15,20,25,30,35,40,45,50,55,60,65,70,75,80,85,90,95,100,105,110,115,120,125,130,135,140,145,150,155,160,165,170,175,180,185,190,195,200,205,210,215,220,225,230,235,240,245,250,255,260,265,270,275,280,285,290,295,300,305,310,315,320,325,330,335,340,345,350,355,360,365,370,375,380,385,390,395,400,405,410,415,420,425,430,435,440,445,450,455,460,465,470,475,480,485,490,495,500],"tree_info":[0,1,2,3,4,0,1,2,3,4,0,1,2,3,4,0,1,2,3,4,0,1,2,3,4,0,1,2,3,4,0,1,2,3,4,0,1,2,3,4,0,1,2,3,4,0,1,2,3,4,0,1,2,3,4,0,1,2,3,4,0,1,2,3,4,0,1,2,3,4,0,1,2,3,4,0,1,2,3,4,0,1,2,3,4,0,1,2,3,4,0,1,2,3,4,0,1,2,3,4,0,1,2,3,4,0,1,2,3,4,0,1,2,3,4,0,1,2,3,4,0,1,2,3,4,0,1,2,3,4,0,1,2,3,4,0,1,2,3,4,0,1,2,3,4,0,1,2,3,4,0,1,2,3,4,0,1,2,3,4,0,1,2,3,4,0,1,2,3,4,0,1,2,3,4,0,1,2,3,4,0,1,2,3,4,0,1,2,3,4,0,1,2,3,4,0,1,2,3,4,0,1,2,3,4,0,1,2,3,4,0,1,2,3,4,0,1,2,3,4,0,1,2,3,4,0,1,2,3,4,0,1,2,3,4,0,1,2,3,4,0,1,2,3,4,0,1,2,3,4,0,1,2,3,4,0,1,2,3,4,0,1,2,3,4,0,1,2,3,4,0,1,2,3,4,0,1,2,3,4,0,1,2,3,4,0,1,2,3,4,0,1,2,3,4,0,1,2,3,4,0,1,2,3,4,0,1,2,3,4,0,1,2,3,4,0,1,2,3,4,0,1,2,3,4,0,1,2,3,4,0,1,2,3,4,0,1,2,3,4,0,1,2,3,4,0,1,2,3,4,0,1,2,3,4,0,1,2,3,4,0,1,2,3,4,0,1,2,3,4,0,1,2,3,4,0,1,2,3,4,0,1,2,3,4,0,1,2,3,4,0,1,2,3,4,0,1,2,3,4,0,1,2,3,4,0,1,2,3,4,0,1,2,3,4,0,1,2,3,4,0,1,2,3,4,0,1,2,3,4,0,1,2,3,4,0,1,2,3,4,0,1,2,3,4,0,1,2,3,4,0,1,2,3,4,0,1,2,3,4,0,1,2,3,4,0,1,2,3,4,0,1,2,3,4,0,1,2,3,4,0,1,2,3,4,0,1,2,3,4,0,1,2,3,4,0,1,2,3,4],"trees":[{"base_weights":[-1.1774348E-2,-2.9590024E-2,1.1066264E0,-1.531054E-1,1.1266697E-1,5.790878E-1,1.5026721E0,-6.459448E-2,-3.1982693E-1,-4.4706234E-1,1.3641612E-1,1.13944E0,1.2075471E-1,1.5592808E0,1.9593613E-1,-1.8623103E-1,-3.2817028E-3,-4.2495656E-1,-2.0932111E-1,-4.760537E-1,-3.374233E-1,4.024899E-1,1.044692E-1,1.5436848E0,8.522904E-1,-1.1261806E-1,5.01785E-1,1.4063648E0,1.8059181E0,1.1904762E0,1.642036E-2,-1.1520519E-1,-2.7942252E-1,-1.4999288E-1,4.808825E-2,-3.0402142E-1,-4.843538E-1,-2.4560153E-1,-4.875962E-2,-3.5175878E-1,-4.9155906E-1,-4.1620418E-1,-1.9375247E-1,5.9570193E-1,2.0413104E-1,2.2357523E-2,1.7264712E-1,-3.333333E-1,1.7346938E0,1.7179023E-1,9.847071E-1,-1.5937261E-1,8.208955E-1,1.3326337E0,-3.1387317E-3,1.2277544E0,1.5951594E0,1.856467E0,6.227106E-1,2.6315792E-2,4.9315068E-1,6.45933E-1,-2.9411763E-1,-4.5090053E-2,1.1570973E-2,-3.9769754E-2,-1.04831316E-1,-2.0248838E-2,-9.179479E-2,1.1992555E-1,-3.7461263E-4,-9.323354E-2,2.1148037E-2,-1.5265545E-1,-4.574951E-2,-6.35396E-2,-8.97518E-2,-7.125979E-2,6.8602953E-3,-1.12054326E-1,2.3076923E-1,-1.5481946E-1,-1.237279E-1,-1.29025E-1,1.1797753E-1,-6.547857E-2,2.8947368E-1,9.7421154E-2,3.6248747E-1,9.624301E-2,6.2465034E-3,2.5215108E-2,-3.1704634E-2,7.265674E-2,1.8830197E-2,1.5789473E-1,-1.6321245E-1,1.19469024E-1,5.372202E-1,-1.18644066E-1,1.234414E-1,1.403118E-1,3.2299513E-1,-5.40506E-2,3.4615386E-1,-1.15384616E-1,3.5403726E-1,-1.0676157E-2,5.509325E-1,-6.392468E-2,1.0344827E-1,3.4795323E-1,5.7579464E-1,5.39358E-1,3.9093703E-1,5.8474576E-1,4.320875E-1,-8.677686E-2,3.4745762E-1,-1.15384616E-1,2.8402367E-1,-1.18320614E-1,1.5789473E-1],"categories":[],"categories_nodes":[],"categories_segments":[],"categories_sizes":[],"default_left":[0,0,0,0,0,0,0,0,0,0,0,0,0,0,0,0,0,0,0,0,0,0,0,0,0,0,0,0,0,0,0,0,0,0,0,0,0,0,0,1,1,0,1,0,0,0,0,0,0,0,0,1,0,0,0,0,0,0,0,0,0,0,0,0,0,0,0,0,0,0,0,0,0,0,0,0,0,0,0,0,0,0,0,0,0,0,0,0,0,0,0,0,0,0,0,0,0,0,0,0,0,0,0,0,0,0,0,0,0,0,0,0,0,0,0,0,0,0,0,0,0,0,0],"id":0,"left_children":[1,3,5,7,9,11,13,15,17,19,21,23,25,27,29,31,33,35,37,39,41,43,45,47,49,51,53,55,57,59,61,63,65,67,69,71,73,75,77,79,81,83,85,87,89,91,93,95,97,99,101,103,105,107,109,111,113,115,117,-1,-1,119,121,-1,-1,-1,-1,-1,-1,-1,-1,-1,-1,-1,-1,-1,-1,-1,-1,-1,-1,-1,-1,-1,-1,-1,-1,-1,-1,-1,-1,-1,-1,-1,-1,-1,-1,-1,-1,-1,-1,-1,-1,-1,-1,-1,-1,-1,-1,-1,-1,-1,-1,-1,-1,-1,-1,-1,-1,-1,-1,-1,-1],"loss_changes":[1.416779E3,1.229803E3,2.3206921E2,5.5281E2,4.3245514E2,1.2306789E2,4.6756226E1,1.8251357E2,1.5083777E2,4.048462E0,2.6520386E2,2.3724823E1,2.3620867E1,2.0452637E1,4.900893E0,5.4254486E1,1.22642204E2,4.766919E1,3.689514E1,1.840744E0,3.092619E0,1.2806433E2,1.5596677E2,3.2257706E1,1.1397316E1,7.339404E0,4.2308098E1,1.0883667E1,1.2588318E1,1.955574E0,4.9520583E0,2.5133213E1,3.64205E1,5.428763E1,2.0911742E2,5.5772247E0,3.6200684E1,9.294617E0,1.5811827E1,3.1992264E0,1.583725E0,2.1936092E0,3.0833683E0,2.807619E2,3.5324318E1,9.985417E1,1.16298584E2,1.9165531E0,5.305481E0,3.1702523E0,4.5940704E0,4.5261054E0,3.9356484E0,2.634227E1,4.728431E0,7.168579E0,8.419006E0,5.6741333E0,5.6677017E0,0E0,0E0,2.9557488E0,1.6062833E0,0E0,0E0,0E0,0E0,0E0,0E0,0E0,0E0,0E0,0E0,0E0,0E0,0E0,0E0,0E0,0E0,0E0,0E0,0E0,0E0,0E0,0E0,0E0,0E0,0E0,0E0,0E0,0E0,0E0,0E0,0E0,0E0,0E0,0E0,0E0,0E0,0E0,0E0,0E0,0E0,0E0,0E0,0E0,0E0,0E0,0E0,0E0,0E0,0E0,0E0,0E0,0E0,0E0,0E0,0E0,0E0,0E0,0E0,0E0,0E0],"parents":[2147483647,0,0,1,1,2,2,3,3,4,4,5,5,6,6,7,7,8,8,9,9,10,10,11,11,12,12,13,13,14,14,15,15,16,16,17,17,18,18,19,19,20,20,21,21,22,22,23,23,24,24,25,25,26,26,27,27,28,28,29,29,30,30,31,31,32,32,33,33,34,34,35,35,36,36,37,37,38,38,39,39,40,40,41,41,42,42,43,43,44,44,45,45,46,46,47,47,48,48,49,49,50,50,51,51,52,52,53,53,54,54,55,55,56,56,57,57,58,58,61,61,62,62],"right_children":[2,4,6,8,10,12,14,16,18,20,22,24,26,28,30,32,34,36,38,40,42,44,46,48,50,52,54,56,58,60,62,64,66,68,70,72,74,76,78,80,82,84,86,88,90,92,94,96,98,100,102,104,106,108,110,112,114,116,118,-1,-1,120,122,-1,-1,-1,-1,-1,-1,-1,-1,-1,-1,-1,-1,-1,-1,-1,-1,-1,-1,-1,-1,-1,-1,-1,-1,-1,-1,-1,-1,-1,-1,-1,-1,-1,-1,-1,-1,-1,-1,-1,-1,-1,-1,-1,-1,-1,-1,-1,-1,-1,-1,-1,-1,-1,-1,-1,-1,-1,-1,-1,-1],"split_conditions":[2.63873E5,5E0,1.10923E5,7E0,1E0,7.3029E4,8E0,2E0,4E0,2.8E1,4E0,9.8082E4,9.4835E4,5E0,9.378E4,4E0,4.0414E4,8E0,8E0,2.4E1,5.3976053E-1,1.20251E5,8E0,3.494E3,-5.166309E-1,1.4E1,2.67097E5,5E0,2.1E1,2E1,4.653704E-2,8.2E1,4E0,2.7821E4,5.1833E4,1.02573E5,8E0,8.7393E4,2.8E1,2.3668468E0,1.3974619E-1,1.86453E5,2.0789545E0,9.2729E4,2E0,7E0,9E0,2.4898E4,3E0,5E0,-3.257209E-1,9.5644516E-1,-4.6863312E-1,3.8255E4,7E0,1.22E2,3.7E1,2.27682E5,-2.0647001E-1,2.6315792E-2,4.9315068E-1,-1.8125588E-1,6.1E1,-4.5090053E-2,1.1570973E-2,-3.9769754E-2,-1.04831316E-1,-2.0248838E-2,-9.179479E-2,1.1992555E-1,-3.7461263E-4,-9.323354E-2,2.1148037E-2,-1.5265545E-1,-4.574951E-2,-6.35396E-2,-8.97518E-2,-7.125979E-2,6.8602953E-3,-1.12054326E-1,2.3076923E-1,-1.5481946E-1,-1.237279E-1,-1.29025E-1,1.1797753E-1,-6.547857E-2,2.8947368E-1,9.7421154E-2,3.6248747E-1,9.624301E-2,6.2465034E-3,2.5215108E-2,-3.1704634E-2,7.265674E-2,1.8830197E-2,1.5789473E-1,-1.6321245E-1,1.19469024E-1,5.372202E-1,-1.18644066E-1,1.234414E-1,1.403118E-1,3.2299513E-1,-5.40506E-2,3.4615386E-1,-1.15384616E-1,3.5403726E-1,-1.0676157E-2,5.509325E-1,-6.392468E-2,1.0344827E-1,3.4795323E-1,5.7579464E-1,5.39358E-1,3.9093703E-1,5.8474576E-1,4.320875E-1,-8.677686E-2,3.4745762E-1,-1.15384616E-1,2.8402367E-1,-1.18320614E-1,1.5789473E-1],"split_indices":[11,8,14,1,6,14,2,8,18,7,1,10,14,8,10,4,14,1,2,7,32,10,8,13,23,8,11,4,8,7,25,16,1,14,14,14,2,13,7,20,28,0,20,10,1,1,3,0,8,8,24,27,25,10,2,16,18,0,25,0,0,28,18,0,0,0,0,0,0,0,0,0,0,0,0,0,0,0,0,0,0,0,0,0,0,0,0,0,0,0,0,0,0,0,0,0,0,0,0,0,0,0,0,0,0,0,0,0,0,0,0,0,0,0,0,0,0,0,0,0,0,0,0],"split_type":[0,0,0,0,0,0,0,0,0,0,0,0,0,0,0,0,0,0,0,0,0,0,0,0,0,0,0,0,0,0,0,0,0,0,0,0,0,0,0,0,0,0,0,0,0,0,0,0,0,0,0,0,0,0,0,0,0,0,0,0,0,0,0,0,0,0,0,0,0,0,0,0,0,0,0,0,0,0,0,0,0,0,0,0,0,0,0,0,0,0,0,0,0,0,0,0,0,0,0,0,0,0,0,0,0,0,0,0,0,0,0,0,0,0,0,0,0,0,0,0,0,0,0],"sum_hessian":[7.110273E4,6.9988805E4,1.11392E3,3.7462082E4,3.2526723E4,4.7872003E2,6.352001E2,2.4471682E4,1.2990401E4,1.3232001E3,3.1203521E4,2.1472002E2,2.6400003E2,6.0864E2,2.6560001E1,8.200641E3,1.6271041E4,6.6556807E3,6.33472E3,1.0438401E3,2.7936002E2,3.3436802E3,2.7859842E4,8.736001E1,1.2736001E2,1.6416002E2,9.9840004E1,3.7984003E2,2.2880002E2,3.2000003E0,2.3360003E1,4.6550405E3,3.5456003E3,4.2192E3,1.2051841E4,2.1942402E3,4.4614404E3,5.16672E3,1.1680001E3,1.1840001E2,9.2544006E2,1.7920001E2,1.0016E2,1.6928002E3,1.6508801E3,1.2639041E4,1.5220801E4,8.000001E0,7.936001E1,2.112E1,1.06240005E2,1.5712001E2,7.0400004E0,3.7120003E1,6.2720005E1,1.9904001E2,1.8080002E2,2.1888002E2,9.920001E0,1.2800001E0,1.9200001E0,7.3600006E0,1.6000002E1,3.7900803E3,8.649601E2,1.1456001E3,2.4000002E3,2.7606401E3,1.45856E3,1.48192E3,1.0569921E4,2.1555203E3,3.872E1,4.15424E3,3.072E2,3.1708801E3,1.9958401E3,3.2064E2,8.4736005E2,1.1680001E2,1.6000001E0,7.024E2,2.2304001E2,1.7664001E2,2.5600002E0,9.8880005E1,1.2800001E0,1.1747201E3,5.1808E2,1.00832007E3,6.4256006E2,8.529601E3,4.1094404E3,9.320641E3,5.9001606E3,1.2800001E0,6.7200003E0,3.5200002E0,7.5840004E1,6.0800004E0,1.5040001E1,1.6960001E1,8.928001E1,1.5552E2,1.6000001E0,1.6000001E0,5.4400005E0,1.0240001E1,2.6880001E1,3.9360004E1,2.3360003E1,1.8368001E2,1.5360001E1,1.0368001E2,7.712E1,1.7600002E2,4.2880005E1,3.8400002E0,6.0800004E0,1.6000001E0,5.76E0,1.4720001E1,1.2800001E0],"tree_param":{"num_deleted":"0","num_feature":"39","num_nodes":"123","size_leaf_vector":"1"}},{"base_weights":[9.82829E-1,1.257073E0,7.88839E-1,1.4829067E0,1.0643755E0,4.9627343E-1,8.5874176E-1,2.0266838E0,1.4513813E0,1.8427038E0,1.0329661E0,5.5092365E-1,3.5632234E-2,1.6355512E0,8.4212923E-1,2.162292E0,1.847118E0,1.3042052E0,1.5046759E0,1.9625256E0,1.6561437E0,9.7452575E-1,1.1818198E0,7.0295236E-3,6.001846E-1,1.7822011E-1,-6.1354514E-2,1.9008406E0,1.1234934E0,7.987234E-1,1.0728796E0,2.166072E0,1.5789473E-1,1.9875382E0,1.5333333E0,1.2393295E0,1.548387E0,1.2932901E0,1.5290334E0,1.9688076E0,2.6315792E-2,1.1604584E0,1.8409243E0,9.090412E-1,1.1053995E0,1.2719393E0,9.3712354E-1,-2.8138677E-2,8.9630926E-1,5.731092E-1,8.479188E-1,-1.1945392E-1,2.3816136E-1,-9.9885084E-2,2.4561402E-1,6.866982E-1,1.8391031E0,7.142857E-1,1.5320704E0,7.266648E-1,9.044173E-1,1.4234085E0,6.9666976E-1,2.3076923E-1,6.508858E-1,2.586207E-1,6.025475E-1,3.648649E-1,6.0913706E-1,4.278611E-1,3.3924115E-1,7.286989E-1,3.9468664E-1,4.3560332E-1,3.559718E-1,4.669166E-1,4.1595677E-1,4.6687213E-1,5.982861E-1,3.943754E-1,1.8672198E-2,8.219178E-2,5.56929E-1,2.4524784E-1,3.0382025E-1,2.4400195E-1,3.505076E-1,3.63388E-1,4.5643628E-1,3.0027285E-1,2.0624061E-1,3.8282357E-2,-3.274971E-2,4.272997E-1,3.5019454E-2,4.0034217E-1,1.7009154E-1,6.382979E-1,2.3649041E-1,8.314087E-2,-8.372752E-2,3.7278107E-1,6.397902E-2,-3.29597E-2,3.247423E-1,-3.3508543E-2,1.8940493E-1,5.5791485E-1,1.0650888E-1,1.7791869E-1,4.352518E-1,9.701493E-2,4.8129192E-1,1.9971313E-1,2.809314E-1,3.6380392E-1,2.5766122E-1,4.903448E-1,3.6731172E-1,1.9766174E-1,2.8801227E-1],"categories":[],"categories_nodes":[],"categories_segments":[],"categories_sizes":[],"default_left":[0,0,0,0,0,0,0,0,0,0,0,0,0,0,0,1,0,0,0,0,0,0,0,0,0,0,0,0,0,0,0,0,0,0,0,0,0,0,0,0,0,0,0,0,0,0,0,0,0,0,0,0,0,0,0,0,1,0,0,0,0,0,0,0,0,0,0,0,0,0,0,0,0,0,0,0,0,0,0,0,0,0,0,0,0,0,0,0,0,0,0,0,0,0,0,0,0,0,0,0,0,0,0,0,0,0,0,0,0,0,0,0,0,0,0,0,0,0,0,0,0],"id":1,"left_children":[1,3,5,7,9,11,13,15,17,19,21,23,25,27,29,31,33,35,37,39,41,43,45,47,49,51,53,55,57,59,61,63,-1,65,67,69,71,73,75,77,-1,79,81,83,85,87,89,91,93,95,97,99,101,103,105,-1,107,109,111,113,115,117,119,-1,-1,-1,-1,-1,-1,-1,-1,-1,-1,-1,-1,-1,-1,-1,-1,-1,-1,-1,-1,-1,-1,-1,-1,-1,-1,-1,-1,-1,-1,-1,-1,-1,-1,-1,-1,-1,-1,-1,-1,-1,-1,-1,-1,-1,-1,-1,-1,-1,-1,-1,-1,-1,-1,-1,-1,-1,-1],"loss_changes":[3.7817656E3,1.2803086E3,8.5132227E2,2.2950586E2,3.8675E2,2.0223657E2,4.3241406E2,1.4038086E1,9.859766E1,1.0506348E1,1.3180273E2,1.9242432E2,1.1809399E1,9.3329956E1,3.2879688E2,1.4326172E0,1.1293701E1,5.219043E1,4.645117E1,4.177002E0,2.0494507E1,9.309863E1,9.3720215E1,1.8711031E1,4.36875E1,6.195689E0,6.039141E0,6.848999E0,3.9413147E1,2.1035547E2,6.8580566E2,3.864746E-1,0E0,3.4916382E0,1.4083389E1,5.3220703E1,1.4295166E2,1.4847412E1,3.0699219E1,7.652588E-1,0E0,1.1732819E1,3.822998E0,6.870068E1,6.6299805E1,4.5713867E1,1.7820557E1,7.279331E0,9.202551E0,2.6999146E1,4.7667236E1,3.7873592E0,6.9384575E0,5.45895E0,7.9266534E0,0E0,1.1675293E1,1.0114784E1,9.989929E0,2.100918E2,1.5659668E2,1.1122217E2,2.4393433E1,0E0,0E0,0E0,0E0,0E0,0E0,0E0,0E0,0E0,0E0,0E0,0E0,0E0,0E0,0E0,0E0,0E0,0E0,0E0,0E0,0E0,0E0,0E0,0E0,0E0,0E0,0E0,0E0,0E0,0E0,0E0,0E0,0E0,0E0,0E0,0E0,0E0,0E0,0E0,0E0,0E0,0E0,0E0,0E0,0E0,0E0,0E0,0E0,0E0,0E0,0E0,0E0,0E0,0E0,0E0,0E0,0E0,0E0],"parents":[2147483647,0,0,1,1,2,2,3,3,4,4,5,5,6,6,7,7,8,8,9,9,10,10,11,11,12,12,13,13,14,14,15,15,16,16,17,17,18,18,19,19,20,20,21,21,22,22,23,23,24,24,25,25,26,26,27,27,28,28,29,29,30,30,31,31,33,33,34,34,35,35,36,36,37,37,38,38,39,39,41,41,42,42,43,43,44,44,45,45,46,46,47,47,48,48,49,49,50,50,51,51,52,52,53,53,54,54,56,56,57,57,58,58,59,59,60,60,61,61,62,62],"right_children":[2,4,6,8,10,12,14,16,18,20,22,24,26,28,30,32,34,36,38,40,42,44,46,48,50,52,54,56,58,60,62,64,-1,66,68,70,72,74,76,78,-1,80,82,84,86,88,90,92,94,96,98,100,102,104,106,-1,108,110,112,114,116,118,120,-1,-1,-1,-1,-1,-1,-1,-1,-1,-1,-1,-1,-1,-1,-1,-1,-1,-1,-1,-1,-1,-1,-1,-1,-1,-1,-1,-1,-1,-1,-1,-1,-1,-1,-1,-1,-1,-1,-1,-1,-1,-1,-1,-1,-1,-1,-1,-1,-1,-1,-1,-1,-1,-1,-1,-1,-1,-1],"split_conditions":[1.14297E5,6E0,4E0,1E0,1E0,2.63873E5,1E0,7E0,3.2386E4,7E0,9E0,5.5292E4,4E0,6E0,2.40204E5,1.5090921E0,4.587E4,9E0,2.9627E4,1.09914E5,8E0,4E0,1.1E1,1.7E1,9E0,-1.2751707E0,8E0,1E0,8E0,4E0,2.51941E5,-1.0400006E0,1.5789473E-1,-6.045407E-1,7E0,5E0,1E1,9.859E3,1E1,4E0,2.6315792E-2,4.0972E4,-7.19859E-1,5.1E1,1.733E4,9.0926E4,4.7368E4,1E0,3.7E1,9.16E2,1E1,-2.5432748E-1,-6.579772E-1,1.00243E5,8E0,6.866982E-1,1.0060734E0,2.32147E5,-1.9550644E0,9E0,2E0,3.5E1,6.1E1,2.3076923E-1,6.508858E-1,2.586207E-1,6.025475E-1,3.648649E-1,6.0913706E-1,4.278611E-1,3.3924115E-1,7.286989E-1,3.9468664E-1,4.3560332E-1,3.559718E-1,4.669166E-1,4.1595677E-1,4.6687213E-1,5.982861E-1,3.943754E-1,1.8672198E-2,8.219178E-2,5.56929E-1,2.4524784E-1,3.0382025E-1,2.4400195E-1,3.505076E-1,3.63388E-1,4.5643628E-1,3.0027285E-1,2.0624061E-1,3.8282357E-2,-3.274971E-2,4.272997E-1,3.5019454E-2,4.0034217E-1,1.7009154E-1,6.382979E-1,2.3649041E-1,8.314087E-2,-8.372752E-2,3.7278107E-1,6.397902E-2,-3.29597E-2,3.247423E-1,-3.3508543E-2,1.8940493E-1,5.5791485E-1,1.0650888E-1,1.7791869E-1,4.352518E-1,9.701493E-2,4.8129192E-1,1.9971313E-1,2.809314E-1,3.6380392E-1,2.5766122E-1,4.903448E-1,3.6731172E-1,1.9766174E-1,2.8801227E-1],"split_indices":[11,18,1,6,6,11,6,1,11,1,2,14,8,2,11,25,14,3,10,13,1,4,2,8,3,19,8,4,2,4,11,29,0,30,8,8,3,10,2,1,0,14,33,18,11,13,14,15,18,13,3,31,30,10,3,0,25,11,19,3,3,18,18,0,0,0,0,0,0,0,0,0,0,0,0,0,0,0,0,0,0,0,0,0,0,0,0,0,0,0,0,0,0,0,0,0,0,0,0,0,0,0,0,0,0,0,0,0,0,0,0,0,0,0,0,0,0,0,0,0,0],"split_type":[0,0,0,0,0,0,0,0,0,0,0,0,0,0,0,0,0,0,0,0,0,0,0,0,0,0,0,0,0,0,0,0,0,0,0,0,0,0,0,0,0,0,0,0,0,0,0,0,0,0,0,0,0,0,0,0,0,0,0,0,0,0,0,0,0,0,0,0,0,0,0,0,0,0,0,0,0,0,0,0,0,0,0,0,0,0,0,0,0,0,0,0,0,0,0,0,0,0,0,0,0,0,0,0,0,0,0,0,0,0,0,0,0,0,0,0,0,0,0,0,0],"sum_hessian":[7.110273E4,2.9455682E4,4.1647043E4,1.3558721E4,1.5896961E4,8.033281E3,3.361376E4,7.395201E2,1.2819201E4,6.144E2,1.5282562E4,7.1811206E3,8.5216003E2,7.017601E2,3.2912004E4,4.1504004E2,3.2448E2,3.4147202E3,9.40448E3,3.6832004E2,2.4608002E2,1.09795205E4,4.3030405E3,5.9648004E2,6.5846406E3,3.4464E2,5.0752005E2,4.6048004E2,2.4128001E2,2.7704963E4,5.2070405E3,4.1376004E2,1.2800001E0,2.2048001E2,1.0400001E2,2.7027202E3,7.1200006E2,9.772801E2,8.4272E3,3.6704004E2,1.2800001E0,6.88E1,1.7728001E2,7.3232007E3,3.6563203E3,3.1417603E3,1.16128E3,5.7472003E2,2.1760002E1,5.9388804E3,6.457601E2,5.7600002E1,2.8704E2,4.5152002E2,5.6000004E1,5.8240005E1,4.0224002E2,1.21920006E2,1.1936001E2,1.64784E4,1.1226561E4,2.69408E3,2.5129602E3,1.6000001E0,4.1216003E2,4.8E0,2.1568001E2,6.5600006E1,3.84E1,9.8848004E2,1.7142401E3,1.4688E2,5.6512006E2,3.8784003E2,5.8944006E2,7.0617607E3,1.3654401E3,2.4960001E1,3.4208002E2,6.0160004E1,8.64E0,1.9200001E0,1.7536002E2,3.8940803E3,3.4291204E3,6.5088007E2,3.0054402E3,2.5321602E3,6.0960004E2,9.2256006E2,2.3872002E2,1.9648001E2,3.7824002E2,1.24800005E1,9.280001E0,4.5760002E1,5.8931206E3,2.7200003E1,6.1856006E2,1.6320002E1,4.1280003E1,5.76E0,2.8128003E2,4.4864005E2,2.88E0,2.9440002E1,2.6560001E1,3.9648004E2,5.76E0,1.06240005E2,1.5680001E1,7.0400004E0,1.1232001E2,1.27715205E4,3.7068804E3,1.44192E3,9.784641E3,1.3040001E3,1.3900801E3,2.2006401E3,3.1232E2],"tree_param":{"num_deleted":"0","num_feature":"39","num_nodes":"121","size_leaf_vector":"1"}},{"base_weights":[-4.3560588E-1,-4.2028356E-1,-5.216379E-1,-4.0023023E-1,-4.5584148E-1,-5.7933396E-1,-4.5724627E-1,-5.43458E-1,-3.9611837E-1,-4.82013E-1,-4.3423587E-1,-5.905946E-1,-4.454865E-1,-5.485865E-1,-4.4849208E-1,-4.436229E-1,-5.540624E-1,-3.0194542E-1,-3.9986852E-1,-4.3314326E-1,-4.8803526E-1,-3.233431E-1,-4.3827537E-1,-4.207295E-1,-5.941601E-1,-3.8778198E-1,-5.1279503E-1,2.6315792E-2,-5.5064267E-1,-5.391974E-1,-4.4163233E-1,-4.695099E-1,2.8947368E-1,-5.5596995E-1,5.5555556E-2,-4.78752E-1,-2.693481E-1,-4.117772E-1,-3.7709194E-1,-4.4476548E-1,-2.4047469E-1,-5.12213E-1,-4.6965984E-1,-3.4751913E-1,1.3761467E-1,-4.5229325E-1,-4.114432E-1,1.3513513E-1,-4.5611343E-1,-2.7237353E-1,-5.9469205E-1,-3.977367E-1,3.9325842E-1,-0E0,-5.252997E-1,-5.5271095E-1,2.6315792E-2,-3.6381513E-1,-5.62562E-1,-4.4282016E-1,5.338078E-2,-1.6305952E-1,-6.7669176E-2,-7.943925E-2,-1.6779254E-1,1.849315E-1,-1.4731416E-1,-4.880634E-2,-9.83619E-2,-1.276745E-1,-1.1785718E-1,-1.0355974E-1,-1.2611382E-1,1.775148E-2,-1.3430199E-1,-1.0144927E-1,1.7796609E-1,-1.472147E-1,-1.6105974E-1,-1.6636851E-1,-1.390288E-1,-1.0928767E-1,1.12033196E-1,3.1395346E-1,-4.0816326E-2,-1.3633369E-1,-7.496325E-2,-1.272143E-1,-1.08164705E-1,-1.511628E-1,3.333333E-1,1.1797753E-1,-1.4440079E-1,-1.6507177E-1,1.849315E-1,-7.8313254E-2,-1.7856833E-1,-1.2378017E-1,3.1088082E-2,2.8947368E-1,-1.05263166E-1,-1.2962963E-1,1.1797753E-1,-6.043956E-2,-1.6242242E-1,-0E0,-1.6642195E-1,-1.3210702E-1,5.1724136E-2,-1.7068446E-1,-1.3274337E-2,-5.882353E-2,-1.3348617E-1,-1.11801244E-1,1.5517241E-1],"categories":[],"categories_nodes":[],"categories_segments":[],"categories_sizes":[],"default_left":[0,0,0,0,0,0,0,0,0,0,0,0,1,0,0,0,1,0,0,1,0,0,0,0,0,1,0,0,1,0,1,0,0,0,0,0,0,0,0,0,0,0,0,1,0,1,1,0,0,1,0,0,0,0,0,0,0,0,1,0,0,0,0,0,0,0,0,0,0,0,0,0,0,0,0,0,0,0,0,0,0,0,0,0,0,0,0,0,0,0,0,0,0,0,0,0,0,0,0,0,0,0,0,0,0,0,0,0,0,0,0,0,0,0,0],"id":2,"left_children":[1,3,5,7,9,11,13,15,17,19,21,23,25,27,29,31,33,35,37,39,41,43,45,47,49,51,53,-1,55,57,59,61,-1,63,-1,65,67,69,71,73,75,77,79,81,83,85,87,89,91,93,95,97,99,101,103,105,-1,107,109,111,113,-1,-1,-1,-1,-1,-1,-1,-1,-1,-1,-1,-1,-1,-1,-1,-1,-1,-1,-1,-1,-1,-1,-1,-1,-1,-1,-1,-1,-1,-1,-1,-1,-1,-1,-1,-1,-1,-1,-1,-1,-1,-1,-1,-1,-1,-1,-1,-1,-1,-1,-1,-1,-1,-1],"loss_changes":[9.351172E1,4.285742E1,3.9654297E1,2.2518555E1,1.2094238E1,8.272949E0,3.8181152E0,8.9190674E-1,1.3133301E1,2.6816406E0,5.2019043E0,2.9119873E0,1.523941E0,6.2405396E-1,2.651184E0,4.398304E0,1.4671326E0,8.1779785E0,9.6328125E0,2.3279724E0,3.644287E0,4.7626877E0,4.14209E0,2.240141E0,7.128906E-1,2.0451279E0,1.2929802E0,0E0,6.277771E-1,1.1146317E0,2.5653076E0,1.8080883E0,0E0,7.901306E-1,0E0,3.3065948E0,7.5575104E0,6.0195312E0,1.697705E1,1.5275116E0,5.4162335E0,1.7318115E0,2.3774414E0,5.0007286E0,5.564849E0,3.1750488E0,2.387207E0,5.174942E0,2.4250221E0,2.8780434E0,7.564697E-1,1.8339615E0,1.8529469E0,1.1554999E0,9.177284E-1,4.9058533E-1,0E0,1.7455869E0,9.0919495E-1,2.1831055E0,2.4141057E0,0E0,0E0,0E0,0E0,0E0,0E0,0E0,0E0,0E0,0E0,0E0,0E0,0E0,0E0,0E0,0E0,0E0,0E0,0E0,0E0,0E0,0E0,0E0,0E0,0E0,0E0,0E0,0E0,0E0,0E0,0E0,0E0,0E0,0E0,0E0,0E0,0E0,0E0,0E0,0E0,0E0,0E0,0E0,0E0,0E0,0E0,0E0,0E0,0E0,0E0,0E0,0E0,0E0,0E0],"parents":[2147483647,0,0,1,1,2,2,3,3,4,4,5,5,6,6,7,7,8,8,9,9,10,10,11,11,12,12,13,13,14,14,15,15,16,16,17,17,18,18,19,19,20,20,21,21,22,22,23,23,24,24,25,25,26,26,28,28,29,29,30,30,31,31,33,33,35,35,36,36,37,37,38,38,39,39,40,40,41,41,42,42,43,43,44,44,45,45,46,46,47,47,48,48,49,49,50,50,51,51,52,52,53,53,54,54,55,55,57,57,58,58,59,59,60,60],"right_children":[2,4,6,8,10,12,14,16,18,20,22,24,26,28,30,32,34,36,38,40,42,44,46,48,50,52,54,-1,56,58,60,62,-1,64,-1,66,68,70,72,74,76,78,80,82,84,86,88,90,92,94,96,98,100,102,104,106,-1,108,110,112,114,-1,-1,-1,-1,-1,-1,-1,-1,-1,-1,-1,-1,-1,-1,-1,-1,-1,-1,-1,-1,-1,-1,-1,-1,-1,-1,-1,-1,-1,-1,-1,-1,-1,-1,-1,-1,-1,-1,-1,-1,-1,-1,-1,-1,-1,-1,-1,-1,-1,-1,-1,-1,-1,-1],"split_conditions":[8E0,4E0,8E0,1E0,2.5E1,2.1E1,1E0,-3.0184206E-1,4.12E3,3E0,3E0,7E0,-1.1902203E-1,1E0,4.83E3,2.60673E5,2.130825E0,7.1974E4,6.2E1,3.5814893E-1,3E0,2.49936E5,6E0,2E0,5.9537E4,2.303806E0,-7.3624456E-1,2.6315792E-2,1.0412388E0,3.0217E4,1.626965E0,5.1E1,2.8947368E-1,3.114E3,5.5555556E-2,2E0,7.5301E4,1.38533E5,1.1E2,8.7E3,1.2485311E0,3E0,5E0,1.0060734E0,3.2E1,2.5839207E0,2.4773633E-1,6.6405666E-1,-6.2391585E-1,-6.3578725E-2,5E0,2.67097E5,6.721E4,8.8921E4,2.4879E4,-1.3329877E0,2.6315792E-2,3.3277E4,5.8311737E-1,-7.5384545E-1,1.0235E5,-1.6305952E-1,-6.7669176E-2,-7.943925E-2,-1.6779254E-1,1.849315E-1,-1.4731416E-1,-4.880634E-2,-9.83619E-2,-1.276745E-1,-1.1785718E-1,-1.0355974E-1,-1.2611382E-1,1.775148E-2,-1.3430199E-1,-1.0144927E-1,1.7796609E-1,-1.472147E-1,-1.6105974E-1,-1.6636851E-1,-1.390288E-1,-1.0928767E-1,1.12033196E-1,3.1395346E-1,-4.0816326E-2,-1.3633369E-1,-7.496325E-2,-1.272143E-1,-1.08164705E-1,-1.511628E-1,3.333333E-1,1.1797753E-1,-1.4440079E-1,-1.6507177E-1,1.849315E-1,-7.8313254E-2,-1.7856833E-1,-1.2378017E-1,3.1088082E-2,2.8947368E-1,-1.05263166E-1,-1.2962963E-1,1.1797753E-1,-6.043956E-2,-1.6242242E-1,-0E0,-1.6642195E-1,-1.3210702E-1,5.1724136E-2,-1.7068446E-1,-1.3274337E-2,-5.882353E-2,-1.3348617E-1,-1.11801244E-1,1.5517241E-1],"split_indices":[1,4,2,6,18,18,6,35,13,1,2,2,31,7,14,11,23,14,16,37,8,10,8,8,11,20,29,0,31,11,24,16,0,10,0,3,14,11,16,11,19,6,1,25,18,21,24,20,33,38,3,11,0,0,11,24,0,13,38,35,11,0,0,0,0,0,0,0,0,0,0,0,0,0,0,0,0,0,0,0,0,0,0,0,0,0,0,0,0,0,0,0,0,0,0,0,0,0,0,0,0,0,0,0,0,0,0,0,0,0,0,0,0,0,0],"split_type":[0,0,0,0,0,0,0,0,0,0,0,0,0,0,0,0,0,0,0,0,0,0,0,0,0,0,0,0,0,0,0,0,0,0,0,0,0,0,0,0,0,0,0,0,0,0,0,0,0,0,0,0,0,0,0,0,0,0,0,0,0,0,0,0,0,0,0,0,0,0,0,0,0,0,0,0,0,0,0,0,0,0,0,0,0,0,0,0,0,0,0,0,0,0,0,0,0,0,0,0,0,0,0,0,0,0,0,0,0,0,0,0,0,0,0],"sum_hessian":[7.110273E4,6.0358723E4,1.0744001E4,3.860128E4,2.1757441E4,5.6624004E3,5.0816006E3,1.0736001E3,3.7527684E4,9.82944E3,1.1928001E4,5.2198403E3,4.4256003E2,4.3904004E2,4.6425605E3,1.07200005E2,9.664001E2,1.4403201E3,3.6087363E4,1.0864E3,8.743041E3,4.2208002E2,1.1505921E4,1.0976001E2,5.1100806E3,2.4192001E2,2.0064001E2,1.2800001E0,4.3776004E2,3.2096002E2,4.3216E3,1.05920006E2,1.2800001E0,9.641601E2,2.2400002E0,2.2208002E2,1.2182401E3,2.3686082E4,1.2401281E4,1.02336005E3,6.3040005E1,3.7638403E3,4.9792E3,4.0128003E2,2.0800001E1,7.5472007E3,3.9587202E3,6.4000006E0,1.0336001E2,9.280001E0,5.1008003E3,2.3936002E2,2.5600002E0,4.8E0,1.9584001E2,4.3648004E2,1.2800001E0,3.9680004E1,2.8128003E2,4.3113604E3,1.0240001E1,8.032001E1,2.5600002E1,1.1840001E1,9.5232007E2,1.9200001E0,2.2016002E2,4.3296002E2,7.8528E2,1.3681921E4,1.0004161E4,7.1456006E3,5.25568E3,5.76E0,1.0176001E3,5.6960003E1,6.0800004E0,2.0217601E3,1.7420801E3,3.3440002E2,4.6448003E3,3.9264E2,8.64E0,4.1600003E0,1.6640001E1,7.4665605E3,8.064001E1,3.1670403E3,7.9168005E2,4.1600003E0,2.2400002E0,2.5600002E0,1.0080001E2,7.3600006E0,1.9200001E0,8.960001E0,5.0918403E3,2.3264001E2,6.7200003E0,1.2800001E0,1.2800001E0,2.2400002E0,2.5600002E0,9.920001E0,1.8592001E2,1.6000001E0,4.3488004E2,3.488E1,4.8E0,2.7776E2,3.5200002E0,3.7760002E1,4.2736E3,5.4400005E0,4.8E0],"tree_param":{"num_deleted":"0","num_feature":"39","num_nodes":"115","size_leaf_vector":"1"}},{"base_weights":[-4.3408698E-1,-4.207806E-1,-5.087948E-1,-4.4791952E-1,-4.0443817E-1,-5.467628E-1,-4.5195457E-1,-4.7471386E-1,-4.2688087E-1,-3.8488102E-1,-4.3664008E-1,-5.6039906E-1,-4.9019292E-1,-4.2369792E-1,-4.6926877E-1,-4.634095E-1,-5.122976E-1,-4.209772E-1,-5.01008E-1,-3.733896E-1,-4.476615E-1,-4.628197E-1,-4.1765738E-1,-3.1224978E-1,-5.6270605E-1,-3.7621763E-1,-5.0166637E-1,-2.1460602E-1,-4.3166283E-1,-4.7339562E-1,-3.1776208E-1,-4.6928984E-1,-4.010775E-1,-9.69529E-2,-5.1470196E-1,-4.563105E-1,-4.1089618E-1,-5.372923E-1,-4.4381592E-1,-5.432297E-1,-3.692263E-1,-4.490182E-1,-3.1152647E-2,-4.8525295E-1,-4.3322134E-1,-4.1221648E-1,-5.6715375E-1,-4.266389E-1,6.389776E-2,-5.326812E-1,-5.789759E-1,1.9900496E-1,-4.1413778E-1,-5.1280093E-1,-3.7052992E-1,2.4930747E-1,-3.4693876E-1,-5.4393303E-1,-4.202111E-1,-3.4307495E-1,-4.7813615E-1,-3.525819E-1,2.3076923E-1,-1.4202078E-1,-1.11992344E-1,-9.8348804E-2,-1.4158662E-1,-9.836066E-2,2.4074075E-1,-1.1762171E-1,-1.5590003E-1,-1.3768956E-1,-2.4539879E-2,-1.2653548E-1,-1.1361099E-1,3.7190083E-2,-1.6260943E-1,-1.345923E-1,1.5789473E-1,-6.359102E-2,-1.6609815E-1,-1.0802384E-1,-1.2403222E-1,-7.196029E-2,-1.3551895E-1,-8.791208E-2,2.8767124E-1,-1.4875446E-1,-1.2321077E-1,-3.468208E-2,-1.3120794E-1,-1.2882592E-1,-1.1725973E-1,-1.7290387E-1,-5.7416268E-2,1.15384616E-1,-1.4169382E-1,2.4742268E-1,-7.468879E-2,-1.602472E-1,5.309735E-2,-4.6632122E-2,-1.7393668E-1,3.4615386E-1,-6.521739E-2,5.5555556E-2,-1.284153E-1,5.5555556E-2,-1.5434176E-1,-1.2846348E-1,-8.310249E-3,-4.792332E-3,3.9041096E-1,-1.3459758E-1,1.0650888E-1,-1.6704448E-1,5.5555556E-2,-1.2688024E-1,-1.0676157E-2,-1.2247909E-1,1.6997168E-2,-1.4425275E-1,-7.293035E-2,-1.15384616E-1,9.27835E-2],"categories":[],"categories_nodes":[],"categories_segments":[],"categories_sizes":[],"default_left":[0,0,0,0,0,0,0,0,0,0,0,0,0,0,1,0,0,0,0,0,1,0,0,0,0,0,1,0,0,0,0,1,1,1,0,1,0,0,1,0,0,0,0,1,0,0,1,0,0,1,0,0,0,0,0,0,0,0,0,1,1,0,0,0,0,0,0,0,0,0,0,0,0,0,0,0,0,0,0,0,0,0,0,0,0,0,0,0,0,0,0,0,0,0,0,0,0,0,0,0,0,0,0,0,0,0,0,0,0,0,0,0,0,0,0,0,0,0,0,0,0,0,0,0,0],"id":3,"left_children":[1,3,5,7,9,11,13,15,17,19,21,23,25,27,29,31,33,35,37,39,41,43,45,47,49,51,53,55,57,59,61,63,65,67,69,71,73,75,77,79,81,83,85,87,89,91,93,95,97,99,101,103,105,107,109,111,113,115,117,119,121,123,-1,-1,-1,-1,-1,-1,-1,-1,-1,-1,-1,-1,-1,-1,-1,-1,-1,-1,-1,-1,-1,-1,-1,-1,-1,-1,-1,-1,-1,-1,-1,-1,-1,-1,-1,-1,-1,-1,-1,-1,-1,-1,-1,-1,-1,-1,-1,-1,-1,-1,-1,-1,-1,-1,-1,-1,-1,-1,-1,-1,-1,-1,-1],"loss_changes":[7.04707E1,2.658789E1,2.294165E1,1.2580566E1,2.3564453E1,4.690918E0,1.9092407E0,3.996338E0,5.352295E0,1.6753418E1,6.8793945E0,2.789795E0,1.4566956E0,2.6509705E0,1.5142212E0,2.623413E0,2.2418823E0,4.009033E0,1.6966705E0,1.3821533E1,2.0336304E0,3.7556152E0,6.4848633E0,2.1769E0,2.197998E0,2.6798477E0,1.4748535E0,3.9197447E0,1.8104553E0,1.4359131E0,3.0584092E0,2.5882568E0,3.314354E0,3.2621608E0,1.1851196E0,2.5534058E0,3.0568848E0,1.8403168E0,1.9573975E0,1.5147705E0,7.680664E0,1.9400635E0,3.6101995E0,2.4733887E0,3.3463745E0,2.7607422E0,8.824463E-1,1.6059775E0,3.1855676E0,1.9966431E0,1.0517578E0,3.447478E0,1.0135136E0,1.3184204E0,1.8240442E0,4.050894E0,3.6580896E0,1.4499893E0,1.4968414E0,2.4840498E0,1.4710083E0,1.6463223E0,0E0,0E0,0E0,0E0,0E0,0E0,0E0,0E0,0E0,0E0,0E0,0E0,0E0,0E0,0E0,0E0,0E0,0E0,0E0,0E0,0E0,0E0,0E0,0E0,0E0,0E0,0E0,0E0,0E0,0E0,0E0,0E0,0E0,0E0,0E0,0E0,0E0,0E0,0E0,0E0,0E0,0E0,0E0,0E0,0E0,0E0,0E0,0E0,0E0,0E0,0E0,0E0,0E0,0E0,0E0,0E0,0E0,0E0,0E0,0E0,0E0,0E0,0E0],"parents":[2147483647,0,0,1,1,2,2,3,3,4,4,5,5,6,6,7,7,8,8,9,9,10,10,11,11,12,12,13,13,14,14,15,15,16,16,17,17,18,18,19,19,20,20,21,21,22,22,23,23,24,24,25,25,26,26,27,27,28,28,29,29,30,30,31,31,32,32,33,33,34,34,35,35,36,36,37,37,38,38,39,39,40,40,41,41,42,42,43,43,44,44,45,45,46,46,47,47,48,48,49,49,50,50,51,51,52,52,53,53,54,54,55,55,56,56,57,57,58,58,59,59,60,60,61,61],"right_children":[2,4,6,8,10,12,14,16,18,20,22,24,26,28,30,32,34,36,38,40,42,44,46,48,50,52,54,56,58,60,62,64,66,68,70,72,74,76,78,80,82,84,86,88,90,92,94,96,98,100,102,104,106,108,110,112,114,116,118,120,122,124,-1,-1,-1,-1,-1,-1,-1,-1,-1,-1,-1,-1,-1,-1,-1,-1,-1,-1,-1,-1,-1,-1,-1,-1,-1,-1,-1,-1,-1,-1,-1,-1,-1,-1,-1,-1,-1,-1,-1,-1,-1,-1,-1,-1,-1,-1,-1,-1,-1,-1,-1,-1,-1,-1,-1,-1,-1,-1,-1,-1,-1,-1,-1],"split_conditions":[8E0,5.2309E4,1.9E1,1.2E1,4E0,8E0,6E0,8.6566E4,4.9601E4,1E1,2.6E1,8.5512E4,2E0,-6.2423384E-1,7.466603E-1,2.50959E5,8.306E3,1.01E4,1.01288E5,1E0,2.6514664E0,6E0,2.64923E5,5E0,5E0,-3.780437E-1,4.7620648E-1,-3.3052593E-1,-1.7717679E0,7E0,5.6751657E-1,4.8056203E-1,-2.3675203E-1,1.1164281E0,-5.3740007E-1,2.1990638E0,7E0,5.129E3,9.9896234E-1,2E0,2.40204E5,5.2618E4,1.63728E5,4.8720407E-1,-1.2372863E0,5E0,5.055686E-1,-5.7834864E-1,-6.60525E-2,1.1832008E0,-9.4960797E-1,2.5973E4,1E0,-8.8145196E-1,5.390563E-1,1.9011688E-1,2.5428757E-1,8.273494E-1,1.11598E5,2.5496155E-1,7.843317E-1,1.06686E5,2.3076923E-1,-1.4202078E-1,-1.11992344E-1,-9.8348804E-2,-1.4158662E-1,-9.836066E-2,2.4074075E-1,-1.1762171E-1,-1.5590003E-1,-1.3768956E-1,-2.4539879E-2,-1.2653548E-1,-1.1361099E-1,3.7190083E-2,-1.6260943E-1,-1.345923E-1,1.5789473E-1,-6.359102E-2,-1.6609815E-1,-1.0802384E-1,-1.2403222E-1,-7.196029E-2,-1.3551895E-1,-8.791208E-2,2.8767124E-1,-1.4875446E-1,-1.2321077E-1,-3.468208E-2,-1.3120794E-1,-1.2882592E-1,-1.1725973E-1,-1.7290387E-1,-5.7416268E-2,1.15384616E-1,-1.4169382E-1,2.4742268E-1,-7.468879E-2,-1.602472E-1,5.309735E-2,-4.6632122E-2,-1.7393668E-1,3.4615386E-1,-6.521739E-2,5.5555556E-2,-1.284153E-1,5.5555556E-2,-1.5434176E-1,-1.2846348E-1,-8.310249E-3,-4.792332E-3,3.9041096E-1,-1.3459758E-1,1.0650888E-1,-1.6704448E-1,5.5555556E-2,-1.2688024E-1,-1.0676157E-2,-1.2247909E-1,1.6997168E-2,-1.4425275E-1,-7.293035E-2,-1.15384616E-1,9.27835E-2],"split_indices":[1,14,18,18,4,2,8,11,14,8,18,11,8,29,30,10,13,14,10,4,23,2,11,4,4,35,27,31,19,2,33,32,29,20,33,22,1,10,27,1,11,14,0,25,24,2,36,34,22,30,31,0,8,30,25,22,28,30,14,31,31,13,0,0,0,0,0,0,0,0,0,0,0,0,0,0,0,0,0,0,0,0,0,0,0,0,0,0,0,0,0,0,0,0,0,0,0,0,0,0,0,0,0,0,0,0,0,0,0,0,0,0,0,0,0,0,0,0,0,0,0,0,0,0,0],"split_type":[0,0,0,0,0,0,0,0,0,0,0,0,0,0,0,0,0,0,0,0,0,0,0,0,0,0,0,0,0,0,0,0,0,0,0,0,0,0,0,0,0,0,0,0,0,0,0,0,0,0,0,0,0,0,0,0,0,0,0,0,0,0,0,0,0,0,0,0,0,0,0,0,0,0,0,0,0,0,0,0,0,0,0,0,0,0,0,0,0,0,0,0,0,0,0,0,0,0,0,0,0,0,0,0,0,0,0,0,0,0,0,0,0,0,0,0,0,0,0,0,0,0,0,0,0],"sum_hessian":[7.110273E4,6.0358723E4,1.0744001E4,2.2675842E4,3.7682883E4,6.4361606E3,4.3078403E3,9.964161E3,1.2711681E4,2.3452482E4,1.4230401E4,5.1788804E3,1.25728E3,1.6464001E3,2.6614402E3,7.6704004E3,2.2937603E3,1.1780161E4,9.315201E2,1.9829762E4,3.6227202E3,5.9715205E3,8.258881E3,4.8960003E1,5.1299204E3,1.1808001E2,1.1392001E3,6.1440002E1,1.5849601E3,2.5888003E3,7.264001E1,7.0032007E3,6.672001E2,1.3440001E1,2.28032E3,2.60512E3,9.175041E3,5.6480005E2,3.6672003E2,4.7136005E2,1.9358402E4,3.6108804E3,1.1840001E1,3.3881602E3,2.58336E3,7.9724805E3,2.8640002E2,3.7440002E1,1.152E1,1.8147201E3,3.3152002E3,7.0400004E0,1.1104001E2,1.0473601E3,9.1840004E1,1.3440001E1,4.8000004E1,1.4240001E2,1.44256E3,9.344001E1,2.49536E3,7.104001E1,1.6000001E0,6.7116807E3,2.9152002E2,3.3088004E2,3.3632004E2,1.1200001E1,2.2400002E0,9.1840004E1,2.1884802E3,2.5865603E3,1.8560001E1,6.8470405E3,2.3280002E3,3.8400002E0,5.6096E2,3.6544003E2,1.2800001E0,1.5040001E1,4.5632004E2,1.6047681E4,3.3107202E3,4.7360004E1,3.5635203E3,9.920001E0,1.9200001E0,2.9616E3,4.2656003E2,3.3600002E1,2.5497603E3,4.4044805E3,3.5680002E3,2.7904E2,7.3600006E0,1.6000001E0,3.5840004E1,2.88E0,8.64E0,1.8112001E3,3.5200002E0,6.7200003E0,3.3084802E3,1.6000001E0,5.4400005E0,2.2400002E0,1.0880001E2,2.2400002E0,1.0451201E3,7.840001E1,1.3440001E1,1.152E1,1.9200001E0,4.224E1,5.76E0,1.4016E2,2.2400002E0,1.4323201E3,1.0240001E1,8.032001E1,1.3120001E1,2.4659202E3,2.9440002E1,6.816E1,2.88E0],"tree_param":{"num_deleted":"0","num_feature":"39","num_nodes":"125","size_leaf_vector":"1"}},{"base_weights":[-1.0136178E-1,-2.9915848E-1,6.523958E-2,-3.650731E-1,-1.5670633E-1,-4.6733964E-2,3.3622915E-1,-5.0015634E-1,-2.760988E-1,-2.7259618E-1,-3.6204584E-2,7.564925E-2,-1.8221653E-1,4.7109988E-1,-1.2615919E-1,-5.045116E-1,-1.3482718E-1,-1.7847802E-1,-3.0979812E-1,-4.1420385E-1,-1.7020744E-1,4.7992628E-2,-3.7399146E-1,4.1878675E-3,2.178315E-1,-1.3018808E-1,-2.5739315E-1,6.83963E-1,3.1341368E-1,1.2737337E-1,-2.1681255E-1,-4.6839148E-1,-5.364079E-1,-1.6985552E-1,8.2474226E-1,-1.4296056E-1,-2.8730196E-1,-2.8602713E-1,-4.189429E-1,-3.3140212E-1,-4.7394997E-1,-1.19563244E-1,-3.693974E-1,7.5252056E-3,1.652701E-1,-4.7799215E-1,-3.2566494E-1,3.933161E-2,-1.7463352E-1,2.6435778E-1,-2.986202E-1,-9.935679E-2,-3.0876458E-1,1.8595904E-1,-2.654952E-1,5.136569E-1,7.5389284E-1,2.4294329E-1,6.4618397E-1,3.3279788E-1,-1.7115805E-1,-4.6110523E-1,-2.0096517E-1,-1.1182709E-1,-1.4587224E-1,-1.7218676E-1,-1.5853888E-1,-6.1668683E-2,2.1428572E-1,2.6315792E-2,3.4615386E-1,-6.9508664E-2,-3.1287976E-2,-5.3036127E-2,-1.0075009E-1,-9.150761E-2,-5.8419485E-2,-9.4124466E-2,-1.3226289E-1,-1.1709524E-1,-2.5048708E-3,-1.4571428E-1,-5.5035125E-2,-2.5555773E-2,-6.802906E-2,6.1349696E-3,-1.14458635E-1,-5.864686E-2,2.1895304E-2,5.828062E-2,-2.6296157E-2,-7.614213E-2,-1.5238915E-1,-8.093672E-2,-1.2632327E-1,2.3711123E-2,-4.6508193E-2,-7.159385E-2,-2.7718054E-2,1.525681E-1,7.044726E-2,-1.1893829E-1,1.6829267E-1,-3.9030932E-2,3.4658627E-3,-6.693008E-2,-1.6376422E-1,1.19925044E-1,-7.1603425E-2,-1.4315501E-1,-7.525557E-2,1.6780011E-1,7.192043E-2,2.0997599E-1,2.640624E-1,1.0931565E-1,4.1209236E-2,2.0162012E-1,-4.4179525E-2,1.2557137E-1,1.41691705E-2,7.04698E-2,-6.590724E-2,-1.5608987E-1,9.118541E-3,-1.06539875E-1,-5.4141354E-2],"categories":[],"categories_nodes":[],"categories_segments":[],"categories_sizes":[],"default_left":[0,0,0,0,0,0,0,0,0,0,0,0,0,0,0,0,1,0,0,0,0,0,0,0,0,0,0,0,0,0,0,0,0,1,0,0,0,0,0,0,0,0,0,0,0,0,0,0,0,0,0,0,0,1,0,0,0,0,0,0,0,1,0,0,0,0,0,0,0,0,0,0,0,0,0,0,0,0,0,0,0,0,0,0,0,0,0,0,0,0,0,0,0,0,0,0,0,0,0,0,0,0,0,0,0,0,0,0,0,0,0,0,0,0,0,0,0,0,0,0,0,0,0,0,0,0,0],"id":4,"left_children":[1,3,5,7,9,11,13,15,17,19,21,23,25,27,29,31,33,35,37,39,41,43,45,47,49,51,53,55,57,59,61,63,65,67,69,71,73,75,77,79,81,83,85,87,89,91,93,95,97,99,101,103,105,107,109,111,113,115,117,119,121,123,125,-1,-1,-1,-1,-1,-1,-1,-1,-1,-1,-1,-1,-1,-1,-1,-1,-1,-1,-1,-1,-1,-1,-1,-1,-1,-1,-1,-1,-1,-1,-1,-1,-1,-1,-1,-1,-1,-1,-1,-1,-1,-1,-1,-1,-1,-1,-1,-1,-1,-1,-1,-1,-1,-1,-1,-1,-1,-1,-1,-1,-1,-1,-1,-1],"loss_changes":[2.3431147E3,3.051875E2,1.1711658E3,2.6697095E2,1.4362613E2,4.5286902E2,7.038319E2,1.3972168E1,4.40307E1,7.594675E1,1.434604E2,1.4580731E2,5.066745E1,2.9304846E2,5.8616432E1,9.794434E0,3.6801157E0,1.3260132E1,2.5722961E1,1.0723541E1,3.0668396E1,1.9163338E1,4.9026947E0,6.0032192E1,1.1541705E2,4.2158493E1,1.9090302E1,4.388208E1,1.17583954E2,4.1270264E1,7.1782837E0,6.812439E0,1.0760498E0,3.380841E0,8.399067E-1,8.884872E0,4.4770584E0,1.4132629E1,3.966858E0,1.760508E1,4.269043E0,8.931587E0,2.9243164E0,3.992483E1,7.614641E0,2.0021439E0,3.5664597E0,6.1621033E1,8.237793E0,3.164215E1,3.3624954E1,2.2289803E1,2.2784912E1,8.785222E0,1.601831E1,1.3443298E1,1.7334717E1,5.3096207E1,1.8106537E1,9.739643E0,5.463169E0,3.3220615E0,5.513962E0,0E0,0E0,0E0,0E0,0E0,0E0,0E0,0E0,0E0,0E0,0E0,0E0,0E0,0E0,0E0,0E0,0E0,0E0,0E0,0E0,0E0,0E0,0E0,0E0,0E0,0E0,0E0,0E0,0E0,0E0,0E0,0E0,0E0,0E0,0E0,0E0,0E0,0E0,0E0,0E0,0E0,0E0,0E0,0E0,0E0,0E0,0E0,0E0,0E0,0E0,0E0,0E0,0E0,0E0,0E0,0E0,0E0,0E0,0E0,0E0,0E0,0E0,0E0,0E0],"parents":[2147483647,0,0,1,1,2,2,3,3,4,4,5,5,6,6,7,7,8,8,9,9,10,10,11,11,12,12,13,13,14,14,15,15,16,16,17,17,18,18,19,19,20,20,21,21,22,22,23,23,24,24,25,25,26,26,27,27,28,28,29,29,30,30,31,31,32,32,33,33,34,34,35,35,36,36,37,37,38,38,39,39,40,40,41,41,42,42,43,43,44,44,45,45,46,46,47,47,48,48,49,49,50,50,51,51,52,52,53,53,54,54,55,55,56,56,57,57,58,58,59,59,60,60,61,61,62,62],"right_children":[2,4,6,8,10,12,14,16,18,20,22,24,26,28,30,32,34,36,38,40,42,44,46,48,50,52,54,56,58,60,62,64,66,68,70,72,74,76,78,80,82,84,86,88,90,92,94,96,98,100,102,104,106,108,110,112,114,116,118,120,122,124,126,-1,-1,-1,-1,-1,-1,-1,-1,-1,-1,-1,-1,-1,-1,-1,-1,-1,-1,-1,-1,-1,-1,-1,-1,-1,-1,-1,-1,-1,-1,-1,-1,-1,-1,-1,-1,-1,-1,-1,-1,-1,-1,-1,-1,-1,-1,-1,-1,-1,-1,-1,-1,-1,-1,-1,-1,-1,-1,-1,-1,-1,-1,-1,-1],"split_conditions":[1.26133E5,7E0,7E0,2E0,3.8259E4,4E0,9E0,6.1525E4,4E0,1.2E1,9E0,6E0,8E0,1E0,4E0,9E0,2.0038583E0,8E0,1.5E1,4E0,1E1,3.4E1,1.1E1,8E0,1.07889E5,1.07259E5,9.16E2,8E0,1.0821E5,7.1291E4,1.38533E5,3E0,1.733E4,8.084617E-1,3E0,3.4E1,2.4101E4,2.33982E5,8E0,8E0,3.4E1,8E0,7.247E3,8E0,1E1,3E0,9E0,2.40204E5,9.5386E4,5.9832E4,1.11598E5,4E0,2.63873E5,1.4752448E-2,1.33497E5,2.32147E5,2.18752E5,4E0,1.1118E5,8E0,-1.7104676E0,1.9766853E0,6E0,-1.1182709E-1,-1.4587224E-1,-1.7218676E-1,-1.5853888E-1,-6.1668683E-2,2.1428572E-1,2.6315792E-2,3.4615386E-1,-6.9508664E-2,-3.1287976E-2,-5.3036127E-2,-1.0075009E-1,-9.150761E-2,-5.8419485E-2,-9.4124466E-2,-1.3226289E-1,-1.1709524E-1,-2.5048708E-3,-1.4571428E-1,-5.5035125E-2,-2.5555773E-2,-6.802906E-2,6.1349696E-3,-1.14458635E-1,-5.864686E-2,2.1895304E-2,5.828062E-2,-2.6296157E-2,-7.614213E-2,-1.5238915E-1,-8.093672E-2,-1.2632327E-1,2.3711123E-2,-4.6508193E-2,-7.159385E-2,-2.7718054E-2,1.525681E-1,7.044726E-2,-1.1893829E-1,1.6829267E-1,-3.9030932E-2,3.4658627E-3,-6.693008E-2,-1.6376422E-1,1.19925044E-1,-7.1603425E-2,-1.4315501E-1,-7.525557E-2,1.6780011E-1,7.192043E-2,2.0997599E-1,2.640624E-1,1.0931565E-1,4.1209236E-2,2.0162012E-1,-4.4179525E-2,1.2557137E-1,1.41691705E-2,7.04698E-2,-6.590724E-2,-1.5608987E-1,9.118541E-3,-1.06539875E-1,-5.4141354E-2],"split_indices":[11,1,1,18,14,8,2,14,8,18,2,2,8,15,8,2,20,2,8,8,8,18,18,3,14,14,13,1,13,14,11,8,11,27,6,18,14,10,7,1,16,2,10,1,8,8,3,11,14,14,14,2,11,36,11,11,11,8,13,3,19,19,3,0,0,0,0,0,0,0,0,0,0,0,0,0,0,0,0,0,0,0,0,0,0,0,0,0,0,0,0,0,0,0,0,0,0,0,0,0,0,0,0,0,0,0,0,0,0,0,0,0,0,0,0,0,0,0,0,0,0,0,0,0,0,0,0],"split_type":[0,0,0,0,0,0,0,0,0,0,0,0,0,0,0,0,0,0,0,0,0,0,0,0,0,0,0,0,0,0,0,0,0,0,0,0,0,0,0,0,0,0,0,0,0,0,0,0,0,0,0,0,0,0,0,0,0,0,0,0,0,0,0,0,0,0,0,0,0,0,0,0,0,0,0,0,0,0,0,0,0,0,0,0,0,0,0,0,0,0,0,0,0,0,0,0,0,0,0,0,0,0,0,0,0,0,0,0,0,0,0,0,0,0,0,0,0,0,0,0,0,0,0,0,0,0,0],"sum_hessian":[7.110273E4,3.2507521E4,3.8595203E4,2.2223041E4,1.028448E4,2.7311041E4,1.1284161E4,8.823041E3,1.3400001E4,5.2419204E3,5.0425605E3,1.4349441E4,1.2961601E4,8.736001E3,2.5481602E3,8.718721E3,1.0432001E2,3.4403203E3,9.959681E3,2.1984001E3,3.0435203E3,4.0371204E3,1.00544006E3,9.5504E3,4.7990405E3,7.6617607E3,5.2998403E3,3.7161602E3,5.0198403E3,6.7104004E2,1.8771201E3,4.0960005E3,4.62272E3,1.0144001E2,2.88E0,2.5955203E3,8.4480005E2,8.1814404E3,1.7782401E3,9.241601E2,1.2742401E3,2.42784E3,6.1568005E2,3.0022402E3,1.0348801E3,3.1616003E2,6.8928E2,7.9824004E3,1.5680001E3,4.4028804E3,3.9616003E2,6.5350405E3,1.1267201E3,9.472001E1,5.2051206E3,1.08416E3,2.6320002E3,4.1440005E3,8.758401E2,3.9744003E2,2.736E2,1.1264001E2,1.7644801E3,6.4768005E2,3.4483203E3,7.9488007E2,3.8278403E3,9.8240005E1,3.2000003E0,1.2800001E0,1.6000001E0,7.8624005E2,1.8092802E3,2.592E2,5.8560004E2,6.7702407E3,1.4112001E3,3.0944003E2,1.4688E3,7.8144006E2,1.4272002E2,1.2240001E3,5.024E1,1.8396802E3,5.8816003E2,1.8560001E1,5.9712006E2,7.315201E2,2.2707202E3,9.286401E2,1.06240005E2,3.84E1,2.7776E2,4.3712003E2,2.5216002E2,6.6288003E3,1.3536001E3,8.806401E2,6.8736005E2,4.7328003E2,3.9296003E3,3.5616003E2,4.0000004E1,5.1164805E3,1.41856E3,8.2912006E2,2.976E2,6.3040005E1,3.1680002E1,3.3472003E2,4.8704004E3,9.2832007E2,1.5584001E2,1.8486401E3,7.8336005E2,1.9260801E3,2.2179202E3,8.4832007E2,2.7520002E1,3.0528003E2,9.216E1,2.8800001E1,2.4480002E2,1.0048E2,1.2160001E1,2.0512001E2,1.5593601E3],"tree_param":{"num_deleted":"0","num_feature":"39","num_nodes":"127","size_leaf_vector":"1"}},{"base_weights":[-2.1226855E-3,-1.0804641E-1,1.1366306E-1,-2.8232342E-2,-2.716756E-1,1.0032892E-1,8.677429E-1,-4.773584E-2,6.4960986E-1,-3.7925532E-1,-1.6619657E-1,-3.9462772E-1,1.182001E-1,-1.08666666E-1,9.306702E-1,-1.14131786E-1,3.94601E-2,1.7570582E-1,8.286026E-1,-2.5795043E-1,-4.415068E-1,-1.808103E-1,2.639314E-1,-4.2613965E-1,-2.7883872E-1,3.0591086E-1,9.412482E-2,-2.1726736E-1,4.6282202E-1,1.0569507E0,5.9172267E-1,-5.2112713E-2,-2.0724896E-1,1.1262339E-1,-5.8333214E-2,5.2618456E-1,-4.9120918E-2,-6.643781E-2,8.609855E-1,1.6592894E-1,-2.643127E-1,-4.676138E-1,-1.14083745E-1,-2.0805506E-1,-5.3532805E-2,5.031384E-1,-5.504406E-3,-2.8955346E-1,-4.4285366E-1,-3.96659E-1,-1.6779508E-1,4.479428E-1,1.5547563E-1,2.7625218E-2,1.4764892E-1,7.166275E-1,-3.4992957E-1,4.3421847E-1,-8.6167544E-2,-8.236779E-2,1.0713027E0,7.054894E-1,1.746377E-1,-2.8649678E-2,1.9598566E-2,-2.305334E-2,-7.7908196E-2,1.454747E-2,3.6406633E-1,-7.1131594E-2,1.9965693E-3,-6.759843E-2,1.9273351E-1,1.00332715E-1,-3.958719E-2,1.674515E-1,-7.7490255E-2,2.7175784E-1,5.285442E-2,-4.2937625E-2,1.464732E-1,-8.150816E-2,2.6534608E-2,1.9538899E-1,-1.408807E-1,1.3124363E-1,-4.78427E-2,-7.914021E-2,-5.421417E-2,-1.5885289E-1,-9.448509E-3,8.7345004E-2,2.6965174E-1,-2.6028752E-2,3.0457604E-1,-9.599882E-2,1.4644144E-1,-1.4082558E-1,-1.0773086E-1,-1.2735415E-1,1.2990838E-1,-1.053684E-1,-6.2110783E-3,8.385701E-2,3.319139E-1,9.003015E-2,-1.301052E-2,2.3187332E-2,-2.3987437E-2,5.9883397E-2,1.8676762E-2,4.0895E-1,-1.663403E-2,-1.3198906E-1,1.1431131E-1,1.4762379E-1,-1.3359605E-1,1.8741761E-1,-1.5985882E-1,3.263209E-1,6.6561356E-2,2.2694029E-1,-8.010532E-2,1.3155949E-1,-1.1884757E-1],"categories":[],"categories_nodes":[],"categories_segments":[],"categories_sizes":[],"default_left":[0,0,0,0,0,0,0,0,0,0,0,0,0,0,0,0,0,0,0,0,0,0,0,0,0,0,0,0,0,0,0,0,0,0,0,0,0,0,0,0,0,0,0,0,0,0,1,0,1,0,0,0,0,0,0,0,0,0,0,0,0,1,0,0,0,0,0,0,0,0,0,0,0,0,0,0,0,0,0,0,0,0,0,0,0,0,0,0,0,0,0,0,0,0,0,0,0,0,0,0,0,0,0,0,0,0,0,0,0,0,0,0,0,0,0,0,0,0,0,0,0,0,0,0,0],"id":5,"left_children":[1,3,5,7,9,11,13,15,17,19,21,23,25,27,29,31,33,35,37,39,41,43,45,47,49,51,53,55,57,59,61,63,65,67,69,71,73,75,77,79,81,83,85,87,89,91,93,95,97,99,101,103,105,107,109,111,113,-1,115,117,119,121,123,-1,-1,-1,-1,-1,-1,-1,-1,-1,-1,-1,-1,-1,-1,-1,-1,-1,-1,-1,-1,-1,-1,-1,-1,-1,-1,-1,-1,-1,-1,-1,-1,-1,-1,-1,-1,-1,-1,-1,-1,-1,-1,-1,-1,-1,-1,-1,-1,-1,-1,-1,-1,-1,-1,-1,-1,-1,-1,-1,-1,-1,-1],"loss_changes":[8.5991156E2,4.7819983E2,3.3673218E2,3.2541785E2,1.3615991E2,2.9121048E2,3.5855072E1,1.3851862E2,5.8251617E1,4.4759644E1,3.8160538E1,4.067444E0,1.4354788E2,2.342762E0,2.2778076E1,7.8431E1,7.4011925E1,1.4997763E1,1.4532837E1,5.485321E0,3.3503662E1,2.0325592E1,1.2869855E1,1.9263458E0,3.1825047E0,7.708807E1,1.0022775E2,4.0962443E0,3.415668E0,6.581238E0,7.027008E0,4.1554478E1,3.7114273E1,4.1771643E2,5.1437737E1,6.6398487E0,3.751001E0,2.345286E0,1.4654205E1,3.1032734E0,5.20105E0,8.394775E0,7.360937E0,7.314438E0,1.0843995E1,8.610203E0,7.957692E0,2.5476656E0,1.6112366E0,2.9515648E0,3.4889576E0,2.0561066E2,5.0489304E1,6.711281E1,6.921765E1,2.1665375E0,2.0005028E0,0E0,1.2269406E0,2.2022593E0,5.233734E0,6.0552635E0,5.238341E0,0E0,0E0,0E0,0E0,0E0,0E0,0E0,0E0,0E0,0E0,0E0,0E0,0E0,0E0,0E0,0E0,0E0,0E0,0E0,0E0,0E0,0E0,0E0,0E0,0E0,0E0,0E0,0E0,0E0,0E0,0E0,0E0,0E0,0E0,0E0,0E0,0E0,0E0,0E0,0E0,0E0,0E0,0E0,0E0,0E0,0E0,0E0,0E0,0E0,0E0,0E0,0E0,0E0,0E0,0E0,0E0,0E0,0E0,0E0,0E0,0E0,0E0],"parents":[2147483647,0,0,1,1,2,2,3,3,4,4,5,5,6,6,7,7,8,8,9,9,10,10,11,11,12,12,13,13,14,14,15,15,16,16,17,17,18,18,19,19,20,20,21,21,22,22,23,23,24,24,25,25,26,26,27,27,28,28,29,29,30,30,31,31,32,32,33,33,34,34,35,35,36,36,37,37,38,38,39,39,40,40,41,41,42,42,43,43,44,44,45,45,46,46,47,47,48,48,49,49,50,50,51,51,52,52,53,53,54,54,55,55,56,56,58,58,59,59,60,60,61,61,62,62],"right_children":[2,4,6,8,10,12,14,16,18,20,22,24,26,28,30,32,34,36,38,40,42,44,46,48,50,52,54,56,58,60,62,64,66,68,70,72,74,76,78,80,82,84,86,88,90,92,94,96,98,100,102,104,106,108,110,112,114,-1,116,118,120,122,124,-1,-1,-1,-1,-1,-1,-1,-1,-1,-1,-1,-1,-1,-1,-1,-1,-1,-1,-1,-1,-1,-1,-1,-1,-1,-1,-1,-1,-1,-1,-1,-1,-1,-1,-1,-1,-1,-1,-1,-1,-1,-1,-1,-1,-1,-1,-1,-1,-1,-1,-1,-1,-1,-1,-1,-1,-1,-1,-1,-1,-1,-1],"split_conditions":[5E0,7E0,2.63873E5,2.63873E5,4E0,1E0,3.8255E4,3E0,1.07259E5,8E0,1.04832E5,2.8E1,4E0,5.5E1,9.8082E4,4E0,5.9701E4,7.3998E4,1E0,7.629E3,8E0,9E0,9.9204E4,2.3E1,1.2485311E0,6.1023E4,8E0,-6.554787E-1,-2.6751006E-1,-8.3312184E-1,9.9204E4,6.3E1,4E0,5.9149E4,5.4325E4,5.8714E4,9.9204E4,3.3E1,4E0,2.8294075E-1,1.02573E5,1E0,1.5575E4,1.0235E5,1E0,4E0,2.0719736E0,1.09914E5,1.3974619E-1,7.166608E-1,1.22343E5,5.8853E4,2E0,7E0,9E0,-3.6047357E-1,2.61435E5,4.3421847E-1,8E0,-1.3863993E-1,8E0,6.318672E-1,2.64923E5,-2.8649678E-2,1.9598566E-2,-2.305334E-2,-7.7908196E-2,1.454747E-2,3.6406633E-1,-7.1131594E-2,1.9965693E-3,-6.759843E-2,1.9273351E-1,1.00332715E-1,-3.958719E-2,1.674515E-1,-7.7490255E-2,2.7175784E-1,5.285442E-2,-4.2937625E-2,1.464732E-1,-8.150816E-2,2.6534608E-2,1.9538899E-1,-1.408807E-1,1.3124363E-1,-4.78427E-2,-7.914021E-2,-5.421417E-2,-1.5885289E-1,-9.448509E-3,8.7345004E-2,2.6965174E-1,-2.6028752E-2,3.0457604E-1,-9.599882E-2,1.4644144E-1,-1.4082558E-1,-1.0773086E-1,-1.2735415E-1,1.2990838E-1,-1.053684E-1,-6.2110783E-3,8.385701E-2,3.319139E-1,9.003015E-2,-1.301052E-2,2.3187332E-2,-2.3987437E-2,5.9883397E-2,1.8676762E-2,4.0895E-1,-1.663403E-2,-1.3198906E-1,1.1431131E-1,1.4762379E-1,-1.3359605E-1,1.8741761E-1,-1.5985882E-1,3.263209E-1,6.6561356E-2,2.2694029E-1,-8.010532E-2,1.3155949E-1,-1.1884757E-1],"split_indices":[8,1,11,11,18,6,10,8,14,1,14,7,1,18,10,4,13,14,1,11,2,2,10,7,19,13,8,23,24,28,10,16,1,13,14,14,10,18,1,25,14,8,13,11,6,8,19,13,28,32,10,13,1,1,3,28,0,0,3,38,2,29,11,0,0,0,0,0,0,0,0,0,0,0,0,0,0,0,0,0,0,0,0,0,0,0,0,0,0,0,0,0,0,0,0,0,0,0,0,0,0,0,0,0,0,0,0,0,0,0,0,0,0,0,0,0,0,0,0,0,0,0,0,0,0],"split_type":[0,0,0,0,0,0,0,0,0,0,0,0,0,0,0,0,0,0,0,0,0,0,0,0,0,0,0,0,0,0,0,0,0,0,0,0,0,0,0,0,0,0,0,0,0,0,0,0,0,0,0,0,0,0,0,0,0,0,0,0,0,0,0,0,0,0,0,0,0,0,0,0,0,0,0,0,0,0,0,0,0,0,0,0,0,0,0,0,0,0,0,0,0,0,0,0,0,0,0,0,0,0,0,0,0,0,0,0,0,0,0,0,0,0,0,0,0,0,0,0,0,0,0,0,0],"sum_hessian":[7.011211E4,3.661544E4,3.3496664E4,2.4611678E4,1.2003766E4,3.2915758E4,5.809054E2,2.3924236E4,6.874405E2,5.94142E3,6.062346E3,1.1463237E3,3.1769436E4,3.512728E1,5.457781E2,1.3581897E4,1.0342339E4,1.8900623E2,4.9843427E2,2.0167225E3,3.9246975E3,5.8637046E3,1.9864157E2,8.9898505E2,2.4733865E2,3.6101362E3,2.8159299E4,3.0038794E1,5.0884867E0,3.960899E2,1.4968817E2,8.1531763E3,5.4287217E3,5.916102E3,4.4262363E3,7.333895E1,1.1566728E2,1.7367153E1,4.810671E2,2.9451824E1,1.9872708E3,3.6344753E3,2.9022195E2,4.8293164E3,1.0343881E3,1.04763985E2,9.387759E1,1.0001235E2,7.989727E2,1.1875952E2,1.2857913E2,1.8559148E3,1.7542214E3,1.2558206E4,1.5601093E4,3.1888096E0,2.6849985E1,1.2357638E0,3.852723E0,4.8685117E0,3.912214E2,1.1706523E2,3.2622944E1,5.9538413E3,2.199335E3,1.5577767E3,3.8709448E3,5.591432E3,3.2467007E2,1.1793628E3,3.2468738E3,9.69995E0,6.3638996E1,2.0003988E1,9.56633E1,3.6324635E0,1.3734691E1,4.511794E2,2.9887718E1,1.5319011E1,1.41328125E1,1.9467667E3,4.050408E1,5.868502E0,3.628607E3,2.141142E1,2.6881055E2,1.5863256E3,3.2429907E3,4.4753994E1,9.896341E2,6.934802E1,3.5415966E1,8.780298E1,6.0746117E0,9.681122E1,3.2011273E0,6.0307764E2,1.9589508E2,1.1537443E2,3.3850877E0,5.6603264E1,7.197587E1,1.4790244E3,3.768904E2,1.0152745E3,7.3894696E2,8.591991E3,3.9662144E3,9.698272E3,5.9028203E3,1.3188268E0,1.8699827E0,2.4259968E1,2.5900168E0,1.3343177E0,2.5184052E0,1.7441517E0,3.1243598E0,3.8352106E2,7.7003593E0,1.1144549E2,5.61975E0,2.24674E1,1.0155543E1],"tree_param":{"num_deleted":"0","num_feature":"39","num_nodes":"125","size_leaf_vector":"1"}},{"base_weights":[6.406043E-1,7.7884734E-1,5.347116E-1,8.8641816E-1,6.827979E-1,3.5793722E-1,5.741414E-1,1.119873E0,8.7192976E-1,1.0490869E0,6.6611487E-1,3.898585E-1,4.969078E-2,1.1956774E0,5.637705E-1,1.0341433E0,1.1853104E0,8.3726543E-1,9.406126E-1,1.1709666E0,9.8608357E-1,8.789034E-1,6.473707E-1,-6.845958E-3,4.2199397E-1,1.2852378E-1,-6.2219523E-2,1.2689216E0,7.631307E-1,5.083803E-1,6.421695E-1,1.0954854E0,7.493392E-1,7.16697E-1,1.1942526E0,9.490847E-1,8.090147E-1,9.7459084E-1,8.2857704E-1,1.2620615E0,1.0276393E0,1.1130612E0,9.183934E-1,1.0431298E0,7.9801893E-1,6.0672426E-1,7.493946E-1,-3.7000075E-2,6.693502E-1,4.0402585E-1,5.7978123E-1,1.0013215E-1,5.2372694E-1,4.8209774E-1,-9.9262655E-2,1.3635252E0,1.0410117E0,1.3283162E0,6.2896633E-1,4.5928556E-1,6.445256E-1,7.2653097E-1,5.402661E-1,3.3031094E-1,-2.3698641E-2,1.9237132E-1,3.6820745E-1,3.8044035E-2,3.3303735E-1,1.8047241E-2,3.5898155E-1,3.3946913E-1,2.7471238E-1,2.3391445E-1,2.8120306E-1,2.8037733E-1,3.2800546E-1,2.3950243E-1,3.216526E-1,7.17404E-2,3.814086E-1,4.935895E-3,3.1519136E-1,5.1625226E-2,3.3819142E-1,1.8680377E-1,2.9467243E-1,1.6340245E-1,3.2795364E-1,1.8762656E-1,2.5317645E-1,1.7093351E-1,2.2179614E-1,2.0401536E-1,2.8457278E-1,2.3436637E-1,-1.4902847E-2,2.6610428E-1,-9.9847585E-2,8.352392E-2,1.2913015E-1,3.7719563E-1,1.6282322E-1,2.0415682E-2,1.2725127E-1,-1.4523365E-1,2.0011082E-1,6.754015E-3,3.1733954E-1,-3.9784413E-2,1.14014946E-1,-1.0861085E-3,4.106461E-1,1.6083486E-1,3.3474612E-1,4.3795085E-1,-1.0392707E-1,2.559293E-1,7.835454E-2,1.290084E-1,1.8425691E-1,5.015599E-1,1.8208845E-1,2.5701338E-1,1.8194371E-1,3.1593952E-1,1.5807107E-1],"categories":[],"categories_nodes":[],"categories_segments":[],"categories_sizes":[],"default_left":[0,0,0,0,0,0,0,0,0,0,0,0,0,0,0,0,0,0,0,0,0,0,0,0,0,0,0,0,0,0,0,1,1,1,0,0,0,0,0,0,0,0,0,0,0,0,0,0,0,0,0,1,0,0,0,0,0,0,0,0,0,0,0,0,0,0,0,0,0,0,0,0,0,0,0,0,0,0,0,0,0,0,0,0,0,0,0,0,0,0,0,0,0,0,0,0,0,0,0,0,0,0,0,0,0,0,0,0,0,0,0,0,0,0,0,0,0,0,0,0,0,0,0,0,0,0,0],"id":6,"left_children":[1,3,5,7,9,11,13,15,17,19,21,23,25,27,29,31,33,35,37,39,41,43,45,47,49,51,53,55,57,59,61,63,65,67,69,71,73,75,77,79,81,83,85,87,89,91,93,95,97,99,101,103,105,107,109,111,113,115,117,119,121,123,125,-1,-1,-1,-1,-1,-1,-1,-1,-1,-1,-1,-1,-1,-1,-1,-1,-1,-1,-1,-1,-1,-1,-1,-1,-1,-1,-1,-1,-1,-1,-1,-1,-1,-1,-1,-1,-1,-1,-1,-1,-1,-1,-1,-1,-1,-1,-1,-1,-1,-1,-1,-1,-1,-1,-1,-1,-1,-1,-1,-1,-1,-1,-1,-1],"loss_changes":[1.2636211E3,3.863418E2,3.4062012E2,5.876465E1,1.20228516E2,8.775305E1,2.5702344E2,4.5445557E0,3.8817383E1,5.451538E0,7.493457E1,1.0304834E2,7.4030256E0,1.9790588E1,1.7044043E2,7.094818E0,1.5598145E0,3.418506E1,2.0402344E1,2.4612732E0,3.9069214E0,1.9487183E1,7.1706055E1,1.2395372E1,2.096521E1,5.469364E0,7.046663E0,1.0629883E1,6.5497475E0,1.5376074E2,1.3953564E2,2.5033264E0,3.5256958E0,2.9447556E0,1.4332886E0,1.2520142E1,3.250586E1,1.9259033E1,8.742554E0,1.3285217E0,2.7091599E0,2.4154205E0,6.5590515E0,1.1916443E1,7.6259766E0,6.0564453E1,6.776953E1,6.072565E0,5.9563875E0,2.2159058E1,1.844284E1,4.7567496E0,5.0528145E0,5.8731484E0,5.258974E0,2.840454E0,5.753067E0,4.423073E0,6.421997E0,7.65249E1,2.3462769E2,1.3860498E2,4.999341E1,0E0,0E0,0E0,0E0,0E0,0E0,0E0,0E0,0E0,0E0,0E0,0E0,0E0,0E0,0E0,0E0,0E0,0E0,0E0,0E0,0E0,0E0,0E0,0E0,0E0,0E0,0E0,0E0,0E0,0E0,0E0,0E0,0E0,0E0,0E0,0E0,0E0,0E0,0E0,0E0,0E0,0E0,0E0,0E0,0E0,0E0,0E0,0E0,0E0,0E0,0E0,0E0,0E0,0E0,0E0,0E0,0E0,0E0,0E0,0E0,0E0,0E0,0E0,0E0],"parents":[2147483647,0,0,1,1,2,2,3,3,4,4,5,5,6,6,7,7,8,8,9,9,10,10,11,11,12,12,13,13,14,14,15,15,16,16,17,17,18,18,19,19,20,20,21,21,22,22,23,23,24,24,25,25,26,26,27,27,28,28,29,29,30,30,31,31,32,32,33,33,34,34,35,35,36,36,37,37,38,38,39,39,40,40,41,41,42,42,43,43,44,44,45,45,46,46,47,47,48,48,49,49,50,50,51,51,52,52,53,53,54,54,55,55,56,56,57,57,58,58,59,59,60,60,61,61,62,62],"right_children":[2,4,6,8,10,12,14,16,18,20,22,24,26,28,30,32,34,36,38,40,42,44,46,48,50,52,54,56,58,60,62,64,66,68,70,72,74,76,78,80,82,84,86,88,90,92,94,96,98,100,102,104,106,108,110,112,114,116,118,120,122,124,126,-1,-1,-1,-1,-1,-1,-1,-1,-1,-1,-1,-1,-1,-1,-1,-1,-1,-1,-1,-1,-1,-1,-1,-1,-1,-1,-1,-1,-1,-1,-1,-1,-1,-1,-1,-1,-1,-1,-1,-1,-1,-1,-1,-1,-1,-1,-1,-1,-1,-1,-1,-1,-1,-1,-1,-1,-1,-1,-1,-1,-1,-1,-1,-1],"split_conditions":[1.14297E5,4E0,4E0,1E0,1E0,2.63873E5,1E0,9E0,8.5512E4,6E0,4.399E3,5.5292E4,5E0,6E0,3E0,8E0,8.788E3,1.0718E4,1.05599E5,9.130948E-1,1.01E4,4.456E4,9.033E4,1.7E1,9E0,7.9501E4,-5.848024E-1,5E0,-1.8160278E-1,9E0,6E0,1.5090921E0,1.4593405E-1,-4.6863312E-1,-8.8145196E-1,8.306E3,9E0,9.6957E4,5.6723E4,2.17E3,-2.2033268E-1,-1.4634306E0,1.9104E4,1E1,1.6225E4,9E0,9.3748E4,-1.8554838E0,7.3E1,1.1479E4,1E1,7.257687E-1,-3.6468613E-1,7.6373E4,9E0,-7.3721755E-1,8E0,5.3017443E-1,9.6793E4,8E0,1E1,2.8E1,9.16E2,3.3031094E-1,-2.3698641E-2,1.9237132E-1,3.6820745E-1,3.8044035E-2,3.3303735E-1,1.8047241E-2,3.5898155E-1,3.3946913E-1,2.7471238E-1,2.3391445E-1,2.8120306E-1,2.8037733E-1,3.2800546E-1,2.3950243E-1,3.216526E-1,7.17404E-2,3.814086E-1,4.935895E-3,3.1519136E-1,5.1625226E-2,3.3819142E-1,1.8680377E-1,2.9467243E-1,1.6340245E-1,3.2795364E-1,1.8762656E-1,2.5317645E-1,1.7093351E-1,2.2179614E-1,2.0401536E-1,2.8457278E-1,2.3436637E-1,-1.4902847E-2,2.6610428E-1,-9.9847585E-2,8.352392E-2,1.2913015E-1,3.7719563E-1,1.6282322E-1,2.0415682E-2,1.2725127E-1,-1.4523365E-1,2.0011082E-1,6.754015E-3,3.1733954E-1,-3.9784413E-2,1.14014946E-1,-1.0861085E-3,4.106461E-1,1.6083486E-1,3.3474612E-1,4.3795085E-1,-1.0392707E-1,2.559293E-1,7.835454E-2,1.290084E-1,1.8425691E-1,5.015599E-1,1.8208845E-1,2.5701338E-1,1.8194371E-1,3.1593952E-1,1.5807107E-1],"split_indices":[11,18,1,6,6,11,4,2,11,1,14,14,8,1,4,1,10,14,11,22,14,10,13,8,3,13,28,8,28,3,2,25,32,25,30,13,3,11,14,0,37,23,14,7,11,3,11,21,16,13,3,23,28,14,3,38,7,30,14,1,3,18,13,0,0,0,0,0,0,0,0,0,0,0,0,0,0,0,0,0,0,0,0,0,0,0,0,0,0,0,0,0,0,0,0,0,0,0,0,0,0,0,0,0,0,0,0,0,0,0,0,0,0,0,0,0,0,0,0,0,0,0,0,0,0,0,0],"split_type":[0,0,0,0,0,0,0,0,0,0,0,0,0,0,0,0,0,0,0,0,0,0,0,0,0,0,0,0,0,0,0,0,0,0,0,0,0,0,0,0,0,0,0,0,0,0,0,0,0,0,0,0,0,0,0,0,0,0,0,0,0,0,0,0,0,0,0,0,0,0,0,0,0,0,0,0,0,0,0,0,0,0,0,0,0,0,0,0,0,0,0,0,0,0,0,0,0,0,0,0,0,0,0,0,0,0,0,0,0,0,0,0,0,0,0,0,0,0,0,0,0,0,0,0,0,0,0],"sum_hessian":[8.634656E4,3.7449656E4,4.8896902E4,1.766144E4,1.9788217E4,8.919312E3,3.9977594E4,1.0275763E3,1.6633863E4,8.593201E2,1.8928896E4,8.082085E3,8.372271E2,6.542377E2,3.9323355E4,4.5209204E2,5.7548425E2,1.1063361E4,5.5705024E3,2.86841E2,5.724791E2,1.5287089E3,1.7400188E4,6.0569666E2,7.476388E3,4.9111935E2,3.4610776E2,5.578431E2,9.639459E1,2.3047432E4,1.6275922E4,3.696327E2,8.2459366E1,1.2295336E1,5.631889E2,2.2247983E3,8.8385625E3,4.268308E3,1.3021943E3,1.7060423E2,1.16236755E2,1.9369339E2,3.7878577E2,5.0053494E2,1.028174E3,1.2447882E4,4.9523057E3,5.807444E2,2.4952284E1,6.715246E3,7.611422E2,4.5937122E2,3.1748127E1,2.1287762E1,3.2482E2,3.9068863E2,1.6715443E2,1.6784979E1,7.960961E1,1.6942314E4,6.105117E3,8.901014E3,7.3749077E3,3.6795615E2,1.6765265E0,6.916052E1,1.3298844E1,5.448494E0,6.846842E0,1.2208189E0,5.619681E2,3.3892273E2,1.8858757E3,7.2014224E3,1.6371404E3,3.199541E3,1.0687673E3,1.1622163E3,1.3997807E2,1.777838E0,1.688264E2,2.6230683E0,1.1361369E2,3.0832458E0,1.9061015E2,6.917094E1,3.096148E2,4.675624E1,4.537787E2,2.190716E2,8.091023E2,9.739435E3,2.708447E3,3.676704E3,1.2756016E3,7.9348135E0,5.728096E2,2.059429E1,4.357993E0,1.1685297E3,5.5467163E3,3.7743145E1,7.2339905E2,4.1909113E2,4.0280075E1,3.6563435E0,2.8091784E1,1.241551E1,8.872251E0,3.043647E2,2.0455313E1,1.508574E0,3.8918005E2,2.2624537E1,1.445299E2,1.5681784E1,1.1031941E0,4.864522E1,3.0964392E1,1.4253885E4,2.6884307E3,2.1382101E2,5.891296E3,4.2674263E3,4.633588E3,1.8529553E2,7.1896123E3],"tree_param":{"num_deleted":"0","num_feature":"39","num_nodes":"127","size_leaf_vector":"1"}},{"base_weights":[-3.9253002E-1,-3.768793E-1,-4.8276216E-1,-3.5667568E-1,-4.1323242E-1,-5.452261E-1,-4.1553497E-1,-4.9798015E-1,-3.529098E-1,-4.400463E-1,-3.914287E-1,-5.5786264E-1,-3.995148E-1,-5.0708765E-1,-4.0718767E-1,-5.034194E-1,-2.676702E-1,-2.6011616E-1,-3.5668984E-1,-4.518813E-1,-4.0791553E-1,-2.8119996E-1,-3.955577E-1,-3.731919E-1,-5.6187433E-1,-1.4608018E-1,-4.1756538E-1,3.303921E-2,-5.0941193E-1,-5.0092834E-1,-4.003287E-1,-5.053682E-1,4.482034E-2,-3.4168547E-1,2.0196083E-1,-4.3077177E-1,-2.2760215E-1,-3.267175E-1,-3.666882E-1,-4.3292314E-1,-4.7587255E-1,-4.115368E-1,-4.767684E-2,-3.0529195E-1,1.415209E-1,-4.1048095E-1,-3.6717814E-1,1.4830627E-1,-4.103202E-1,-2.2659843E-1,-5.624697E-1,3.0472547E-1,-2.3814522E-1,-4.2586774E-1,1.2354005E-1,-2.0725988E-1,-5.15711E-1,1.3012952E-1,-5.072145E-1,-3.835126E-1,-4.427946E-1,-1.5441725E-1,-1.1108606E-1,1.877282E-1,-1.17812805E-1,1.4625277E-1,-1.2647709E-1,1.497449E-1,-1.3404997E-1,-3.620562E-2,-8.582903E-2,-1.0838765E-1,-8.965152E-2,-1.1669961E-1,-1.0512491E-1,-8.4978566E-2,-1.3125439E-1,-6.9979906E-2,-1.4383003E-1,-1.04220696E-1,-1.270619E-1,-6.469924E-2,3.282228E-1,-9.846918E-2,6.1623868E-2,2.4375439E-1,-4.3801807E-2,-1.2382014E-1,-6.2243067E-2,-1.1143529E-1,-5.975705E-2,-1.4138263E-1,2.7031875E-1,1.0866178E-1,-1.3120937E-1,-1.5564069E-1,1.6735241E-1,-6.441936E-2,-1.6892189E-1,2.2924101E-2,-1.4772378E-1,-1.0711217E-1,-1.4961168E-1,3.109583E-1,-8.795038E-2,-1.5339038E-1,1.6530466E-1,-1.5541871E-1,2.4092594E-2,1.835066E-1,-1.05661616E-1,-1.5561491E-1,-4.9404755E-2,-1.1551761E-1,5.9721224E-2,-1.3511105E-1,-6.597393E-2],"categories":[],"categories_nodes":[],"categories_segments":[],"categories_sizes":[],"default_left":[0,0,0,0,0,0,0,1,0,0,0,0,0,0,0,1,0,0,0,0,0,0,0,0,0,0,0,0,0,0,0,0,0,0,0,0,0,0,0,0,0,0,1,1,0,1,0,0,0,1,0,0,0,1,0,0,1,0,1,1,1,0,0,0,0,0,0,0,0,0,0,0,0,0,0,0,0,0,0,0,0,0,0,0,0,0,0,0,0,0,0,0,0,0,0,0,0,0,0,0,0,0,0,0,0,0,0,0,0,0,0,0,0,0,0,0,0],"id":7,"left_children":[1,3,5,7,9,11,13,15,17,19,21,23,25,27,29,31,33,35,37,39,41,43,45,47,49,51,53,-1,55,57,59,61,63,65,-1,67,69,71,73,75,77,79,81,83,85,87,89,91,93,95,97,-1,99,101,103,105,107,109,111,113,115,-1,-1,-1,-1,-1,-1,-1,-1,-1,-1,-1,-1,-1,-1,-1,-1,-1,-1,-1,-1,-1,-1,-1,-1,-1,-1,-1,-1,-1,-1,-1,-1,-1,-1,-1,-1,-1,-1,-1,-1,-1,-1,-1,-1,-1,-1,-1,-1,-1,-1,-1,-1,-1,-1,-1,-1],"loss_changes":[8.949902E1,3.9603516E1,3.917578E1,1.8340332E1,1.1127686E1,8.726929E0,3.2504272E0,9.937134E-1,1.1796875E1,3.1087646E0,4.744507E0,3.1021729E0,1.7295952E0,5.924759E-1,2.4681396E0,9.616699E-1,1.8261089E0,7.2840805E0,9.63916E0,2.668335E0,3.03479E0,4.00144E0,4.203369E0,1.9587831E0,7.454834E-1,3.1901102E0,1.6916924E0,0E0,6.023941E-1,1.1728134E0,2.595642E0,9.163666E-1,1.2704928E0,1.6572964E0,0E0,3.3863487E0,6.9677124E0,7.7530518E0,8.726318E0,2.3093872E0,2.2892456E0,1.637207E0,4.922296E0,4.378784E0,4.2935987E0,2.9919434E0,2.4759827E0,3.8057208E0,2.0757704E0,2.4502535E0,7.947998E-1,0E0,2.145074E0,1.6245193E0,2.6963754E0,2.4217443E0,5.5226135E-1,1.0394797E0,1.0037842E0,2.5820007E0,1.7447968E0,0E0,0E0,0E0,0E0,0E0,0E0,0E0,0E0,0E0,0E0,0E0,0E0,0E0,0E0,0E0,0E0,0E0,0E0,0E0,0E0,0E0,0E0,0E0,0E0,0E0,0E0,0E0,0E0,0E0,0E0,0E0,0E0,0E0,0E0,0E0,0E0,0E0,0E0,0E0,0E0,0E0,0E0,0E0,0E0,0E0,0E0,0E0,0E0,0E0,0E0,0E0,0E0,0E0,0E0,0E0,0E0],"parents":[2147483647,0,0,1,1,2,2,3,3,4,4,5,5,6,6,7,7,8,8,9,9,10,10,11,11,12,12,13,13,14,14,15,15,16,16,17,17,18,18,19,19,20,20,21,21,22,22,23,23,24,24,25,25,26,26,28,28,29,29,30,30,31,31,32,32,33,33,35,35,36,36,37,37,38,38,39,39,40,40,41,41,42,42,43,43,44,44,45,45,46,46,47,47,48,48,49,49,50,50,52,52,53,53,54,54,55,55,56,56,57,57,58,58,59,59,60,60],"right_children":[2,4,6,8,10,12,14,16,18,20,22,24,26,28,30,32,34,36,38,40,42,44,46,48,50,52,54,-1,56,58,60,62,64,66,-1,68,70,72,74,76,78,80,82,84,86,88,90,92,94,96,98,-1,100,102,104,106,108,110,112,114,116,-1,-1,-1,-1,-1,-1,-1,-1,-1,-1,-1,-1,-1,-1,-1,-1,-1,-1,-1,-1,-1,-1,-1,-1,-1,-1,-1,-1,-1,-1,-1,-1,-1,-1,-1,-1,-1,-1,-1,-1,-1,-1,-1,-1,-1,-1,-1,-1,-1,-1,-1,-1,-1,-1,-1,-1],"split_conditions":[8E0,4E0,8E0,1E0,2.5E1,2.1E1,1E0,4.737984E-1,4.12E3,6E0,3E0,7E0,-5.6003755E-1,1E0,4.83E3,8.996717E-1,2.58515E5,7.2387E4,2.2E1,3E0,1.11513E5,2.49936E5,6E0,2E0,5.9537E4,-3.2819676E-1,1.1118E5,3.303921E-2,2E0,-6.740826E-1,5.6E1,2.6E1,2E0,9.221E3,2.0196083E-1,2E0,7.5301E4,2E0,1.07793E5,-6.938608E-1,9.783E3,9E0,4.0262908E-1,8.5486233E-1,-6.525171E-2,2.5839207E0,2.71174E5,6.6405666E-1,-6.2391585E-1,-6.3578725E-2,5E0,3.0472547E-1,5E0,-1.9613744E-1,7.6957E4,5.1E1,1.0412388E0,2.5496155E-1,4.6203494E-1,1.626965E0,4.961078E-1,-1.5441725E-1,-1.1108606E-1,1.877282E-1,-1.17812805E-1,1.4625277E-1,-1.2647709E-1,1.497449E-1,-1.3404997E-1,-3.620562E-2,-8.582903E-2,-1.0838765E-1,-8.965152E-2,-1.1669961E-1,-1.0512491E-1,-8.4978566E-2,-1.3125439E-1,-6.9979906E-2,-1.4383003E-1,-1.04220696E-1,-1.270619E-1,-6.469924E-2,3.282228E-1,-9.846918E-2,6.1623868E-2,2.4375439E-1,-4.3801807E-2,-1.2382014E-1,-6.2243067E-2,-1.1143529E-1,-5.975705E-2,-1.4138263E-1,2.7031875E-1,1.0866178E-1,-1.3120937E-1,-1.5564069E-1,1.6735241E-1,-6.441936E-2,-1.6892189E-1,2.2924101E-2,-1.4772378E-1,-1.0711217E-1,-1.4961168E-1,3.109583E-1,-8.795038E-2,-1.5339038E-1,1.6530466E-1,-1.5541871E-1,2.4092594E-2,1.835066E-1,-1.05661616E-1,-1.5561491E-1,-4.9404755E-2,-1.1551761E-1,5.9721224E-2,-1.3511105E-1,-6.597393E-2],"split_indices":[1,4,2,6,18,18,6,38,13,8,2,2,28,7,14,36,11,14,7,6,13,10,8,8,11,34,13,0,8,37,18,8,4,13,0,3,14,4,11,28,11,7,32,25,38,21,0,20,33,38,3,0,8,31,0,16,31,31,38,24,33,0,0,0,0,0,0,0,0,0,0,0,0,0,0,0,0,0,0,0,0,0,0,0,0,0,0,0,0,0,0,0,0,0,0,0,0,0,0,0,0,0,0,0,0,0,0,0,0,0,0,0,0,0,0,0,0],"split_type":[0,0,0,0,0,0,0,0,0,0,0,0,0,0,0,0,0,0,0,0,0,0,0,0,0,0,0,0,0,0,0,0,0,0,0,0,0,0,0,0,0,0,0,0,0,0,0,0,0,0,0,0,0,0,0,0,0,0,0,0,0,0,0,0,0,0,0,0,0,0,0,0,0,0,0,0,0,0,0,0,0,0,0,0,0,0,0,0,0,0,0,0,0,0,0,0,0,0,0,0,0,0,0,0,0,0,0,0,0,0,0,0,0,0,0,0,0],"sum_hessian":[6.3503355E4,5.4121234E4,9.382122E3,3.4794586E4,1.9326646E4,4.859667E3,4.5224556E3,8.99829E2,3.3894758E4,8.658883E3,1.0667764E4,4.469251E3,3.9041605E2,3.728883E2,4.1495674E3,8.7790955E2,2.1919436E1,1.3294253E3,3.2565332E4,6.3184844E3,2.3403982E3,3.876648E2,1.0280099E4,9.702177E1,4.372229E3,2.6562654E1,3.6385336E2,1.2249154E0,3.716634E2,2.7801108E2,3.8715562E3,8.748779E2,3.0316164E0,2.091126E1,1.0081749E0,2.107927E2,1.1186327E3,8.15438E3,2.4410953E4,3.5401013E3,2.778383E3,2.3169646E3,2.343349E1,3.6702487E2,2.063994E1,6.728489E3,3.5516099E3,6.249391E0,9.077238E1,8.4270935E0,4.363802E3,1.2136608E0,2.5348995E1,3.5856476E2,5.2886157E0,8.282311E0,3.6338107E2,2.5477242E0,2.7546338E2,2.780526E3,1.0910304E3,8.1557904E2,5.9298874E1,1.1175501E0,1.9140663E0,1.3896241E0,1.9521635E1,3.0682876E0,2.0772441E2,3.9666647E2,7.219662E2,3.6347446E3,4.5196353E3,1.0285488E4,1.4125464E4,1.072412E2,3.43286E3,4.1151966E1,2.7372312E3,3.699838E2,1.9469808E3,2.1134989E1,2.298502E0,3.5159027E2,1.54346075E1,5.643646E0,1.4996294E1,6.6536177E3,7.48712E1,3.4623337E3,8.927625E1,3.6330328E0,2.616358E0,2.6510754E0,8.81213E1,6.386686E0,2.0404077E0,8.174765E0,4.355627E3,1.1643759E1,1.37052355E1,1.8739247E2,1.7117229E2,1.1912415E0,4.097374E0,6.1443515E0,2.1379602E0,3.6208344E2,1.2976521E0,1.1406882E0,1.407036E0,2.6601645E2,9.446911E0,2.7735046E3,7.021326E0,1.0541791E3,3.685132E1],"tree_param":{"num_deleted":"0","num_feature":"39","num_nodes":"117","size_leaf_vector":"1"}},{"base_weights":[-3.9094728E-1,-3.7738708E-1,-4.6887976E-1,-3.9816654E-1,-3.5652122E-1,-5.1339954E-1,-4.1625184E-1,-4.238998E-1,-3.7707672E-1,-3.3330575E-1,-3.9428437E-1,-5.279368E-1,-4.4535112E-1,-3.8073176E-1,-4.3171474E-1,-4.4636583E-1,-4.0956846E-1,-4.0927804E-1,-3.6517444E-1,-3.233452E-1,-4.0478247E-1,-3.8967198E-1,-5.286092E-1,-2.6438868E-1,-5.299609E-1,-4.797173E-1,-3.7414816E-1,1.3639041E-2,-3.8414103E-1,-3.3186212E-1,-4.3910646E-1,-4.5297322E-1,-3.7144864E-1,-4.2899692E-1,-3.8883832E-1,-4.0010637E-1,-5.1148957E-1,-3.7880787E-1,-3.2160103E-1,-5.00804E-1,-3.1873885E-1,-4.0688193E-1,1.14447065E-1,-4.0963474E-1,-3.5827896E-1,-1.3123998E-1,-5.361214E-1,-4.2361212E-1,2.1979398E-1,-5.007596E-1,-5.4560333E-1,8.478894E-2,-4.8257914E-1,-5.3773555E-3,-4.0039474E-1,3.0831093E-1,-1.8945761E-1,-3.868003E-1,9.975623E-2,-4.341156E-1,-1.7607334E-1,-4.4292948E-1,-2.9828224E-1,-1.3826859E-1,-1.0958863E-1,-8.3625734E-2,-1.2995204E-1,-1.2930675E-1,-3.195201E-2,-1.1474001E-1,-1.5168928E-1,-7.9261325E-2,-1.2153016E-1,-6.590502E-2,-1.6012725E-1,-1.0494118E-1,-1.19942896E-1,-9.815752E-2,-1.888854E-2,-4.7262527E-2,-1.540148E-1,-9.1799095E-2,-1.1028323E-1,-1.2538384E-1,-9.8973386E-2,-7.497969E-2,2.906715E-1,-1.09897606E-1,-1.2976997E-1,-1.1456912E-1,-9.764994E-2,3.2452223E-1,-1.5361196E-1,-1.6244279E-1,-1.924082E-2,1.5659565E-1,-1.4828932E-1,2.4995545E-1,-5.700637E-2,-1.5075496E-1,5.3410146E-2,-1.3269692E-2,-1.6397594E-1,-1.4599022E-1,6.314453E-3,-8.634641E-2,1.6076592E-1,-8.896983E-2,-1.4161149E-1,1.71759E-1,-1.0215178E-1,-1.1005923E-1,-1.3566884E-1,-9.530885E-2,2.2976305E-1,1.7333558E-2,-1.396087E-1,-6.473336E-2,3.651331E-1,-9.691593E-2,-1.3437417E-1,-1.1677492E-1,3.3631045E-2],"categories":[],"categories_nodes":[],"categories_segments":[],"categories_sizes":[],"default_left":[0,0,0,0,0,0,0,0,0,0,0,0,0,0,0,0,1,0,0,0,1,0,0,0,0,0,0,0,1,0,0,1,0,0,0,0,0,0,1,0,0,1,0,0,0,0,0,0,0,1,0,0,1,0,0,0,0,1,0,0,0,0,1,0,0,0,0,0,0,0,0,0,0,0,0,0,0,0,0,0,0,0,0,0,0,0,0,0,0,0,0,0,0,0,0,0,0,0,0,0,0,0,0,0,0,0,0,0,0,0,0,0,0,0,0,0,0,0,0,0,0,0,0],"id":8,"left_children":[1,3,5,7,9,11,13,15,17,19,21,23,25,27,29,31,33,35,37,39,41,43,45,47,49,51,53,55,57,59,61,63,65,67,69,71,73,75,77,79,81,83,85,87,89,91,93,95,97,99,101,-1,103,105,107,-1,109,111,113,115,117,119,121,-1,-1,-1,-1,-1,-1,-1,-1,-1,-1,-1,-1,-1,-1,-1,-1,-1,-1,-1,-1,-1,-1,-1,-1,-1,-1,-1,-1,-1,-1,-1,-1,-1,-1,-1,-1,-1,-1,-1,-1,-1,-1,-1,-1,-1,-1,-1,-1,-1,-1,-1,-1,-1,-1,-1,-1,-1,-1,-1,-1],"loss_changes":[6.695703E1,2.3322266E1,2.183667E1,1.4550293E1,2.3549316E1,4.804077E0,2.2073364E0,3.7453613E0,5.5634766E0,1.1783081E1,6.161865E0,2.0961914E0,2.0303497E0,1.7775269E0,2.069275E0,2.1783447E0,2.838379E0,3.5586548E0,6.348877E0,1.1850586E1,2.273407E0,6.08313E0,9.398422E-1,2.7100194E0,1.6263428E0,1.4575348E0,2.8872757E0,2.7203407E0,1.7202911E0,3.2837543E0,1.3704834E0,2.8544922E0,2.1094208E0,2.463684E0,2.5006714E0,2.3963623E0,2.0073624E0,4.9106445E0,3.7425537E0,1.5166016E0,8.807129E0,1.5950012E0,3.0464818E0,5.86969E0,2.8734436E0,4.0657716E0,8.0381775E-1,1.988245E0,2.4354672E0,1.8341064E0,1.3052979E0,0E0,1.2430115E0,3.3415565E0,1.932991E0,0E0,1.468067E0,1.5297699E0,2.4505894E0,1.9737587E0,4.9793377E0,1.4777222E0,2.9118395E0,0E0,0E0,0E0,0E0,0E0,0E0,0E0,0E0,0E0,0E0,0E0,0E0,0E0,0E0,0E0,0E0,0E0,0E0,0E0,0E0,0E0,0E0,0E0,0E0,0E0,0E0,0E0,0E0,0E0,0E0,0E0,0E0,0E0,0E0,0E0,0E0,0E0,0E0,0E0,0E0,0E0,0E0,0E0,0E0,0E0,0E0,0E0,0E0,0E0,0E0,0E0,0E0,0E0,0E0,0E0,0E0,0E0,0E0,0E0,0E0],"parents":[2147483647,0,0,1,1,2,2,3,3,4,4,5,5,6,6,7,7,8,8,9,9,10,10,11,11,12,12,13,13,14,14,15,15,16,16,17,17,18,18,19,19,20,20,21,21,22,22,23,23,24,24,25,25,26,26,27,27,28,28,29,29,30,30,31,31,32,32,33,33,34,34,35,35,36,36,37,37,38,38,39,39,40,40,41,41,42,42,43,43,44,44,45,45,46,46,47,47,48,48,49,49,50,50,52,52,53,53,54,54,56,56,57,57,58,58,59,59,60,60,61,61,62,62],"right_children":[2,4,6,8,10,12,14,16,18,20,22,24,26,28,30,32,34,36,38,40,42,44,46,48,50,52,54,56,58,60,62,64,66,68,70,72,74,76,78,80,82,84,86,88,90,92,94,96,98,100,102,-1,104,106,108,-1,110,112,114,116,118,120,122,-1,-1,-1,-1,-1,-1,-1,-1,-1,-1,-1,-1,-1,-1,-1,-1,-1,-1,-1,-1,-1,-1,-1,-1,-1,-1,-1,-1,-1,-1,-1,-1,-1,-1,-1,-1,-1,-1,-1,-1,-1,-1,-1,-1,-1,-1,-1,-1,-1,-1,-1,-1,-1,-1,-1,-1,-1,-1,-1,-1],"split_conditions":[8E0,1.37489E5,6E0,2.5E1,4E0,8E0,5E0,6E0,9.8082E4,1E1,2.64923E5,8.5512E4,5.4325E4,-9.013368E-1,-4.8993957E-1,2.50959E5,-1.284489E-1,9.2729E4,7E0,1E0,2.6514664E0,3.6E1,1E0,3E0,5E0,-8.8145196E-1,-3.780437E-1,-1.5808563E-1,9.9896234E-1,4.6863675E-2,1.09066E5,3.138371E-1,5.2555E4,9.9281E4,2.2E1,2.8E1,1.7287E4,8E0,7.5400317E-1,2E0,2.40204E5,5.5995226E-1,7.8011465E-1,8.1299E4,6E0,1.02125E5,2.7E1,-5.7834864E-1,-6.60525E-2,1.1832008E0,-9.4960797E-1,8.478894E-2,8.902456E-1,1.610465E-1,5.9832E4,3.0831093E-1,1.621E4,1.0085368E-1,4.1E1,-8.4321594E-1,6.012771E-1,7E0,1.7020184E-1,-1.3826859E-1,-1.0958863E-1,-8.3625734E-2,-1.2995204E-1,-1.2930675E-1,-3.195201E-2,-1.1474001E-1,-1.5168928E-1,-7.9261325E-2,-1.2153016E-1,-6.590502E-2,-1.6012725E-1,-1.0494118E-1,-1.19942896E-1,-9.815752E-2,-1.888854E-2,-4.7262527E-2,-1.540148E-1,-9.1799095E-2,-1.1028323E-1,-1.2538384E-1,-9.8973386E-2,-7.497969E-2,2.906715E-1,-1.09897606E-1,-1.2976997E-1,-1.1456912E-1,-9.764994E-2,3.2452223E-1,-1.5361196E-1,-1.6244279E-1,-1.924082E-2,1.5659565E-1,-1.4828932E-1,2.4995545E-1,-5.700637E-2,-1.5075496E-1,5.3410146E-2,-1.3269692E-2,-1.6397594E-1,-1.4599022E-1,6.314453E-3,-8.634641E-2,1.6076592E-1,-8.896983E-2,-1.4161149E-1,1.71759E-1,-1.0215178E-1,-1.1005923E-1,-1.3566884E-1,-9.530885E-2,2.2976305E-1,1.7333558E-2,-1.396087E-1,-6.473336E-2,3.651331E-1,-9.691593E-2,-1.3437417E-1,-1.1677492E-1,3.3631045E-2],"split_indices":[1,11,18,18,4,2,8,1,10,8,11,11,14,29,29,10,32,10,1,4,23,18,8,4,4,30,35,32,27,28,13,35,13,14,8,18,0,3,30,1,11,23,37,14,2,14,8,34,22,30,31,0,27,38,14,0,14,30,18,27,33,2,36,0,0,0,0,0,0,0,0,0,0,0,0,0,0,0,0,0,0,0,0,0,0,0,0,0,0,0,0,0,0,0,0,0,0,0,0,0,0,0,0,0,0,0,0,0,0,0,0,0,0,0,0,0,0,0,0,0,0,0,0],"split_type":[0,0,0,0,0,0,0,0,0,0,0,0,0,0,0,0,0,0,0,0,0,0,0,0,0,0,0,0,0,0,0,0,0,0,0,0,0,0,0,0,0,0,0,0,0,0,0,0,0,0,0,0,0,0,0,0,0,0,0,0,0,0,0,0,0,0,0,0,0,0,0,0,0,0,0,0,0,0,0,0,0,0,0,0,0,0,0,0,0,0,0,0,0,0,0,0,0,0,0,0,0,0,0,0,0,0,0,0,0,0,0,0,0,0,0,0,0,0,0,0,0,0,0],"sum_hessian":[6.3525594E4,5.4115383E4,9.410211E3,2.7104781E4,2.70106E4,5.093059E3,4.317152E3,1.2199794E4,1.4904988E4,1.6733354E4,1.0277246E4,4.1909775E3,9.020817E2,1.3171449E3,3.000007E3,4.739666E3,7.460128E3,4.013413E3,1.0891575E4,1.4691556E4,2.0417985E3,9.939837E3,3.3740936E2,3.2944767E1,4.1580327E3,6.045552E2,2.975265E2,1.1263161E1,1.3058817E3,2.0993547E2,2.7900715E3,4.3508896E3,3.8877655E2,3.8407996E3,3.6193281E3,3.6874448E3,3.2596826E2,8.290058E3,2.6015176E3,3.6897858E2,1.4322577E4,2.0337914E3,8.007066E0,6.0687104E3,3.8711267E3,6.6030645E0,3.3080627E2,2.488608E1,8.058687E0,1.4619241E3,2.696109E3,1.8953975E0,6.026598E2,1.984894E1,2.7767755E2,1.2018986E0,1.0061262E1,1.298944E3,6.9377303E0,1.256665E2,8.426898E1,2.7142415E3,7.583012E1,3.98644E3,3.644494E2,1.5760577E2,2.3117078E2,3.8164917E3,2.4308064E1,3.4361436E3,1.8318477E2,1.3261424E2,3.5548306E3,2.3881618E1,3.0208664E2,3.489134E3,4.8009233E3,2.546214E3,5.530355E1,1.3521062E1,3.5545752E2,1.1366394E4,2.9561838E3,1.7743119E3,2.5947943E2,6.1092863E0,1.8977792E0,2.1067825E3,3.9619277E3,2.243783E3,1.6273438E3,1.1378639E0,5.465201E0,3.2694995E2,3.8563468E0,1.2868344E0,2.3599247E1,2.8139033E0,5.2447834E0,1.4584089E3,3.515112E0,5.3663983E0,2.6907424E3,5.9787976E2,4.7800465E0,1.33505535E1,6.4983873E0,1.1547137E2,1.6220619E2,1.2028606E0,8.858401E0,1.0006527E3,2.982913E2,4.586483E0,2.3512473E0,7.4552155E0,1.1821128E2,8.275563E1,1.5133448E0,1.1097878E2,2.6032627E3,6.211336E1,1.3716752E1],"tree_param":{"num_deleted":"0","num_feature":"39","num_nodes":"123","size_leaf_vector":"1"}},{"base_weights":[-7.8604676E-2,-2.552814E-1,5.7211943E-2,-3.1985736E-1,-1.2218283E-1,-7.937529E-2,1.9232313E-1,-4.5615104E-1,-2.3610197E-1,-2.3031977E-1,-1.5219997E-2,-6.8774447E-3,-1.9651885E-1,4.0873706E-1,9.089477E-2,-4.1292787E-1,-4.9593952E-1,-2.0455171E-1,-3.332049E-1,-3.6739635E-1,-1.3757496E-1,5.608925E-2,-3.2881138E-1,-1.6944571E-1,2.2749389E-2,-5.000883E-1,-1.7829883E-1,2.4749078E-1,4.7306237E-1,1.875184E-1,-6.700554E-2,-4.213859E-1,-1.11463286E-1,-5.385575E-1,-4.869879E-1,-1.8933232E-1,-3.490339E-1,-5.9497064E-1,-3.09068E-1,-2.8481907E-1,-4.2923802E-1,-9.3460485E-2,-3.2291108E-1,-2.159861E-2,1.1279897E-1,-4.335706E-1,-2.823236E-1,-3.614099E-1,-1.2740448E-1,6.4404726E-2,-1.4594704E-1,-5.0441194E-1,9.676683E-2,-2.2011596E-1,-1.2382063E-1,3.3704767E-1,3.3560246E-2,4.8431018E-1,-2.2533791E-2,2.3081097E-1,-1.9472983E-1,-4.0391307E-2,-3.6528862E-1,-9.644708E-2,-1.3215968E-1,-6.0366844E-3,-1.2535644E-1,-1.627832E-1,2.9393252E-2,-1.3650583E-1,-1.4961664E-1,-6.251768E-2,-2.3627385E-2,2.6754096E-1,-1.0559698E-1,-1.7962788E-1,-5.0257817E-2,-8.12709E-2,-1.14270404E-1,-1.03353545E-1,5.8330987E-3,-1.3264057E-1,-4.5864206E-2,-5.126175E-2,-1.4944498E-2,-7.21878E-2,-1.16698906E-1,-1.9807111E-2,3.6391445E-2,1.3704385E-1,2.7258817E-2,-1.3636261E-1,-1.739951E-2,-3.0456169E-2,-9.4435014E-2,-1.1377214E-1,7.894374E-2,-4.5573436E-2,9.004058E-3,3.4352E-2,-1.3999128E-2,-1.407067E-1,-3.61123E-2,-5.4518428E-2,-1.5351439E-1,-3.83881E-2,-8.092586E-2,-8.91818E-3,-6.825272E-2,1.0997725E-1,4.205687E-3,-9.407482E-3,1.18314765E-1,6.2386084E-2,1.4997965E-1,1.8342194E-1,-4.195842E-2,4.629079E-2,1.0572174E-1,4.3172148E-4,-1.3426511E-1,9.070017E-3,-5.4601386E-2,-8.080708E-2,-1.4929599E-1],"categories":[],"categories_nodes":[],"categories_segments":[],"categories_sizes":[],"default_left":[0,0,0,0,0,0,0,0,0,0,0,0,0,0,0,0,0,0,0,0,0,0,0,0,0,1,0,0,0,0,0,0,0,1,0,0,0,1,0,0,0,0,0,0,0,1,0,0,0,0,0,0,0,0,0,0,0,0,0,0,0,0,0,0,0,0,0,0,0,0,0,0,0,0,0,0,0,0,0,0,0,0,0,0,0,0,0,0,0,0,0,0,0,0,0,0,0,0,0,0,0,0,0,0,0,0,0,0,0,0,0,0,0,0,0,0,0,0,0,0,0,0,0,0,0],"id":9,"left_children":[1,3,5,7,9,11,13,15,17,19,21,23,25,27,29,31,33,35,37,39,41,43,45,47,49,51,53,55,57,59,61,63,65,67,69,71,73,75,77,79,81,83,85,87,89,91,93,95,97,99,101,103,-1,105,107,109,111,113,115,117,119,121,123,-1,-1,-1,-1,-1,-1,-1,-1,-1,-1,-1,-1,-1,-1,-1,-1,-1,-1,-1,-1,-1,-1,-1,-1,-1,-1,-1,-1,-1,-1,-1,-1,-1,-1,-1,-1,-1,-1,-1,-1,-1,-1,-1,-1,-1,-1,-1,-1,-1,-1,-1,-1,-1,-1,-1,-1,-1,-1,-1,-1,-1,-1],"loss_changes":[1.6493489E3,2.567257E2,7.1719104E2,2.2950146E2,1.12895615E2,1.6412859E2,4.288058E2,1.2959717E1,3.810553E1,6.1654846E1,1.0977295E2,5.7506557E1,4.077484E1,6.454553E1,2.0298422E2,9.323547E0,1.2564087E0,2.061972E1,1.9112701E1,9.877228E0,2.3652119E1,1.7623466E1,4.306633E0,1.4807625E1,7.097946E1,1.6486282E0,1.585437E1,3.408934E1,2.4846375E1,1.3662784E2,4.0083893E1,6.6948853E0,2.8364844E0,1.8115082E0,1.0110474E0,1.7924866E1,3.5978546E0,3.1552887E-1,7.568573E0,1.5289421E1,3.915985E0,7.9012337E0,2.9324875E0,1.0727485E1,1.7406694E1,2.1606102E0,3.6817513E0,3.7760658E0,5.8352547E0,4.5080887E1,1.6469627E1,8.872223E-1,0E0,1.800061E1,2.9551785E1,1.19673E1,1.2341387E1,1.8704163E1,7.5105476E0,6.8920715E1,4.167151E1,4.6396706E1,5.1183624E0,0E0,0E0,0E0,0E0,0E0,0E0,0E0,0E0,0E0,0E0,0E0,0E0,0E0,0E0,0E0,0E0,0E0,0E0,0E0,0E0,0E0,0E0,0E0,0E0,0E0,0E0,0E0,0E0,0E0,0E0,0E0,0E0,0E0,0E0,0E0,0E0,0E0,0E0,0E0,0E0,0E0,0E0,0E0,0E0,0E0,0E0,0E0,0E0,0E0,0E0,0E0,0E0,0E0,0E0,0E0,0E0,0E0,0E0,0E0,0E0,0E0,0E0],"parents":[2147483647,0,0,1,1,2,2,3,3,4,4,5,5,6,6,7,7,8,8,9,9,10,10,11,11,12,12,13,13,14,14,15,15,16,16,17,17,18,18,19,19,20,20,21,21,22,22,23,23,24,24,25,25,26,26,27,27,28,28,29,29,30,30,31,31,32,32,33,33,34,34,35,35,36,36,37,37,38,38,39,39,40,40,41,41,42,42,43,43,44,44,45,45,46,46,47,47,48,48,49,49,50,50,51,51,53,53,54,54,55,55,56,56,57,57,58,58,59,59,60,60,61,61,62,62],"right_children":[2,4,6,8,10,12,14,16,18,20,22,24,26,28,30,32,34,36,38,40,42,44,46,48,50,52,54,56,58,60,62,64,66,68,70,72,74,76,78,80,82,84,86,88,90,92,94,96,98,100,102,104,-1,106,108,110,112,114,116,118,120,122,124,-1,-1,-1,-1,-1,-1,-1,-1,-1,-1,-1,-1,-1,-1,-1,-1,-1,-1,-1,-1,-1,-1,-1,-1,-1,-1,-1,-1,-1,-1,-1,-1,-1,-1,-1,-1,-1,-1,-1,-1,-1,-1,-1,-1,-1,-1,-1,-1,-1,-1,-1,-1,-1,-1,-1,-1,-1,-1,-1,-1,-1,-1],"split_conditions":[1.26133E5,7E0,6E0,2E0,3.8259E4,8E0,1E0,9E0,9E0,1.2E1,9E0,1.48354E5,1.36619E5,6E0,5E0,6.1525E4,1.733E4,1.5E1,1E1,4E0,1E1,2.7E1,1.1E1,1.34553E5,2.40204E5,2.6637075E0,9.007E4,2.01862E5,8E0,1.03942E5,1.07889E5,3E0,1E1,7.138995E-1,2.5E1,2.35025E5,3E0,2.7220342E0,8.4E1,8E0,3.3E1,1.01E4,1.4E1,1.3E1,2.8E1,4.1854018E-1,-1.047498E0,3E1,4.8E1,4E0,1E0,-2.7667508E0,9.676683E-2,7.1974E4,1.02573E5,1.03942E5,9.033E4,2.9015E4,-4.799123E-1,8.9701E4,2.5635E5,8E0,2.60673E5,-9.644708E-2,-1.3215968E-1,-6.0366844E-3,-1.2535644E-1,-1.627832E-1,2.9393252E-2,-1.3650583E-1,-1.4961664E-1,-6.251768E-2,-2.3627385E-2,2.6754096E-1,-1.0559698E-1,-1.7962788E-1,-5.0257817E-2,-8.12709E-2,-1.14270404E-1,-1.03353545E-1,5.8330987E-3,-1.3264057E-1,-4.5864206E-2,-5.126175E-2,-1.4944498E-2,-7.21878E-2,-1.16698906E-1,-1.9807111E-2,3.6391445E-2,1.3704385E-1,2.7258817E-2,-1.3636261E-1,-1.739951E-2,-3.0456169E-2,-9.4435014E-2,-1.1377214E-1,7.894374E-2,-4.5573436E-2,9.004058E-3,3.4352E-2,-1.3999128E-2,-1.407067E-1,-3.61123E-2,-5.4518428E-2,-1.5351439E-1,-3.83881E-2,-8.092586E-2,-8.91818E-3,-6.825272E-2,1.0997725E-1,4.205687E-3,-9.407482E-3,1.18314765E-1,6.2386084E-2,1.4997965E-1,1.8342194E-1,-4.195842E-2,4.629079E-2,1.0572174E-1,4.3172148E-4,-1.3426511E-1,9.070017E-3,-5.4601386E-2,-8.080708E-2,-1.4929599E-1],"split_indices":[11,1,2,18,14,3,15,2,3,18,2,11,11,1,8,14,11,8,3,8,8,7,18,11,11,20,14,11,8,14,14,8,8,33,7,10,18,21,16,1,16,14,8,16,7,33,20,7,18,8,4,19,0,14,14,14,13,13,25,14,11,2,11,0,0,0,0,0,0,0,0,0,0,0,0,0,0,0,0,0,0,0,0,0,0,0,0,0,0,0,0,0,0,0,0,0,0,0,0,0,0,0,0,0,0,0,0,0,0,0,0,0,0,0,0,0,0,0,0,0,0,0,0,0,0],"split_type":[0,0,0,0,0,0,0,0,0,0,0,0,0,0,0,0,0,0,0,0,0,0,0,0,0,0,0,0,0,0,0,0,0,0,0,0,0,0,0,0,0,0,0,0,0,0,0,0,0,0,0,0,0,0,0,0,0,0,0,0,0,0,0,0,0,0,0,0,0,0,0,0,0,0,0,0,0,0,0,0,0,0,0,0,0,0,0,0,0,0,0,0,0,0,0,0,0,0,0,0,0,0,0,0,0,0,0,0,0,0,0,0,0,0,0,0,0,0,0,0,0,0,0,0,0],"sum_hessian":[6.8733766E4,2.9872857E4,3.8860914E4,2.01131E4,9.759757E3,1.9325104E4,1.953581E4,7.653784E3,1.2459315E4,4.8526685E3,4.9070884E3,1.193798E4,7.3871226E3,6.2332104E3,1.33026E4,3.6740046E3,3.9797798E3,9.4062E3,3.0531155E3,1.9571075E3,2.895561E3,3.9986377E3,9.0845074E2,1.8395098E3,1.0098471E4,4.167683E2,6.970354E3,1.7788806E3,4.4543296E3,8.252485E3,5.0501143E3,3.5733508E3,1.0065372E2,6.805522E2,3.2992275E3,8.511889E3,8.943107E2,2.5575818E2,2.7973572E3,8.40454E2,1.1166536E3,2.3400718E3,5.554893E2,1.6875061E3,2.3111316E3,2.7666507E2,6.317857E2,3.2912006E2,1.5103896E3,8.0991963E3,1.9992747E3,4.1497415E2,1.7941782E0,3.941694E3,3.02866E3,1.2535404E3,5.253403E2,4.3555024E3,9.882745E1,7.413271E3,8.392141E2,4.6374727E3,4.1264188E2,5.7758826E2,2.9957625E3,7.835909E1,2.2294628E1,6.763929E2,4.1593122E0,8.9652484E2,2.402703E3,7.259645E3,1.2522441E3,1.4108167E0,8.9289996E2,2.5311372E2,2.6444547E0,1.829903E3,9.674542E2,7.024996E2,1.379544E2,1.0662915E3,5.036207E1,8.426274E2,1.4974443E3,2.4948627E2,3.0600305E2,1.2877231E3,3.997829E2,1.3734845E2,2.1737832E3,2.6183432E2,1.4830745E1,9.678945E1,5.349962E2,3.2036664E2,8.753417E0,1.3069565E3,2.0343309E2,5.5814336E3,2.517763E3,1.453713E2,1.8539033E3,9.756277E0,4.0521786E2,1.3811097E3,2.5605845E3,1.5884697E3,1.4401902E3,1.1483787E3,1.051618E2,4.460083E2,7.933194E1,2.3380199E2,4.1217E3,1.4776501E1,8.405095E1,4.5516245E3,2.8616465E3,4.7311118E2,3.661029E2,3.0948235E3,1.5426489E3,2.4100655E2,1.7163531E2],"tree_param":{"num_deleted":"0","num_feature":"39","num_nodes":"125","size_leaf_vector":"1"}},{"base_weights":[5.671443E-3,-1.10829435E-1,8.27031E-2,-4.8131533E-2,-2.5116917E-1,3.0218256E-1,4.990084E-2,-6.499907E-2,3.636164E-1,-3.41699E-1,-1.5804948E-1,4.4743875E-1,1.3010661E-1,-3.6560696E-1,6.295053E-2,-9.968541E-2,8.624473E-2,1.3888437E-1,5.91806E-1,-2.266893E-1,-4.1138208E-1,-1.9061339E-1,-4.9192466E-2,1.7293282E-1,7.502231E-1,1.983387E-1,-4.220816E-3,-4.0217835E-1,-2.3681848E-1,-2.7983747E-2,1.0963945E-1,-4.7644187E-2,-1.7363666E-1,1.3579899E-1,-9.446755E-2,2.68796E-1,-5.7216894E-2,6.283505E-1,-7.109876E-2,-3.10069E-1,-1.9432922E-1,-4.4007525E-1,-9.8207586E-2,5.1002122E-2,-2.0163077E-1,-2.0023483E-1,1.18402755E-2,5.0584164E-2,4.4508716E-1,7.959444E-1,4.1740623E-1,1.7099588E-1,6.3115853E-1,-6.444305E-2,1.9818524E-1,-4.0511578E-1,4.3779755E-1,-1.7462933E-1,-4.495136E-1,4.3980166E-2,-1.5121913E-1,2.389026E-1,9.055135E-2,-1.0710064E-1,-1.07664205E-2,-3.777482E-2,-8.814193E-2,5.8640882E-2,-5.1824176E-3,2.062663E-2,-6.460941E-2,1.6061075E-1,4.632416E-2,-3.0166624E-2,1.18417375E-1,1.4686094E-1,2.252603E-1,-6.535504E-2,2.1844952E-1,-1.0704116E-1,-1.689292E-2,-4.503589E-2,-8.497122E-2,1.6322744E-1,-1.3286415E-1,2.723714E-1,-3.7101496E-2,4.961225E-4,1.916099E-1,-7.289379E-2,-4.3186937E-2,-1.7658954E-2,-1.10107735E-1,6.3133566E-4,3.2009208E-1,4.971418E-2,-4.0903922E-2,1.2623945E-1,4.4021958E-1,2.5131053E-1,1.4535691E-1,4.50288E-2,1.6572666E-1,4.2722896E-2,1.5374306E-1,2.7220926E-1,6.6636555E-2,3.431008E-2,-4.0895127E-2,4.7315583E-2,2.716313E-1,-1.09691024E-1,-1.3998175E-1,3.2269487E-1,-1.0173885E-1,-7.1114354E-2,3.780932E-3,-1.4882004E-1,1.0075036E-2,-1.5552886E-2,2.5783334E-2,-9.416447E-2,-1.6802775E-2,3.068953E-1,6.467912E-2,1.447057E-2,4.811908E-2],"categories":[],"categories_nodes":[],"categories_segments":[],"categories_sizes":[],"default_left":[0,0,0,0,0,0,0,0,0,0,0,0,0,0,0,0,0,0,0,0,0,0,0,0,0,0,0,0,1,0,0,0,0,0,0,0,1,0,1,0,0,0,0,0,0,0,1,0,0,0,0,0,0,0,1,0,1,0,0,0,0,0,0,0,0,0,0,0,0,0,0,0,0,0,0,0,0,0,0,0,0,0,0,0,0,0,0,0,0,0,0,0,0,0,0,0,0,0,0,0,0,0,0,0,0,0,0,0,0,0,0,0,0,0,0,0,0,0,0,0,0,0,0,0,0,0,0],"id":10,"left_children":[1,3,5,7,9,11,13,15,17,19,21,23,25,27,29,31,33,35,37,39,41,43,45,47,49,51,53,55,57,59,61,63,65,67,69,71,73,75,77,79,81,83,85,87,89,91,93,95,97,99,101,103,105,107,109,111,113,115,117,119,121,123,125,-1,-1,-1,-1,-1,-1,-1,-1,-1,-1,-1,-1,-1,-1,-1,-1,-1,-1,-1,-1,-1,-1,-1,-1,-1,-1,-1,-1,-1,-1,-1,-1,-1,-1,-1,-1,-1,-1,-1,-1,-1,-1,-1,-1,-1,-1,-1,-1,-1,-1,-1,-1,-1,-1,-1,-1,-1,-1,-1,-1,-1,-1,-1,-1],"loss_changes":[6.201303E2,2.4199817E2,2.9945743E2,1.3206664E2,7.154346E1,1.3512292E2,1.9625104E2,9.582775E1,3.829425E1,3.4412476E1,1.4838081E1,2.435907E2,2.2703808E1,5.0957336E0,1.4897484E2,5.717256E1,3.0531237E1,9.653841E0,9.032623E0,4.3288116E0,2.4038086E1,8.591682E0,8.905658E0,5.1231415E1,2.0880432E1,1.9332115E1,1.0195282E1,2.2917633E0,3.1778135E0,1.0558234E2,5.7184082E1,3.1708588E1,3.5154266E1,2.443644E1,1.449885E1,6.8617268E0,3.0087414E0,5.6143036E0,2.537663E0,5.353752E0,4.57415E0,7.017853E0,5.9077454E0,4.099367E0,7.317955E0,6.5335655E0,7.0735226E0,2.2900002E1,1.1233078E1,1.5518311E1,6.069849E0,1.5022648E1,1.0783882E1,8.299379E0,5.3465014E0,1.9036865E0,2.082877E0,2.2482553E0,1.2549429E0,3.0229412E1,6.795625E1,5.4280533E1,5.9704727E1,0E0,0E0,0E0,0E0,0E0,0E0,0E0,0E0,0E0,0E0,0E0,0E0,0E0,0E0,0E0,0E0,0E0,0E0,0E0,0E0,0E0,0E0,0E0,0E0,0E0,0E0,0E0,0E0,0E0,0E0,0E0,0E0,0E0,0E0,0E0,0E0,0E0,0E0,0E0,0E0,0E0,0E0,0E0,0E0,0E0,0E0,0E0,0E0,0E0,0E0,0E0,0E0,0E0,0E0,0E0,0E0,0E0,0E0,0E0,0E0,0E0,0E0,0E0,0E0],"parents":[2147483647,0,0,1,1,2,2,3,3,4,4,5,5,6,6,7,7,8,8,9,9,10,10,11,11,12,12,13,13,14,14,15,15,16,16,17,17,18,18,19,19,20,20,21,21,22,22,23,23,24,24,25,25,26,26,27,27,28,28,29,29,30,30,31,31,32,32,33,33,34,34,35,35,36,36,37,37,38,38,39,39,40,40,41,41,42,42,43,43,44,44,45,45,46,46,47,47,48,48,49,49,50,50,51,51,52,52,53,53,54,54,55,55,56,56,57,57,58,58,59,59,60,60,61,61,62,62],"right_children":[2,4,6,8,10,12,14,16,18,20,22,24,26,28,30,32,34,36,38,40,42,44,46,48,50,52,54,56,58,60,62,64,66,68,70,72,74,76,78,80,82,84,86,88,90,92,94,96,98,100,102,104,106,108,110,112,114,116,118,120,122,124,126,-1,-1,-1,-1,-1,-1,-1,-1,-1,-1,-1,-1,-1,-1,-1,-1,-1,-1,-1,-1,-1,-1,-1,-1,-1,-1,-1,-1,-1,-1,-1,-1,-1,-1,-1,-1,-1,-1,-1,-1,-1,-1,-1,-1,-1,-1,-1,-1,-1,-1,-1,-1,-1,-1,-1,-1,-1,-1,-1,-1,-1,-1,-1,-1],"split_conditions":[4E0,7E0,4E0,1.10674E5,4E0,9.9204E4,1E0,8E0,2.60673E5,8E0,8E0,9.1779E4,3E0,2.8E1,6E0,4E0,8.6748E4,1.11598E5,8E0,2.8E1,8E0,2.748E4,2.8E1,1E1,8E0,1.09914E5,1.1E1,2.60673E5,7.787478E-2,7E0,2.0564E4,1E0,2.19708E5,9.007E4,4E0,-4.334103E-1,1.3803501E0,5E0,3.963963E-1,8E0,1.6821E5,1E0,1.4067E4,2.54929E5,3E0,6.0814E4,1.6386969E0,3E0,6.7E1,2.67097E5,1.2E1,1.08339E5,1.45031E5,6.3011E4,1.7385771E0,1.74543E5,-1.3261223E-1,1.3E1,5.530057E-1,4.0009E4,1E0,1.3125E4,7.1974E4,-1.0710064E-1,-1.07664205E-2,-3.777482E-2,-8.814193E-2,5.8640882E-2,-5.1824176E-3,2.062663E-2,-6.460941E-2,1.6061075E-1,4.632416E-2,-3.0166624E-2,1.18417375E-1,1.4686094E-1,2.252603E-1,-6.535504E-2,2.1844952E-1,-1.0704116E-1,-1.689292E-2,-4.503589E-2,-8.497122E-2,1.6322744E-1,-1.3286415E-1,2.723714E-1,-3.7101496E-2,4.961225E-4,1.916099E-1,-7.289379E-2,-4.3186937E-2,-1.7658954E-2,-1.10107735E-1,6.3133566E-4,3.2009208E-1,4.971418E-2,-4.0903922E-2,1.2623945E-1,4.4021958E-1,2.5131053E-1,1.4535691E-1,4.50288E-2,1.6572666E-1,4.2722896E-2,1.5374306E-1,2.7220926E-1,6.6636555E-2,3.431008E-2,-4.0895127E-2,4.7315583E-2,2.716313E-1,-1.09691024E-1,-1.3998175E-1,3.2269487E-1,-1.0173885E-1,-7.1114354E-2,3.780932E-3,-1.4882004E-1,1.0075036E-2,-1.5552886E-2,2.5783334E-2,-9.416447E-2,-1.6802775E-2,3.068953E-1,6.467912E-2,1.447057E-2,4.811908E-2],"split_indices":[8,1,1,14,18,10,6,3,11,1,1,10,1,7,8,4,13,14,2,7,2,10,7,8,8,13,8,11,38,1,11,4,11,14,2,19,20,4,28,3,10,8,11,0,8,13,23,1,8,11,18,14,11,13,20,10,19,8,38,14,15,10,14,0,0,0,0,0,0,0,0,0,0,0,0,0,0,0,0,0,0,0,0,0,0,0,0,0,0,0,0,0,0,0,0,0,0,0,0,0,0,0,0,0,0,0,0,0,0,0,0,0,0,0,0,0,0,0,0,0,0,0,0,0,0,0,0],"split_type":[0,0,0,0,0,0,0,0,0,0,0,0,0,0,0,0,0,0,0,0,0,0,0,0,0,0,0,0,0,0,0,0,0,0,0,0,0,0,0,0,0,0,0,0,0,0,0,0,0,0,0,0,0,0,0,0,0,0,0,0,0,0,0,0,0,0,0,0,0,0,0,0,0,0,0,0,0,0,0,0,0,0,0,0,0,0,0,0,0,0,0,0,0,0,0,0,0,0,0,0,0,0,0,0,0,0,0,0,0,0,0,0,0,0,0,0,0,0,0,0,0,0,0,0,0,0,0],"sum_hessian":[6.909901E4,2.7503268E4,4.1595742E4,1.9011203E4,8.492064E3,5.407307E3,3.6188434E4,1.8263854E4,7.473488E2,4.304557E3,4.187507E3,2.9312888E3,2.4760183E3,1.1011244E3,3.508731E4,1.4856903E4,3.4069504E3,3.7733743E2,3.700114E2,1.6256785E3,2.6788787E3,3.2227036E3,9.648034E2,1.5382626E3,1.3930261E3,1.6416566E3,8.3436163E2,8.5594385E2,2.451806E2,1.190357E4,2.3183738E4,8.721221E3,6.1356826E3,2.6739565E3,7.3299396E2,2.2675072E2,1.5058673E2,3.507286E2,1.9282806E1,4.5212967E2,1.1735488E3,2.4536675E3,2.2521117E2,1.4038454E2,3.082319E3,2.7700278E2,6.878006E2,1.0620138E3,4.7624887E2,1.2235476E3,1.6947856E2,1.5454218E3,9.623491E1,6.4356287E2,1.907988E2,8.5347687E2,2.4669406E0,1.9112059E2,5.4060013E1,7.5155E3,4.3880703E3,2.9815305E3,2.0202209E4,3.1821234E2,8.403009E3,4.393163E3,1.7425198E3,1.9237648E3,7.501918E2,3.1208286E2,4.2091113E2,6.6977005E1,1.597737E2,1.381194E2,1.2467331E1,1.6677045E2,1.8395816E2,1.6906137E1,2.376669E0,3.8146854E2,7.066114E1,7.855985E2,3.8795032E2,6.425537E0,2.447242E3,4.70382E0,2.2050734E2,1.3043486E2,9.949672E0,1.7933777E3,1.2889415E3,1.5065814E2,1.26344635E2,6.8250507E2,5.2955494E0,6.572993E2,4.0471445E2,4.6657513E2,9.673728E0,1.0773939E3,1.4615366E2,5.7583668E1,1.118949E2,1.4273516E3,1.1807014E2,5.6717575E1,3.9517338E1,1.8434749E2,4.5921536E2,1.8162956E2,9.169239E0,5.239965E2,3.2948038E2,1.1435783E0,1.3233625E0,1.4313649E2,4.79841E1,4.9283962E1,4.776049E0,2.2888354E3,5.2266646E3,1.619286E3,2.7687842E3,8.482479E1,2.8967056E3,1.2581416E4,7.620793E3],"tree_param":{"num_deleted":"0","num_feature":"39","num_nodes":"127","size_leaf_vector":"1"}},{"base_weights":[4.595855E-1,5.5632544E-1,3.9255518E-1,6.2014323E-1,4.8168805E-1,2.7472073E-1,4.1712624E-1,6.0331976E-1,7.801671E-1,4.6069732E-1,6.8999314E-1,2.9459137E-1,6.041453E-2,8.335944E-1,4.1009772E-1,6.8904793E-1,5.8250815E-1,4.187928E-1,8.032565E-1,5.891807E-1,4.230348E-1,6.1907035E-1,7.940555E-1,1.4700659E-1,3.198712E-1,3.851664E-2,4.1808566E-1,8.783544E-1,5.790942E-1,7.3832786E-1,4.0275404E-1,6.144928E-1,7.4730444E-1,5.9434277E-1,4.0964854E-1,7.1395206E-1,2.3871E-1,7.152328E-1,8.6838335E-1,3.9392647E-1,6.1612266E-1,3.944364E-1,4.9529523E-1,3.9310044E-1,6.5639424E-1,8.5116357E-1,5.280808E-1,1.0820314E-1,5.2013636E-1,4.9091896E-1,2.885324E-1,-5.9493452E-2,1.0797643E-1,8.4958017E-1,1.8056044E-1,9.1736275E-1,6.501456E-1,8.6054903E-1,4.267437E-1,8.580792E-1,5.588705E-1,3.6286753E-1,4.598884E-1,1.655365E-1,2.1223871E-1,1.6077754E-1,2.2764477E-1,2.0853601E-1,1.7264374E-1,9.668932E-2,1.7690277E-1,2.3137829E-1,-7.551288E-2,1.0649141E-1,-6.3870676E-2,2.3314743E-1,1.6671751E-1,2.6290673E-1,7.217737E-2,2.0397006E-1,8.877856E-2,2.3025912E-1,1.7277792E-1,1.4150445E-1,1.07582256E-1,1.6541737E-1,1.1714183E-1,8.701107E-2,2.2252412E-1,1.998155E-1,1.05164545E-2,2.6165178E-1,7.616395E-2,1.6730131E-1,-1.6613E-1,2.3745935E-2,1.1309398E-1,1.1507938E-1,2.4639508E-1,5.5123847E-2,1.625246E-1,6.6436335E-2,1.11888625E-1,1.7265137E-3,-1.0610994E-1,2.3946732E-2,1.8392932E-1,-6.386442E-2,3.266717E-1,-7.846299E-2,1.08832434E-1,2.995422E-1,2.4483408E-1,2.1764296E-1,1.3817671E-2,-8.877908E-2,2.8822088E-1,2.613557E-1,9.384297E-2,2.0235913E-1,2.7080995E-1,1.2431436E-1,2.114525E-1,1.0328533E-1,1.7465973E-1,1.2909798E-1,1.8808247E-1],"categories":[],"categories_nodes":[],"categories_segments":[],"categories_sizes":[],"default_left":[0,0,0,0,0,0,0,0,0,0,0,0,0,0,0,0,0,0,0,0,0,0,0,0,0,0,0,0,0,0,0,0,0,0,0,1,1,0,0,0,0,0,0,0,0,1,1,0,1,0,0,0,1,0,0,1,1,0,0,0,0,0,0,0,0,0,0,0,0,0,0,0,0,0,0,0,0,0,0,0,0,0,0,0,0,0,0,0,0,0,0,0,0,0,0,0,0,0,0,0,0,0,0,0,0,0,0,0,0,0,0,0,0,0,0,0,0,0,0,0,0,0,0,0,0,0,0],"id":11,"left_children":[1,3,5,7,9,11,13,15,17,19,21,23,25,27,29,31,33,35,37,39,41,43,45,47,49,51,53,55,57,59,61,63,65,67,69,71,73,75,77,79,81,83,85,87,89,91,93,95,97,99,101,103,105,107,109,111,113,115,117,119,121,123,125,-1,-1,-1,-1,-1,-1,-1,-1,-1,-1,-1,-1,-1,-1,-1,-1,-1,-1,-1,-1,-1,-1,-1,-1,-1,-1,-1,-1,-1,-1,-1,-1,-1,-1,-1,-1,-1,-1,-1,-1,-1,-1,-1,-1,-1,-1,-1,-1,-1,-1,-1,-1,-1,-1,-1,-1,-1,-1,-1,-1,-1,-1,-1,-1],"loss_changes":[6.177715E2,1.8548828E2,1.6288965E2,5.6125977E1,7.8311035E1,4.136084E1,1.3601318E2,3.35459E1,1.6322021E1,7.8818115E1,1.16432495E1,3.3128906E1,6.4515386E0,8.287231E0,1.10129395E2,1.56604E1,3.1090332E1,6.313717E0,1.0130615E1,1.9228394E1,2.5923828E1,8.027069E0,9.619049E0,1.8798592E1,4.054895E1,5.3112545E0,4.718857E0,5.2318726E0,4.710747E0,2.1039795E1,1.019541E2,9.132751E0,4.6514893E0,2.6848145E1,1.5294495E1,2.7245045E0,4.13247E0,7.5019226E0,5.1608887E0,1.2454025E1,1.9342285E1,2.4906128E1,2.0835022E1,4.8782005E0,5.0265503E0,6.6056824E0,4.1439705E0,9.190127E0,4.718647E0,1.8230713E1,3.6264526E1,6.2186227E0,6.4415164E0,4.45477E0,2.667131E0,3.7571106E0,4.47213E0,4.989111E0,3.7185621E0,4.2946167E0,8.2211075E0,1.0737695E2,9.068994E1,0E0,0E0,0E0,0E0,0E0,0E0,0E0,0E0,0E0,0E0,0E0,0E0,0E0,0E0,0E0,0E0,0E0,0E0,0E0,0E0,0E0,0E0,0E0,0E0,0E0,0E0,0E0,0E0,0E0,0E0,0E0,0E0,0E0,0E0,0E0,0E0,0E0,0E0,0E0,0E0,0E0,0E0,0E0,0E0,0E0,0E0,0E0,0E0,0E0,0E0,0E0,0E0,0E0,0E0,0E0,0E0,0E0,0E0,0E0,0E0,0E0,0E0,0E0,0E0],"parents":[2147483647,0,0,1,1,2,2,3,3,4,4,5,5,6,6,7,7,8,8,9,9,10,10,11,11,12,12,13,13,14,14,15,15,16,16,17,17,18,18,19,19,20,20,21,21,22,22,23,23,24,24,25,25,26,26,27,27,28,28,29,29,30,30,31,31,32,32,33,33,34,34,35,35,36,36,37,37,38,38,39,39,40,40,41,41,42,42,43,43,44,44,45,45,46,46,47,47,48,48,49,49,50,50,51,51,52,52,53,53,54,54,55,55,56,56,57,57,58,58,59,59,60,60,61,61,62,62],"right_children":[2,4,6,8,10,12,14,16,18,20,22,24,26,28,30,32,34,36,38,40,42,44,46,48,50,52,54,56,58,60,62,64,66,68,70,72,74,76,78,80,82,84,86,88,90,92,94,96,98,100,102,104,106,108,110,112,114,116,118,120,122,124,126,-1,-1,-1,-1,-1,-1,-1,-1,-1,-1,-1,-1,-1,-1,-1,-1,-1,-1,-1,-1,-1,-1,-1,-1,-1,-1,-1,-1,-1,-1,-1,-1,-1,-1,-1,-1,-1,-1,-1,-1,-1,-1,-1,-1,-1,-1,-1,-1,-1,-1,-1,-1,-1,-1,-1,-1,-1,-1,-1,-1,-1,-1,-1,-1],"split_conditions":[1.06705E5,2.3E1,4E0,9.6957E4,9.6957E4,2.63873E5,1E0,3E0,4.456E4,1.01E4,9E0,5.9832E4,6.1E1,6E0,1E0,7E0,5.1E1,2.8536E4,8E0,1.4E1,9E0,1.9E1,1.04527E5,8.6212E4,6.9207E4,2.6035976E-1,2.7432382E-2,9E0,7.5301E4,4E0,3E0,9E0,6.081E3,1.01E4,1.21E2,3.8691294E-1,1.1087304E-1,8E0,1.06686E5,6E0,8.306E3,4E0,1E1,3E0,5.4325E4,4.6911985E-1,8.3819515E-1,9E0,1.3367903E-1,1E0,9.007E4,5E1,5.6441385E-1,-4.7560894E-1,2.8E1,-8.071252E-1,1.8860357E0,-1.2040849E0,-1.8160278E-1,-1.2337446E-1,9E0,6.9E1,2.40204E5,1.655365E-1,2.1223871E-1,1.6077754E-1,2.2764477E-1,2.0853601E-1,1.7264374E-1,9.668932E-2,1.7690277E-1,2.3137829E-1,-7.551288E-2,1.0649141E-1,-6.3870676E-2,2.3314743E-1,1.6671751E-1,2.6290673E-1,7.217737E-2,2.0397006E-1,8.877856E-2,2.3025912E-1,1.7277792E-1,1.4150445E-1,1.07582256E-1,1.6541737E-1,1.1714183E-1,8.701107E-2,2.2252412E-1,1.998155E-1,1.05164545E-2,2.6165178E-1,7.616395E-2,1.6730131E-1,-1.6613E-1,2.3745935E-2,1.1309398E-1,1.1507938E-1,2.4639508E-1,5.5123847E-2,1.625246E-1,6.6436335E-2,1.11888625E-1,1.7265137E-3,-1.0610994E-1,2.3946732E-2,1.8392932E-1,-6.386442E-2,3.266717E-1,-7.846299E-2,1.08832434E-1,2.995422E-1,2.4483408E-1,2.1764296E-1,1.3817671E-2,-8.877908E-2,2.8822088E-1,2.613557E-1,9.384297E-2,2.0235913E-1,2.7080995E-1,1.2431436E-1,2.114525E-1,1.0328533E-1,1.7465973E-1,1.2909798E-1,1.8808247E-1],"split_indices":[11,18,1,11,11,11,4,8,10,14,2,14,18,1,6,1,16,10,2,7,2,7,11,13,14,23,30,8,14,2,4,2,14,14,16,29,37,8,13,7,13,8,2,4,14,37,27,8,25,1,14,18,30,30,7,19,19,21,28,38,2,18,11,0,0,0,0,0,0,0,0,0,0,0,0,0,0,0,0,0,0,0,0,0,0,0,0,0,0,0,0,0,0,0,0,0,0,0,0,0,0,0,0,0,0,0,0,0,0,0,0,0,0,0,0,0,0,0,0,0,0,0,0,0,0,0,0],"split_type":[0,0,0,0,0,0,0,0,0,0,0,0,0,0,0,0,0,0,0,0,0,0,0,0,0,0,0,0,0,0,0,0,0,0,0,0,0,0,0,0,0,0,0,0,0,0,0,0,0,0,0,0,0,0,0,0,0,0,0,0,0,0,0,0,0,0,0,0,0,0,0,0,0,0,0,0,0,0,0,0,0,0,0,0,0,0,0,0,0,0,0,0,0,0,0,0,0,0,0,0,0,0,0,0,0,0,0,0,0,0,0,0,0,0,0,0,0,0,0,0,0,0,0,0,0,0,0],"sum_hessian":[9.5301586E4,3.900344E4,5.6298145E4,2.1021744E4,1.7981695E4,9.71594E3,4.6582203E4,1.9026266E4,1.9954774E3,1.6338492E4,1.6432037E3,8.891169E3,8.247713E2,7.711434E2,4.5811062E4,3.710345E3,1.5315922E4,1.20989975E2,1.8744874E3,3.7003481E3,1.2638145E4,9.813338E2,6.6186993E2,1.3012468E3,7.5899224E3,7.7823285E2,4.653847E1,6.537198E2,1.1742359E2,1.00035126E3,4.481071E4,1.6325708E3,2.0777742E3,1.4332245E4,9.83676E2,4.4723206E1,7.626677E1,8.0221564E2,1.0722717E3,4.5057202E2,3.2497761E3,9.059242E3,3.5789016E3,1.4074629E2,8.405875E2,5.430667E2,1.1880321E2,1.17984E3,1.21406876E2,1.1729996E3,6.416923E3,3.228393E2,4.553936E2,1.560792E1,3.0930553E1,5.5571075E2,9.8009056E1,3.9606113E1,7.7817474E1,5.977158E2,4.0263544E2,2.6392797E4,1.8417914E4,9.791233E2,6.5344745E2,1.0976505E2,1.9680092E3,2.2540994E3,1.2078146E4,6.6419385E2,3.194822E2,4.2407757E1,2.31545E0,6.0822777E1,1.5443996E1,5.7508105E2,2.2713454E2,1.0584347E3,1.383706E1,1.13480316E2,3.370917E2,6.7796936E2,2.5718066E3,2.8666785E3,6.192564E3,2.3285251E3,1.2503763E3,1.1004711E2,3.0699177E1,8.2765155E2,1.2936004E1,5.2416925E2,1.8897455E1,1.16111885E2,2.6913195E0,1.0659266E3,1.1391336E2,8.510064E1,3.6306236E1,1.6719937E2,1.00580023E3,3.5779348E3,2.8389878E3,2.6503973E2,5.779955E1,4.3244818E2,2.294538E1,2.8897321E0,1.2718187E1,8.900369E0,2.2030186E1,3.0361884E2,2.5209192E2,8.696356E1,1.104549E1,3.0018172E0,3.6604298E1,1.45221E1,6.3295376E1,1.2004057E2,4.7767523E2,2.042739E2,1.9836154E2,2.433367E4,2.0591274E3,1.5651748E4,2.7661663E3],"tree_param":{"num_deleted":"0","num_feature":"39","num_nodes":"127","size_leaf_vector":"1"}},{"base_weights":[-3.5328963E-1,-3.372983E-1,-4.483531E-1,-3.1703997E-1,-3.74326E-1,-5.1745886E-1,-3.7671953E-1,-4.6243393E-1,-3.134046E-1,-3.9063084E-1,-3.3896744E-1,-5.317177E-1,-3.5983962E-1,-4.7306165E-1,-3.6832076E-1,-3.3445847E-1,-4.7655776E-1,-2.2549629E-1,-3.1708875E-1,-4.0756315E-1,-3.5558188E-1,-4.2242402E-1,-3.3060408E-1,-3.3091286E-1,-5.3625923E-1,-3.0828336E-1,-4.605819E-1,-2.7887645E-1,-4.8572233E-1,-9.689129E-2,-3.708192E-1,-3.7591735E-1,6.063865E-1,-4.7922266E-1,1.1956742E-1,-4.120626E-1,-1.9707443E-1,-2.8747526E-1,-3.2706624E-1,-4.1784436E-1,-3.565372E-1,-3.5871688E-1,-8.928597E-2,-5.0092554E-1,-3.691353E-1,-4.770297E-1,-3.2578027E-1,2.0291798E-1,-3.5053948E-1,-1.8911305E-1,-5.369265E-1,-3.2623816E-1,2.5927418E-1,1.6608831E-1,-4.7656402E-1,2.143997E-1,-1.6153957E-1,-4.9129382E-1,-3.937134E-2,6.062441E-1,-3.7884435E-1,-3.4916258E-1,-4.0323645E-1,-1.4339054E-1,-2.4010675E-2,-1.0383353E-1,3.8686612E-1,-1.4453906E-1,8.835629E-2,1.2595987E-1,-1.2681009E-1,-6.8303615E-2,-5.437917E-3,-9.665141E-2,-7.7952996E-2,-9.574339E-2,-1.115776E-1,-1.089586E-1,-1.2807426E-1,5.6498046E-3,-1.0979129E-1,-6.182419E-2,-1.08991675E-1,1.13740556E-1,-7.316381E-2,-1.5430513E-1,3.0203848E-3,-5.7836775E-2,-1.21535785E-1,7.331575E-2,-1.4832185E-1,-1.0208003E-1,-8.782284E-2,4.7633465E-2,-1.17281295E-1,1.663354E-1,-1.5144935E-1,-5.227638E-2,-1.61284E-1,-4.2602107E-2,-1.148125E-1,-5.1960025E-2,3.5972458E-1,1.6305809E-1,-1.4786372E-1,1.3854222E-1,-1.14047565E-1,3.338599E-2,-1.4825314E-1,2.1052295E-1,-1.2718229E-1,3.0801162E-1,-1.3077334E-1,2.0352812E-1,-1.3524312E-1,-1.0538905E-1,1.3786595E-1,-1.2479138E-1,-9.320073E-2],"categories":[],"categories_nodes":[],"categories_segments":[],"categories_sizes":[],"default_left":[0,0,0,0,0,0,0,0,0,0,0,0,1,0,0,0,1,0,0,0,1,0,0,0,0,0,0,1,1,0,0,0,0,1,0,0,1,0,0,0,0,0,0,1,0,0,1,0,0,0,0,0,0,0,0,0,0,0,0,0,0,0,1,0,0,0,0,0,0,0,0,0,0,0,0,0,0,0,0,0,0,0,0,0,0,0,0,0,0,0,0,0,0,0,0,0,0,0,0,0,0,0,0,0,0,0,0,0,0,0,0,0,0,0,0,0,0,0,0],"id":12,"left_children":[1,3,5,7,9,11,13,15,17,19,21,23,25,27,29,31,33,35,37,39,41,43,45,47,49,51,53,55,57,59,61,63,65,67,-1,69,71,73,75,77,79,81,83,85,87,89,91,-1,93,95,97,99,101,-1,103,105,-1,107,109,111,113,115,117,-1,-1,-1,-1,-1,-1,-1,-1,-1,-1,-1,-1,-1,-1,-1,-1,-1,-1,-1,-1,-1,-1,-1,-1,-1,-1,-1,-1,-1,-1,-1,-1,-1,-1,-1,-1,-1,-1,-1,-1,-1,-1,-1,-1,-1,-1,-1,-1,-1,-1,-1,-1,-1,-1,-1,-1],"loss_changes":[8.651758E1,3.64917E1,4.042871E1,1.6533203E1,9.814697E0,9.189941E0,3.0892334E0,1.2280426E0,9.89917E0,6.859009E0,3.6664429E0,3.3115234E0,1.672657E0,6.509857E-1,2.4829102E0,3.3347454E0,1.797699E0,6.503521E0,8.635742E0,4.0220947E0,3.1839905E0,1.8777313E0,3.3485718E0,1.9615335E0,7.647705E-1,2.4704819E0,2.1481342E0,2.9232998E0,7.241211E-1,7.2142515E0,2.442749E0,2.2838688E0,2.8828099E0,1.510849E0,0E0,1.6222191E0,5.9081E0,7.062805E0,7.7321777E0,3.1219482E0,4.752655E0,2.5916443E0,3.4347386E0,1.3536568E0,1.8097382E0,2.0771446E0,2.2003784E0,0E0,1.8360157E0,2.3265128E0,8.358154E-1,2.3113747E0,3.3522756E0,0E0,2.1815262E0,1.3929473E0,0E0,5.6786346E-1,1.657792E0,5.034668E0,2.2660522E0,3.9820862E0,1.6005707E0,0E0,0E0,0E0,0E0,0E0,0E0,0E0,0E0,0E0,0E0,0E0,0E0,0E0,0E0,0E0,0E0,0E0,0E0,0E0,0E0,0E0,0E0,0E0,0E0,0E0,0E0,0E0,0E0,0E0,0E0,0E0,0E0,0E0,0E0,0E0,0E0,0E0,0E0,0E0,0E0,0E0,0E0,0E0,0E0,0E0,0E0,0E0,0E0,0E0,0E0,0E0,0E0,0E0,0E0,0E0,0E0],"parents":[2147483647,0,0,1,1,2,2,3,3,4,4,5,5,6,6,7,7,8,8,9,9,10,10,11,11,12,12,13,13,14,14,15,15,16,16,17,17,18,18,19,19,20,20,21,21,22,22,23,23,24,24,25,25,26,26,27,27,28,28,29,29,30,30,31,31,32,32,33,33,35,35,36,36,37,37,38,38,39,39,40,40,41,41,42,42,43,43,44,44,45,45,46,46,48,48,49,49,50,50,51,51,52,52,54,54,55,55,57,57,58,58,59,59,60,60,61,61,62,62],"right_children":[2,4,6,8,10,12,14,16,18,20,22,24,26,28,30,32,34,36,38,40,42,44,46,48,50,52,54,56,58,60,62,64,66,68,-1,70,72,74,76,78,80,82,84,86,88,90,92,-1,94,96,98,100,102,-1,104,106,-1,108,110,112,114,116,118,-1,-1,-1,-1,-1,-1,-1,-1,-1,-1,-1,-1,-1,-1,-1,-1,-1,-1,-1,-1,-1,-1,-1,-1,-1,-1,-1,-1,-1,-1,-1,-1,-1,-1,-1,-1,-1,-1,-1,-1,-1,-1,-1,-1,-1,-1,-1,-1,-1,-1,-1,-1,-1,-1,-1,-1],"split_conditions":[8E0,3E0,8E0,1E0,6E0,2.1E1,1E0,-3.0184206E-1,4.12E3,3.7E1,9.677E3,7E0,-9.326458E-3,3E0,-7.5384545E-1,2.53034E5,1.1832008E0,9.16E2,2.2E1,8E0,2.5839207E0,1.17062E5,1E0,-7.729684E-1,5.9537E4,2.67097E5,-6.067734E-1,-4.121065E-1,6.708914E-1,-1.4927591E-1,5E1,5.1E1,-3.780437E-1,8.996717E-1,1.1956742E-1,5.129E3,9.106171E-1,2E0,9E0,3E0,8.7E3,3E0,3.4E1,1.1544173E0,-8.8399637E-1,1.0718E4,1.4399767E-1,2.0291798E-1,2E0,-1.6942716E-1,5E0,2.8662E4,2.36321E5,1.6608831E-1,6.191E3,3E0,-1.6153957E-1,1E0,-4.3733048E-1,4.2781848E-1,-1.0416012E0,2.5E1,6.743813E-1,-1.4339054E-1,-2.4010675E-2,-1.0383353E-1,3.8686612E-1,-1.4453906E-1,8.835629E-2,1.2595987E-1,-1.2681009E-1,-6.8303615E-2,-5.437917E-3,-9.665141E-2,-7.7952996E-2,-9.574339E-2,-1.115776E-1,-1.089586E-1,-1.2807426E-1,5.6498046E-3,-1.0979129E-1,-6.182419E-2,-1.08991675E-1,1.13740556E-1,-7.316381E-2,-1.5430513E-1,3.0203848E-3,-5.7836775E-2,-1.21535785E-1,7.331575E-2,-1.4832185E-1,-1.0208003E-1,-8.782284E-2,4.7633465E-2,-1.17281295E-1,1.663354E-1,-1.5144935E-1,-5.227638E-2,-1.61284E-1,-4.2602107E-2,-1.148125E-1,-5.1960025E-2,3.5972458E-1,1.6305809E-1,-1.4786372E-1,1.3854222E-1,-1.14047565E-1,3.338599E-2,-1.4825314E-1,2.1052295E-1,-1.2718229E-1,3.0801162E-1,-1.3077334E-1,2.0352812E-1,-1.3524312E-1,-1.0538905E-1,1.3786595E-1,-1.2479138E-1,-9.320073E-2],"split_indices":[1,4,2,6,8,18,6,35,13,18,14,2,38,8,35,11,30,13,7,3,21,10,6,33,11,11,36,34,33,31,18,16,35,36,0,10,21,4,2,1,11,2,16,24,20,14,23,0,8,29,3,13,0,0,10,4,0,7,31,32,24,5,22,0,0,0,0,0,0,0,0,0,0,0,0,0,0,0,0,0,0,0,0,0,0,0,0,0,0,0,0,0,0,0,0,0,0,0,0,0,0,0,0,0,0,0,0,0,0,0,0,0,0,0,0,0,0,0,0],"split_type":[0,0,0,0,0,0,0,0,0,0,0,0,0,0,0,0,0,0,0,0,0,0,0,0,0,0,0,0,0,0,0,0,0,0,0,0,0,0,0,0,0,0,0,0,0,0,0,0,0,0,0,0,0,0,0,0,0,0,0,0,0,0,0,0,0,0,0,0,0,0,0,0,0,0,0,0,0,0,0,0,0,0,0,0,0,0,0,0,0,0,0,0,0,0,0,0,0,0,0,0,0,0,0,0,0,0,0,0,0,0,0,0,0,0,0,0,0,0,0],"sum_hessian":[5.701048E4,4.880515E4,8.20533E3,3.1552137E4,1.7253014E4,4.1731855E3,4.0321448E3,7.665971E2,3.078554E4,1.1801124E4,5.4518896E3,3.8248047E3,3.4838095E2,3.1888654E2,3.713258E3,7.86484E1,6.879487E2,1.2407998E3,2.9544738E4,7.9498735E3,3.8512507E3,4.9207336E2,4.959816E3,8.622467E1,3.73858E3,2.3313237E2,1.1524858E2,2.0927967E1,2.979586E2,3.4230965E1,3.679027E3,7.590409E1,2.7443097E0,6.8631116E2,1.6375587E0,1.622518E2,1.078548E3,7.453222E3,2.2091518E4,6.6106987E3,1.3391747E3,3.8060962E3,4.515459E1,1.9557082E2,2.9650253E2,1.5506108E2,4.804755E3,1.0083728E0,8.521629E1,7.717996E0,3.730862E3,2.263955E2,6.7368712E0,1.266047E0,1.1398254E2,7.276012E0,1.3651956E1,2.941858E2,